5572 48
</s> 0.008339 0.009207 -0.007980 -0.006829 0.002847 0.006294 0.001960 0.000440 -0.007507 0.004622 -0.009076 0.002603 -0.001565 -0.001994 -0.006908 -0.003921 0.005374 0.006303 0.006186 0.003328 0.003218 -0.007922 -0.008533 0.010353 0.007919 0.006438 -0.001258 0.008366 -0.001031 0.001531 -0.000311 -0.006215 0.002734 -0.002786 -0.007970 0.009905 0.009123 -0.002282 -0.000471 0.001061 -0.007579 -0.008348 0.009489 0.000131 -0.005380 -0.006338 -0.006409 0.003535 
com -1.749783 2.398909 -0.283944 0.482847 -1.756042 0.389610 -0.399581 -1.056009 1.235978 -0.705202 1.426116 -0.620644 -0.098346 0.332468 0.970564 -0.599373 0.826060 1.452490 -1.934467 -0.791166 0.016169 -0.597379 0.246549 0.344746 -0.136810 -0.140031 0.156633 1.030120 -1.002367 0.381813 0.383808 -1.071899 -0.736482 1.924965 2.399841 0.103814 1.049300 -2.320674 0.846128 0.638810 1.807813 0.334451 0.800622 0.484540 0.155691 0.982164 2.063557 -0.055913 
news -0.487565 1.539824 1.548640 2.220479 -1.525172 -0.417874 1.682992 0.829418 0.723647 -0.565671 -2.056784 0.711689 -0.579385 -0.346793 -0.805293 -0.962217 -1.403440 0.022068 -2.458196 -0.033207 -0.682025 1.035532 1.212224 -0.652922 -1.474359 0.345285 -0.858731 0.129119 -1.143066 -0.981896 -0.012355 -0.060317 -1.235821 -0.598067 0.252435 -0.704024 -0.050480 0.136033 -0.050691 -0.500055 2.478517 -0.754938 0.035017 -1.351502 -0.573697 1.768972 1.186089 0.473367 
information -0.241326 0.124396 -1.158931 0.448436 0.590876 -0.772171 0.990996 0.616174 1.662712 -1.024353 -0.014672 1.592108 1.041080 -0.031391 -1.660254 -0.078418 -2.465545 -0.379517 0.477259 -0.192594 1.802746 -0.099576 0.947119 -0.754084 -0.542026 0.882980 -1.012216 0.031547 -2.120990 -1.590503 -0.848586 0.031219 -0.254613 0.441843 1.466089 0.228196 -0.409767 -1.142233 0.911782 0.440641 -0.069966 -0.109375 1.319561 -0.238311 -0.355212 0.319053 0.675439 0.148887 
wikipedia -2.180313 -0.923856 0.264708 1.537221 0.649179 0.440285 0.468278 2.006732 -3.541232 -3.529070 -1.227490 0.590594 1.089693 -0.410315 0.295411 0.548075 2.444211 1.359015 -0.294243 -1.616362 0.563796 -3.342181 0.612170 1.536502 2.549555 0.578627 -0.803250 0.369011 -1.812985 -0.123071 1.082187 1.339947 -2.986578 2.320373 2.326592 -0.073226 1.927682 1.774032 1.730090 -2.133739 0.622290 -0.839452 -1.617103 -2.403205 -1.157404 -1.758413 -1.932177 -1.567607 
research 1.145747 0.036525 -0.330752 1.050327 -0.479282 0.896650 -0.149774 -1.033956 1.068935 -1.077007 0.220579 1.685359 0.873625 -0.360568 -0.099215 0.229637 -1.385758 0.947903 1.219108 1.548260 -0.169725 1.793047 0.818910 -0.221596 -1.092537 -0.231218 -1.494610 -0.222479 -1.372521 -1.104827 0.060787 0.120598 1.275365 0.680300 -1.442897 0.322092 -0.334295 0.820622 0.109404 1.768098 -0.909427 -1.345998 0.683930 -1.059263 -0.468467 1.163009 0.737570 -0.728965 
edu 1.291132 2.424829 -0.160574 3.934993 1.152006 3.076065 1.048632 -1.498052 0.089807 -0.100338 -0.355004 1.244246 -0.131952 1.185951 0.938067 -0.422341 0.447764 1.380632 -1.349389 -1.161849 -0.556945 1.712685 -1.231695 0.544022 -0.310586 2.873069 0.235577 0.104536 0.887363 -0.452531 -0.422573 0.655871 1.915550 2.086724 -1.302724 1.797610 1.110287 0.983414 0.702002 0.698175 1.254128 -2.003599 -0.996185 -2.145741 3.189386 0.191988 0.727161 0.753275 
science 1.285269 0.177424 1.956576 1.885567 -0.120060 0.935170 -1.931185 0.038038 0.030925 -1.694924 -1.093503 -1.017247 -0.459379 -1.877364 0.248086 0.169382 -0.650995 -0.596799 0.045014 -1.060063 0.692428 0.546042 -0.365338 -0.727718 -1.147839 0.276124 0.033926 -0.065312 -0.432120 0.756409 -0.061149 2.042284 -1.936294 2.035124 0.210977 1.737512 -0.475419 1.122903 -2.579683 0.135769 0.123044 -1.000222 -0.988922 -1.155418 -1.087691 0.010428 0.131321 0.373592 
home 1.809133 -0.183882 -1.425670 -0.148643 -3.457719 -2.403891 0.292964 -0.334941 1.571176 0.552862 2.575304 1.436413 -2.230582 -1.378587 -0.118789 -0.881833 -0.282736 -0.777673 -0.095862 1.077812 0.598946 0.974898 0.560194 0.079800 -0.011301 0.997366 -1.572267 -0.431179 -0.543675 -1.927572 -2.919612 2.238757 -1.366308 1.274662 0.572649 1.317195 -0.151398 -0.108255 1.575513 0.861786 -0.849456 0.779352 1.199875 0.501759 -1.151994 -0.167479 1.822186 -1.724668 
online -0.044357 1.863617 0.485296 1.302980 -1.139782 -0.412732 1.735433 -1.433089 1.035166 0.288497 0.764915 -1.032174 1.371844 0.959397 -0.064274 -0.585605 0.847355 1.667068 -0.415111 0.654696 0.757202 1.240885 -0.238716 0.144355 -0.779340 -0.628887 1.002010 -0.219928 -0.365540 -2.746249 1.765158 0.594619 -1.079362 1.717541 2.782919 0.271586 1.914940 0.983808 -0.051754 0.012563 -0.544307 2.002743 -1.512187 1.201023 -0.111002 0.241187 1.005798 1.338897 
gov -0.149131 2.756405 -0.890018 -0.326956 1.225314 2.781304 -0.426782 -1.523100 0.089644 0.534736 2.199583 0.932388 -0.464908 1.191935 0.238947 2.260825 -0.165755 -0.701561 -1.859634 -1.988715 1.028722 1.846293 0.332471 -1.528060 1.213173 4.239089 -1.299428 0.623220 -0.186721 -0.631187 -1.677274 0.433578 -2.436351 0.355891 0.336842 1.453496 4.743471 0.121016 -0.474518 3.401277 -0.717021 -0.758220 2.096371 -1.426969 0.378754 -0.227367 -1.021380 1.352255 
computer 1.335207 2.399170 -0.544191 0.628972 0.634465 -0.849431 -1.862791 -3.351242 1.545688 1.123908 -1.967910 -1.895016 0.295446 0.072575 1.150377 -0.226827 -1.892833 1.584065 0.098412 1.059339 -0.986563 -0.185178 -0.085701 -0.173265 0.560449 -0.078416 3.011794 1.852878 -1.258529 0.431391 -0.763437 1.009445 -2.094886 0.567965 -0.653392 0.495848 1.401229 1.086329 0.247431 -0.101582 0.099957 -0.899718 -0.616364 0.133519 0.354816 0.450107 -0.888868 -2.316114 
business 0.601023 3.045458 -1.201563 -0.157282 0.193193 -0.942070 1.711797 -0.859300 0.612018 0.758587 -0.624341 -0.911615 0.086490 0.638255 0.264900 0.546423 -1.823382 1.567885 -0.725857 -1.321013 -1.488366 0.719590 -0.726921 -0.448838 -0.072322 -2.769026 -0.791220 -0.052610 0.649816 -1.146843 -0.832891 0.665903 1.039975 0.358810 0.125004 -0.238523 0.026929 1.423935 -1.168493 0.206622 0.092146 -0.375315 -0.060573 -1.120271 -1.803728 -0.274436 -1.207750 0.295513 
encyclopedia 1.366352 -3.192961 2.050473 0.567222 1.034405 1.251686 -2.602237 2.090503 0.131292 0.563155 -1.028076 0.514369 -1.807232 -1.543913 -0.114756 -3.008468 1.181373 2.181839 0.732788 0.633628 0.384764 -4.542079 -3.377101 1.049802 3.700334 0.916200 -0.595283 0.635612 1.342109 -2.288178 1.673447 0.625062 -2.404976 2.812202 -2.655650 -1.044343 2.889113 -0.110176 1.159006 -1.631514 -0.470833 0.948031 0.856701 -2.745583 -0.944341 1.616968 -0.756530 0.152465 
wiki 5.248766 -1.359161 0.285271 0.426605 1.054162 1.762330 -0.937499 2.575797 -1.427509 1.946573 -0.283273 0.847856 1.006156 -2.573133 0.681052 -1.876528 2.385110 1.491819 -0.594361 -1.773266 0.255262 -1.232912 -0.390184 -0.149568 3.291781 3.207427 -2.925520 -0.414184 2.331628 -0.465407 0.897527 1.087940 -3.762483 4.222100 0.139975 -1.519114 4.980344 1.730645 4.641361 -0.592937 -0.692436 0.307233 -1.314623 -2.594031 -2.249967 1.768844 -0.483178 -2.791717 
health 1.354988 1.578082 -1.041116 0.845386 0.082044 -1.622225 2.471322 -0.306093 0.906137 -0.956273 -2.085621 1.662192 -1.815037 -1.044189 -1.053384 0.936860 -1.007398 -1.486998 0.637075 -1.355384 -0.213542 0.731457 -0.081154 -0.109798 0.435226 -0.304478 0.773774 2.197818 -0.953407 0.096647 -0.179712 -0.096970 -1.605950 -1.135052 0.563577 0.016401 0.625479 -1.793368 -0.428536 0.335027 -0.757002 -0.923883 0.754727 -0.714317 -2.034227 0.703311 -1.776493 -0.919307 
world 0.048052 2.640275 1.819882 0.262193 0.295020 1.762338 0.047103 0.592680 0.285061 -2.143029 1.099056 -0.503236 -0.522453 -0.509361 0.612077 -0.111934 0.778611 1.184406 0.598630 1.217086 -1.256549 -0.093598 -0.023891 0.878450 -0.606255 -0.684937 1.773590 0.481397 -0.090439 -1.391347 -1.253568 -0.301225 0.293105 -0.293371 0.361064 -1.421380 2.654088 -0.264514 0.321001 1.969135 -0.208607 -0.848916 0.611605 -0.889080 -0.389409 0.554177 0.321978 -2.057511 
web -0.197411 2.899093 -0.614204 0.390617 -0.180304 -0.650988 2.005554 -0.519762 0.840146 -1.524761 -0.492645 -2.037179 -1.182111 -1.077646 -0.477407 0.216915 -0.560850 0.818869 0.704232 0.210565 1.607916 -0.723445 0.462412 0.206940 0.475588 -1.466834 -0.673904 -0.966346 0.641742 -0.921146 -0.584720 0.572944 -0.479695 -0.276304 2.771047 -2.139065 2.656761 -0.419547 -0.281700 1.079395 -0.003321 -0.272246 -0.811822 0.261916 1.845428 -0.848113 -1.120805 -0.780612 
music 0.646408 1.237462 -0.043326 0.012050 0.878785 0.524281 2.719395 0.302092 0.990282 0.373727 1.221444 -3.118764 -0.680542 -0.025691 -1.516499 1.618919 -1.992947 -1.315737 0.937394 1.068720 -2.688921 -0.249142 1.198528 0.300377 0.481634 1.182989 0.924232 -1.651271 0.488580 0.354881 1.498783 1.363275 -0.371412 0.969570 0.553906 2.851308 -1.167075 0.447464 0.947331 -0.154187 -0.103997 0.828748 -0.824374 -1.379054 -1.612623 0.619698 -0.597849 -1.339287 
movie -0.937662 0.340822 -2.472866 -0.548589 -1.145310 -2.234668 -0.807553 -0.661656 -0.601007 -0.500865 -0.207216 -0.494919 -0.726220 -2.616108 0.060200 0.254616 1.512079 -0.630951 0.011375 -0.769972 -1.430823 -1.948537 1.258806 -2.233987 -0.985328 0.776951 1.046095 -2.553308 1.379971 0.505043 -0.379230 -0.813962 -2.374149 0.904301 -2.097447 -0.723019 -1.216818 0.236345 -0.447397 2.347757 -1.545204 -0.377123 -0.592546 -0.104031 -0.114821 4.433891 -1.466280 -0.534523 
index -0.344540 0.647617 1.032857 0.844751 0.428816 1.063641 0.603577 -0.536522 -0.838522 -0.383517 0.511119 0.159739 -3.060980 0.071285 0.132695 -0.592240 -0.011967 -0.523774 -1.557796 -0.856966 1.787364 2.438192 0.194275 0.290553 0.478734 1.363911 -1.566407 0.411410 -1.292019 -2.237236 1.024641 0.661082 0.870426 2.994111 0.891747 -0.890559 0.444417 0.198773 1.791772 0.783714 -1.047755 0.754225 -0.827631 0.200128 -1.350545 0.233605 -1.335975 -0.595510 
amazon -0.470265 2.611385 1.309963 -3.985624 -1.254605 -0.501103 -2.098691 2.041066 -1.777695 0.714333 -2.760021 -0.295776 1.044304 -1.955242 -3.691737 -0.489125 1.061177 0.786202 -2.415013 -0.768671 -1.542400 1.085210 -0.194638 -1.259834 1.130020 -0.371839 1.856664 -1.040714 -0.920471 0.840144 -0.880345 4.165801 -2.573635 5.683840 0.629711 -2.705168 -0.932596 1.695744 1.947830 -0.374833 5.287345 1.951439 2.319644 -2.970168 -0.418836 3.840823 -1.999177 3.100268 
political 0.556868 1.098455 -2.159770 0.314068 -1.421796 1.509281 0.152018 -0.604565 -1.013565 1.270435 -1.332889 0.410724 -1.832380 -0.970150 0.697010 -2.725639 -0.455758 0.177533 0.921776 -2.321722 -1.418897 0.245764 0.601975 -0.538300 -1.679231 -0.707787 2.596731 0.868087 0.769270 -0.264000 -0.626148 -1.578864 -0.057220 0.926321 0.889757 0.425925 -0.025388 -0.991173 -2.538357 1.487485 -2.012663 1.485193 0.191183 0.196179 -2.341780 1.960072 0.463720 -0.669499 
sports 0.480685 1.140563 -0.193754 1.126558 1.700277 0.738354 0.725804 0.884297 0.501198 -0.711415 -0.627411 1.122794 -0.625539 -0.953521 -1.736323 0.812967 0.920137 -1.047589 -1.441065 -0.676467 -2.444299 0.557377 -0.145433 -1.172049 -0.435981 -0.194404 0.366401 1.043834 -0.000674 2.131762 -0.005834 0.928885 0.837601 -0.382712 -0.992645 -1.671138 -0.033554 1.583885 -0.391344 1.787973 2.034764 0.147253 0.044688 -0.956016 -3.859969 -2.055416 1.553862 -2.551996 
system -0.149352 -1.336452 -0.252133 1.035897 -1.379101 0.879032 -0.551723 -0.676193 -1.973063 0.500080 0.167269 -2.034951 -0.530816 1.476382 -1.659633 -1.152353 1.115102 1.306997 1.981161 -0.496058 -0.376493 1.294822 0.984251 -1.491843 -0.830689 -0.526721 -1.695283 0.065346 -0.820419 1.593864 -1.218258 -0.385476 -1.470499 0.477933 1.751516 -0.808690 0.461888 -0.450091 1.006502 -0.667245 -0.911233 1.584589 -1.529929 -3.896526 -0.921381 1.059220 -0.146205 1.267074 
culture -0.063404 0.829936 -0.624399 -0.508076 2.051754 -0.858983 1.450668 0.528701 -0.748309 -0.655647 -0.375215 -0.988755 -0.149689 0.413745 1.319427 -0.634709 -2.430698 1.483365 1.290319 -0.431579 -0.910164 0.312406 1.763820 -0.075906 -2.735062 0.550883 0.444093 0.188591 0.067132 -0.481718 0.373302 1.142957 1.456520 1.295763 -0.826478 -0.691421 0.743332 -1.960077 -1.076103 2.760852 0.419229 2.065763 -0.696597 -2.224576 1.184023 0.344659 -1.490372 -2.417421 
page 1.693998 -0.285498 1.399427 0.533607 -0.579234 0.202198 0.696144 -0.671412 0.927146 -0.382304 -0.288389 1.357793 -1.461886 -0.706868 -0.397200 0.272169 0.560944 0.805547 2.331620 -2.327285 -0.045999 -1.411786 1.810057 1.271922 -4.821034 1.758253 -0.761660 0.201992 -0.290547 1.842468 -0.349373 3.192119 -0.896905 -0.963318 1.659373 2.588835 1.375193 -0.699959 1.210001 0.143130 0.335914 0.829533 0.128038 -0.312463 1.538663 0.575643 1.538629 -1.297730 
theory 1.065992 1.764605 -1.743856 -1.688451 -2.573980 -0.445554 -0.872425 -1.041444 -0.118031 0.854241 -0.334222 0.980967 -1.353626 -1.262633 -0.224878 -1.110232 -2.911655 0.763227 -0.845751 -0.292688 0.874177 -1.688947 -2.190625 2.408813 1.483834 -0.124398 2.740016 -0.181265 -2.591017 2.204871 3.031809 -0.483252 0.866982 0.234855 1.285974 -0.268149 -0.688031 1.049794 0.272990 -1.486820 -0.447976 -0.383395 -0.865061 -2.707112 0.228739 1.796532 0.448615 1.222117 
resources -0.838307 1.111208 -0.050336 0.723622 -0.202921 0.558873 -0.237326 0.190719 2.682992 -1.431332 -1.077086 1.378932 -2.781913 -0.398319 -0.751620 0.708071 -0.694583 1.334328 -0.199054 0.404435 1.931013 -0.569761 -0.347147 0.496420 -1.255599 0.012726 0.422393 -2.029536 -0.266087 -0.782863 -0.469374 -0.108363 0.933511 1.706206 0.944545 1.609323 0.928513 -1.264580 -1.141124 1.951591 0.641045 0.030227 -0.279355 -0.893157 0.109907 -0.286612 -0.428544 -0.775023 
school 1.057171 2.044921 0.763935 2.285891 0.489953 -1.260105 -0.851546 1.052521 1.998735 -1.312409 -0.562667 -0.280992 1.546806 0.948131 -1.095921 -1.901557 -0.328414 1.247095 -0.226552 -2.518453 -1.191419 1.618704 -0.261321 0.821943 0.865083 2.279099 -0.943748 -1.739398 0.133404 2.068650 -1.968286 1.022768 -0.569110 -0.433206 0.942795 1.461241 -0.558856 0.481908 -1.869751 -1.090612 -1.201957 0.503609 -0.566447 0.211096 -1.173656 0.209027 -1.204156 -1.237218 
university 3.102644 -0.048180 -3.045375 2.640425 -2.482830 0.002209 0.138946 1.974337 2.292150 -0.376750 -1.016098 -0.223098 0.443277 1.586499 0.041720 -0.436186 -0.649448 0.876909 -1.012890 -0.026880 -0.801691 1.346194 -3.910513 0.375754 -1.045527 3.122247 -1.014225 0.475095 0.141141 1.554614 0.524558 0.899646 -0.939952 1.306437 -3.174558 -1.753486 0.728881 -1.620362 -1.711298 -1.250287 1.374721 -0.196809 -0.204091 -0.525293 1.393121 0.195686 0.330312 0.572459 
games -1.474007 1.401954 1.351405 1.269693 -0.154047 1.615880 1.662216 1.491809 1.216781 2.228662 -0.166817 -0.502300 -1.487462 -1.641178 -0.975694 0.175268 1.703856 -0.700668 0.865814 0.388143 0.912202 -1.365502 -1.528376 0.454784 -0.035539 -0.946776 0.861348 0.671624 -1.286159 1.205545 1.086697 2.988116 -0.034461 0.955001 -2.137058 -1.048688 -0.138292 1.383702 0.053142 0.819451 0.833279 0.510621 -1.608384 1.894668 -2.094470 0.904816 -1.185947 -0.571755 
football 0.379377 0.198537 -2.341162 -0.304883 -1.440525 0.954166 -0.526113 1.542359 -0.465727 -1.124435 -2.244578 -1.089520 1.352633 1.006515 0.871484 -0.752303 1.173970 1.700471 -1.709067 1.510995 -0.611715 -2.220805 1.361345 -1.549879 2.845665 0.309144 -0.031808 -1.548544 -1.537896 1.222957 -1.333930 0.733276 -0.215382 -1.908192 0.887107 -1.561020 0.740122 0.631108 -2.972633 -1.004353 0.838173 2.163490 -3.301336 -2.355357 -0.879257 0.735425 3.603151 -0.498376 
yahoo 0.306848 -0.640815 -1.155554 1.675086 -0.896115 2.870688 -1.967479 1.278788 2.305558 1.303871 1.899599 -1.224113 -0.138519 -1.860729 -1.136021 2.660547 -0.248159 2.292196 -4.204666 -3.062486 2.248221 -1.146191 -0.499636 0.349041 -0.779024 -1.071530 2.376934 0.255245 1.286408 -1.040167 0.003298 -2.983539 -1.819744 3.116102 1.582545 -1.140980 3.994799 -2.772715 0.484571 -0.149740 -0.098532 0.402343 -1.894094 -1.848565 -2.076512 0.641761 2.769106 -0.262377 
national 0.463963 1.078129 -0.226648 1.014127 -1.244565 0.520140 -0.183248 0.477106 1.174124 -0.841832 0.245867 -0.451949 1.363980 0.203983 0.727381 -1.934912 -0.151200 -1.323691 1.402911 0.302252 2.269794 -0.691491 -0.290509 0.969667 1.277338 2.699950 -1.135058 -0.955941 -2.253274 -2.416772 -2.431078 0.323174 -1.221165 -0.178396 -2.167119 2.218843 2.193084 0.419337 0.947805 1.796336 -0.643781 0.883325 2.070535 0.671939 -1.472549 2.360002 -0.155800 -2.307544 
journal 0.432540 -1.789721 -0.876077 1.552610 -0.001944 0.756379 -0.726496 1.162470 1.337224 -1.840259 1.296846 1.751999 0.185879 -2.731557 -0.634432 0.136607 -0.491433 1.548298 -1.358627 0.372209 -0.332417 1.308365 -1.700767 0.397380 -2.166678 -0.909686 -1.975703 0.534726 -1.113938 2.382508 3.015782 0.920004 -1.460019 -0.669132 2.761832 0.323069 2.918113 1.592795 -2.294074 -0.120798 -1.475668 1.383723 1.334883 -1.540748 2.296799 0.349968 1.391894 -0.930354 
american 0.171454 -1.363004 -1.125550 1.860421 -1.559366 -0.640975 0.177685 -1.014401 0.530452 -0.374949 0.317877 1.197939 2.609624 -1.829843 -0.016053 1.733949 0.253241 -0.449161 0.067532 -0.040133 -0.678445 0.612304 0.293301 -0.581978 0.487484 0.878797 2.823308 -1.250547 -2.912594 -0.214261 0.869157 -0.750799 -0.204060 1.123777 0.513971 -0.456197 -1.409235 2.278561 -1.396195 1.513775 -1.396494 1.991841 -1.182878 -2.395683 1.725206 2.482913 -0.274121 -1.182933 
software 0.896407 0.423112 0.005638 -0.462226 -1.727021 0.766990 1.020587 -2.312935 -0.102315 -0.092953 -0.187315 -2.514639 -0.844144 1.010504 -1.431145 0.248334 -0.773667 1.085100 1.122877 0.230279 -0.830578 -1.134406 -0.816964 -2.519958 -0.443680 -2.260623 -0.182845 -1.560579 -1.019017 2.114143 0.330894 0.829073 -1.824442 2.319839 1.213292 1.629710 1.725847 -0.348703 0.410825 2.270470 -0.263690 -1.339261 -1.413774 -0.239206 -1.484695 -0.483432 -0.945284 -0.982133 
internet 0.536655 3.102770 -1.162647 2.483198 0.268374 0.489469 -0.134469 1.071578 0.606119 0.059697 -0.026989 -2.414610 1.733571 -2.283398 1.696002 -0.051361 -0.274520 1.663905 1.357373 -0.226654 0.240707 -0.004188 1.678435 -0.522353 -1.063997 -0.687026 1.332759 -1.822324 -1.187019 -2.135399 -0.142959 -1.005535 -1.197701 1.152428 2.275325 0.185111 0.129669 1.032959 0.520878 -0.776781 0.289469 1.729055 -0.774395 -1.161893 0.660441 -0.594851 -1.787460 -0.645505 
directory 0.099124 -0.946064 -0.862937 2.267304 2.112001 1.562131 -1.428776 2.860880 2.181030 -0.486043 -0.466303 0.212946 1.145732 -2.622391 -2.278023 2.333719 -2.175643 1.167700 -0.218306 0.012244 0.580816 1.629792 -1.512462 0.301496 -1.161505 -1.802525 0.016555 -1.482025 -0.800252 -1.916338 -0.898115 -0.663192 -0.821069 0.908319 3.375460 -2.582005 -0.690243 -2.206548 2.103800 0.886661 1.787017 -0.051144 -3.482700 -2.229698 -1.289672 0.128202 1.274470 0.714686 
library -0.444499 3.503243 -0.025999 1.444275 0.799827 0.555144 -0.984676 2.507663 0.767182 -2.289867 -1.595898 2.986921 -1.285653 -1.886224 -0.398340 2.361581 0.912482 1.413805 1.911269 1.310529 3.660500 0.568191 -1.491595 -1.830691 -0.714319 1.962935 -0.333807 -0.647761 -1.229918 1.637709 0.226116 -0.230957 0.118911 0.165502 0.564188 -0.088895 -0.446283 1.342219 3.490291 1.838758 1.852711 2.842415 -0.139906 -0.533862 -0.416186 2.862885 1.604551 -0.678281 
search 0.587050 0.151097 -0.485697 1.600544 -0.654081 -1.037623 -2.337018 -0.493197 0.731901 2.028672 -1.619743 -0.350502 -2.175517 -0.895940 -0.457484 3.227129 0.524446 1.251036 2.046374 1.527875 -0.470796 1.858612 0.795686 1.154044 -1.445122 -0.180071 -0.866866 -3.626765 -1.025149 -0.310515 0.859921 0.456465 -0.804326 -1.561411 4.220230 -2.797488 0.853495 -0.834656 1.132062 -0.209305 -0.386614 -0.204060 1.578393 -1.465331 -1.117563 -0.134101 0.880858 -1.114097 
articles -1.721856 -0.142510 -0.463615 -0.198351 1.653660 0.679363 3.415776 -0.520032 1.356241 -0.035727 -1.069510 3.282335 0.551920 -1.813692 -1.378174 -2.198034 -1.809437 1.645507 -0.667544 1.430301 -0.056847 -0.857162 -0.255427 -2.117713 0.163711 0.477428 -0.467478 -0.570198 0.764673 0.266460 1.343682 -1.112254 -0.471506 0.771747 0.375740 -0.221709 2.356783 0.625527 -0.968358 0.015404 -0.954039 -1.533598 1.494638 -0.190342 -1.393461 1.950264 2.021441 -0.431503 
links 0.248550 0.160093 -0.068227 0.706176 1.463200 1.165275 0.104926 1.059938 1.666055 0.001120 0.059275 0.859034 -2.449510 -1.474441 -1.353072 -0.524724 -3.471541 1.710119 0.991218 -0.570558 0.894036 -1.003140 1.332182 -1.131719 0.668931 1.345997 -0.206416 -1.481365 -0.364753 -2.010209 -0.120531 -0.824522 -0.803693 0.418398 1.173558 0.188615 0.813355 -0.886190 -0.438890 2.678441 0.259198 0.500203 0.581589 1.083718 0.896159 2.436333 1.238185 -1.181370 
history -0.396833 -1.088441 1.160647 -0.113356 1.802971 0.662950 1.170163 0.843649 0.913573 -3.398063 1.824310 -0.792994 -0.121346 -1.049085 -1.376804 1.122993 -1.496503 0.932205 0.269719 0.510753 -0.015016 -0.172362 -0.663895 -1.185865 0.887326 1.935148 1.075253 1.065615 -0.939484 -0.510420 0.212535 0.340205 -1.068610 0.423477 0.477511 -0.335298 -0.180094 1.785230 -0.842376 -0.589482 -0.001618 0.007363 0.289230 -2.067735 -0.752467 0.739449 0.203615 0.114957 
international 0.229432 0.450489 -1.500860 -0.444299 -1.972878 0.936257 -1.335139 0.011119 -0.850762 -1.207134 1.103416 1.446458 0.696583 0.005651 0.570541 -2.074002 -0.927894 -0.115457 0.035441 -0.189800 -0.836112 0.521295 -2.169931 0.218756 -1.108268 -0.197415 -2.160625 -1.171940 -2.292134 -1.072218 1.329635 -0.309039 -2.647833 0.265238 1.200430 1.620473 1.010661 2.194092 -1.911112 0.811412 0.544339 0.834257 0.802261 -0.164041 0.333984 -0.309849 0.187980 -2.671620 
books -0.587434 2.401289 0.701491 -0.466437 -0.887793 -0.638589 -1.157972 0.463160 -1.256134 -1.343286 -2.345574 0.714583 0.139366 -1.163855 -2.732157 0.539804 0.241598 1.436502 -0.926832 1.146202 0.993530 2.298635 0.871193 0.744010 0.744005 -0.203510 1.953898 -1.640910 0.775513 0.827256 2.237142 2.553554 1.179630 4.994279 0.144224 -0.219352 1.020476 1.168276 0.688983 1.106598 2.974038 2.716390 1.503640 2.170216 -0.650584 2.751685 -0.577602 1.467683 
guide 0.136588 2.374355 0.349190 -1.106773 0.541067 -3.415908 -0.692274 0.502319 0.176748 -0.598308 1.229611 -0.003236 0.308598 -0.994883 -1.291826 0.726372 0.074051 1.242490 0.081398 -1.776589 2.525709 -0.693412 1.321423 -1.523039 -0.786546 1.284989 -0.096677 -0.942551 -1.944288 -1.675591 0.974668 0.546867 0.036172 1.856930 -0.971661 0.467957 0.461558 0.056051 -0.255310 2.110694 0.961193 0.034196 -1.410723 -1.893428 1.668272 0.129518 0.240264 1.177693 
democracy 1.278417 0.448634 -0.685651 0.098587 -1.376008 -0.089478 0.863529 1.111017 -2.216755 -0.190176 0.805231 2.024284 0.923997 -0.853982 -0.181244 -0.239928 -1.882211 2.651898 2.992035 -0.537573 -2.220192 -0.411690 1.539378 -0.159328 -0.669644 -0.752010 1.337177 1.367398 0.721363 1.516576 0.295705 1.224288 0.452211 -0.134436 -1.180502 0.121551 3.019567 1.744115 -1.600466 -2.374943 1.552262 2.126309 -1.252303 0.388109 -0.923666 3.805507 -2.192475 -1.011085 
data 3.380937 1.669665 0.819974 0.068405 -1.368368 0.961729 -2.013735 0.887257 1.613956 0.141333 -2.578331 -0.226727 0.855159 0.806316 -1.977272 -0.591724 0.643638 -0.046033 -1.080790 -0.203343 1.992638 1.021452 -1.064500 -1.564277 0.504308 -2.024899 0.423800 -0.146492 0.988570 -0.521903 1.319847 0.998615 0.247522 -0.224545 2.831149 0.768661 -1.695558 0.762164 0.875735 1.419465 -0.971083 0.553539 3.300098 -1.148277 1.888069 3.542266 -0.855736 -1.842796 
services 0.421499 -0.529379 -1.341237 -0.754883 0.278956 -1.946729 -0.010088 0.757437 2.256514 -1.654385 0.111490 -0.620119 -0.378446 -0.182230 -2.339364 1.739955 -1.640724 0.773724 -0.724060 -0.007352 1.695002 -0.643206 -0.696045 -0.772173 0.613126 -0.629017 -0.379067 0.779729 -0.605844 -0.979949 -1.799723 0.498310 -0.853320 0.843900 0.894533 -1.412880 0.851087 1.900882 0.354756 3.087247 0.254144 -0.841972 1.569593 -0.134089 -0.833806 -0.194278 -0.504490 2.699996 
market 3.640633 1.015193 -0.028770 -2.274416 -1.698215 0.096288 0.523769 -0.411516 -0.591138 -0.453285 -0.347011 -0.805722 -0.459641 0.044192 -0.258091 1.883566 -0.203325 2.617192 0.699684 -1.401567 0.875430 -0.431849 -0.856252 -0.852359 0.421894 -0.651049 -0.858170 1.535249 0.579819 0.417444 2.261875 -0.560661 -1.920039 -1.124467 -0.251213 0.725918 2.318695 1.426763 -1.361328 0.857071 1.369036 -2.806785 0.371182 0.071806 -0.773799 4.249931 1.412971 -1.057913 
public 0.890382 3.053377 1.540065 1.315481 -0.533405 -1.419556 -1.013438 0.638271 -0.984681 -0.378271 -0.187737 -0.332252 2.211849 -0.018856 -0.121698 1.014599 -1.494997 1.244243 1.897848 -0.527092 -0.391762 1.542036 -2.928339 0.488954 0.200781 -0.345738 -1.174874 -1.096825 -1.375572 2.016641 -0.195592 -1.260283 -0.679726 -1.037243 -1.457922 1.931512 3.488738 -0.170260 0.172118 -0.073620 -1.035993 1.998481 2.943057 -1.868377 -1.913564 -0.141256 -0.364119 -0.632178 
party 0.535150 -0.611101 -0.814203 1.587180 -0.903704 1.274381 2.967264 0.393530 -0.622559 2.050648 0.224502 -1.460699 -1.956440 1.038707 -0.196922 -1.545104 -0.853928 0.945001 0.999876 -2.811829 -0.456387 -0.422702 -0.606535 0.477101 -0.787036 2.713518 2.758356 -0.752142 -1.143748 1.783411 1.198697 1.176894 -2.660381 -1.966963 -0.748062 -1.691878 1.317326 -1.105645 -2.348148 -0.258727 1.642741 -0.681676 1.338219 -2.588570 -0.373160 1.688209 -0.697466 -1.207566 
welcome 0.411808 0.469132 -1.583078 1.373773 -1.150019 -2.202722 0.185494 1.082091 0.594935 -0.683924 0.267764 0.465507 0.661423 -0.597676 1.752107 -1.078117 0.570122 -1.816952 1.108435 0.199415 0.925226 0.185965 -0.366039 0.071505 -0.916229 1.416628 -0.712444 -1.143113 -1.280214 -1.386912 -0.878286 3.318244 0.578954 2.467614 1.336254 -0.986306 0.104843 0.870833 1.785318 1.273466 0.959274 -0.500417 -0.060606 -0.022656 -0.109893 0.369886 -0.255198 -0.550904 
center 3.170708 1.146413 -2.249878 0.891106 -1.821251 -1.186828 -1.348876 1.545714 2.258547 -2.421396 -0.219971 0.376087 0.654441 2.564952 -0.225850 0.796208 -0.455931 0.443468 -1.742473 0.362031 -0.101793 0.043141 0.123616 1.304785 -1.295152 1.560237 -0.296629 0.374523 -1.312400 -1.738265 0.717243 -0.864674 0.940626 2.607944 -0.077122 0.536070 0.055236 -1.842130 0.753312 0.639148 1.389246 1.005038 1.075534 -0.841645 0.962436 1.397624 -0.020188 0.024685 
art 0.201494 -0.453383 -1.269858 -0.230752 2.256470 -0.481086 2.330486 -0.840212 -2.003722 -1.754785 -0.992430 -0.571493 -1.681201 0.576074 -0.506566 -0.931433 0.351897 0.053864 -0.452724 1.167515 0.804764 -0.122340 -3.007830 1.126662 -1.692351 0.287824 1.274596 -1.663480 1.247059 0.162922 -0.095126 0.477281 -0.313229 2.049134 -0.321565 -1.055517 -0.173015 -2.413328 -1.851005 0.814653 -2.237164 1.889854 0.916988 0.659201 -0.843506 1.724246 0.216078 -0.956743 
systems 1.014607 -0.408064 1.841293 2.150019 -0.374574 1.613901 -0.486988 -1.538226 -0.639360 -0.873367 2.392251 -1.368597 -1.452951 2.877764 -0.604119 -1.192310 -1.169634 1.537046 1.461165 -0.787085 -0.447342 -0.292962 -0.114476 -1.198802 0.649255 -1.732033 -0.885019 2.381886 -1.167881 0.615214 1.314090 1.274817 0.429080 2.916224 -0.129737 -3.166339 -0.932642 -0.149450 0.956701 0.422303 -0.135528 0.768205 1.369097 -1.932543 -0.090057 -0.061812 0.440052 2.011699 
theoretical -2.256763 2.175835 -2.733858 0.545046 -1.082690 1.090249 -1.654155 0.373585 -3.001234 -0.703890 -0.841230 0.556343 2.676878 -0.789666 -0.496897 -1.376544 -1.553777 1.231870 0.088171 -1.012131 1.717443 1.676737 0.883848 1.115571 -1.734831 -1.980752 1.677228 -0.994073 -0.915893 2.181787 1.893246 1.199944 -1.447224 1.496311 -0.089103 1.502865 -0.179657 -2.465385 0.613958 -1.516630 -1.794393 -3.130762 -0.227159 -1.045359 0.691650 -1.623231 -1.020859 -1.205943 
physics -0.546661 3.851685 -0.182253 -1.252654 -0.604900 0.323855 -1.357259 0.421995 1.328946 -1.677267 -0.227623 0.546426 1.471826 -3.440682 0.466549 1.498123 -3.528728 0.749142 1.820701 0.043118 -1.307790 1.167015 -0.348654 0.328902 -0.516338 0.391136 3.643726 -1.570334 0.325386 -0.526009 -1.839116 2.327032 -1.950197 -1.206907 -0.217812 -0.267359 2.586341 0.974790 -1.138573 -0.669999 -2.965033 -0.321886 -0.369933 0.938417 -1.435927 -0.313890 -0.849284 1.604757 
game -1.333557 0.736577 -0.383988 -0.075864 -1.710427 2.766751 0.450676 0.320369 0.352819 2.149892 -2.090821 -1.296375 -1.560582 -0.926853 -1.871867 -1.343832 3.689153 0.723579 -0.191234 0.510043 -0.722015 -1.826447 -2.583221 -0.909486 0.909732 0.864838 1.001380 0.083209 0.913885 -1.788600 0.103872 1.468013 -1.433207 0.314665 -3.036343 0.265883 0.553313 1.595096 0.376226 0.845140 -0.139263 0.052435 -4.463985 -0.004324 -1.021681 0.805661 -0.465443 0.674370 
video -1.320431 1.675889 1.958077 0.441398 -0.373027 -0.804801 0.705099 -1.009872 0.588303 1.073553 0.857155 -1.186648 -1.543289 -0.361715 -2.311231 0.018409 -0.615391 -0.756326 -1.576447 1.336625 -1.851455 -2.225816 -1.049758 -0.100650 -0.668119 -1.968053 0.774633 -0.458184 -2.241121 -0.091465 -1.225718 -0.598148 -0.607143 0.462130 -0.416253 -0.058999 2.037925 0.772568 2.497457 -0.678705 -1.108696 -0.353475 -3.733731 -0.329931 -1.337497 2.162933 1.115693 0.809057 
program -0.215202 -0.741370 0.308895 0.961128 -2.081267 0.950503 -1.138373 -0.289869 2.646812 -0.721498 -3.079370 -0.498051 1.628975 1.544808 0.785522 0.966397 0.132218 0.634408 0.187955 0.677234 -1.863725 0.260390 -0.441808 -1.662618 0.251789 0.433264 -0.007491 0.186129 -3.174645 -2.157197 0.819968 1.768296 0.727695 0.495274 -0.343626 -0.723118 1.694367 -0.081349 -1.035717 -2.449561 1.486879 -1.146274 -0.544707 0.222316 0.080606 0.276437 -0.302270 -1.013190 
products 2.322850 -1.395672 1.173915 0.183324 1.504351 0.077542 1.408211 -0.341621 1.485681 0.198131 2.755666 1.178310 -0.496168 0.664448 -0.750375 2.344343 0.266364 0.675669 -1.040836 0.543841 0.397778 -0.497329 -0.232280 0.783253 -1.602481 -2.249618 -1.143498 0.170834 -1.031219 0.764510 0.325767 3.281172 -2.464347 -0.039321 -0.550993 -0.596363 0.538039 0.971798 -0.038104 4.352339 0.570788 -0.740828 0.703741 -1.159827 0.743172 1.130723 -0.280427 3.071115 
article -1.323095 -0.778362 0.172380 -0.202395 0.766566 0.246453 0.743816 -1.268690 -1.962927 -2.309769 1.200066 0.644407 -0.149797 -1.094438 -1.102713 -0.487907 -1.005167 1.083573 -0.554604 0.727877 -1.283113 -0.963037 1.874702 -1.832082 1.187218 0.317019 -2.218705 0.571560 0.033321 1.109084 2.539568 -0.049041 -0.325365 -0.152044 1.730437 -2.159607 1.381404 1.472038 -0.136443 -2.838001 1.112476 -1.058554 -0.154909 -0.786406 -3.421569 -0.541067 -0.552370 -1.218627 
department -0.054270 0.480298 -0.578896 3.716279 -2.215241 -0.491203 -1.925124 3.086261 2.205870 0.183258 -1.077440 0.289812 0.380073 1.563782 -0.707652 1.069603 -1.685513 1.092531 1.836589 -1.378278 0.258163 1.419961 -0.321166 0.965713 0.399897 2.208175 -0.126420 2.603236 -0.708044 -1.542399 -1.947800 2.170436 -1.199721 2.548676 -0.127297 1.132465 0.902748 -0.423773 1.292504 0.729396 0.718191 -1.199942 0.638365 -0.432679 2.109691 0.151270 2.497533 0.307092 
management 0.982605 1.155464 -1.075189 -0.523784 -0.449868 1.011714 -0.537286 -1.737805 0.073357 0.791427 -1.325875 0.414870 1.813197 -0.484012 1.135085 -2.234184 -0.358220 3.733780 1.410725 -0.450195 -0.135967 -0.390493 -1.061648 -3.108681 -1.318729 -2.962972 -1.885366 -0.269908 1.038323 -0.561503 0.323314 0.635742 -0.716628 1.529667 2.267294 0.002042 -0.416706 -0.489738 -1.423639 3.264627 -0.850204 0.224049 0.470896 -1.394304 -1.630892 0.188823 -0.917685 2.254591 
development 0.562086 -0.820049 0.087939 -1.480714 -1.224267 1.594126 1.482575 0.955980 1.000068 -0.731683 -0.991038 -1.325451 -0.226116 1.532818 -1.022411 -0.672632 -0.771704 0.932612 2.111401 1.094085 -0.817882 -0.770423 -0.735467 1.096715 -0.560441 -0.918214 -0.902427 0.851028 -1.824138 0.702143 0.369706 1.010518 0.722376 1.130499 0.281178 0.226088 0.997304 0.567969 1.476500 3.043827 -0.316295 -1.221200 0.282472 -0.275835 -0.556186 0.219635 0.086128 -0.477453 
united 0.370935 -2.139270 -1.143183 0.452511 1.048026 1.097536 0.474225 2.042191 -0.160768 0.907137 1.511360 1.529005 -1.165930 0.055593 -1.247074 -0.227958 -0.197051 -1.255572 2.844851 -0.954505 -1.608962 1.060005 0.259691 -0.189760 1.191329 0.357653 -2.151642 -0.726483 0.375767 0.752515 -0.010292 0.938330 -1.915658 0.391781 -0.943627 -1.321734 1.100649 1.420750 1.455610 2.117885 -0.496889 2.429119 0.006385 -3.613008 -0.473906 1.178939 -0.891909 -1.837871 
government 0.158331 1.555930 -0.315758 0.285755 0.071400 -1.094232 -0.508073 0.493240 0.672810 1.979614 0.835976 -0.286897 -1.181729 -0.429809 -0.166982 -1.005138 -3.518918 0.302868 2.248317 -1.029878 -2.348360 0.128867 -0.208885 -1.556254 3.918399 0.139029 0.613781 1.340414 -2.262777 -0.942950 -1.327150 -0.338021 -1.057106 -0.133185 2.452594 -0.814274 3.253780 -0.416107 -0.035028 0.789742 0.392085 0.788060 -0.750352 -1.533236 0.455889 1.617732 -0.463086 -0.309574 
trade 0.458804 1.067975 -1.540337 0.404686 1.528307 0.720347 -0.961384 1.634244 -1.031163 0.424145 -0.325040 0.241092 -0.939288 0.591985 0.251138 -0.947943 -0.036223 0.000138 0.498626 -3.135262 -0.621617 -0.557104 -1.946562 -0.129827 -3.971233 -1.395157 0.366051 -0.363757 0.190965 -4.531709 2.540296 0.111300 -2.524088 -2.522300 -0.121116 0.707529 0.599134 2.353819 0.388146 2.020542 -1.193409 0.375300 -1.276118 -0.312320 0.388326 1.950482 -1.017989 -3.483415 
film -2.005265 -1.042210 -0.561830 0.884300 1.238873 -2.217570 -0.146577 -0.714902 -1.315830 0.588135 -1.988041 -2.160474 1.727764 0.494679 -0.135380 -0.891167 -1.882022 1.038157 0.761325 -1.181203 -2.192595 -1.477545 0.337073 0.967979 -0.982474 -1.195454 -0.658893 -0.966549 1.139793 0.265488 0.577216 0.486734 -1.391019 1.052271 0.708596 -0.752634 0.140610 2.517563 1.283730 0.821139 -2.672215 1.494983 -2.434656 0.894400 -0.771930 4.073097 -0.614469 -1.727816 
cancer 4.092612 0.791919 -0.619167 0.626831 -3.498900 -0.011547 0.286647 -1.977723 1.354336 -2.807745 1.047910 -0.217739 2.029328 0.017016 -0.942615 0.035144 -0.144363 -0.390190 1.963975 -0.068013 0.335123 -0.245486 3.730924 1.520442 0.346768 -1.619161 0.636123 1.095024 -0.677706 1.590528 2.817822 0.257120 -0.589729 -1.223164 -0.210470 -1.754563 2.718459 -1.627080 -0.048498 1.943452 1.353952 2.139628 -1.366621 -0.862921 -0.237540 0.274181 0.388395 0.464012 
programming 2.141323 2.026639 -0.170502 -0.996781 0.225832 -1.454873 -0.788248 -2.237605 -1.866803 -0.389269 -0.773341 -1.617945 0.180980 -0.990104 -1.080113 0.292875 -0.791447 1.337852 0.341307 1.750527 -0.022633 -1.919116 0.001649 -1.606857 -1.226685 -0.447276 0.683067 -1.087927 -0.992923 0.283530 1.537732 2.267919 2.195159 -1.044189 1.836438 -0.228085 1.958985 -0.001621 0.094239 1.765482 2.450298 0.392577 -2.315801 0.054055 -0.586109 0.651986 -2.638198 -0.829458 
people -1.769215 -1.344765 -2.465983 -0.526653 -1.478105 -0.286534 -1.082077 0.547038 -0.414029 -0.541460 -0.507546 0.331077 0.029407 0.270446 -0.278416 0.596888 1.464269 0.499709 2.144480 1.009274 -1.487581 -0.732093 -1.220246 0.366833 0.488642 -1.477799 -1.007849 1.469759 -0.277010 -2.127748 -0.763505 0.859336 -0.134478 0.358109 2.157032 -0.375809 2.206704 -3.362451 -2.720813 0.406110 2.059305 0.429256 -1.313293 -0.155784 -1.600609 0.698820 -0.919852 -1.221032 
education 0.258846 -0.940537 -0.409487 0.154379 0.301963 -1.527410 0.393930 -1.347474 1.448033 -1.999008 -1.219534 -1.134414 0.483213 0.052032 -1.319447 -1.187049 -0.473008 1.263095 -0.644210 -0.493110 -0.212193 2.199932 0.629902 0.592922 0.084746 0.254598 0.306170 -0.948034 -2.245569 -0.388077 -1.050017 0.773493 -0.304332 -0.080645 0.086538 1.596076 0.606856 1.701785 -0.426299 -0.383738 0.822899 0.885308 -1.161837 -1.725731 -2.221997 0.109894 -2.595186 -1.129479 
law 2.020927 2.378255 -3.105360 -0.027400 1.546931 -2.374676 -0.711462 2.847344 0.353338 -1.723432 0.914560 0.769926 -3.053155 1.402666 2.804102 -1.986980 -0.924027 2.003380 0.113947 -1.042312 -0.374953 0.971413 -1.050740 -0.780693 3.190891 -0.624669 -1.792470 0.096776 -0.598936 0.137410 -1.150608 2.775181 0.446093 -0.348845 1.141796 0.667335 -0.598587 1.314131 -0.930329 -1.882464 0.799171 -1.455447 -0.458828 -1.212204 -2.634057 1.668667 -1.380399 -1.384098 
technology 0.752092 1.127470 1.461600 0.867225 -0.144043 0.849745 -1.082154 -0.515916 2.399000 -0.739922 -0.825919 -1.386841 -0.640004 0.338951 0.056396 0.585860 -0.810261 1.778848 -2.547560 0.842803 -1.013873 -1.318002 -0.325785 1.030121 -1.660581 -0.826939 -1.918244 0.763243 -1.851697 -0.293832 -2.208664 0.462610 -1.310340 0.921303 1.022118 -1.202055 -0.812800 0.839474 -2.369239 0.232831 0.357766 -0.484965 1.378551 -1.033453 0.290196 -0.186985 -0.370091 -0.396565 
reviews -0.154339 0.016436 0.198048 0.780196 -0.547203 -2.042587 1.971825 0.111517 -0.525067 0.699184 -0.125657 0.890092 -0.353355 -1.349104 -1.271420 -0.052563 -2.572242 -0.742683 -1.206037 0.763413 0.818935 -0.705920 1.854421 -1.625986 -1.746280 0.103532 -0.130227 -0.287284 -0.384856 -0.912466 1.480065 -0.185290 -0.317827 1.679749 -0.053060 0.146826 1.817474 -0.403967 0.163779 0.861261 -1.034793 -0.710162 -1.297591 -0.087266 0.169954 1.292507 3.394337 2.508400 
soccer 0.168123 0.295051 0.839820 -0.310268 -1.982397 0.894041 -0.081623 -0.390911 0.725268 0.850751 -0.667415 0.938450 -0.979212 -1.012707 -1.508701 0.168410 -0.115196 1.137526 -2.630645 -0.455812 -0.731288 0.496296 0.547402 -1.008678 0.498938 -0.371895 2.402353 -0.352641 -2.033944 -0.065129 -0.901637 0.798897 0.071305 -1.490094 -1.354011 -2.306615 0.849948 -1.015274 -3.342690 2.264988 -1.817701 3.097388 -0.441284 -0.867466 -1.091733 -1.345052 0.215336 -1.985925 
stock 1.155016 1.031904 0.228590 -0.321863 -1.826800 1.120087 0.711611 -0.989097 1.039541 -0.800171 -2.038834 -1.249382 0.939151 -0.454301 -0.095382 2.335105 1.293425 1.202430 0.850489 -1.858958 1.537096 -2.558885 -1.094885 0.147868 -2.305188 0.711717 -0.515230 2.247096 2.085351 0.082629 -0.009232 1.770122 -1.596853 -0.579394 1.015131 -1.757257 -0.279526 1.064964 0.561815 -0.533034 0.954106 0.110016 -1.319689 0.625216 -1.188742 4.054896 2.662791 -0.632780 
website -0.456610 1.101353 0.128008 1.353830 -1.456959 -2.808405 0.401153 0.470873 2.260321 -0.097360 0.732095 -0.881621 0.510475 -0.953914 0.658933 -1.201127 -0.696081 -0.215790 2.180699 0.330391 -0.787075 0.334520 -1.234154 0.721378 -1.145449 0.780554 -0.100105 -0.605275 -1.791986 -0.921983 -0.216032 3.157805 -0.959339 -0.863590 1.083837 -0.889718 0.935387 -1.644548 -0.556619 0.294795 1.434170 -0.876427 -0.228612 -1.661096 1.247108 -0.781755 1.071827 -0.233611 
medical -0.899883 1.600549 -2.321661 1.410891 -1.023794 -3.450828 -0.347350 -0.359239 1.514831 -3.921567 -1.686533 1.100436 0.047617 0.330865 0.237924 -1.456183 -0.514163 0.558516 -0.044858 -0.731199 0.759051 0.293145 0.982251 -0.593811 0.737134 -0.743054 -0.119144 1.520187 -1.337667 0.904164 1.576442 -0.226014 -0.086409 -0.187640 1.758938 0.786194 -0.222002 0.584065 1.179813 -0.553825 -0.477242 1.423778 -0.379952 0.264612 -2.133559 -0.067162 -0.330092 -0.360688 
college 0.535379 0.838565 -1.925758 0.953769 0.059809 -0.179048 -1.118894 0.920032 0.727168 -0.396767 -0.332560 0.836903 0.598949 1.309133 0.750390 -0.267207 0.499343 1.026755 -0.521075 -3.004043 -0.256761 1.233222 0.883318 -1.735147 2.471874 -0.107754 0.221724 -1.911826 -0.912165 -0.493386 0.551077 0.169801 1.126775 2.653785 -0.490733 -1.546174 1.607042 0.562617 -0.943265 -1.284163 -0.509136 0.761151 1.081097 0.559767 0.140534 -0.146100 1.928446 -0.883441 
sites -0.584878 -1.370347 -0.820821 3.001693 0.822760 1.466683 -1.070879 1.278523 2.261499 -1.568678 -0.053865 0.428979 -0.994069 -2.073465 -0.385925 -0.700354 -1.055254 -0.168323 0.572084 0.349731 2.340291 -2.038259 0.714042 0.398025 0.645175 -1.325086 1.411050 -0.563201 -0.749048 -1.910819 -1.980081 -0.175636 -0.193135 0.283882 1.860270 -0.159928 0.998854 -2.508318 0.003905 2.211123 2.272230 -0.366469 -0.851190 0.307720 -0.331321 1.268315 0.239693 -2.682400 
movies -0.651623 0.687776 -1.305050 1.959940 0.784887 0.053515 -0.253523 -1.037568 -0.618435 1.204663 -1.357735 0.949650 2.256636 -2.186399 -0.782551 1.871016 -1.738873 -2.969808 -0.795222 -1.929968 -1.648800 -1.557071 1.421750 -0.168161 -1.282378 -1.866056 -0.739282 -1.420376 -0.260678 0.145677 -0.348808 -0.668464 -1.053707 1.114195 -2.373686 0.294126 -1.249014 -1.783956 1.281832 2.185163 1.042766 -2.133728 -1.744207 -0.396356 -2.706308 2.124486 0.715067 -0.341518 
economic -0.850241 1.742805 -1.524215 -1.454594 -1.869076 1.759067 0.028688 0.168543 -2.598797 -0.651838 -1.160662 -1.045813 -2.593332 1.364911 -0.900310 -2.686672 -1.687283 3.170959 0.750013 -0.046909 -2.993368 2.664262 -0.311346 2.230296 -2.129591 -1.443500 -1.749538 1.530857 -0.989793 0.896257 -0.376382 -0.320476 0.248206 2.183772 0.030662 2.166999 2.248003 -0.845669 1.669591 1.223238 1.930327 -0.726624 -0.223968 -1.595083 0.737792 1.017151 0.165452 -4.388874 
help 0.194652 -0.507735 -0.357005 -0.554437 2.661258 -0.724948 -1.823958 -0.159459 1.054580 1.008004 -1.885720 -1.289281 -0.473420 -1.559760 -3.417796 -0.545089 1.651905 2.278131 0.541068 -0.281790 -0.646428 -0.154117 2.498893 0.175721 0.138800 -1.270875 -1.529794 -1.063987 -1.713248 1.014129 -0.916756 1.160969 0.252728 -0.559035 1.514886 0.191786 -0.083859 -1.364290 -1.581360 0.286260 -2.407297 -0.088887 -0.544290 -0.641211 -1.544874 -0.625179 0.391990 1.172871 
design 1.947873 -0.537168 -1.761599 0.928337 2.137953 -0.380965 -0.283364 -0.929630 -0.094555 1.515572 1.139223 -3.570392 0.245365 1.387904 -1.409230 -0.929420 -1.546842 0.925459 2.018380 0.751677 -0.171301 -0.237428 -1.684618 1.307582 1.676093 -1.779853 1.283699 -0.342142 -2.167845 0.274991 0.344996 0.817931 1.502203 3.520626 0.737017 -2.111838 0.732691 0.411706 0.734519 1.517601 -2.726446 -1.469550 0.190262 0.181504 0.126560 -0.069639 0.503243 -1.548855 
engineering 0.615494 1.082281 -0.622461 1.310217 -0.861508 1.527044 -2.469280 -0.055558 2.115524 -1.659351 -1.087165 -1.206623 -0.278791 2.773682 -0.237616 -1.626586 -0.648931 1.193808 1.782895 0.202874 -0.493795 1.700329 0.172807 -1.773118 -0.539885 0.718272 2.410035 -0.456421 -0.587041 2.195040 -0.765727 3.567741 -2.152934 2.249940 0.160089 0.479068 0.248063 3.361610 -0.079215 -0.113155 -1.690631 -0.682996 -1.151716 -0.753097 -1.421959 0.235984 0.536889 -1.342036 
social 1.370825 -1.168456 0.415359 0.767231 -0.992639 1.535236 -1.774517 2.360575 -1.819532 -0.324480 1.062414 0.016237 0.343472 -1.107004 0.270363 -0.659831 0.260362 1.464405 -0.375100 0.006923 1.090156 -0.069363 1.431421 1.071101 0.827941 -0.086210 -0.011760 0.003823 -1.589955 0.026123 0.884550 0.102988 -0.016024 0.935654 1.146059 1.157935 1.041934 1.358122 -2.493285 -0.841584 1.429093 -1.267314 -0.984614 -0.620647 -3.141063 0.352042 -1.838396 -1.070110 
war -0.399000 1.367532 -1.496142 -1.395422 1.074914 1.225077 -1.148773 1.959157 0.957253 -3.151833 -0.614303 1.213505 -1.876381 -0.924063 -0.368020 -0.679097 0.898670 -0.909511 0.043029 -1.062562 -3.327961 0.597147 1.682972 -3.531469 0.278450 1.559480 1.308061 -0.050984 0.122411 0.070814 -0.852974 0.310477 -0.146288 0.027539 1.231416 -1.069802 -0.292522 -1.416937 -0.445307 0.175448 -3.124971 -0.097793 -1.314084 -0.340159 0.675338 3.983808 0.365435 -2.941008 
association 0.511444 -1.547765 -1.397936 1.274587 -0.676495 -0.883150 0.351738 -0.010990 1.897094 -0.174592 -1.566388 2.536502 2.105045 -0.195448 -0.785790 -1.929501 1.394393 0.327374 -0.564274 -1.436474 1.379062 0.232405 -2.120085 2.044682 0.250205 -0.217391 -0.084887 -0.628293 -1.814805 -1.225950 -1.341826 0.931737 -1.254189 0.948901 -1.379295 -0.060780 0.572528 1.753136 -3.931207 1.925810 -1.056379 2.326526 1.757636 -1.262629 0.446509 1.197972 1.362287 -0.873914 
project 0.964827 0.906272 0.580315 2.137912 -1.399257 1.552269 1.680204 0.518019 0.256495 -1.539733 -0.354370 0.119754 1.123747 -0.998715 -0.219251 0.605508 0.866638 2.423689 1.322646 -0.824240 0.365233 0.546659 -0.374932 0.064362 -1.329761 -0.172156 -3.388672 -0.935728 0.612609 2.194015 -2.631782 0.071763 -0.190008 1.719360 -0.285623 0.096133 0.619916 -0.882064 -0.906435 0.992845 0.396621 -0.043093 0.264800 1.674339 0.721684 1.317231 -1.979790 -1.202628 
engine -0.475783 -0.044414 -0.549714 3.002335 -0.919409 0.086862 -1.200261 -0.413242 -1.152743 0.386179 -1.310389 1.733988 -2.809251 0.889280 1.103777 2.314973 0.093154 1.814296 0.707237 1.640459 -0.534464 -1.249207 0.548963 -0.887363 -1.632840 -1.117163 0.048579 -1.034052 -0.798119 -0.291859 0.702347 0.696798 -2.708281 0.820491 1.857523 -2.708758 -0.247677 -0.670627 -1.386009 -1.522275 -1.067530 -0.155712 3.699049 -1.444703 -2.302884 -2.000666 -0.478177 -1.432615 
issues 0.515507 -1.266802 -1.572599 -0.328415 0.313206 0.467173 0.126294 0.488637 -0.601237 -1.711577 0.368092 0.705558 -1.597136 -2.100423 -3.021740 -0.461124 -1.390192 2.043728 -0.955586 1.101540 0.108542 1.933432 0.818827 1.662900 -2.813574 -0.132128 -1.419501 0.074660 -1.691701 -1.164914 0.774369 -1.636142 0.258128 -0.965062 -0.640073 1.944804 2.101865 -0.411794 0.336375 -1.474211 0.428835 1.321491 2.079766 -0.456407 -0.513004 1.182532 -0.280198 0.352879 
fashion 1.591602 1.218980 1.060106 0.433369 0.717751 -2.430871 -1.442686 -1.681105 -0.099745 -0.549299 0.978763 -3.718620 -0.698446 -0.304616 -1.167728 0.871156 -2.592012 -1.560470 -0.881143 -3.543495 -1.900666 2.232990 -1.457155 0.968528 -1.649758 -1.057978 1.533605 0.442068 0.379738 0.665410 2.280965 1.830643 -1.721304 0.329156 -0.796034 -3.635430 0.841661 -1.214182 -2.250348 -1.300440 -2.835139 0.632250 0.683009 1.040613 -2.589808 0.808580 -0.168821 -1.770495 
programs 0.535584 -1.114031 1.106869 2.216349 -0.667587 -0.915125 -0.852474 0.448093 1.061255 -1.055775 0.002272 -0.822434 -0.196552 1.577809 -1.660595 0.350346 -1.392992 3.481725 0.960084 0.897752 -0.998308 2.513792 -0.848573 0.638417 1.485116 -1.353435 -0.877351 -0.166121 -0.918936 -2.163617 -0.473832 0.334467 -0.098109 -0.617841 0.541554 0.717016 1.442528 -0.820594 0.110742 1.282957 0.787588 0.341232 0.018645 1.768238 0.120527 -0.827439 -0.496206 0.892624 
database -1.525135 -0.006065 -1.655743 2.435824 0.229452 0.405361 -0.910951 -1.178251 1.422145 -1.567641 -1.010580 -0.287923 0.218087 -1.451419 0.244761 0.140543 -0.512054 2.276934 1.038089 1.759068 0.111072 -0.180602 -1.961604 -1.935955 -1.166789 -0.273106 -0.439514 -2.396849 0.622576 -1.594733 1.466827 -0.780401 -1.008564 0.692001 0.913569 -0.403026 0.531816 0.248879 2.454817 1.682176 -1.057267 1.324486 1.965385 -0.195190 -0.305913 0.435578 -0.175462 1.481735 
source 1.892871 0.920909 0.381376 0.099851 -2.199489 -2.070776 0.800905 1.182897 0.752702 -1.642325 -0.355502 1.635321 1.466368 -0.033199 -0.244064 0.167524 -1.650941 0.143354 -0.175846 0.755425 0.165240 -1.486085 0.137980 -0.654249 0.693811 0.097639 -0.210321 -1.255613 0.869230 0.022571 -1.098695 0.303675 0.520711 -0.838717 2.925428 0.254780 1.132927 0.847249 2.819936 1.773176 1.606993 -1.082804 -0.427911 -0.308701 -0.003496 1.832084 -0.322894 1.094627 
access 1.220050 2.486700 -2.029712 1.358804 -0.122066 -1.033124 0.970307 0.872836 0.143504 -0.453338 1.734950 -0.194466 0.693515 -2.204566 0.029981 -0.160182 -1.132506 -0.143706 0.854576 -0.520370 2.180709 0.544015 0.482862 -1.784135 2.827119 -3.152669 1.401070 0.052672 -1.799726 0.073899 0.437770 -1.000556 -0.532644 0.218805 0.228802 3.259935 3.215279 -0.663167 0.417648 1.683711 1.055911 0.341003 1.385349 -0.101807 0.370867 -1.102055 0.001981 0.608558 
resource 0.749491 1.245465 -1.046162 -0.522662 0.015858 -2.635714 0.945374 -0.277885 2.558742 -2.570103 -1.041122 0.498614 -1.135211 -0.355588 0.602523 -1.924862 -0.912252 0.736581 3.001760 1.008096 0.692978 -2.217545 -0.460978 -0.062739 -0.659026 0.949036 -0.793817 -1.706273 -0.303772 -2.552454 0.884653 0.679654 -0.001179 2.451261 1.319726 0.269851 0.959952 -0.334620 0.138285 2.854554 1.912199 -0.509809 -0.509221 -1.048644 -0.569805 0.828602 -0.131964 -0.263921 
house -1.083242 0.104400 0.320551 2.774065 -1.444316 0.178925 1.732029 1.701885 -2.346726 1.257564 -2.159936 1.053472 -1.615096 -1.342592 -1.417577 1.780184 -0.450328 -0.555422 1.277252 -0.689603 0.022192 0.022073 -0.273278 0.389247 2.199312 -1.004197 -0.319139 0.119080 -0.882247 0.548651 -4.169554 1.234934 -1.426365 -0.906719 1.534919 3.637019 1.712821 -0.380210 -1.256710 1.911235 0.408680 2.489978 0.145264 -1.008496 1.871830 0.322004 -0.894635 1.533890 
life -1.390407 -1.445971 1.774835 -0.426195 -1.585529 -1.595744 -0.600639 -0.022696 -0.193142 -1.630806 0.698341 0.788590 -0.776651 -1.493673 1.203426 0.887413 -1.382583 2.028156 -0.074569 0.670080 -1.296376 -0.581910 0.993985 1.098439 -0.019784 -0.112881 -0.383975 0.132447 0.275138 -1.632256 -2.155580 1.424417 0.321564 1.128215 0.458854 1.709718 1.992763 -0.752656 -2.029016 0.101432 -1.323243 0.031667 1.649721 -0.007047 -0.457669 0.900388 -0.069450 1.282296 
memory -0.492075 0.795730 -1.037254 1.042095 -0.917499 0.062672 -1.685259 -3.142452 -1.032753 0.640284 0.594357 -2.454301 0.990458 -0.768718 0.512818 0.591285 0.657042 1.867992 0.961625 -0.012512 3.048615 0.126034 0.368862 -2.388968 0.937838 -1.640732 1.236191 2.888742 0.152853 -0.546017 1.474064 2.976502 -0.373277 0.052724 -0.839781 1.777180 1.253747 -2.196652 0.503562 -3.100820 1.248137 0.941745 1.935354 0.055390 -1.925653 2.591661 0.610564 -0.618908 
network 1.462821 1.293952 -0.733003 1.794470 1.147128 -1.038045 -0.172814 1.058689 -1.390040 -1.906263 0.377180 -1.164833 0.509945 -0.880818 -2.300779 0.065154 0.936293 0.796671 -0.746233 -0.654484 0.327121 -0.831742 2.216990 -0.936510 -0.112024 -0.914701 -0.929009 1.194490 -2.568105 -0.257096 -0.722889 0.119594 -0.154970 2.281053 0.899494 -0.444685 0.705514 1.801618 0.879027 -0.585520 2.113316 -0.173666 0.537409 1.397769 0.561702 -0.003537 0.004069 -1.773520 
finance 0.473671 -0.266209 -1.182857 -0.421073 -0.207293 -0.433191 0.687906 -0.204864 -0.678515 -0.113945 -2.975650 0.233167 -0.975413 -1.315361 0.272577 0.203914 -1.179979 2.198307 -0.018952 -4.048118 1.946356 2.093452 -0.143636 -0.482838 -1.859515 -0.869947 1.438391 0.349268 0.668046 -0.655276 -1.152776 -0.367526 -0.496664 0.482739 -0.926579 -0.734730 1.619936 1.221314 1.956746 0.175783 -1.073856 -0.741567 -0.448186 -3.295866 -0.787120 -0.701936 1.175081 0.899712 
service 0.428028 1.009021 -1.330366 2.763292 -0.651699 -1.230971 1.192221 1.673468 1.402350 0.222785 1.358121 -2.234363 1.504900 0.473694 -0.991872 0.912678 0.191489 0.026997 1.338367 1.265564 0.115242 0.081462 0.993615 0.707190 3.322906 -2.962976 0.552975 -2.015821 -1.475724 -0.528893 0.777856 0.035926 0.159398 -0.696944 -1.417747 -0.124793 1.950457 1.644738 -1.154572 2.289958 1.073541 -1.901589 1.283386 -1.002312 0.824180 -0.263934 -0.339939 0.623688 
students 0.832269 0.228088 -0.773542 1.527042 2.817144 1.076354 -0.144713 -1.122454 2.270005 -0.651747 -1.028817 -0.224994 0.148546 0.599109 -0.369366 -1.293159 1.492401 2.195554 1.920988 -0.933363 -1.467197 0.527529 -0.207480 0.444746 -1.541527 0.739636 -0.711866 -1.169461 -2.076953 -1.862198 -1.971804 1.567870 0.481607 0.433246 1.543636 -1.421096 -0.122176 -0.251187 -1.784560 -0.992855 -0.991380 -1.227517 -2.566075 0.411483 -0.546425 -0.140638 -2.156585 0.715173 
arts 0.950665 0.422582 0.730741 1.417461 1.779388 1.151432 1.598155 0.537024 1.135799 -0.471051 0.573070 -0.155005 1.959842 0.977392 0.087883 3.023518 -1.859361 0.787990 -1.233825 -1.344377 -0.844471 0.485284 -3.726385 1.378472 -0.879167 0.529345 0.968537 -1.120294 -1.405408 1.205729 -0.397187 -0.920090 1.580815 4.923118 0.120775 0.639002 2.194314 -0.134490 -0.335234 0.373265 1.106715 1.402534 0.634922 1.674651 -1.652873 0.200125 0.539514 -1.933075 
features 0.019438 -0.890704 1.028369 1.118794 -0.445267 -1.479499 0.708938 -0.584101 0.167111 0.025481 -1.478859 0.185005 0.399156 -1.743550 -1.723861 -0.358209 -1.145293 0.833143 0.205344 0.475231 0.358821 0.083775 0.010167 0.215753 -1.421555 0.094618 0.994464 -0.445604 -0.324023 -0.201154 0.975232 0.581978 0.011840 -1.435654 0.501808 -1.328066 0.140052 -0.770982 -0.919700 0.032807 0.016981 0.316275 1.122854 -1.081277 1.195525 0.859152 1.441594 -0.942040 
digital 0.239278 1.594525 -2.858471 0.090702 1.219241 -3.568880 1.019502 -0.287685 -0.130745 -1.339248 -1.089058 0.074967 0.407927 2.042512 0.297351 -0.994396 -2.696040 0.536596 -0.604191 -0.026572 0.764906 -4.154231 -1.577912 -1.763388 -1.897317 -1.517679 0.254048 1.685982 0.068238 -0.514501 -1.207211 2.905116 -1.835726 1.484518 0.547114 1.771863 2.245367 -0.330827 3.196491 -0.282945 -1.833574 2.154477 -1.579054 0.452936 0.841223 1.723009 2.698615 0.285682 
tennis 1.158375 2.860098 2.087453 1.208001 -0.204893 -0.628126 3.066507 -0.438845 -1.489840 -1.094001 0.530936 -0.179730 0.390233 -0.432336 -1.086861 -0.389570 -0.629705 1.376137 0.804964 -2.818297 -1.326815 -0.641645 1.036642 -3.054946 1.625664 -2.011787 0.818972 -0.272841 0.425282 -0.050329 -0.086190 3.242115 -0.900175 -0.609715 -0.164990 -1.352773 0.353387 2.139325 -1.223762 1.679058 -0.972865 2.209046 -0.988162 0.533344 -1.179748 -1.774829 1.445323 -0.653604 
global 1.430046 0.150843 -0.964943 0.881466 -0.652929 1.980494 0.359084 1.361842 -1.178420 0.051557 -0.603372 0.094430 -0.457617 -0.330765 -1.085966 -1.102182 0.384227 2.414689 0.282645 1.297709 -1.120419 -0.938553 -0.558940 1.311174 -3.674049 -0.957924 -0.832628 1.253049 -0.492070 0.055739 0.394985 -2.397058 -1.879166 -1.009930 -0.343868 0.777658 -1.592645 0.547101 0.313920 3.053973 -0.586437 -0.479291 -0.222540 -1.011277 -0.549933 0.980650 -0.406255 -0.913502 
republic 1.224774 -1.618680 -0.993480 2.142786 -1.673072 0.866953 -0.029511 2.411144 -2.860195 0.628787 2.365296 -1.153306 -1.170936 -0.310611 1.603329 -1.507825 -1.391828 -0.632155 0.612582 -2.245222 -1.148048 -1.032422 0.450122 -2.490584 0.833264 -0.380830 2.122197 -0.450195 0.501214 -2.209754 0.737044 0.184584 0.763336 -0.905966 -0.676357 0.411090 -0.222502 -1.478931 -0.218690 0.759455 1.094146 -0.008290 -0.885612 -2.068038 0.116975 2.598943 -2.423702 1.018150 
topics 3.146930 2.167040 0.250533 -1.252639 1.565913 1.541015 -0.215118 1.330316 0.996758 -0.453605 0.650972 2.589189 -2.942387 -2.561926 -2.643155 0.402879 -1.869639 0.457685 -0.702968 0.454109 -0.313765 -0.789536 1.029687 1.026541 0.429638 -0.612042 -1.904498 -0.838955 -0.832859 -2.377542 0.346704 -0.017943 -1.091132 -0.702469 0.352661 -0.369151 0.770074 -0.616483 -0.069259 -1.373217 -0.684732 0.817529 1.526092 -0.472133 -0.025854 -0.210991 0.838000 -0.750114 
intel 2.359259 0.124112 -1.307536 -0.664955 -1.554183 -0.796010 2.258701 -0.184945 0.427978 -2.397978 -1.766275 -2.565383 -3.754961 1.344908 1.146753 0.965649 0.310278 1.758328 -4.489439 1.248924 1.694481 -0.616035 3.345847 -0.194548 1.331356 -0.485713 1.777329 0.960550 0.460434 0.839422 0.433352 1.297246 -1.221001 -0.303901 -1.170879 -1.524134 2.352946 -0.991355 1.213310 1.272581 -2.205594 -2.353266 0.680775 -0.268987 0.178444 0.014570 -3.684563 -0.834997 
car 0.942457 1.709630 -1.521858 0.827694 -1.304985 -0.702823 1.237707 1.207810 -1.827662 1.554104 -3.255134 0.779085 0.993606 2.600277 -2.983782 2.293238 1.028165 -0.941443 0.948738 1.264718 0.994026 -1.890446 1.820602 -0.896139 -0.453051 -1.797338 1.826242 0.161048 0.467993 -2.602389 0.159148 1.964825 -1.586372 2.015473 1.264394 -0.935964 -0.783519 0.934149 -0.105347 -1.826825 -1.650180 0.494362 -0.962580 -1.401065 -2.232008 -0.710156 1.981833 -3.556070 
financial 2.416943 1.491394 -1.146557 -1.239917 0.201251 0.457786 0.454194 -1.267642 1.739654 0.031338 -2.326576 -0.449407 -1.505091 0.211884 -0.670561 -0.338876 -0.693550 1.408897 -0.031279 -5.183684 -0.981669 -0.370970 0.278144 -1.474019 -0.608999 -2.885581 0.916038 1.271786 0.149185 -1.379727 1.499894 0.724886 0.964429 0.671972 -1.290401 -0.590075 1.755849 0.782005 0.263367 0.653200 0.212582 0.079549 2.627047 -2.216321 0.701091 0.423129 -0.580187 -0.727540 
course -0.864590 0.774604 0.092460 1.200545 -0.123587 0.380733 -2.593740 1.091824 0.843674 -0.311493 -1.579259 -0.222324 -0.517893 -0.202939 -2.692163 -1.885812 -1.079242 1.809974 1.539249 -2.318715 -1.958949 1.791540 -1.573221 -1.179237 1.031481 2.492361 0.684765 -2.004806 -1.179488 -0.498184 2.608128 2.097961 1.127011 0.654413 -1.145121 1.037185 0.437006 -1.242566 0.786964 -0.323402 -0.970891 -1.820503 0.895375 -0.760478 2.996473 -2.943988 -2.562599 -0.094259 
jobs -1.478769 -1.305212 -0.697743 -0.753122 2.075396 -1.676285 -1.532189 -0.455135 2.141604 -0.166177 -0.757328 -1.258657 -1.666212 -0.680676 -1.105431 0.548931 -0.764398 1.832668 -1.218693 -0.878560 1.242246 3.168189 -0.659127 0.120560 0.356277 -0.793236 1.521556 -2.357709 -0.159916 1.511089 0.020806 1.612013 -2.260985 0.822634 0.320676 -2.812954 1.881398 -1.424467 0.950880 0.839659 2.399798 -0.364473 0.269345 -2.380330 -2.059491 -0.445191 0.543785 0.120736 
book -1.176621 0.454521 -0.766719 -0.731259 -1.830335 -0.828159 1.682121 1.226014 -0.108240 0.123172 -0.882758 0.425742 0.477834 0.411849 -0.920351 0.032935 -1.796808 0.101497 -0.962680 0.601095 -1.669586 2.180930 -0.133964 -1.017044 0.425295 1.404201 0.254935 -0.231177 0.550337 -0.172533 3.492181 1.833920 -0.386939 1.891944 2.561209 0.655011 2.237100 -0.492946 1.042585 0.432795 0.776158 -1.711333 -2.479443 3.563609 0.823809 2.213741 0.870925 1.420636 
natural 0.428112 0.498608 -0.496532 -1.518858 0.934662 -0.010380 -1.524087 -0.441390 -0.078259 -1.123348 2.205261 4.467977 1.157225 0.327703 1.854164 -1.077256 -1.830847 0.107850 -0.544501 0.482401 -0.111798 1.711066 -0.410719 -1.742231 -0.230971 -0.099719 -0.642660 1.688683 -0.185727 -0.133708 1.373237 4.502450 0.566759 -0.524803 3.148849 2.346044 -0.805198 -0.159464 -3.636304 1.830829 0.619787 0.783198 -1.123747 -1.272239 -3.073271 1.369203 -2.077594 -0.081993 
learn -1.121516 0.078449 0.438885 0.371000 1.233114 0.320902 -0.387658 0.167555 1.167344 -0.182019 -1.328645 -0.657847 1.329259 -0.755896 -0.170458 0.976754 1.020183 2.638010 -0.625674 0.293705 -0.862874 -1.148459 -0.421080 -1.483098 -0.542861 -0.512212 1.097050 -0.041292 -1.929737 -1.545864 -1.552807 0.612940 -0.641478 -0.126480 0.352825 0.197383 1.183871 -1.801486 -1.529433 0.670842 0.703893 -0.933622 -1.416829 -0.446002 -1.157442 -0.905569 -0.964983 1.434227 
human -0.591237 1.711031 -1.139490 -1.715807 -2.460468 1.426484 2.280953 2.076638 0.158944 0.352423 -0.647916 0.568884 0.806881 1.956004 0.069364 0.616345 -1.775252 0.813355 -1.096680 3.672025 1.786169 1.040339 0.185957 1.285953 1.424617 -0.068091 -2.081519 1.050395 0.169471 -1.737621 0.123821 0.366572 -2.587205 1.798725 -1.171629 -0.437310 -0.619920 -0.661957 -1.296489 1.230576 0.199252 -0.142174 -2.278696 -1.473260 -1.535148 2.097507 -4.774024 2.352320 
virtual -0.656775 3.039529 0.242360 -0.014591 -0.962866 3.391357 1.905255 -2.203621 0.315996 -0.276430 1.268300 -0.130624 0.927107 -2.484384 0.846634 0.577354 -0.948404 1.784619 1.178399 0.770307 4.485785 -0.298134 -2.062903 -1.745070 -1.439364 1.820761 -0.342750 -0.190285 -0.474955 -0.679379 0.150242 0.412680 0.383099 0.256643 0.302516 -0.496750 0.581979 -2.206540 0.907689 0.293277 0.145892 1.793460 -0.141081 -0.179510 -1.347049 0.590497 0.114955 -1.758817 
pages 1.638827 1.590068 -0.340368 2.572198 0.489578 -0.158138 1.459870 -1.921649 0.109952 -0.122217 -0.700203 0.651749 -1.760382 -0.669378 -2.175058 1.522063 -0.147409 0.282368 0.854406 -0.328862 1.310296 -0.653450 0.059360 -0.581524 -1.067186 1.404894 -1.010005 0.465378 -2.080217 0.231269 -1.689561 0.565425 -0.244434 0.554490 2.139536 0.454658 -0.466471 -1.181819 -1.914301 0.316291 1.124356 -0.611787 -0.751175 0.736847 1.439934 0.570171 2.075942 -1.655382 
electrical 1.358863 -1.518405 -0.711219 1.663333 0.950979 -0.902442 -2.570543 1.501362 -0.610498 -0.426602 1.185405 1.006797 -0.865492 2.916167 -1.259736 0.257778 -1.351784 0.138207 1.717747 2.816211 -1.356539 -0.569121 3.854368 -1.512101 -0.387871 -0.481274 4.082669 0.151901 -0.549488 2.480973 -2.276831 3.334300 0.184907 0.004060 -3.059793 0.522193 2.500812 1.743447 1.351881 3.947472 1.429337 0.061097 -0.051563 -1.323519 -2.036332 0.868583 -0.610820 1.121582 
security 1.946724 1.316369 -1.404835 -0.125136 -0.180840 2.146746 -0.864340 2.360363 -0.132852 -1.710177 -2.821455 -2.050340 -0.215070 0.477161 1.200742 -0.092399 -1.859945 0.832573 0.998335 -2.116216 -0.509756 -1.581064 4.531658 -1.588664 -0.090375 -0.365909 -0.727784 1.281872 -2.750667 -0.328433 -2.782341 0.735245 -0.805861 -0.814948 -0.790654 0.873869 2.084780 2.058871 0.875189 2.501459 0.131981 0.181317 1.058280 1.265696 -0.988375 1.904411 -0.077594 -0.595894 
graduate 1.917727 -0.929002 0.023336 0.342563 0.649584 -0.678578 -2.067627 -0.569740 -0.049607 -0.651976 -2.575085 0.088105 1.273899 -0.287607 2.107806 0.353872 -1.293837 1.911780 2.037682 -2.017932 -1.342160 0.302211 -0.295444 -0.447787 -0.064811 0.399254 -0.511790 -1.446449 -1.127570 -1.420320 -0.274457 2.598603 1.844958 -0.593358 -0.993353 1.108276 3.080725 -0.437253 -1.498642 0.648414 -2.479975 1.309526 -0.068188 1.267702 -1.677865 -0.960565 1.174678 0.563911 
society 0.484325 -1.561383 -0.965310 0.290038 0.158278 0.492550 0.236698 -0.267169 0.579435 0.044147 -0.073777 2.925296 1.948119 -1.138503 0.573098 -0.494532 -1.817448 -0.768337 -0.441574 0.059042 -1.616504 0.231533 -1.842005 -0.014724 -0.182028 0.422929 -0.693981 0.500969 -3.258932 -0.419100 1.228026 -0.452446 1.106971 2.961190 1.453755 -1.439963 2.549135 0.961091 -1.851768 0.829680 1.111245 0.068882 0.980323 -1.708171 0.536468 0.147762 -0.248440 -0.817611 
match -0.833385 1.223807 1.525401 -0.912864 -4.553498 1.215696 -0.498081 1.620173 -1.293963 2.665970 -0.870440 -0.720446 -1.627502 -0.082652 -1.339155 -2.082265 1.276946 0.735804 -2.220706 -2.118354 -0.595357 2.484604 0.227298 -0.080326 -0.030306 -2.638237 -2.189146 -1.941979 1.781646 -0.216101 1.915827 4.594198 1.382128 -1.464831 -5.468582 -1.453262 2.331510 -2.006840 0.329338 -0.572230 -1.636746 -1.348772 -0.286519 0.277884 -1.509578 0.544680 1.500502 -3.375238 
google 1.901189 0.440555 -1.360818 2.764868 -0.495271 1.777364 -0.774049 -0.897219 0.483338 3.103543 -0.955721 3.427651 0.174871 -0.907151 -2.085597 2.990660 -0.320295 1.673837 -3.104792 0.019162 -0.829275 -0.927056 -3.509815 1.179269 -0.436495 -0.392446 -0.629987 -0.928698 -0.509171 2.482779 -2.795158 -0.959316 1.531641 0.024276 1.945771 -0.816701 3.139196 0.372952 1.083031 -0.179148 -1.423322 0.228308 -1.145451 -0.886019 -0.812753 -0.633466 1.535891 -1.171903 
league 1.105479 1.815488 1.086257 -2.021678 -0.877297 0.974171 0.275909 -0.795128 -0.051554 -0.379571 -1.987612 -2.346349 0.291320 2.514500 -0.673502 -1.348811 2.285599 -0.703041 -0.792286 -1.232663 1.446286 -0.383741 -0.280748 -0.870424 0.588429 1.309212 1.419749 -0.433891 -2.805740 1.422208 0.569048 2.162507 -1.073140 -1.237372 1.459439 -1.695434 2.143167 0.414431 -1.194811 2.784436 -1.933974 2.057790 -0.147435 -2.640242 0.336802 1.297282 3.381972 -2.705998 
company 0.132888 -1.401164 -1.922185 1.247543 -0.036593 -0.570900 -0.774518 -1.424183 2.090298 -0.683523 -0.332678 -1.607359 0.446159 2.158036 0.671596 1.840424 -0.979366 2.760878 -1.192981 0.899787 -0.773536 -1.441345 0.663837 2.369240 -1.547711 -1.121672 0.630570 -0.019101 0.053486 0.003080 -0.583979 1.409725 -0.610306 -1.194700 -0.594322 -1.453303 -0.986218 0.839913 -0.406587 0.723117 0.970343 -1.273088 1.889006 -0.978793 -1.378602 1.107377 -0.555997 -0.651176 
definition 1.428850 -1.022353 -2.679288 -0.886451 -2.112232 -2.220765 -0.380500 -1.795572 0.152982 -1.026946 1.054010 1.723020 -1.109403 -3.763279 -0.984166 -0.880459 3.091206 3.628455 -2.102527 1.454783 0.069337 1.546874 -3.030550 -0.114759 0.998841 -0.323060 2.262641 2.533549 -1.277815 -1.945551 1.581353 1.834547 -1.333522 1.538792 3.692238 -1.328434 -1.023067 -0.730422 2.960553 0.209007 2.615512 0.584086 -3.606699 -1.581887 0.765240 2.747482 0.856356 1.241800 
philosophy -0.608962 0.535117 -1.259509 0.230256 -0.565119 0.252055 0.600634 -1.044730 0.866505 -0.436792 0.290684 1.050645 -2.859953 -4.307899 0.550352 0.450501 -0.402602 3.546813 2.474793 -0.242244 -0.720343 -0.200014 0.905231 1.346327 -1.448508 1.540227 1.819265 -0.880001 -0.430606 2.300652 3.044947 1.751442 -0.306928 2.863299 0.361107 -0.014029 1.339047 0.675869 -0.774102 -3.402062 -1.115451 0.188287 -0.293344 -2.717329 -0.383669 -1.122247 -2.207518 -0.914550 
scientific 0.910342 -0.495014 0.192439 -0.444707 -0.775136 0.109610 -0.372807 -0.810524 1.296959 -2.696995 -1.846113 1.230605 0.528384 -0.341325 0.031078 0.082536 -1.241347 1.895507 -0.738120 1.632170 -1.170089 -0.238142 -0.442707 0.551340 -0.213938 -2.551116 1.533669 1.196880 -1.698915 1.855180 0.216550 1.008882 -1.361533 -0.556467 0.905564 -0.163933 -1.766092 1.438660 -0.746796 0.895928 -2.212482 0.006147 -0.638725 -0.228732 -0.496896 1.929473 0.704292 -0.451600 
institute 1.024044 0.450406 0.212482 -0.427720 -3.248286 1.122851 -1.041757 -0.274371 2.338982 -0.858307 0.132786 0.122105 -0.122597 1.003817 0.168062 0.897451 -0.903882 0.531255 2.179073 -0.034262 0.780558 1.986829 -1.920526 2.512650 -1.582410 0.778713 -0.332289 -1.126237 -2.260370 -0.364647 0.365193 0.962626 -3.285186 2.402085 -1.334374 -0.396942 -0.035507 -0.455723 -1.612581 0.611242 -1.749686 0.618585 0.841579 0.356825 0.396682 1.035439 -0.561301 -1.267832 
analysis 1.319175 1.287940 -0.340363 0.537057 -0.416620 -0.682463 0.849854 0.716860 0.486212 -0.750056 -2.156348 -1.168706 -0.287552 -0.136325 -3.430880 -1.620508 -2.007807 0.331642 2.678819 -1.104504 0.676386 -1.469415 1.908430 -1.545556 -0.051595 -0.030187 1.349256 1.835487 -1.518381 -0.546982 1.324336 -0.416169 1.401655 3.471021 1.425459 -2.838054 -1.923682 0.488212 1.284862 1.318350 -1.458837 -2.176191 1.055764 0.060624 -0.502481 3.389572 -0.393882 -1.379348 
bank 1.851454 -1.512162 -2.852261 -1.648053 -0.031089 1.174552 1.466021 2.267754 0.670456 -0.927115 -1.115815 -1.763076 2.799764 2.105951 0.192776 0.015027 -1.353621 1.077749 -1.910463 -1.805930 -2.044441 1.057905 -0.696141 -1.316976 -0.641856 0.703164 -0.056509 0.803778 -1.001480 -1.074283 -0.383199 2.449358 1.641247 -1.735530 0.820775 -1.878366 2.684547 3.781464 2.678424 0.264392 -2.720932 -3.138311 1.138187 -2.648754 0.294577 -0.198917 0.270347 -0.676300 
team 0.052419 -1.505425 0.115701 -1.077352 -2.507231 2.210665 -0.967657 0.105985 0.206862 0.025341 -1.400217 -0.064189 -1.678106 2.029835 -2.466929 -1.338217 -0.381243 0.899640 -0.363172 0.174020 0.868936 -1.582763 0.216415 1.412378 0.996503 1.856009 -1.678338 -0.476472 0.217715 0.135155 -1.813380 1.850511 -3.027243 -1.750249 -2.541898 -1.218248 0.240306 -1.254287 -0.105899 1.318497 -0.252655 1.804503 -0.877841 1.363160 0.370588 1.064287 2.587878 -1.143813 
imdb -0.068397 -0.959173 -1.237598 4.030470 -1.900593 -1.485714 -1.887095 -1.383749 -0.015580 2.342422 -0.428463 -0.707663 0.218202 -2.277425 2.114371 1.298434 0.976123 -0.191045 -0.119256 0.506078 -1.979962 -0.996382 1.944854 -0.036849 1.426533 -0.649854 -3.087970 -4.101541 0.163295 -0.482314 0.651988 0.956220 1.558436 0.461962 1.853078 0.540424 -0.817567 -0.985456 -1.030217 1.979850 -0.353444 -2.021230 2.747866 -2.116760 -1.621220 2.324342 -0.147380 -0.782880 
biology 1.401397 -1.446482 -1.054231 2.147987 -0.920945 2.176475 -0.887067 0.750975 -0.798190 -0.483238 -0.023843 0.076080 0.345397 -1.531071 -1.074383 -1.983130 -4.847612 0.596442 0.451759 0.445609 0.081198 0.959196 1.217841 0.222637 0.968822 0.564724 1.962199 1.461839 2.198778 0.340943 0.109471 2.771999 -0.529953 1.699127 1.632622 -0.716236 3.108997 -0.867974 -1.966805 1.947474 0.274107 1.319085 -2.143239 1.130241 -3.007236 -1.931225 -0.830890 2.492641 
marketing 0.958393 0.590287 1.963561 0.050804 0.139740 -3.199373 1.814842 -0.155868 -0.551078 0.496130 -0.104734 0.312958 -2.442979 -0.665838 0.722821 0.569743 0.011369 2.956812 0.665122 -1.404296 0.771620 1.674145 -0.636483 1.134489 -2.454771 -1.198143 -0.212336 -1.764373 -1.835294 0.478981 0.825642 0.389360 -1.283315 0.880068 -0.398587 -0.921156 -0.720777 1.110494 -1.518316 2.224573 -1.190728 -0.813547 -0.825455 -1.135350 0.361389 0.622032 -1.686375 1.474543 
papers 1.876503 1.166026 -0.424978 0.647526 -1.027750 1.746227 0.436613 -0.460263 -2.175176 -0.974895 -1.268976 1.634878 -1.637780 0.210423 -0.647623 0.305177 -2.685629 1.153628 -0.907116 -0.437093 1.469573 1.205943 1.513010 0.661313 -0.232531 -2.729845 0.443794 -1.124163 -3.089949 -1.642141 0.567709 1.882303 0.167823 1.646661 -0.869664 -0.022563 0.907004 0.908915 0.046684 -2.264896 -1.734161 2.078945 0.659256 0.339659 3.217777 1.143562 3.325731 1.497212 
military 1.930941 4.023078 0.847428 0.608979 -0.287803 -1.798977 -0.268362 3.897598 0.783106 -0.632982 -0.578198 0.483571 -1.989906 1.043366 2.052348 0.204074 -0.609922 2.888296 1.423350 -1.832634 -2.086443 -0.332747 2.893763 0.138607 -0.083783 -0.659208 2.550306 -0.004300 -2.677491 -0.368891 0.706657 -0.003713 -0.758743 0.739712 1.735738 -1.890376 1.317892 -1.887266 0.016390 1.815434 -2.208117 0.609955 1.885722 0.307643 0.369184 1.252580 -0.373264 1.073825 
professional 0.553517 -0.286960 -0.459644 -0.114789 -0.257388 -1.167502 1.368943 -0.439160 0.643253 0.285010 -0.591259 -0.097525 1.357830 0.199906 -2.021805 -0.509728 1.588413 1.218154 1.315185 0.283012 -0.011527 -0.246994 -2.046523 1.277083 0.563162 -1.405831 1.358116 -1.107042 -1.719260 -1.026612 -0.169370 0.498475 -0.505766 0.649122 -0.298182 -0.286402 2.201400 0.084223 -1.023473 0.524649 0.798269 -2.134416 0.706499 0.607608 -1.583577 -1.325148 1.318981 -2.002896 
computing 0.855261 0.071451 0.029421 3.765838 -1.009825 -1.631128 -1.293330 -0.836672 -2.451387 -1.646811 -2.646932 0.184955 -0.937119 -1.963407 -0.151661 -2.730177 -2.141644 2.125050 -1.941338 -0.874797 -0.083264 -0.265678 -0.306654 -0.846397 -0.680950 -1.119522 0.439349 1.615025 0.977276 -1.203826 0.134842 1.093398 1.116962 -0.199410 1.567305 0.750611 0.706981 2.453804 0.390100 0.132192 0.253487 0.736748 1.123190 -1.084173 1.196182 0.069209 -2.469471 -1.740942 
study 0.704684 -0.956992 -0.500265 -0.025653 0.312334 0.116713 -1.511992 0.537388 1.082962 -0.893096 0.248030 0.602780 1.061291 -0.641933 -1.536196 -2.246213 -0.834831 2.072380 1.259011 0.909807 -2.233066 0.557785 -0.263961 0.890746 0.223379 -0.307157 -0.655055 -0.417748 0.131543 -0.988222 0.528419 -0.475306 -0.151789 2.414964 -0.383987 -0.487098 -0.281035 -0.307176 -0.562961 -0.055885 -1.102127 -0.663538 -0.591844 -2.212844 0.171888 0.762000 -1.901268 1.099830 
archive -0.065103 -0.428294 -1.001079 0.755212 -0.394442 1.830969 -1.691597 1.558805 -0.782188 -0.836619 -0.175278 -0.111789 -1.217891 -3.030796 0.560011 0.167712 -0.947055 1.412073 -1.444181 1.981332 1.339013 -1.803948 -0.393840 0.684756 -2.303263 1.571788 -1.195363 -3.106293 0.370174 -0.592556 -0.019191 -1.229792 1.990810 -1.458368 0.005066 0.708920 2.249482 2.452961 2.353092 0.944353 -0.533955 1.682460 1.427440 -1.557786 -0.745908 2.472492 1.115748 0.412174 
events -0.910867 0.062495 0.113968 0.247541 -0.262954 2.047569 2.182113 0.333522 1.062874 0.248635 1.133341 -0.043850 0.375913 -0.603880 -2.753037 0.138773 -3.810177 1.577390 -1.618939 -1.856962 -1.117120 -2.443114 -0.514650 0.035696 -2.182916 1.021292 -0.848687 -0.914044 -3.201683 -1.087914 0.418016 0.294524 -0.501321 -0.314362 -0.233406 0.112564 -0.674014 -0.244600 -0.459290 -0.308808 1.529605 0.832119 0.705539 0.414111 0.224735 -0.932044 0.187458 -0.028751 
paper 2.303436 0.642835 -0.337959 0.103745 2.016187 1.326555 0.391689 -1.170146 -3.043444 1.434754 -0.177911 -0.726532 -0.893306 -0.989919 -0.880170 -1.165548 -2.054070 0.511763 0.410994 -0.072057 1.834020 0.320732 1.891187 2.168602 -0.375322 -0.857678 -1.744539 -0.016953 -3.620606 1.268362 -0.113233 2.653125 1.500481 -0.385811 -0.018352 -0.098008 0.215502 -0.500624 -0.669694 -0.900908 -1.499546 -0.183802 0.476449 0.756176 1.563677 0.736456 1.289077 -1.361197 
personal -0.092652 -1.839496 -0.003744 -0.564752 0.115204 0.676974 -0.111443 -0.764855 0.341531 -0.165085 -0.502133 -0.861856 0.489217 -1.821570 -1.215202 2.732785 -1.284755 1.427993 -0.304348 -2.201483 0.042475 0.644330 0.369977 -1.941635 -2.526792 -0.335266 0.271868 -0.462577 -2.270002 -0.984187 -0.156795 1.347448 -0.098163 0.124069 -0.688064 -0.246159 1.114591 -0.385008 0.322727 -2.674832 -0.399060 0.659916 -0.437351 -1.624021 -0.097253 -2.298997 0.121535 0.133585 
net 0.242576 0.621162 0.972347 2.099331 0.295382 -0.886982 0.489484 -0.340170 2.399386 0.533523 1.270174 -0.624060 0.629345 -0.521305 0.174827 0.717579 0.071615 1.265264 -0.176970 1.641270 -0.594731 -1.433826 -0.370619 -0.326510 -0.876161 0.362782 -2.389433 -2.117104 0.509668 0.310376 0.236383 0.215057 -0.276684 0.839899 1.892852 0.402664 1.082433 -1.611330 1.516050 0.732451 0.338138 -0.091639 1.002530 -1.015061 -0.157654 1.127140 -0.817173 -2.340472 
physical -0.249460 -1.870251 -0.734337 0.045835 0.295576 -1.498662 -0.959895 -0.384436 0.359344 -2.081984 -0.977338 1.953709 3.093339 -1.415682 -1.501298 -1.051794 -0.022625 0.287427 -0.041252 -1.023824 -1.224161 0.552951 -0.241233 0.217809 2.652951 -0.044275 3.157702 1.406015 -0.947042 1.386900 0.598432 1.629263 1.365182 -0.793317 0.504098 -0.244803 1.999526 -0.231570 0.092777 0.053352 -0.510548 0.047588 0.705385 0.205979 -2.385943 0.785659 -1.185293 -1.453548 
live -1.216899 0.858530 1.753514 0.700530 -2.410655 -1.083018 1.438896 2.027966 -1.130499 0.277101 0.302111 -3.992310 0.716498 -1.195160 -1.396876 1.243931 0.892960 0.656657 -0.199116 -1.346282 -3.137842 -0.887347 1.748302 -1.068336 -0.640431 -0.304281 1.518792 -1.904755 -1.409925 -0.261379 0.073966 0.118527 -0.324966 -0.295865 1.343862 0.277671 1.589970 -0.492109 0.103134 -1.388309 -0.915281 1.493647 -0.205714 -0.569390 0.111447 -0.470958 1.860377 0.407517 
content -2.467956 0.810364 -0.434294 -0.066959 2.230878 -0.656403 -0.693183 -0.908310 -0.934096 -0.588456 -0.424066 0.855357 -1.928917 0.565173 1.121915 -0.838910 0.447093 -0.614586 -1.638413 1.763332 0.171474 0.529934 -0.393365 2.061872 -0.811871 -0.822196 -1.563676 -0.020777 -0.998532 -0.002653 1.564479 1.357753 0.471221 -0.707211 0.168944 -0.115764 1.331745 -1.930533 -0.146361 0.521738 -0.579204 -0.341053 1.293574 -1.287986 0.663877 0.261613 0.682438 0.654755 
models -0.733053 1.728878 -0.866277 -0.663541 -1.549129 1.027528 -0.396427 0.903723 -3.271523 2.388979 -1.599743 1.309180 1.246237 -0.622394 -2.881770 0.015963 -0.127399 1.546683 0.424887 0.567624 2.203687 1.204081 -1.784429 -0.378599 -1.672272 -1.532513 0.668983 0.020503 0.885025 -1.453217 0.140902 -0.152836 -0.895514 2.484410 0.673831 0.014141 0.255039 -1.511423 -0.192230 -1.918786 -0.204585 -0.229311 0.156393 0.402545 -1.719921 -0.757519 -2.303437 -0.611474 
discovery 1.853598 2.612389 -0.835644 0.598552 0.026394 0.073205 -0.533192 -0.249253 0.827556 0.096141 0.506590 -1.746495 -0.519338 0.564465 -0.315681 -1.355166 -0.463404 -0.368432 -0.875880 -1.823195 1.132439 -1.424646 0.195433 2.208846 -1.222537 0.443640 -1.699597 0.995990 -0.678542 0.566220 -1.979707 1.632892 -0.985858 1.235627 0.468820 1.036301 -2.936833 -0.751423 -2.265419 0.725696 -1.754032 1.854618 1.442343 0.143235 -2.933014 1.708007 -0.220314 1.055954 
mathematical 2.167531 1.176323 -1.269408 -1.500482 -2.631184 0.375493 -2.741359 -2.547461 0.032436 2.053299 -0.967831 3.408179 2.506076 0.575654 -1.840099 0.254842 -2.773019 0.274219 2.347267 -0.206967 1.289474 -2.179545 -1.485102 0.294505 0.424754 0.819375 1.025980 -1.921293 -0.362431 -0.597979 1.037638 2.595585 0.309187 -0.110178 0.748472 -1.619398 1.476129 1.958382 -1.222675 0.032420 -2.405021 0.092127 -0.470387 0.329387 0.733928 0.460265 -0.545725 -1.098089 
disease 1.989469 2.503812 -1.107552 -0.775345 -1.171759 0.527419 0.921552 -1.143474 1.829101 -3.581465 -1.837751 0.412921 -1.396206 -0.068774 -3.462646 0.297100 0.879932 0.090065 1.661156 -0.237052 -0.228667 -1.959542 1.332034 0.792983 0.920489 -1.300041 -1.239901 2.061277 0.268346 -0.259970 1.175591 -0.035941 -0.074959 -1.467314 0.062369 0.806854 2.058973 -1.372826 -0.255192 1.562189 -2.012047 1.873489 -0.064553 -0.541990 -0.698731 0.252382 -2.927099 0.123440 
exchange -0.771281 -0.696406 -1.345206 0.497002 -1.443003 0.113253 0.919361 0.287446 2.122622 -1.200444 1.252254 -2.428045 1.658757 -1.237880 -0.801052 2.474212 0.131386 1.533168 2.661583 -1.156310 1.193791 -1.489386 -0.934241 1.076005 -1.171969 -1.724879 -0.970429 1.468367 -0.302196 0.301733 1.719831 0.592968 -1.227291 -1.220515 0.980274 -1.541176 -0.494327 1.777316 0.789607 -0.560530 -0.834390 -0.766966 0.882788 -2.544118 0.630763 2.831350 0.223859 -2.222269 
politics -2.108437 2.004972 -2.111059 0.119351 -0.677138 -0.283843 1.807196 1.290012 -2.876687 -1.203804 -0.546911 -1.063081 -0.992492 -0.740908 -1.350048 -0.213126 -2.028681 -0.798823 0.884674 -0.803641 -0.472185 0.102020 0.376793 -0.519605 -0.805403 -0.906502 0.786076 1.850158 -0.590462 -0.825184 0.073407 -1.467259 0.754146 -0.084827 1.823629 -1.553674 0.818642 1.015549 -1.620209 0.365415 1.546593 0.976427 0.347065 -2.037266 -2.845253 1.856493 -0.301846 -1.296602 
community 2.317410 0.215362 -1.285145 -0.190502 -0.614140 -1.393646 0.223674 0.838885 -0.880076 -2.035941 -1.263352 -0.432370 1.273869 -0.976356 -1.229618 -0.742559 -0.349617 0.260981 0.850941 0.927817 -1.015244 0.874927 -1.711568 -0.020194 -0.760307 -1.262655 -1.697621 -0.923317 -1.250840 -1.770085 -0.546163 -0.111339 -0.116900 0.938041 2.398167 0.993191 -0.208582 -0.839560 -0.425423 2.199661 0.838018 -0.695631 -0.333810 -0.013677 -1.583600 0.225276 1.637288 -0.685880 
process 1.566445 0.614390 0.988625 -0.756170 0.633146 0.818325 0.300660 1.485465 -1.557560 -0.173189 -0.571806 -2.208352 0.358279 0.666035 -0.729904 -1.294997 -0.512320 1.983109 1.742548 -0.636478 0.556010 -0.887151 -0.748001 0.126354 -0.268756 -0.810702 -1.938735 0.596085 -1.565879 0.862182 1.179217 1.240051 -1.553899 -0.097966 1.446609 1.550225 -0.769945 -3.332166 0.384907 -1.214199 0.321097 -1.028200 0.997490 0.663329 -0.265976 2.619608 -1.852353 1.841854 
parallel 1.327551 -1.170540 0.622819 3.512012 0.048329 0.772671 -3.530321 -1.094278 -2.514488 -1.877824 -0.111566 1.703929 -0.133890 -1.087652 -1.107986 -1.010766 -3.473536 2.287759 -2.567509 -1.058787 1.098364 -1.055626 -0.403682 -1.376436 -1.455286 -1.337705 1.215648 -0.216445 0.059912 0.272355 -0.410367 2.706956 1.193564 0.628035 -0.527725 2.034426 1.416217 0.940588 1.997317 2.091087 0.716816 0.960725 -1.020856 -1.102380 2.138609 -1.052374 -2.025154 -1.212914 
healthy 1.094836 0.453696 -0.250922 -0.643691 0.011400 -3.369497 0.660144 0.092393 -0.061155 -0.212689 -0.924117 -0.298379 -0.608750 -2.352149 -0.934994 3.032985 0.879807 2.203325 2.793140 -0.406131 -2.382338 0.468583 1.348841 1.115062 -0.260595 -0.594061 -0.879136 2.009496 -0.065302 0.008294 0.347401 1.193815 -1.047101 -1.074580 -1.279046 1.917383 -0.700474 -1.342693 -1.542317 1.685089 -1.057498 1.943670 -0.446717 -0.475912 -1.660353 0.820271 -0.109100 0.975753 
energy -2.785074 1.722813 2.154468 1.726395 -1.346731 -0.380553 -1.113828 0.647084 0.141203 1.371532 -1.058171 1.080443 1.453380 1.507017 -0.892812 2.699934 -1.740052 1.825920 1.749715 2.681851 -0.584218 0.932729 1.626130 1.817805 2.056032 1.471110 -0.020415 2.091516 -0.087296 0.727866 -1.534574 1.505215 -2.834388 -3.140670 -0.231366 -0.500869 -1.062788 0.770388 0.200966 0.992060 -1.977482 -1.376337 -0.821388 -0.426954 -0.014597 1.420595 -0.289980 0.015970 
democratic 1.261680 1.020483 -1.137095 0.084718 -1.669456 2.173941 -0.021312 1.991338 -2.520492 -0.920552 0.011778 -1.738277 -1.043765 0.271155 -0.252443 -2.806268 -2.159308 1.468404 2.224777 -1.880949 -2.286985 -1.140510 -0.437950 1.513465 -1.644655 0.175984 -0.031703 0.686314 -0.778889 -1.374237 1.527231 0.200706 -0.417325 -0.460471 0.504255 1.749106 0.840501 -1.783234 -1.451869 -0.273619 0.194057 0.630203 -1.859809 1.218110 -0.375692 2.277802 -1.937257 -1.772679 
quantum 0.451673 3.066113 1.377551 -1.613147 -1.798087 0.495358 -2.842431 0.857403 1.140416 -1.061146 0.902591 1.815953 0.329009 -0.916975 -1.249170 0.390664 -2.908593 2.668812 -2.999284 -0.396423 -0.596386 -2.643624 -0.767280 -0.571881 -2.140489 1.196923 -0.176212 -0.333313 -1.529778 1.419498 -1.329700 3.266195 -1.761576 -0.538850 1.370612 -2.439157 -1.585122 1.120474 -0.427732 0.074005 -3.505873 -1.863099 0.241158 -0.475846 1.903744 -1.166823 -1.248764 1.796689 
linux -0.456404 1.859543 0.540434 -0.280212 -1.401727 -0.229115 1.162331 -1.629382 -1.525608 -1.596280 -0.184341 0.450467 0.158656 -1.249799 -0.346097 -1.793409 -2.639247 3.576947 -1.254532 1.837412 -1.193899 -0.981314 -0.950725 -2.838825 -1.803244 1.063103 0.324000 -0.073772 -1.211114 2.624640 -2.777152 1.154122 0.753084 -1.071449 1.574682 -1.859005 2.219511 -1.367138 3.259186 2.112438 -0.349973 -0.610523 -1.079731 0.415534 1.245927 0.061892 1.068877 1.559180 
org 2.007382 -0.101122 0.092261 3.177878 -1.359431 -0.633097 2.260170 -1.482307 0.201281 -0.861151 0.584242 0.487474 -2.265382 -1.930247 2.256564 0.075609 1.518763 1.664202 0.128410 0.749257 -0.151250 -0.975272 -0.514137 1.010337 -2.298892 2.803271 -0.910615 -1.877451 -3.570564 -0.506949 0.706516 -0.489869 -3.215397 0.333356 2.231109 -0.966385 1.517520 -0.321741 0.662001 1.217016 1.487841 0.719571 0.773738 0.535374 0.479716 0.428576 -1.879188 0.469160 
space 1.431184 0.470589 0.168590 0.382775 0.085776 -1.381653 -1.323573 -2.298102 -0.752858 -1.464473 -0.044775 -1.510711 -0.373141 -0.618590 -0.234534 -0.350381 -1.790965 -0.881117 0.657829 -0.257410 1.170624 -1.620340 1.415861 0.582301 -1.351337 2.403756 2.642863 1.904922 0.664568 -1.013545 -1.487727 2.999939 -2.380769 -0.989415 2.012989 1.866622 -0.169037 -0.211729 -2.272441 1.121090 0.110734 0.065341 0.098737 0.889248 -1.025789 2.584986 -0.950112 -0.037995 
journals -0.018811 -0.617279 -1.758955 3.871335 0.425211 0.437512 -1.016411 -0.577357 0.349611 -0.160806 -1.046531 3.302543 -2.115760 -2.414442 0.767866 0.022196 -0.908894 -0.633177 -1.023843 -0.778310 0.571677 3.651324 -0.446016 1.128759 -2.760536 -0.607551 1.213481 -0.830931 0.035343 2.135446 1.333071 0.194124 -1.245123 2.463153 1.294085 0.204313 1.658445 1.577058 -0.228938 -0.041348 -0.803685 2.515842 1.371656 0.708963 0.228705 1.904808 -0.046356 -0.022001 
device -0.182927 0.867151 -2.251139 0.273238 -0.552499 -0.312512 -0.028217 -0.468195 -0.954846 -0.531926 -3.858287 -0.985214 -0.897499 -0.461909 0.759645 -0.052011 -1.072580 2.917407 -0.805674 2.069118 -2.588584 -2.693590 0.167530 -0.491731 -0.651498 -0.373989 -2.482317 1.466828 -1.348681 0.461488 1.088796 1.005321 -0.117928 -1.158151 0.129234 -0.422682 2.485630 0.056843 4.755177 -0.013972 1.771041 1.975816 0.247421 0.103543 -0.427656 0.762774 2.657763 0.197896 
writing 1.515266 1.556454 -1.492817 -1.230863 2.627321 0.954083 -0.228419 0.520019 -1.152270 -1.783058 -4.637092 -0.119233 1.615436 -1.283484 0.544596 1.592926 0.216241 2.620105 -0.154618 0.520242 -1.027846 -0.103205 -0.267520 2.044444 0.279548 -2.161615 -0.395531 -0.835628 -2.390758 0.721917 0.372587 3.140579 1.727265 0.552505 -1.998621 0.540074 -0.182135 0.529078 0.560735 1.609105 -0.264189 0.023481 -2.314017 1.796712 0.876900 1.413317 2.007731 1.829326 
policy 0.448357 -0.731984 -1.963055 -0.428960 -0.600222 0.956089 0.381509 1.281031 0.073908 1.577177 -1.372906 0.648491 -0.180260 1.464639 -0.354744 -0.544837 -1.533721 1.060782 1.413669 1.582126 -0.711860 1.210197 0.659884 0.861186 -2.376671 -0.021060 -0.281852 1.153821 -3.106908 -1.050382 1.000423 -0.923689 -0.676435 -1.669428 0.234609 2.445821 1.658618 0.461648 1.358404 1.291231 -0.415044 1.100090 1.102355 -0.342121 1.686129 2.331940 -0.392720 -1.231099 
info -0.395200 1.321171 -0.368742 1.270012 0.076076 -0.370522 0.123299 0.030275 0.566862 -0.937714 0.646935 -0.060995 -0.551731 -0.413430 0.626611 0.850872 -1.291124 -1.295027 -1.955815 0.859653 1.292440 0.828146 -0.891530 -0.582691 -0.705903 -0.618671 -1.364177 -1.088408 1.269398 -2.290901 -0.875015 1.035511 0.977367 -0.606270 -0.191476 -2.175594 -0.140572 -1.371511 0.639902 1.773930 0.057229 -0.234995 -0.115984 0.065929 1.303130 1.098490 0.006973 1.152644 
collection -1.010688 1.755923 1.040329 2.103856 1.561022 0.738446 0.256074 0.570840 0.722542 -2.600757 -0.366450 0.564001 0.366467 -1.620009 -0.278769 0.799065 -0.676599 -0.124868 -0.688385 1.088421 2.179414 -1.113026 -0.554567 0.373769 -1.122717 -0.207532 0.025379 -1.947706 0.035611 -1.561435 1.040085 -0.581705 -0.818156 -0.266407 0.485283 -1.199711 -1.002796 0.039192 -0.038962 -0.868780 -1.537158 0.610656 -0.044536 -0.650113 0.399509 2.037009 -0.067687 -0.602545 
nutrition 1.195841 2.184977 0.739083 0.678049 1.008140 -1.617723 -1.690490 -0.833983 1.016057 -0.070525 -1.854817 0.578036 1.659827 -1.173689 -1.450899 2.318064 -2.532086 -0.173937 0.344051 -0.144806 -1.159185 -0.999268 1.550617 0.041602 0.396825 1.106972 -0.613750 2.532943 -1.396332 0.284159 0.849418 -0.012137 -0.844645 -0.353552 0.494361 1.325681 1.570540 -1.813713 0.358233 1.295383 1.095712 1.635144 -2.242487 -0.382975 -0.654190 0.628142 -1.255043 -1.049039 
tickets 0.948063 0.396283 -0.292153 2.738793 -0.247085 -0.862044 2.519514 0.709557 -0.402668 -0.327488 1.974625 0.400773 0.797544 1.674047 -0.550576 1.484217 2.946386 0.705250 -0.371644 -1.891563 -0.993928 -0.015269 -0.410480 -2.135219 0.257865 -2.038611 0.221714 -1.548532 -0.103438 -4.055357 -0.683942 4.331523 -1.018095 -2.652606 -0.900322 0.076245 -0.426105 0.564239 0.330652 0.147987 1.423630 1.432763 -0.718987 1.432507 -1.521722 2.152098 1.849469 1.178090 
espn 0.395517 3.418181 -0.821054 1.158512 -0.293654 0.973474 1.559267 -0.786260 -1.407339 1.990916 1.065811 -0.236708 -0.904578 -0.177008 -1.269553 -2.067765 2.771466 -0.346323 -2.137233 -2.609411 -0.141339 0.339789 2.199788 -2.193765 1.205536 -0.692273 1.416642 -0.036482 -2.782216 2.018356 -1.226367 0.044920 0.147626 -1.007697 -0.207550 -4.018889 -0.372011 -0.479467 2.084958 1.226742 1.429693 0.678617 -0.790117 -0.668923 -2.460689 0.273537 1.231022 0.864729 
players -0.236449 -0.839842 -1.404110 0.311907 -1.493189 -0.614167 0.222796 -0.532717 1.867975 -0.234813 1.201817 0.215640 -0.020285 0.450054 -1.130157 -1.771445 0.092815 0.479711 -2.311468 0.341723 -1.636546 -0.808585 -0.124864 -1.092648 2.921655 -0.867448 0.295905 -0.304945 -0.766460 0.914625 0.638465 0.356804 1.043751 -1.161310 -0.824902 -0.073966 -0.098490 -0.020610 -0.895247 1.702205 -0.278096 0.950996 -1.464078 -0.981337 0.173661 0.611285 2.791184 0.213033 
model -0.114781 1.874552 -1.742139 -1.501203 1.156836 -0.509746 0.451633 0.543266 -2.064242 1.277373 -1.554164 0.301112 1.964000 1.500798 -1.478249 -0.169913 -0.971021 0.380572 1.847500 -0.070566 1.775516 -1.069901 0.949674 -1.375387 -0.313823 -0.114338 -2.295709 -0.401986 -0.096211 -1.221543 1.426887 1.276273 -1.608402 1.104018 0.529664 -1.278542 0.248797 -0.110509 0.515006 -2.109853 -1.900676 -0.288173 -0.128231 -0.951187 0.248212 -0.160206 -1.460890 -0.817136 
women 1.464507 0.882259 -0.913153 0.382044 -0.844176 -0.167059 1.212373 0.511943 1.056357 -1.411321 1.522373 0.275033 0.059599 0.139222 -1.923782 -0.279813 -0.013862 0.657777 0.646039 -1.135075 -0.710620 0.814320 0.393085 0.962735 0.661062 -1.398823 -2.010051 -0.241103 -0.881049 -0.959221 -0.800414 1.180560 -0.027599 -0.658063 -3.946111 -1.489918 -0.669581 -3.574289 -2.481390 0.775282 -0.789282 -0.941199 -1.160967 -0.194263 -2.004974 -0.579039 -1.132554 -0.930875 
president -1.144653 -0.362279 -0.417179 1.180622 -1.862513 0.686941 1.144749 0.697222 0.394121 -0.032331 1.971032 -0.033244 -0.843577 -1.112006 2.039241 -0.130856 -0.531075 -0.146342 0.684490 -3.007972 -1.256664 0.374419 -0.625240 -1.114111 0.054130 1.482284 0.094575 0.474528 -2.358381 0.146462 -2.882580 1.060616 0.720177 -0.297791 -1.388880 1.720772 1.881768 -1.376385 1.399253 1.639067 -0.104458 1.865243 -2.215579 -0.132562 -1.369851 0.714620 -1.560839 0.730296 
publications 0.931506 0.879443 -1.783200 0.845703 -1.245642 0.995169 1.093451 -0.012111 -0.630110 -3.559854 -0.052814 1.769491 -1.296488 1.018803 0.212965 0.126691 -2.342783 1.026841 -1.475915 -0.032678 -1.626088 3.627566 -0.458859 0.210705 -0.667057 -1.113008 -0.095243 -1.497178 -0.483136 -1.364343 -0.323861 0.300678 1.742684 -1.269974 -0.109327 -0.910613 0.757833 1.663886 0.183834 1.103409 0.654017 0.591119 1.143996 -0.528569 1.899120 0.449828 -0.065248 0.158399 
photos -1.417695 -0.028643 0.596437 1.676064 0.948928 0.229758 0.133638 -0.088052 -0.847556 -0.621623 0.353352 -0.782764 -1.098602 -0.877888 -2.741421 0.148906 -2.718732 -0.987826 -2.047393 -1.376378 1.029542 -2.839735 0.564686 -0.588245 0.015369 -0.530321 -0.163518 -1.755082 0.966917 -3.565061 0.158848 0.773767 1.006173 -1.628587 0.875782 -0.467803 1.085255 -0.349867 -1.016881 0.607916 -1.061611 -0.210286 0.479202 0.828583 0.314368 0.814652 2.318949 -1.421221 
language 1.289031 -0.873410 -0.522707 -0.059382 0.120234 -0.583977 0.459082 0.088049 -1.387882 -0.470919 -1.272938 0.249880 1.156423 1.675429 -0.954748 -0.744431 -0.900270 3.081463 -0.128784 0.653425 1.760141 -2.056291 0.565221 0.364166 0.504404 2.214829 0.471603 1.374811 -0.614608 -0.616360 0.192579 2.856400 1.736832 0.453041 2.085805 -0.223318 0.615550 0.635739 -1.477196 2.319980 -1.195071 -0.113042 -1.847503 -1.977826 2.731234 -0.247510 -3.252683 -0.825425 
statistics -1.147208 1.536044 1.278824 0.114322 -1.587537 1.311788 0.208096 -0.301545 2.039248 -0.956430 -0.138852 0.629990 -1.341245 1.272191 -4.161049 -0.712679 -2.619230 0.502300 -0.332183 -1.247077 1.829467 1.286802 -0.031988 -1.254215 2.092944 1.002106 0.067964 -1.537516 -0.085062 -0.691389 1.141890 -0.318266 -0.192238 -1.492377 -0.059855 -0.544887 1.123608 0.994138 0.088626 0.809368 -0.160877 0.248215 -0.572396 -1.819335 -0.195501 0.901464 1.822947 -2.448682 
category 0.612563 -0.630430 1.213284 0.938629 0.365183 -2.135002 -0.125242 -1.730124 -2.038507 0.807698 0.234139 2.419157 -1.735886 -0.959138 0.904454 0.599507 0.991220 2.198220 0.446287 0.202428 1.021556 -2.135507 -0.298343 0.774802 1.781991 -0.185492 -1.265736 -1.549698 -0.018380 3.293516 0.136153 0.725242 -1.740656 2.410005 0.378170 -2.876130 2.814505 -0.158039 -0.695821 -0.621345 1.686636 -0.674138 -1.582307 -1.316543 -0.215691 0.827750 -0.385636 -3.130824 
theorem 1.458783 0.602225 -1.271196 1.741522 -2.657546 1.606547 1.402910 -0.192725 -2.796490 0.051524 2.448205 1.450016 0.775989 -2.200951 0.100952 -0.079311 -0.973432 2.083746 -0.161124 -0.796245 -0.136823 -1.798368 -0.401139 0.069775 3.611526 0.240130 -1.224345 -0.947633 0.738945 0.492194 0.553861 5.039488 2.501011 -1.248349 1.525529 -2.065486 -0.611500 2.731723 -1.943317 -0.942047 -0.674164 -2.404987 0.333184 1.389250 -0.588224 1.102768 -1.764399 0.386615 
hiv -0.567644 2.790098 -2.225038 -0.068055 -1.727530 -0.443439 -0.803692 0.249063 0.220576 -1.500691 -1.322047 -2.420743 -1.820318 -1.429128 -3.879176 -0.068730 1.501534 0.008271 1.382090 0.418541 -1.102169 -0.915955 1.210342 0.817607 -0.778514 0.158649 -3.335808 2.462437 0.198257 0.798849 2.337023 -0.059524 -0.517667 0.275766 -2.487737 0.331509 -1.122149 -1.350901 -0.987026 1.699423 -0.990460 0.098597 1.183544 -3.391843 -0.573682 -0.575966 0.315974 -0.630203 
faculty 0.280687 -0.488805 -2.739291 2.237833 1.789770 1.097123 -1.280771 -1.192909 1.575257 -1.249969 -0.884516 -0.925338 0.224878 0.710209 1.464536 0.498756 -1.762504 3.637099 1.345631 -2.642558 -1.098153 0.230544 0.983189 0.889282 0.541256 0.892375 -0.422661 -1.567786 0.467267 0.363447 0.131282 0.242354 -0.202451 -0.859822 -2.383528 -0.864902 0.434850 0.091660 -2.280836 -0.415815 1.159396 -1.699882 -1.422370 1.603643 -0.173569 0.598419 0.079962 0.148124 
diet 0.011193 -1.244910 0.185611 2.198622 -1.203193 -1.227408 0.417174 -0.238629 0.417964 1.294375 -3.246911 1.210236 0.940976 -1.546686 1.174681 0.706050 -1.409061 0.642322 0.517179 0.574666 -1.636799 -0.740711 2.854100 1.781929 1.051921 -0.399519 -1.748271 2.151170 0.715487 -0.275346 1.415465 1.258776 -1.584033 -1.666189 0.189347 -2.165905 1.069035 -2.410622 -0.193177 1.234396 -2.573344 0.608838 -0.882059 1.714579 -3.983720 0.009706 -0.339853 0.670893 
download 0.733704 1.713922 -0.771759 1.484780 0.934799 1.135520 1.883940 1.208918 0.950962 1.943676 -1.440506 -0.838462 -0.900408 -0.195991 -0.704071 -1.235209 -0.151248 -0.135011 -2.565486 1.665010 -0.088734 -1.359124 -0.348277 -2.138311 -1.076963 -0.933322 0.706949 -3.194787 -0.962816 -0.453667 -0.653782 1.571179 -0.904401 -2.632908 1.634383 0.816373 1.178716 -2.088415 2.771985 0.464119 0.805106 0.185441 0.908931 0.812057 -0.185849 0.804841 -1.576035 0.433241 
about 0.449979 0.905237 0.667323 0.927328 0.671214 -0.330120 -0.199985 -0.376901 -0.959290 -0.291807 0.357956 1.088446 0.737632 -2.140283 -0.349685 1.778655 1.524762 1.827572 -0.204642 1.068363 1.756709 -0.064741 0.483931 1.880035 0.964968 1.096979 -0.473682 -0.349339 0.218383 0.364700 -0.390547 -0.826221 0.340707 1.249984 0.292728 0.751742 2.058041 -0.389353 1.590456 -0.571593 0.158632 -0.307397 -0.605242 -0.528104 -2.144409 0.129134 -0.154062 0.040429 
federal 0.170819 -0.990301 -1.316114 1.010858 -0.482509 0.070580 -1.458654 -0.859927 1.786049 -0.620619 0.683583 0.257727 0.394469 2.514574 1.547983 0.050188 -0.887901 1.517983 2.112739 -2.164056 0.476306 0.412006 1.033942 -1.343596 1.048279 -0.598877 -1.391195 0.692590 -1.999244 -2.149447 0.473354 -0.082407 -0.949184 -1.703662 0.905728 0.397661 2.142401 1.145638 1.301712 0.604342 1.397647 0.891027 0.727016 -2.267312 -0.438438 2.595300 1.092178 -1.643053 
capital -1.331841 -1.116439 -1.390263 1.431692 -0.386554 0.484852 2.498643 -0.632929 0.463898 1.508251 0.553927 -0.512581 2.227995 0.233189 1.038645 -2.405230 -0.439543 2.252834 -1.402642 -2.594328 0.738449 2.322933 2.610275 1.832190 0.334349 -1.726354 0.598217 1.346879 1.525377 1.641508 -1.234623 0.279298 -2.920223 1.141651 -0.073925 0.621731 0.946897 0.543775 -1.085195 -0.533223 -0.076451 0.350081 0.301308 -0.799077 0.005389 1.873111 -3.821342 -2.460132 
racing 0.214059 1.386436 -1.871480 2.923860 -1.560438 0.019043 3.255672 -1.292990 -3.129195 -0.026589 -1.807692 1.322629 1.813450 0.989041 -1.279120 0.114674 -1.353094 0.028581 -0.503718 0.349433 -0.246384 -1.148576 -0.433904 -1.000260 1.065105 -0.224351 3.058329 0.599064 -0.511583 -0.217465 1.330952 -0.024219 -1.195161 -0.873877 -1.165856 -1.797809 -2.193946 1.201315 -0.187707 2.233449 0.657484 1.512739 1.414356 -2.939197 -1.311924 -1.642569 2.808218 -1.473060 
comprehensive 1.023502 1.874897 -1.001351 0.611917 0.110037 -0.521209 0.323590 0.908257 3.224895 -2.103707 -0.358195 -0.195397 0.099349 0.218958 0.280497 -0.464991 -0.567193 1.163089 1.049324 0.195683 1.474070 -1.169798 0.632803 -0.435575 -0.965711 0.210882 1.015681 -0.799574 -0.338026 -0.885907 0.728512 0.410255 -0.571587 0.479297 0.522794 -0.611711 0.828566 1.086045 0.773084 3.491961 -0.905752 1.687931 -0.731854 -0.774975 1.412525 0.160878 1.086469 -0.491792 
food 0.081972 1.313217 0.869628 0.678268 1.153856 -2.656339 -0.361925 0.429075 0.550555 2.979237 0.729317 -0.399799 1.841935 -0.719573 0.264475 3.793398 -0.159668 1.239570 0.619099 0.437217 -2.697200 0.351153 0.845064 1.867965 -0.757921 1.740579 -0.996772 1.600093 -0.865112 -2.776401 1.221636 0.980750 -1.982478 0.776919 1.259444 0.688992 -0.660488 -2.355432 0.616705 1.816022 -0.241730 0.151738 0.752825 0.400303 -0.706998 -0.106456 -1.270996 0.488809 
drug 1.351892 2.076185 -1.781353 0.201304 0.293390 0.870861 -0.493911 -0.009682 1.078497 -0.493885 -3.045601 -0.020508 -1.706544 -0.456114 1.715899 2.433870 0.459305 -0.693743 2.548490 0.163509 -1.340227 -0.634072 2.154163 -0.944342 0.520873 1.889433 -0.393221 0.617853 -3.679865 -0.908748 4.387895 -0.680690 -2.757925 0.273830 -1.848630 0.100022 -0.718277 -0.361925 -0.154687 0.787247 1.156650 -0.179227 -0.049036 -1.627806 -2.024670 1.910100 -0.759059 2.983170 
reports -1.572587 0.819109 -0.391001 1.097924 -0.955847 0.118927 1.044448 0.403856 1.636620 -0.730549 -0.544390 -1.649140 -0.250338 -0.526684 -2.668532 -0.436818 -2.451773 -0.371199 -1.228938 0.926155 0.481729 1.740538 0.621437 -0.315421 -0.623112 0.314655 -0.171766 1.427662 -1.655196 -1.279957 0.518769 -0.488337 -0.978810 -0.734925 -1.227230 0.157475 0.697627 0.558243 0.345704 -1.419875 -0.758865 0.093487 0.965126 -0.015571 2.012739 2.651989 0.967833 -0.562609 
shtml 0.731297 0.754430 1.533774 -0.147563 1.408823 0.874255 0.528722 -1.457192 -0.481877 -0.744001 0.102227 1.076277 -0.550076 -0.825266 1.027159 0.293441 1.125566 1.156692 -2.164252 -0.122864 1.521873 2.938536 0.091541 0.388288 -0.248142 2.517419 -0.343089 -0.593757 -0.456850 -0.348585 0.369099 -0.760872 0.827533 0.314228 -1.581766 0.033016 1.204274 -0.091310 0.209577 1.202148 -0.578726 -0.383792 -0.628812 -1.259404 -1.186361 1.345942 -0.323733 0.982475 
java 1.534084 1.619505 -0.818232 0.477136 -0.610867 0.704316 -0.969822 -1.117077 -1.196463 0.365714 -1.295339 -1.484856 1.951032 -0.516070 -1.788538 1.417380 1.426698 2.237288 -0.405191 2.532892 -0.028300 -0.463164 0.277715 -1.324341 -0.395032 1.957526 1.254339 -0.506831 0.309039 1.055581 1.184495 2.510393 2.679104 -2.460933 1.257933 -0.918712 2.731248 0.245998 -0.752431 2.790604 0.802312 -0.719996 -0.853266 0.940368 0.292495 0.370324 -2.477420 -1.470103 
media -2.095685 2.152921 0.686869 1.291678 -0.919581 -1.864684 2.887163 0.489595 0.712262 -2.541515 -0.989527 0.184895 -1.057894 1.457369 0.136934 -0.870733 -1.978097 1.319371 -1.763004 1.841769 -2.083649 -1.623487 -0.591810 0.246635 -1.236662 0.320466 -0.141305 -0.426830 -2.470259 0.244253 -1.232671 -1.453742 0.989067 1.557266 -0.770524 0.339621 1.183572 1.125224 1.265693 -0.862350 -1.400928 2.123266 0.813765 -0.555072 0.414896 0.837282 -0.738711 -0.576481 
tax -0.580246 0.095324 -2.705754 -0.576906 1.334337 0.290221 -0.398727 -1.316398 1.472138 -0.371762 -0.833760 -0.516690 0.137776 1.212368 3.506507 -0.335613 0.091234 0.687115 2.498246 -2.077305 1.009860 0.377252 0.320358 -3.175244 0.170652 -2.485254 3.441488 -0.091578 -2.306191 -0.726686 1.266738 2.383572 0.042941 0.680620 -1.231099 2.624102 0.484344 -0.474865 3.259470 0.118992 -0.884015 0.748307 -0.060876 -3.564185 1.188790 0.910028 -0.534450 -0.144226 
equipment -2.235313 -2.367101 -0.044401 0.413231 2.226918 -1.440034 0.073027 0.251723 0.912890 1.036996 -0.146061 1.413558 -0.520041 3.099262 -2.063621 -0.729633 -0.486325 2.676827 -0.152199 1.231147 -1.100760 -1.103471 2.278805 0.242325 0.874809 -0.059895 2.271763 0.458529 -0.423426 -1.024623 -0.853249 1.300037 -1.100220 -0.797756 -1.435647 0.785267 0.441805 0.277270 0.659582 3.349177 0.688083 -0.091911 1.096069 0.853907 -1.834764 1.514089 0.425421 1.745151 
america 0.247687 -1.292971 -1.685253 0.292430 -0.456879 -0.469794 1.525361 2.275474 -0.130356 0.888535 1.866731 0.576247 1.427794 1.326548 -0.854841 0.213456 0.930950 0.243926 0.769180 -0.432884 -1.242294 0.231195 -1.307291 1.694649 -0.244734 -0.806298 -1.266834 -1.064196 -0.511308 -1.730574 1.229593 1.093942 -0.124812 0.596535 0.223080 -0.157971 0.642179 1.017321 -2.465008 -0.767415 -0.797725 1.842876 0.618971 -1.508706 -0.385479 1.575645 1.026275 1.634231 
mathematics 1.724091 2.581932 -0.607532 -0.260692 0.168796 0.156660 -0.881891 -1.142899 -0.022424 -0.432280 -0.881661 0.411117 0.378743 -0.375769 0.088231 1.059150 -2.306424 1.942948 1.691467 -0.256436 1.622567 0.320257 0.718917 2.094221 2.355040 2.188256 3.614304 -1.587506 0.667216 0.202151 -1.001412 2.090389 -0.376114 1.508181 1.304021 -0.290465 1.776546 1.003013 -0.840899 1.416627 -0.284322 -1.767920 -2.364021 -2.203672 -0.169068 -0.140355 -0.652357 -0.574586 
hospital 0.383552 -0.832175 -2.580470 1.563814 0.191755 -1.569904 1.676216 -0.286838 1.260622 -2.346003 -3.199993 0.253038 -0.387937 -2.083416 0.907825 -0.299671 0.723857 -0.935555 -1.973578 -2.592925 -0.021071 2.088620 -0.137080 1.276778 0.725699 0.079781 -0.277602 0.546330 0.991887 3.575691 -0.525820 0.748473 -0.445690 -0.581327 -0.096630 0.076152 0.987608 -2.156837 1.162689 2.342680 0.602382 1.305348 0.287047 -1.430215 0.354944 0.863160 -0.408124 0.214874 
degree 1.042457 -0.574037 0.936284 1.265235 -1.535587 -1.242673 -2.144346 -0.069081 -0.243333 -2.304865 -1.486475 -0.095538 0.484638 0.193777 2.089977 -1.890770 1.454217 4.098961 -0.455683 0.023165 -1.692280 3.096162 -2.090249 -0.306055 1.219341 -0.891482 -0.789528 -0.977729 -1.879826 -0.079315 1.196566 2.765983 -1.026448 0.129165 -0.975814 -0.086762 2.038670 -0.407603 0.031203 -1.912592 -0.563878 0.699431 0.484511 1.337060 -2.135414 -0.682219 -1.680322 1.890185 
production -3.561913 -1.760242 -0.755367 1.394785 2.109250 -1.827169 -0.651588 -1.568140 0.646530 0.567505 -1.501523 -2.879540 -0.226242 2.295690 0.253653 2.514252 -1.541489 2.669041 0.611335 0.592132 0.585767 -0.366498 -1.898761 0.347051 1.021566 -1.438301 -1.019289 -2.305562 -0.534882 1.715661 0.356853 0.699042 -1.753593 1.273490 1.729185 0.127895 0.246094 1.226536 1.190710 1.910865 -1.351784 -0.671326 0.200865 -0.633343 -0.937383 3.055037 -1.735565 0.859909 
