3484 48
</s> 0.008339 0.009207 -0.007980 -0.006829 0.002847 0.006294 0.001960 0.000440 -0.007507 0.004622 -0.009076 0.002603 -0.001565 -0.001994 -0.006908 -0.003921 0.005374 0.006303 0.006186 0.003328 0.003218 -0.007922 -0.008533 0.010353 0.007919 0.006438 -0.001258 0.008366 -0.001031 0.001531 -0.000311 -0.006215 0.002734 -0.002786 -0.007970 0.009905 0.009123 -0.002282 -0.000471 0.001061 -0.007579 -0.008348 0.009489 0.000131 -0.005380 -0.006338 -0.006409 0.003535 
to 0.555604 -0.731289 -1.534446 -0.163932 0.503393 0.746325 -0.155418 0.981591 1.035249 1.589044 0.586184 -0.364756 0.908226 0.082062 1.237871 -0.468683 0.085021 0.524215 -0.785808 -1.323001 0.500771 -0.500088 -0.995802 1.333128 0.136862 -0.183430 -0.693187 0.537131 0.243063 -0.810423 0.922711 0.537553 -0.132368 0.687919 0.592186 0.045084 -0.034380 1.209777 0.240259 -0.884538 -0.060304 -0.127726 0.384487 -0.701420 -0.038047 0.460524 -0.769569 1.493264 
in 0.400600 0.742297 -1.026088 0.081203 -0.610606 1.318779 0.327173 -0.150251 -0.100189 1.308336 0.249645 -0.315196 -0.336995 -0.393211 -0.054242 -0.358412 0.614802 1.288347 0.722794 -0.107517 -0.866684 0.327574 -1.808722 -0.276299 -0.271819 0.036504 0.768694 0.134447 0.460668 0.140396 0.111104 -0.071965 -0.638381 0.128489 -0.023406 0.166065 -0.417461 -0.184315 -0.493580 -0.749939 0.570604 -0.258757 0.167244 -0.319196 -0.123469 0.496089 0.121038 -0.176092 
a -0.318656 0.030983 -1.063554 -0.553145 -0.520600 -0.838524 0.000328 1.249977 0.328094 -0.410029 -0.439818 0.892897 -0.412767 1.929217 -0.386097 -0.439275 -0.492359 0.508175 -0.040225 -0.468099 0.316715 0.797270 -0.187700 0.236368 0.095281 -0.171143 0.340725 -0.642827 -0.150930 -0.774144 0.306363 0.055424 -0.606021 0.257562 0.665821 -1.248195 -1.274968 0.366277 -0.736709 -0.939734 0.621432 -0.794864 0.743811 -0.417670 0.797575 0.630902 -0.353523 0.607732 
How -1.116233 -0.296023 0.002782 -1.300890 0.742182 0.162928 1.853884 0.952801 -2.971134 -1.041454 2.828334 0.811986 -2.221329 1.126141 0.123870 -2.563714 0.106632 1.614371 -2.293188 -0.787209 2.825055 -0.863555 -0.082305 1.277473 1.469819 -0.134920 0.980056 0.297848 0.813890 1.008390 0.596016 -0.443601 -0.749679 0.207759 -0.373843 -0.150080 -0.005877 1.500713 0.100165 -0.489939 1.106506 -0.564237 0.717142 -1.014045 -0.134947 1.074246 -0.141507 0.178563 
the 0.643602 0.331784 -0.795117 -0.509716 -0.160721 0.617890 -0.458337 1.068593 -0.068876 0.744995 -0.292550 1.009398 0.430195 0.854407 -0.571625 -0.450321 -0.083212 -0.567539 -0.515124 0.610283 0.128246 0.398734 -1.347153 -0.054284 0.556087 -1.284361 0.318100 -0.068319 0.290683 -1.071260 -1.218274 1.045013 -0.322080 -0.090357 1.513261 -1.184189 -0.792525 1.792601 -1.290969 -0.898869 -0.083889 -0.087798 -0.278976 0.632013 0.525324 -0.686969 -0.753661 -1.544019 
of -0.007109 0.551052 -1.211816 0.438020 0.267486 -0.259677 0.793195 -1.767984 1.004752 -0.828600 -1.194476 0.664468 -0.345655 -0.805733 0.340874 0.456564 0.703802 0.072801 -0.879513 0.584164 -0.061069 0.830468 -1.802431 -0.381438 1.871877 0.187868 1.072767 0.210969 1.729571 0.272948 0.381416 -1.863043 -1.066046 0.665183 -0.294482 -1.229936 -0.270759 -0.596527 -0.904486 0.242904 0.311160 0.368256 -0.704716 -0.206548 -0.486575 0.370828 -0.836905 -0.018042 
with 1.107812 0.659607 0.575528 0.009690 0.041760 1.020948 0.437987 -0.534346 -0.575448 0.761677 0.088909 -0.356171 0.346079 -0.540657 -0.741875 -0.099881 0.837810 0.409761 -0.077744 -0.028644 -0.455669 -0.183602 -1.433551 -0.947448 0.186335 -0.089344 -0.357282 -0.593936 0.993625 0.136005 0.746204 -0.458842 -0.543792 -0.120411 1.568620 0.581138 -0.767933 -0.717406 0.669798 -0.593173 0.900662 -0.062287 0.515483 -0.858698 -0.450999 0.000238 -0.903566 -0.558316 
and 0.081396 0.550240 0.710560 -0.469866 -1.261551 -0.356649 -0.905441 -0.480421 -0.683691 1.131541 1.361409 0.446839 -0.725076 -0.178728 0.181026 0.098936 -0.304440 0.572964 -0.033654 -0.558760 -1.852964 0.217544 -2.018250 0.327838 0.680035 0.145069 0.086553 -0.236576 -0.607101 0.187479 -0.480383 -1.072083 0.461514 -0.774790 0.082713 0.044038 -1.351745 0.845818 1.208092 0.984259 0.840243 -0.178002 1.311736 -0.500759 -0.326884 0.955363 0.239324 -0.562964 
for -0.173211 0.872641 0.043783 -0.574478 -0.952436 0.747080 -0.387958 -0.000186 -1.002115 0.106766 -0.236288 -1.922606 1.324180 0.340408 -0.470184 -0.529723 1.005784 0.060087 0.337495 1.053752 -0.105801 0.687488 -1.964731 0.468231 0.678597 0.496435 0.661012 -0.777904 0.609929 -0.409727 -0.322343 0.532805 -0.224944 0.110492 0.764713 0.217919 -0.355826 0.246522 0.444577 0.703373 0.426705 1.054931 0.053683 -0.020549 -0.255951 0.154572 -0.792789 -0.277354 
I -0.535169 -0.841477 -0.219489 -1.155144 0.097433 -0.199594 1.500490 1.158667 0.524087 1.221428 -0.036238 0.827112 0.243591 0.212491 0.120424 0.797822 2.129521 2.518040 -1.922720 -0.190515 1.511806 0.311165 -0.877905 0.733521 0.111209 1.576792 -0.206361 1.816844 -0.082247 -0.732375 0.976976 0.609070 -2.052200 0.075692 0.997505 1.164995 2.130293 2.284415 1.182008 0.416128 -0.341257 -0.484709 -0.981034 -1.118874 1.739170 -0.496033 -1.647292 -0.321425 
on 0.323261 0.492887 -0.350253 -0.055363 0.112807 1.453430 -0.035555 -0.044119 0.662304 1.188830 1.795155 -0.302051 -0.446568 0.825371 -0.149805 0.768156 -0.332834 0.329277 -0.844928 -0.783235 -0.262015 -0.382527 -1.417305 -0.834262 0.550461 1.462094 0.352277 -0.938766 2.679397 -0.304867 -0.395472 1.079126 -0.775649 -1.609791 0.309105 0.494179 0.036420 -0.975163 0.786787 0.083766 -0.878131 -0.088545 1.156750 -0.900440 -1.458058 0.726488 -0.792976 -0.231676 
from 0.954795 0.294756 -1.762361 -0.605002 -0.591426 0.697990 0.208243 0.304665 -0.442367 0.353192 0.107162 0.284857 -0.862004 -1.237862 0.231086 -1.600106 0.217045 -1.550384 -0.799439 0.028663 -0.770581 0.240928 -1.354362 -1.785052 -0.062455 -1.485174 0.274737 -0.479649 -0.055611 -1.065256 -1.020051 -0.752021 -0.526510 1.340462 -0.202014 0.400223 -0.346921 1.333021 0.822782 -1.327012 1.858688 0.309469 0.222543 -0.851775 -0.038315 1.024217 -0.492476 -0.183165 
do 0.568268 -0.615060 -1.651764 0.734336 -0.335239 -1.028656 -0.766448 0.719508 -1.492955 1.595844 0.234578 -0.446284 0.227833 0.371801 1.652492 -1.041518 0.698618 0.654147 -1.396057 -0.694661 1.246595 0.743687 -0.388082 1.433370 1.721542 -0.580563 1.001009 1.669639 0.145789 1.382493 -1.241156 1.308483 1.829519 0.783326 -0.674525 -0.618753 -1.650592 0.343421 0.419288 -3.151057 -0.626933 0.826018 1.040026 0.477418 -2.093369 1.267877 1.070743 2.853851 
an 0.511105 0.529474 -2.822424 0.451087 -1.986970 -0.218555 -0.212401 0.225033 -1.493175 -1.398005 0.580611 0.639430 -0.639437 0.911669 -1.073574 -0.952026 0.046419 1.423535 0.362020 -0.887531 0.497561 -1.134337 0.462368 1.598328 -0.245109 0.478710 -1.604411 -0.120909 -0.922059 -0.037945 0.939005 0.408808 -1.443638 1.626837 -0.068084 0.395724 -1.018297 0.074286 -0.329925 -0.884310 -0.167464 0.235723 0.718111 0.022959 1.763444 -0.157757 1.928535 -2.514318 
is -0.181543 0.767167 -0.128556 0.655998 -2.414419 0.373766 -1.781788 0.248783 2.140199 0.182145 0.360805 1.960238 1.252461 0.614420 0.847429 1.134031 0.031226 -0.834164 2.080048 0.460452 -0.933646 -1.084071 0.341353 0.454561 1.322255 0.456067 2.689939 1.588385 0.779944 -1.808944 -0.694723 2.214066 -0.057951 0.961366 -1.558502 -0.713237 -1.998801 -0.728224 -0.422013 -1.155986 0.235538 1.128244 -1.498542 -1.339119 -0.063170 -1.827277 -2.092785 -1.451246 
- -0.187035 0.391573 0.782113 0.139770 0.167747 0.240406 -0.264369 1.082377 0.230467 0.561249 -0.076691 -1.234541 0.308478 -0.196218 1.313668 0.496267 0.676951 -1.967500 -0.089422 -0.622558 -0.625480 0.367050 -0.913225 1.629034 -0.152939 1.151137 -0.711797 0.093537 -0.380865 -0.190325 0.061685 -0.497823 0.286879 0.211559 -0.489140 -1.115704 0.834590 -0.350711 0.348612 0.021502 2.095318 1.202391 -0.286474 -2.589804 0.600429 -0.233438 -0.962023 -0.288115 
using 1.969106 -1.031939 0.757981 0.472446 -0.261494 1.584045 -0.398325 1.044470 0.941575 -0.391011 -0.352759 0.158585 0.853839 0.120848 1.032160 -0.421201 -1.442507 0.420657 0.617347 1.133617 0.069380 0.418780 -1.494921 0.726077 0.434543 0.653711 0.357395 0.095696 0.616280 0.531088 -0.082383 -0.792522 0.022408 0.534318 1.522480 1.000472 -0.005516 -0.152093 0.215620 0.519430 2.661349 -0.392622 0.517922 -0.289363 -0.678034 1.231979 -0.089847 0.059264 
not -0.538896 0.481869 1.220543 0.815920 -0.364564 1.336431 2.329414 -0.871878 -0.008527 -2.104801 0.284012 1.320262 -2.273513 2.149062 0.319838 -2.152918 -0.858169 0.707376 -0.645105 1.451327 -1.420182 -0.050619 0.689641 -0.482488 -0.859196 1.137934 -2.213636 -0.276308 2.131702 -1.718436 -1.220704 1.539081 0.550294 0.656567 0.319929 0.804764 -0.192568 0.723628 -0.081042 -2.032519 0.828941 0.930252 0.819277 -2.515846 0.352218 1.030856 -1.709119 -0.409825 
can 0.860368 -1.915620 -3.248240 0.950846 -0.830223 -0.342959 -1.464598 0.823116 -2.016244 1.887714 -0.564130 -0.324876 0.636828 0.122019 2.160141 -2.020586 1.460716 0.930115 -1.353372 -1.186004 1.218441 0.957840 -0.718324 1.651626 2.103351 -0.057180 1.467837 2.232761 0.317277 1.756515 -1.144611 1.157783 2.869884 0.821673 -1.458352 -0.838642 -1.906209 0.091406 -0.549805 -2.489817 -1.261522 0.703569 1.851656 0.262327 -2.494928 1.599513 0.326640 2.243302 
Visual 0.325826 -0.060724 -0.121987 -2.734643 1.020089 0.680099 -0.683139 -0.134330 -0.547313 -1.856754 -0.235125 -0.430509 -3.036094 0.104550 3.065002 3.431391 1.683889 -1.973145 1.749104 -0.439798 1.415725 -1.238930 2.278687 0.654179 1.295110 2.352684 1.496661 0.217502 -1.318909 2.259761 -1.332711 0.468994 -0.481777 1.328648 2.571947 0.897492 -2.061170 1.419551 -2.110680 0.720981 -2.822814 1.278639 -0.479161 0.432591 0.149810 0.021025 -0.489097 0.593177 
how -1.663906 -0.827143 0.587124 -0.819940 -0.194171 2.258813 -0.464767 0.787374 -3.480577 -1.152398 0.862987 1.570753 -2.104756 -0.082257 -0.470655 -2.695090 -0.104111 2.201536 -1.777297 0.462444 1.551474 -1.125681 0.070318 1.542450 0.875716 -0.428042 1.273565 1.366595 2.228646 0.705061 0.474779 -0.034894 1.129700 -0.399979 0.311646 0.070512 -2.241483 3.418906 -0.576766 0.308855 1.463172 0.174105 1.342444 -1.413324 0.884117 -1.159735 -0.144110 -0.464452 
What -4.053610 1.989214 0.614993 0.739782 -2.146868 -3.213933 1.849458 0.686397 0.978957 -2.978284 2.265282 -2.671646 -2.475828 0.802637 -0.866085 -3.092194 -1.031642 -0.845766 -1.239442 2.968801 -2.487976 -1.215976 -1.619159 0.404474 -0.458391 1.644145 -1.367228 2.833056 1.754833 2.545748 -1.562029 0.753309 -1.302991 1.535714 1.194896 0.269095 -0.832744 1.284471 -2.706882 -0.184784 -0.245411 0.633766 -1.780114 1.782523 -1.138203 1.125545 0.070105 0.557811 
file 1.217432 0.801818 -0.235004 -0.009868 -1.475160 -0.492212 -0.089110 -2.293755 -1.070745 -0.705030 0.158304 0.443902 -1.602519 -1.523651 1.716345 2.038680 -1.540601 -0.923719 -0.032713 1.333497 -0.170208 -0.926925 -1.030529 0.988519 0.218880 -0.996464 -0.728911 0.517519 -1.546024 1.707396 0.237289 0.849137 0.745690 0.348919 -0.900014 0.501813 1.435192 3.008641 -0.026442 -1.951807 -0.189726 -0.220143 0.372458 -0.126294 1.125499 0.413077 -0.117934 -0.098580 
Excel 1.452966 -1.102093 0.842621 0.027161 1.351107 0.715560 -0.248441 1.487016 1.334743 0.005420 -0.100149 1.852176 -2.706306 0.897163 0.459824 -0.742063 0.213076 0.461133 -0.551917 -1.189605 -1.684201 -0.630320 2.338425 -2.261127 -0.564302 2.400407 -0.276147 0.917756 -2.328794 0.771786 1.193475 1.658982 -1.643282 0.037849 -0.117508 -3.067034 0.220781 1.172824 2.653526 -0.084571 0.627412 4.767248 1.649743 2.524011 -2.187196 0.189067 -0.044277 1.269676 
when 0.705731 2.759760 0.467347 1.374155 -0.186356 0.666956 2.014090 0.789940 -1.629030 -1.918938 1.461830 0.715965 0.667169 -1.150516 3.782710 -1.286998 1.703965 -1.357565 -1.064770 -2.425692 -1.854935 0.130021 0.499094 -0.849402 0.134922 -1.023571 0.367508 -2.456051 1.898576 1.747722 0.569827 -0.055402 0.729059 -0.963424 0.145971 0.373361 -0.199130 0.743225 -0.735699 -1.558747 -1.602110 1.579211 0.890088 0.095317 2.065812 -0.226551 -0.641798 -1.708149 
Oracle -0.352148 1.784400 1.944034 -1.724544 1.429187 -0.374376 -0.480537 1.622728 1.349407 -0.828034 1.542048 2.773098 0.045197 -0.565781 -0.840582 -1.241606 0.582992 -0.848339 0.739819 -1.354666 0.168322 1.823492 1.397453 1.211908 0.185905 -1.903830 0.564617 1.685873 -1.541597 0.476673 0.844559 -0.727922 -1.141055 -0.536502 1.336896 -1.518241 1.480322 -2.118341 0.536213 -2.134607 -0.177686 2.771879 -0.229470 1.673519 -1.119915 1.770414 1.206839 -0.489987 
Spring 2.957980 -1.002318 0.489317 -0.798091 -0.922518 -1.879477 -1.211197 -0.973242 0.388453 -0.536869 -0.692933 0.059897 -2.116692 -1.936091 0.394107 0.476949 0.710280 1.219385 -1.211190 0.857394 1.261825 -2.652849 1.594025 0.680894 -2.820640 -0.118097 -0.410948 -1.182812 -1.878007 1.050128 -3.513606 0.697906 -0.805059 -2.074714 1.917736 -2.133862 -2.733947 -1.276914 0.408058 -1.415361 -2.263675 0.732685 -0.423052 -1.156782 0.595553 0.265720 0.595642 -0.581838 
Is -0.823826 1.182882 -1.705186 2.957384 -1.516869 -2.279584 -2.526234 0.744733 3.310143 -2.963094 2.042943 -0.332745 0.486064 -1.680556 -0.393980 -1.172992 1.111665 1.790370 -0.187787 -2.134374 -0.541467 -1.344260 0.446928 2.118640 1.905031 -1.301304 3.300955 1.246623 0.008502 -0.389024 1.258777 1.057287 -1.059757 0.225788 -0.617317 1.435271 -2.318936 0.557347 0.702713 1.929382 -0.012547 -1.662168 -1.982174 -2.438348 2.403441 -1.864067 -2.581225 0.941406 
Studio 2.931570 -0.582801 1.270333 0.891160 2.230822 -1.651546 2.512785 -1.339672 1.129762 -0.691048 0.831039 0.808936 3.503439 0.642108 -4.061765 0.040879 -1.986391 -0.724759 -0.116720 -1.427044 0.211328 -0.499260 -0.302227 0.012403 0.584102 0.183554 0.187388 0.833392 0.286206 2.358313 0.576703 2.109821 -0.643894 1.372499 0.060303 -1.377271 -0.883650 2.031077 0.676929 0.679300 -2.737245 0.638706 1.105350 2.074490 2.144969 0.747071 -3.377978 0.115780 
Hibernate 0.298722 -0.564404 1.833516 1.006961 -0.923311 -0.259070 -0.282121 -1.564432 0.445377 0.696154 -1.850870 2.121398 -0.865095 -1.106097 -0.460556 -0.103471 1.522639 1.001502 0.672118 0.304435 2.214533 1.267781 1.187127 1.833004 -2.750032 -0.222094 -1.437175 0.618132 0.332152 -0.363713 -1.251088 1.282808 -2.201088 -0.060169 3.224239 -0.693094 1.882135 -0.626016 -0.928767 -0.139818 -0.783406 1.449720 1.163560 0.061056 -0.502019 0.627985 0.061640 -1.806264 
Magento -1.340066 -0.767427 0.867765 1.190594 -1.373077 0.428515 -0.403004 -0.330806 0.746658 0.638787 -1.464629 2.226429 -0.079137 -1.492376 -2.882545 1.079372 -2.084691 0.262372 -2.203299 -0.552614 0.017284 0.550875 0.943960 0.381700 -1.760699 0.319579 -2.495748 -0.255807 -1.865237 1.738087 -0.945920 1.243868 -0.207225 -1.356850 -0.247269 -2.688370 0.685025 1.045520 -1.067519 -1.077795 0.456589 2.921339 1.362809 -2.153597 -0.970224 0.345867 -2.418604 -0.234781 
Drupal -1.349796 0.891357 -0.808062 -3.292986 -0.330922 0.473319 -0.449609 -1.086831 -0.085801 -0.031684 -1.482184 1.185093 -0.863322 -1.663165 -0.804341 1.001174 -0.066462 0.866172 -1.716161 -1.135978 -0.419898 -0.428109 3.351998 -0.390560 0.679572 1.563997 -1.629654 -0.270264 -1.235081 0.194626 -0.912981 0.200588 1.126514 -1.809357 2.216851 0.371618 -0.578310 -2.199173 -2.643404 -1.035059 -1.237749 4.347613 0.105338 -2.238553 0.066908 0.965992 -0.082213 -0.037782 
use -0.023247 -1.138008 -0.561174 0.430413 0.266683 -0.911991 -0.313002 2.141667 -0.238466 -1.337533 0.681363 0.375130 0.534499 0.071728 -0.811069 1.204208 -1.909936 2.018478 0.840268 0.000982 1.602637 -1.078445 1.126065 1.652160 2.420020 2.181278 1.916022 0.311367 0.275299 -0.565616 -3.029025 -0.006295 -0.688002 1.760474 1.179549 -0.062646 0.583416 -1.675991 0.515472 -0.792048 0.993602 -1.987572 -1.104851 0.058910 0.082936 -0.008760 0.427802 -0.107173 
way 0.938054 -0.060330 -1.260008 0.359243 -0.051576 1.682387 1.932919 -0.167006 -1.317116 -1.589795 1.815842 -0.912252 -0.906206 -0.708088 0.539662 -5.036093 0.498964 -0.034986 -1.384252 1.213205 2.217074 -2.557832 0.762121 3.422966 3.460154 -0.224086 1.750008 1.266173 -1.787406 -1.618061 0.897025 -1.589179 1.288348 -2.783008 -1.213779 0.580841 0.386610 2.362194 2.129123 1.737746 0.082770 2.474948 -1.192159 -0.143258 1.124004 -0.654744 -2.721860 -2.142047 
get 0.041394 -1.368434 -0.482059 1.929975 -1.747397 0.001519 0.684879 1.835779 -1.920345 1.432006 0.822616 0.252972 -1.444698 -0.971011 -0.300199 1.813590 0.093743 -0.996913 -1.571118 1.213940 -1.262134 1.308076 1.146942 0.054531 -0.981541 -0.099121 4.337287 -0.249776 1.780177 0.156695 0.099742 0.821779 -1.226361 0.253855 -0.554291 -0.745168 -0.404804 -0.709796 -1.635717 -0.154170 -0.642452 0.401538 -1.774382 1.093737 -0.168767 1.492598 0.814343 -1.477545 
or -0.677249 2.113703 -0.102272 0.302226 -1.901699 1.174138 -2.224792 0.850717 1.769979 0.885743 0.555999 -0.614906 0.021855 -0.914209 -0.874281 0.053263 -0.102477 0.132620 0.637035 0.696564 -1.553409 0.945141 -0.148680 1.813333 1.031008 1.528558 0.420981 -0.034562 0.141815 0.428553 0.330354 -1.622596 1.217143 1.420943 -0.980252 -0.751514 -0.458369 1.449174 -0.630064 0.791256 -1.577174 0.866606 1.034462 0.170955 0.763673 -0.820567 2.333468 0.453112 
Scala -0.829504 -1.705704 0.527939 0.941520 -2.867424 0.592226 2.041571 -0.953877 1.258572 -2.579236 -2.175285 2.248028 -1.040857 -2.430332 -2.390587 1.009331 0.262033 0.593419 -0.201125 0.032630 1.617265 0.526331 0.143077 0.980060 2.520101 -1.612035 -2.513285 -0.036924 -1.986911 1.291243 0.687558 0.068045 -1.520036 -0.074831 1.436051 -0.546559 -1.835737 -1.575935 -0.041175 -0.459290 -1.304395 1.665608 -1.040483 0.279907 0.002530 0.610520 0.272889 0.224992 
you 0.159516 0.794292 1.014603 -0.831065 1.616165 -0.497879 2.139329 2.722240 1.648232 1.106258 0.801600 0.024271 -0.000377 1.022063 0.571312 0.117756 2.169402 2.779325 -0.366758 0.410230 1.608369 -0.962878 -3.540846 0.725755 1.180308 1.090237 -1.059607 -0.033503 -3.384122 -2.931399 0.625481 -0.328255 -1.177702 0.426086 1.555022 1.500097 0.851926 4.548548 -1.269335 1.043612 -0.735020 -0.451700 -1.815715 -0.575318 0.523295 -0.607173 1.346880 0.310093 
Haskell -2.717712 -0.741780 0.119764 2.070091 -0.442074 1.360276 3.341237 -0.980566 1.844982 -1.261475 -2.550795 0.112279 0.400468 -0.562779 -0.949183 1.542387 -0.534590 -0.359746 0.179174 0.125615 0.257586 1.392930 1.390914 -1.132692 2.180546 -0.737400 0.484547 -0.087595 -2.769813 2.178968 -1.106128 0.001387 -0.217426 -1.915659 1.524512 -1.563122 -1.730688 0.368874 1.218259 -0.891200 -0.578854 1.659236 -0.010228 1.472492 -1.344110 0.648387 0.742574 0.453823 
Apache 0.661248 1.425556 2.210678 -1.737998 -0.639274 0.213296 -1.411363 -0.084808 -0.991150 2.001549 0.073050 -1.211852 -1.876518 -0.520973 -2.122841 1.345790 -0.092535 2.175871 -0.272743 2.956594 0.705283 0.978183 1.699777 -2.035611 -0.252409 -0.083265 -1.990937 2.560084 -0.738902 -0.164322 -1.076780 0.621886 0.161634 -0.341600 1.373212 -1.991320 0.325197 -0.684769 3.119291 -1.283112 -3.846155 0.499172 3.519282 -0.164108 0.655089 1.282667 -0.367365 -0.805147 
it -2.086943 0.143397 -1.481725 3.389423 1.946499 -3.226252 -0.754511 0.811899 1.258101 0.940570 1.003851 1.753252 -2.251912 -0.914801 0.515171 -1.250777 -2.268533 -0.317722 -0.349412 1.787192 2.246053 0.221985 -1.502412 -1.023548 -0.219887 2.162926 -2.169113 1.047778 -1.629814 0.798251 0.346583 2.308820 0.399650 -0.477002 3.673367 0.783571 -0.852497 1.220952 1.477543 0.298395 1.876634 -0.269787 0.456551 -0.801347 -0.683527 -2.689015 -2.399558 -1.159050 
SharePoint 0.439196 -1.578935 0.201958 -1.342380 1.424650 -0.852002 -0.064807 -1.006176 1.969952 -1.220371 -1.021456 0.614278 -1.876868 -0.119132 -1.689919 -0.551653 0.778469 0.524777 -1.527528 0.889303 0.159094 1.954105 0.224476 -2.006172 -0.073977 2.663254 0.321971 -1.412631 -2.881039 0.830458 -0.569281 0.524437 -0.966484 -3.434510 0.552987 -0.661694 -0.705086 0.233552 -1.219404 -2.020962 -1.812385 2.820625 1.250235 0.554916 -0.289276 -0.850861 -0.154164 0.101908 
Wordpress -0.588144 1.245629 1.660574 0.350691 0.922097 2.578202 0.316646 -0.194584 0.405850 2.038989 -1.556305 1.902661 0.618630 -0.330679 -3.377782 0.707304 -0.460307 0.446121 -2.223258 -0.163488 0.521163 -1.218008 1.114686 -0.418773 0.694673 0.365427 0.596219 -0.291731 -3.967541 1.853675 -0.669934 0.173223 -2.172662 0.945987 0.611018 -0.826409 0.909417 -1.330038 -2.094597 1.087097 -1.581247 2.365656 1.475667 -1.687514 0.085986 1.467270 -1.876580 0.417691 
there -1.264222 3.157183 0.198321 1.450756 2.824173 -0.626180 -0.885334 -0.587938 1.783513 -0.703513 -0.637519 -4.032158 -0.412254 -1.086769 -0.759725 -1.156823 -5.213856 1.321705 -0.339788 0.287594 1.868201 0.753809 -0.099415 -1.422116 0.264436 -0.476600 0.399071 2.103303 0.265178 0.679580 0.210307 -0.893309 -1.884110 2.010658 3.106800 3.036260 -1.924025 1.022515 -2.904088 -1.131022 -2.608340 -1.845314 0.855649 -1.262775 -3.357463 0.734087 0.793601 -1.938460 
Mac -1.214577 -1.774589 -1.092646 -0.288226 -1.911353 0.509224 -2.189154 0.355531 2.382797 -2.159355 1.594883 1.411254 0.888137 -1.130684 -2.463194 0.940406 1.731199 0.447273 0.652146 -0.427150 1.901939 0.229901 -0.078933 0.168533 1.016394 0.754204 -1.510717 1.066932 -0.724814 2.174438 -0.811223 -1.274216 1.834864 -1.280702 0.393170 0.367075 0.937519 0.809574 -0.994646 0.490475 -0.395439 0.528279 0.362103 0.327601 -0.726603 2.785031 0.288881 -2.237555 
LINQ 0.993996 -0.209177 1.912712 1.021188 -0.878060 -0.174471 0.101048 -1.471710 -1.685445 0.269497 -2.113313 1.177181 -0.448028 -0.498654 -2.918733 -2.202210 3.745500 -1.734888 0.853496 1.272735 1.722191 1.035699 2.149277 0.413174 -0.731607 0.502150 1.144196 -0.794841 -2.543956 2.671482 -0.347364 0.896682 -2.313743 -0.588403 1.808861 0.071604 -0.219361 1.029003 -0.566198 -2.443539 1.367685 2.109894 1.212188 -1.079815 -1.190109 -0.241612 -0.236188 -2.234548 
? 0.173586 0.275440 0.297531 0.518362 -1.331714 1.273015 -0.317414 0.876969 0.507770 -0.417853 -0.282750 1.306101 1.274572 -0.529054 1.296695 0.409915 -1.893927 -0.137210 1.039351 -0.225969 0.599370 -1.843754 -1.034621 1.535504 1.120923 0.162368 0.869421 -1.093333 1.808332 0.515704 -0.769879 0.173578 -0.176917 0.280900 0.618886 -0.001993 0.233193 -0.159670 0.328511 1.095866 -0.699876 -0.276902 0.616239 0.682862 1.003047 0.488539 -0.575040 0.350353 
does 0.934554 -1.333365 1.157438 -0.620715 -2.512279 0.985516 -0.135030 1.784177 0.736372 2.380723 0.752868 0.427882 4.017284 -2.829359 3.756433 0.658123 0.203928 0.751778 2.844687 -0.774120 0.819417 2.681605 -1.927265 0.161873 1.756749 -0.617656 0.834334 1.766704 -1.050382 -0.493262 -1.461927 2.761319 -1.123118 0.397107 -2.768077 -1.782444 -0.836732 1.024048 -0.615539 0.951739 -0.846074 -1.806593 0.714157 -1.409094 -2.427993 -1.453642 0.401425 2.468588 
that -0.157217 1.330086 -1.119935 0.613391 -0.817346 0.559399 1.965770 4.572191 -0.181678 -4.027965 -0.895383 -1.809582 -0.824330 -0.977366 1.750249 -1.295399 -0.527870 1.662115 -2.011966 1.371817 -1.102526 0.179277 -1.821763 0.912119 -0.094236 -1.127145 -0.029472 -1.597212 0.663507 0.739613 0.233930 0.168894 -0.478847 -0.767417 2.861491 1.127446 0.451575 -0.232338 -0.858094 1.436859 -1.986976 -1.071130 3.391724 2.172942 3.502148 0.424832 -0.777527 0.008790 
my -2.081796 -0.857600 -0.997382 -1.567759 0.491914 0.608594 0.744145 2.546093 -2.092523 1.039502 1.346781 -0.533728 0.573404 -0.132095 1.220378 -0.363692 -0.377729 -0.267007 1.806981 -0.636950 2.049877 1.816311 0.242958 -0.309230 -0.418667 2.300059 -1.710199 -1.124578 0.998676 -0.100639 0.240929 -0.072027 -1.079586 -0.653700 1.876349 -0.769316 0.913608 0.071749 -1.653029 -1.136588 -1.431647 -1.274031 1.232067 0.085369 3.030140 -2.172959 -0.760010 -0.249818 
data -0.495477 -1.309031 0.259648 -0.610945 -1.366845 -1.526644 0.906745 -2.177498 0.123604 0.781192 1.654983 -0.744645 -1.026985 0.716496 0.496419 0.008651 -1.378505 0.873564 -0.444568 -1.763331 -0.216660 -0.792031 -0.730395 1.189641 0.564959 -1.047741 0.496161 -0.323271 -1.180717 0.598163 3.135546 -0.941028 -0.507543 0.775496 1.869709 -1.704598 2.331230 0.254637 -1.012656 -2.451362 0.786257 1.500231 -0.809118 -0.136314 1.925631 -1.244586 -0.734083 -0.079824 
as 1.070247 0.920088 -2.696513 0.543585 1.160227 2.305087 -1.991985 0.554007 -1.426535 -0.766984 0.837993 -0.205676 -1.167118 -1.855805 -0.676752 -0.133147 0.080994 1.420347 0.760513 1.328855 -1.916618 3.415166 -0.714906 0.292735 2.627940 -1.366900 1.245114 -0.532648 0.571082 0.400412 0.021764 1.091235 -1.225371 0.440748 1.044075 2.083825 1.247742 0.275352 -1.946117 -0.842161 -0.859052 -1.606593 0.139912 -1.052277 -1.417422 -0.161972 -0.660311 -0.497489 
files -0.166847 -0.447843 -0.783520 1.084529 -1.397298 0.130422 -1.833830 -2.845198 -2.462536 0.046228 0.640028 -0.940860 -0.730866 0.079524 1.207622 2.564050 -0.064312 -1.294637 1.357955 0.577256 2.333466 0.563454 -1.503605 -0.089927 -0.027073 0.491123 0.379985 1.458179 -2.624283 0.497283 0.999001 1.610349 -0.681530 0.508258 0.525675 0.356668 0.182906 2.270948 0.528444 -1.985510 1.252686 -0.713166 1.341719 1.416276 2.390132 -1.174579 -0.138927 0.832633 
SVN 0.112260 0.619725 1.875975 1.725270 1.003221 -0.938311 -0.580942 -1.260827 1.268957 1.428398 1.792472 -1.190620 -0.848046 -0.431191 -2.601169 1.073703 0.204727 -0.689129 -1.342768 -1.306628 3.364919 2.008327 0.236427 -1.724645 1.163685 -1.740643 -1.118655 1.867425 -2.058456 2.023316 -2.220732 1.377447 -2.176886 -1.762061 0.246972 0.503317 1.820734 -1.154570 -0.743389 -0.936365 -1.351330 3.743045 0.152995 2.444118 1.585134 2.055193 -1.754593 0.930943 
by 0.695391 1.428066 0.801087 0.154581 -1.495058 -0.341728 1.414662 2.326766 -0.749953 0.514859 -1.973765 1.426179 0.704345 -1.498346 1.182910 -1.603461 1.819281 -1.425196 -1.269851 0.827243 -2.463742 1.492933 -1.765697 -0.546299 -0.100029 -0.238433 0.206674 -2.538327 0.668399 -2.103499 1.358110 1.534113 -0.749067 0.502170 -0.374968 0.512103 -0.320610 -0.473532 -0.631519 0.692635 -0.204482 0.661267 2.222504 0.183804 0.582118 1.304510 -0.899122 0.348569 
bash -2.335912 2.092879 -1.880912 -1.158924 -0.666070 -0.324780 0.873433 -1.495483 1.108314 0.750065 -0.667152 2.334657 0.073125 -1.008961 -1.088709 2.409718 1.060590 1.626857 0.747868 1.207480 1.532774 -2.195701 2.928374 -0.418791 2.549838 -2.646136 1.772226 -0.440285 -1.903846 3.285788 0.134472 1.531664 -2.267372 -2.760881 1.729041 -1.028695 -0.669144 1.728342 0.187347 -1.294987 -1.118546 0.174849 3.096568 0.320807 0.028547 0.975788 -0.659725 1.280609 
Qt -0.552681 -0.964559 -1.207423 0.721704 1.341003 -0.798643 0.097259 -0.177443 -2.416148 -0.802025 0.158420 1.357246 1.115992 -0.735120 -3.061496 1.439252 -1.304626 -1.797396 1.448532 -2.956954 -0.380957 -1.185905 -0.042407 -0.120837 0.414907 0.791402 -1.223255 -0.285746 -0.136333 0.832385 -2.298733 -0.233107 -2.874757 -1.346043 1.996897 -1.616255 -0.462617 0.821665 0.844509 0.190481 -2.040130 2.119173 0.415979 -0.206936 -0.318885 -0.343847 -0.197419 -1.928761 
function -1.835603 -0.147648 1.282783 1.230304 0.003423 0.258890 0.861351 -0.069993 0.757770 -0.136598 -1.248402 1.339718 -1.582729 -0.121952 0.131571 -1.435076 -0.833227 -0.159776 0.002839 0.289679 0.036184 -1.171643 -0.055621 -0.467140 2.165703 1.244447 1.910485 0.139158 0.643964 2.464601 3.799512 0.351737 0.028848 -0.818459 -0.239573 -0.855200 1.123583 0.051350 0.527503 -1.712486 -1.996121 -1.114503 -0.592069 -1.819056 0.659617 -1.528952 0.600406 0.420390 
Why -3.556848 -0.057081 0.324104 3.544262 -0.243904 -1.459988 3.609829 1.562847 -0.208876 -3.383806 3.236557 0.958472 -1.234202 -1.110134 -0.036068 -1.476647 1.415953 0.092690 -0.170087 1.280796 -3.482362 0.079811 -0.568616 0.187709 1.145953 -0.826036 -0.299630 0.622437 2.130440 2.776113 -1.958254 1.189508 2.568773 0.343344 1.178493 0.895889 2.535901 3.570550 -0.619825 1.929189 -1.324423 0.263134 -0.489995 -0.356182 1.281171 0.478061 1.326552 0.967751 
into 1.226537 0.187558 -1.221391 -0.279533 -0.436297 0.923781 -0.522611 1.932833 0.998270 1.365034 -1.092063 -1.833240 -0.439015 -2.822480 -0.678450 -1.837073 0.036821 1.390760 0.041255 -1.198532 -0.438772 0.028378 -2.050268 -0.809327 2.572818 -1.880007 0.806451 -0.953594 1.358992 1.121632 -0.075189 -2.620786 -2.244602 0.811591 -0.581732 1.911000 1.216630 0.421220 -0.014487 -0.032551 1.944360 1.672684 -0.807292 -0.724770 0.611096 0.915393 0.022098 1.040032 
OS -2.219501 2.846915 1.480175 -1.029843 -1.716663 -1.728965 -1.667923 2.243068 -0.490928 -2.353198 -0.542191 -0.759043 -2.429341 -1.264108 -1.461417 1.229967 0.778198 -2.814479 1.666647 -3.529971 1.959469 0.902296 -0.334547 -0.867630 -1.081138 0.112344 0.787265 1.085566 -0.163609 -1.117819 1.086523 0.477339 0.769201 0.219023 0.198316 -4.519620 1.118696 0.741194 1.939176 -2.542746 -1.983830 -0.561445 2.449351 1.090294 -0.492175 2.255512 -2.874576 1.738424 
list 0.795921 -1.315368 -0.626895 1.556352 0.637246 -0.283934 0.921993 -0.627518 -0.092668 0.565075 -1.497461 -0.272061 -1.108035 -1.134723 -0.322355 -1.557937 -2.061009 -0.008492 -0.907610 -1.931878 0.089140 -0.102132 0.500039 0.143666 0.064515 0.319931 1.191604 0.786766 -0.050930 -1.794761 0.925940 2.370395 -0.141910 -2.317276 0.187559 0.584077 -0.020976 1.763355 -1.512529 -0.215026 -1.408610 -1.631398 0.887768 0.229380 0.971246 -0.033975 2.246452 -0.560869 
page -0.512482 -1.392658 -0.369809 2.295742 -1.542581 -1.575155 -2.659950 -0.826707 0.982448 -0.136574 -0.526856 0.760006 -0.302021 0.857201 1.046822 -1.835695 -1.990540 1.349417 -2.293151 2.938953 -0.577237 0.462014 1.402320 -2.200530 1.388936 -0.097984 -0.514181 0.024629 -1.768169 -0.134613 0.810669 0.217269 0.871782 -0.522686 0.458656 -0.377658 2.694175 1.464430 -1.398148 -0.797856 -0.192855 0.256751 -0.112513 -1.162376 1.510561 0.957830 -2.261092 -0.299518 
Using 0.773266 -0.975485 -0.749339 0.007053 1.494515 0.699723 0.653446 -0.656358 1.530229 -0.771235 0.697236 -1.115072 -0.004236 -0.751567 -1.398365 -0.675785 -1.659159 0.931556 0.728561 1.161122 0.359275 1.266212 0.835432 0.951900 0.170718 1.304505 1.690132 0.535988 -0.083846 -1.446778 -0.029728 -0.754065 -0.157443 0.770584 1.382747 0.110625 0.301751 -0.066076 1.545550 1.540189 2.246941 -1.187734 0.755933 -1.510870 -0.958021 1.536333 -0.242011 1.253530 
Can 0.971889 -0.803486 -1.366174 1.107720 0.286486 0.406350 -1.179842 0.514685 -2.929449 0.755079 1.312399 -0.948276 -0.643997 0.268016 0.676220 -2.991651 0.441488 1.399836 -0.765623 -1.404403 1.574194 -0.099487 -2.736241 3.062176 3.247912 -1.570653 2.519578 -0.762901 0.883689 3.444636 -1.472788 1.591071 3.187665 1.412730 -1.125676 -0.187929 -2.064767 -0.163097 1.304383 -1.617503 -0.855458 0.398864 3.096218 -0.287558 -1.858047 0.299568 -0.035700 3.240418 
multiple 2.717460 -1.749200 -0.227419 -0.418182 2.091630 -2.408549 1.520201 -0.794411 0.493267 1.985051 1.515335 0.245348 0.095551 -1.520942 -1.012064 -1.187273 -0.093803 1.451761 -0.684878 -0.174691 0.808403 0.470342 1.103635 -0.499942 3.822652 0.366914 -2.174172 -1.439031 1.124038 -2.110024 -1.090366 -1.317921 0.051432 -0.168570 1.560074 -1.772104 -0.895360 0.305115 -1.658536 1.485102 1.546402 -1.237986 0.542614 1.357412 1.472452 -0.026062 3.007036 0.102668 
custom 0.051437 0.861794 -2.638496 1.013667 0.751493 0.642680 0.414944 -0.079963 -2.231259 -1.224425 0.685126 -0.318476 1.232687 -0.838302 -1.239431 -0.660237 -1.632600 0.593057 -0.517098 0.163146 -0.323794 -0.480021 -0.896888 0.235292 -0.629882 2.836044 -0.573018 -1.580031 1.245868 -0.463951 -0.442886 1.112081 -0.158945 0.498651 1.183337 -1.698909 0.280504 0.961113 -1.009513 -0.659210 -0.517882 0.850233 -0.217720 -1.791592 -0.496622 0.072455 1.766874 1.411764 
type 0.836689 -1.209388 -0.231214 0.705278 -0.864157 2.103337 0.883435 0.221632 0.124365 0.279468 -2.925588 1.023886 -0.839853 0.598334 -0.678070 -3.059828 -0.120150 0.970590 1.322646 -0.282676 -1.127727 -0.371652 1.262027 -0.232743 2.244257 0.448245 0.743256 0.634147 0.670065 1.457232 -2.101095 1.232508 1.053140 -0.439408 1.301772 -2.292975 1.267093 -0.537613 0.154145 -2.114096 -1.284185 -0.783449 -2.940699 -1.044201 0.738123 -0.487285 1.310760 0.453363 
create 1.444892 0.742270 -0.182840 1.022385 -1.479209 -1.579231 1.597544 1.149105 -0.619243 -0.513252 0.078487 -1.084655 0.801669 -1.921620 -0.362572 1.236994 -1.312284 2.233642 0.670388 -0.778357 0.077304 -0.271143 0.181122 -1.417374 0.457948 1.188843 2.711425 -2.023005 1.330141 -0.329901 -1.704835 1.310149 -0.288174 -1.188676 -0.232892 1.605536 -0.505805 -0.586594 -0.095834 -2.393543 1.968271 -1.095463 -1.515200 0.371020 0.104720 1.642103 0.157836 0.502068 
AJAX -1.158830 -0.371711 1.146529 0.761515 -0.069410 1.015700 -3.475580 2.322928 0.694017 0.105618 -0.797967 0.268432 1.119658 0.717308 0.651675 -1.229094 0.882399 1.785499 -1.675112 1.704968 -0.404703 -0.724741 1.196699 -1.536171 0.873706 -0.190308 0.560643 -0.155746 -2.554665 1.037744 -1.022034 -0.292066 -3.526969 -1.552038 0.294916 -0.758154 0.901309 -1.365923 1.285770 0.504435 -1.721260 3.220881 0.987735 -1.274385 0.110859 0.474215 0.299290 -1.976231 
query 1.472609 0.236968 1.032730 0.956951 1.075626 -1.844635 -1.296296 -0.945298 1.061050 -0.504533 0.276664 1.912067 0.722651 -1.048281 -0.625844 -1.559520 0.710700 0.797060 -1.987145 2.492848 0.399612 -0.419135 1.178159 0.637166 0.513792 0.447582 3.381245 0.677036 1.334012 1.476434 1.718151 1.861321 0.369133 0.461559 1.756798 0.397362 1.002209 -0.230932 -1.250914 0.234019 1.483578 -1.174574 1.849353 -1.155757 -0.480251 0.053529 1.186512 0.709881 
error 0.309357 0.534580 0.296103 0.139967 -0.272812 1.469522 0.449723 -1.437518 1.655225 -1.032536 1.015418 1.127076 0.521268 1.645024 0.899332 0.039829 -1.633395 -0.702669 -0.884741 0.622177 0.088634 -0.011825 1.213429 -0.784090 0.778211 -1.062407 0.001091 1.733214 0.530214 0.273423 -0.558619 1.794431 -0.361044 1.501766 -0.063502 -0.612325 -0.490920 3.006567 0.146557 -0.581849 0.728216 -1.184530 -1.709777 -3.252845 0.613802 1.278474 1.195624 0.022994 
one -0.428951 -0.310410 0.347419 -1.027052 -1.107821 -1.335300 1.055004 2.219714 0.372788 0.935929 -1.119108 -0.618289 -2.434162 -0.272763 -1.339300 1.015454 -1.480672 1.307568 -1.533803 -0.416712 -0.766211 -1.461202 -1.118079 0.448162 0.057861 -1.410797 0.273588 -1.320754 1.381775 -2.587717 1.417576 1.655750 2.221373 2.310764 3.637213 -0.937180 0.708357 1.628711 0.900137 -1.041148 0.542234 1.967324 1.063078 1.150466 2.785470 -1.555376 -0.240835 0.799140 
be 0.220615 1.453138 0.713461 0.566308 -0.900662 0.558136 1.306669 3.288308 0.055235 -0.707093 -0.706882 2.400563 -2.378820 -2.001144 -1.376079 0.686868 1.578207 2.137036 0.646218 0.735919 -0.318111 0.147951 2.183780 -1.512402 2.574006 1.621629 1.871610 -1.255615 -1.536913 -2.340380 -1.247156 2.484797 -1.861963 2.972384 -1.565584 0.488427 1.445461 -1.570615 -0.426717 2.320940 -1.159572 -2.092680 -3.624063 1.880505 2.899754 -0.877397 -1.598290 -1.316619 
Linq 0.383986 0.254557 2.643728 0.685095 0.494720 -0.878129 -0.302778 -1.386306 -1.066937 -0.470111 -2.447896 1.482170 -0.182486 -0.947054 -1.579290 -1.400333 3.407597 -0.839770 1.192724 0.434556 1.294416 2.183844 3.998386 1.896980 -0.183684 0.785578 0.680851 0.347279 -1.626188 3.394840 0.650959 -0.845757 -1.768469 0.528535 2.292037 -1.360155 -1.738924 0.200752 -0.683213 -1.095693 0.306543 1.107729 0.829984 -0.980413 -0.508750 0.175141 0.292017 -1.549333 
without 0.863176 3.893297 0.258589 -0.209505 0.824439 1.507919 0.338738 0.389214 0.755634 0.406571 0.179416 0.581235 -0.922721 -0.289092 0.140248 0.081784 -0.323809 -0.772464 -0.431808 -1.021158 -3.038952 -0.069225 -1.255875 0.907934 2.233553 0.479674 -2.025621 -1.451178 1.433467 -0.159871 -0.934759 -0.456195 -1.613620 -1.074823 -2.007463 2.292946 0.839310 0.335068 0.259148 -2.368192 -0.035359 -1.635525 0.292519 -1.300614 0.648654 0.904925 -0.337723 -2.009738 
make 0.050113 0.233534 -0.022000 2.518920 -1.796341 -1.046559 -0.016000 2.009322 -1.488965 -0.423984 0.774141 0.135181 0.139455 0.173546 0.290800 1.156421 0.221996 1.288720 -0.220667 -0.413268 -0.030667 0.025591 1.423519 -0.410652 1.357003 -0.080593 1.917498 -2.056311 -0.004507 0.137137 0.088318 1.589360 -1.165137 0.830714 -0.682107 1.918635 0.021490 -0.265179 -0.426542 -0.210156 -0.141858 -1.542463 -0.170429 -0.603043 -0.642473 1.854696 -0.353143 0.048009 
code -1.918786 -1.819907 1.307123 2.921409 -2.009807 -0.692753 -0.207590 0.024408 1.700776 0.784944 1.435088 -0.316364 -0.562940 0.619745 -0.562832 -0.059084 -0.220487 -1.328478 0.333740 -0.109464 -0.139179 -1.837831 0.261818 -1.032709 0.630823 -0.662146 1.653157 -0.616188 1.747863 -0.166724 2.285755 0.907746 -0.813232 0.608472 -0.074407 -1.923366 -0.669128 1.660804 -0.278435 -1.214687 -1.718300 0.551434 -1.188189 0.264351 0.367563 0.185528 -0.273859 1.786015 
are 0.962743 -0.995839 1.774616 0.799387 -3.312023 -1.059945 -1.293110 -2.124940 0.873424 2.256656 -0.099300 1.404100 1.087770 -0.109461 0.856620 -0.936265 1.069713 -0.823707 1.992178 -0.689962 -1.361236 1.001730 0.161479 -1.212438 2.529094 2.152356 3.155532 1.470316 -0.199336 -2.927380 -0.662515 3.839138 -1.408057 -0.294367 -1.526104 -0.349039 -2.799962 -2.924591 -0.547182 0.000933 -0.719692 1.915110 -0.502025 1.145070 0.415833 -1.667716 -1.003215 1.261127 
all 0.645287 -0.524874 0.410041 1.700629 -0.137126 -0.559361 1.665962 -1.353846 0.081868 0.547906 0.870035 0.577154 -1.115267 -1.007304 -0.151870 -0.229499 0.242220 0.560844 -0.996557 -1.564053 -1.187351 0.547447 0.975144 -1.773798 0.591604 0.301200 0.809076 0.564624 -0.320987 -1.230990 -1.643687 0.096063 0.026727 -0.627579 -0.374781 0.885650 -0.647277 1.368149 -3.856546 0.012652 -0.251750 -1.116119 3.528559 0.104131 0.898106 0.337664 1.323268 1.221259 
application -0.694402 -1.457984 0.758355 -1.196398 -1.642918 -0.782088 -2.002175 -0.899657 0.588444 -1.926644 0.721100 1.711081 -0.422528 0.108617 1.240196 -0.036772 0.041699 1.770884 0.563905 -0.718573 0.716436 -0.643162 -2.504909 -1.045455 -0.108435 1.164016 1.179444 0.927078 1.364434 1.506968 -0.581898 1.102260 0.224104 -2.297347 0.957030 -0.470866 0.578017 1.608247 1.406533 -1.145257 -2.270564 -1.128944 -0.892056 2.471673 0.697923 1.305116 -0.398443 1.002447 
script -2.373298 -0.157454 -0.561069 1.913789 -0.062510 -0.553155 -0.434829 0.602833 0.371074 0.222011 1.000285 1.603697 -2.122821 -1.924251 -0.492407 -1.306106 -0.086144 -2.178378 1.526154 3.323473 1.743396 -2.209110 -0.040518 -0.809752 1.141468 1.243267 -0.006442 0.264545 0.408342 -0.006933 3.403652 0.635746 0.543695 -1.722276 -0.888487 0.596769 1.407979 0.128689 1.088306 -1.532023 -2.216362 0.051887 2.214922 -1.783158 0.030909 1.092974 1.467856 2.553285 
add 0.629789 1.883870 -1.005724 1.300340 -2.376440 -0.080127 -0.489259 1.198698 -0.877736 -0.807618 0.467764 -0.479183 0.062126 -0.304214 -0.961802 1.615984 -1.338061 2.337509 -0.649184 0.446030 0.141597 1.073847 2.107738 -1.430615 0.408290 2.092787 2.661578 -2.150171 -0.435620 -0.951683 -0.993843 -0.388885 0.700186 -0.500404 1.121147 1.381334 -1.325189 0.767634 -0.555225 -2.432418 1.308581 0.018832 -3.253939 -0.297578 -0.489899 2.027281 -0.775193 -0.426995 
SQL 0.840324 2.482832 -0.652701 -1.841145 2.883845 -1.233621 0.007075 -0.131920 2.373917 1.288239 3.169996 -0.380095 1.060706 -0.783793 0.155889 -0.432242 -1.007554 0.560223 1.367178 -1.457403 1.519915 0.900328 2.785836 1.559894 -2.039784 1.021239 4.255202 -1.063122 -0.415651 1.591417 0.045501 1.229022 -0.450791 0.077454 0.852303 -0.368037 0.079773 0.711148 0.412053 -0.694699 1.439336 0.986968 1.733080 1.404284 2.338403 -0.814158 1.614403 -1.815057 
X -1.041020 -0.673086 -2.394429 1.179968 2.015928 1.175215 -2.826886 1.797024 1.030007 -0.039891 1.544108 2.077017 -1.567321 -2.434140 -0.846887 1.392737 1.708111 1.367310 1.156787 1.597909 0.029812 1.242365 0.592792 0.302564 1.105868 -1.508189 -0.641572 -1.195044 -0.161659 -0.282035 -1.875369 1.406927 0.926028 -2.197163 1.033973 -0.322825 -0.009609 1.274042 -1.872459 2.315098 0.626045 -0.210561 0.165433 1.002227 -1.225895 3.098196 -0.043168 -3.159748 
this -2.246078 1.558376 -1.624015 0.130204 -0.277818 -0.712445 3.494062 1.898863 -0.424331 3.225379 0.881619 -1.026644 0.290728 -0.086037 1.079464 -0.247491 -2.808517 0.327324 0.547659 1.468448 1.434292 -0.168202 1.162305 1.498655 0.522955 0.691211 -1.259365 -0.711509 -0.314573 1.435740 -0.880683 0.508668 1.290141 1.040576 1.812508 -2.225355 -2.171058 0.057260 0.356391 0.116211 -0.251541 -2.011260 0.696012 0.038957 0.455353 -1.146973 0.180324 -2.451032 
Matlab -0.961532 -0.209914 0.439960 -0.647842 0.172733 2.093786 0.364883 -1.170477 -0.081150 0.397567 -1.862910 1.769164 0.127302 0.747986 -1.514047 1.007927 0.388530 -0.738558 0.356811 -0.901623 0.862442 -0.155560 1.245320 -1.480419 2.756370 -0.305854 -0.144772 1.142675 -0.726842 2.917768 -0.251412 -1.133090 -1.419029 -1.297335 1.417012 -2.355409 -0.705309 1.888873 0.006372 -1.189357 -0.364752 2.558679 0.396118 1.320449 -0.672972 0.563496 1.345810 -0.810126 
if -1.095158 2.397914 0.279890 0.700835 0.750532 -1.923470 0.310516 3.502408 -1.249699 -2.355737 -3.258717 0.197678 1.891411 -1.575802 0.501709 -1.573066 -0.540572 0.948350 -0.134523 0.934631 -0.416134 0.005167 -2.852393 -0.567319 0.910188 -2.446758 1.810731 -0.161921 2.546885 1.324491 -0.940810 1.117677 2.637890 0.200087 -1.433040 0.348636 -0.124072 2.084438 -0.211808 -0.955167 -1.101772 2.819678 2.330409 -0.978843 4.066768 -0.843994 0.055139 -0.770614 
have 0.572814 -0.256102 1.338834 2.335051 -0.206532 -2.694743 -0.771445 -0.433546 -1.257773 -0.637222 -0.969452 -0.190955 -1.450424 0.728157 -1.084547 -0.258505 -0.786437 1.504149 0.678364 0.282183 0.709741 0.680645 -0.217208 -2.117761 2.228239 1.103246 2.364054 0.682484 0.172416 -0.821232 -0.789503 1.836852 0.858872 0.192383 0.993135 1.109944 -0.042357 -1.198453 -0.191317 -0.722242 -1.260576 -0.640881 0.134684 0.201608 -0.924088 0.325518 -0.442276 -0.171130 
magento 0.132462 0.997900 0.093912 1.044777 -2.715426 -1.442742 -0.510789 0.050107 -0.696365 0.510765 -0.708444 1.945159 1.621521 0.030308 -2.253608 0.084759 -1.530551 0.439980 -2.834657 -0.855399 0.861052 1.726925 0.863163 1.098401 0.225766 0.991878 -2.846879 -1.247792 -0.830183 1.046458 -0.920085 0.724601 -0.158944 -2.082462 -0.150586 -3.111470 0.581403 0.886836 -0.634564 0.034501 -0.695336 3.242383 1.534298 -1.422759 0.482772 0.596904 -2.119258 0.476351 
between -0.126088 2.214133 1.031519 1.366784 3.288090 0.256238 -0.658772 -1.893432 -1.067153 -0.260962 -0.627091 -0.354413 1.404263 -2.776203 4.017605 0.123942 1.080043 -0.176336 -1.043609 0.138116 -2.631619 -1.400949 -2.194236 0.957668 3.694573 -0.194443 -1.674532 1.770637 -0.664357 -1.510296 -1.628211 -0.203247 -1.668501 -1.431986 0.105134 0.941393 -0.944397 -0.656374 -1.281519 -1.068367 3.632329 -0.384910 -1.514905 2.580158 0.349099 1.310744 -1.139203 -1.324219 
Cocoa -0.634514 -1.195988 -0.521405 -0.480839 -0.524364 0.890516 -0.520281 1.676688 -0.020815 -1.889839 -1.411186 1.433653 1.162340 -1.324983 -1.833992 1.826711 0.243714 0.484271 0.865087 -0.934872 0.699677 -1.817737 -0.728482 -0.792598 0.343168 0.413543 0.001507 0.254109 -0.984009 1.618988 -0.490715 -0.582607 -1.651575 -2.566123 0.650014 -2.690332 0.207368 0.274225 -0.221106 -0.529465 -1.341478 1.743249 0.260831 0.621691 -2.001502 1.308732 0.300901 -1.857289 
problem -0.921700 0.166582 0.181394 -1.024624 -0.202301 -0.737372 -0.398832 -2.337895 -0.486079 -0.646921 1.526555 0.066173 0.295009 -0.431151 0.440296 -1.636275 0.685413 -0.466132 0.186891 0.889193 -1.041213 0.922157 0.144188 0.199622 1.031493 0.199636 -2.182103 -0.999490 2.101631 0.797114 -0.980799 0.213433 -0.028760 1.133153 -0.345864 -2.227262 0.690058 0.874488 0.078837 0.932427 1.991871 -0.905209 0.239316 -1.722081 -0.429285 1.133180 0.442197 0.472512 
web 2.207093 -2.450794 0.044019 1.447542 0.190003 -0.420711 -0.882668 0.785770 0.600184 -2.129783 1.363004 -0.182860 1.573896 -2.528449 -0.706618 0.205360 0.295342 0.375747 -1.110177 1.255951 0.595984 -1.690718 -0.432977 -0.064358 1.953159 3.166834 -0.460044 -0.342584 0.289389 -2.674096 0.499044 0.021066 -2.993471 -1.348421 -0.745027 0.139157 -0.866580 -0.794538 -0.975657 -2.095334 -1.365958 0.372741 0.969611 0.274688 1.703532 -1.027198 1.557932 0.420679 
best -1.362791 1.927473 0.574718 -2.013412 -0.567605 -0.052101 -0.415276 0.598805 1.538599 0.597648 0.719253 -3.639009 1.319943 -2.161403 1.829715 1.153020 -1.605628 1.154567 -1.265401 0.401936 0.656684 0.497482 -0.171292 1.153113 0.255432 0.488262 -1.400627 1.976288 0.054244 0.938629 1.818061 -1.432366 -1.474779 1.663049 0.246563 -1.300376 -3.512937 1.191917 -2.492790 -3.859784 -0.326053 -1.392546 -1.406192 1.960851 0.150388 -0.200636 -1.169126 0.807973 
set 1.449553 -0.247285 -1.062912 0.702679 -2.182934 -2.025922 1.305408 1.481070 -2.484922 0.039920 0.219141 -0.759690 0.072960 -1.607942 -0.771839 0.297553 -2.080398 0.232491 0.277040 1.953343 -0.215726 1.357293 1.894295 -0.732389 -0.788142 0.879695 0.191627 0.838800 0.786350 -0.144818 0.944668 1.783830 0.466068 0.052405 1.982900 -0.644635 1.370456 0.528325 -1.656985 -0.580162 -0.517630 -1.470923 -0.751015 1.817287 -2.356106 1.942725 -1.473065 -0.763300 
user 0.421308 0.234779 -1.592348 -1.952419 -1.172549 -1.982749 -0.989480 -0.586313 0.214883 -0.414061 1.671056 0.962536 -0.794597 -0.802328 -0.747565 -1.141416 -1.440710 0.509130 -1.377317 0.295515 1.255099 -1.423102 -0.924524 -0.592856 0.874843 0.785155 1.408297 1.283821 -1.857541 -1.822866 1.461698 0.381970 0.355598 -1.096655 -0.430164 -0.922825 0.846935 0.207878 -1.188604 -0.501220 -1.249375 0.188005 0.144830 -0.444712 0.740054 -0.738793 0.177569 -0.371746 
Sharepoint 1.075441 -0.685398 0.663499 -1.440445 2.388004 0.806480 -0.393813 -1.426544 0.831763 -0.599364 -1.833468 0.266227 -0.567872 0.051711 -0.356576 0.113933 0.844910 0.873985 -2.804068 0.517945 0.416756 0.346549 -1.048029 -1.285344 0.047403 3.474065 0.639086 -1.724109 -2.537643 0.934211 -1.293406 0.061742 -0.756770 -1.472593 0.353098 -0.505752 0.260971 -0.596567 -0.951592 -2.225328 -1.609416 3.448302 1.153398 0.139430 -0.537045 0.465383 -0.161350 0.406402 
value 0.687415 -0.070392 -0.892971 0.752841 -1.214686 0.463207 0.724194 0.137256 1.664347 0.130496 -1.223711 -0.162940 -1.659138 1.666317 0.555667 0.173541 -1.310350 1.020102 -0.755515 0.100625 -0.013675 0.361106 -1.075762 1.404469 0.003490 -0.021963 1.661698 0.693631 0.544237 1.242648 1.367779 1.240661 -0.494172 -0.083113 1.752370 -1.631984 2.445129 0.781426 -0.767437 -2.245154 -0.853241 -0.877312 0.281858 -0.404046 -0.683522 -0.703472 1.449330 -1.593063 
wordpress -0.499424 2.667680 0.353418 1.393461 0.134120 1.756787 -0.339546 0.192066 -0.912081 1.868621 -0.750465 1.796532 0.679713 -0.058341 -1.237663 0.889924 -0.643016 0.716280 -1.978440 0.808263 0.268270 -1.061658 0.610637 0.184694 1.289951 1.291630 -0.555056 -0.876628 -2.011679 1.233576 -0.299229 -0.681405 -0.639123 -0.433264 2.520493 -0.076484 1.512595 -0.008565 -1.241099 -0.760527 -1.689318 2.627184 0.072264 -0.331745 0.451062 0.029099 -2.129922 1.460984 
Ajax -0.873595 -0.398884 0.976306 1.190940 1.645989 0.863408 -2.949070 0.507404 0.278787 0.043841 -0.825753 0.273389 1.179734 0.996024 0.473977 -0.564123 -1.085435 1.610128 -1.698181 -0.022059 -0.401801 -0.737233 0.172248 -1.361851 -0.125641 -2.035157 0.629257 -0.928136 -2.209593 0.901532 -0.747696 0.183368 -1.956187 0.099995 0.913896 -2.030288 -0.474970 -1.672151 1.450870 0.067398 -0.106033 1.563565 1.069402 -1.989058 1.007369 -0.173081 -1.006540 -1.228507 
text 0.497528 -0.327679 -0.436113 -0.018310 -0.563136 -1.274281 -0.493131 1.650945 -1.242954 0.748418 0.968878 0.432440 -2.408558 1.156140 0.108376 1.276999 -0.497294 0.271828 1.738998 -0.739395 -1.151279 -1.063607 -0.048504 -1.639056 1.235184 1.581527 0.219605 0.715513 -0.444551 1.348657 2.403698 0.337239 0.740239 -1.753054 0.640950 -1.290371 1.787696 2.058270 -0.820904 0.807320 0.815526 0.454907 0.737497 -1.031010 -0.906430 0.805686 -0.205904 0.080865 
hibernate 1.268880 0.634094 0.822296 1.278255 -1.028296 -1.903705 -1.000981 -0.964445 -0.998843 0.537138 -0.606898 3.281891 0.066766 -0.877433 -0.115397 0.125631 1.118695 2.004948 0.267037 0.519003 2.965969 0.813545 1.817102 1.814561 -1.757055 0.356745 -1.253868 0.906644 -0.235543 0.528866 -1.449306 -0.325628 -2.579835 -0.933817 2.697850 -1.827849 0.836271 0.600540 0.391913 -0.680315 -0.270491 1.780745 1.110232 -0.102186 0.222223 0.489364 0.880079 -0.499779 
command 0.148685 0.217628 0.450301 -0.730191 -0.223264 -0.305306 -0.230847 0.380626 0.437792 -0.284447 1.287420 1.302886 -1.492575 -1.068086 0.171198 2.224109 0.339960 -1.951307 0.837493 1.986983 -0.180392 -3.249934 0.420754 1.287854 1.562802 -1.437698 0.915359 1.131813 0.487231 0.339017 3.176998 0.959595 -0.249523 -0.913460 0.807283 1.404808 0.822723 0.570501 -0.584700 -0.562150 -1.159918 0.117140 0.843736 -0.085578 1.139978 1.782806 -0.942841 1.349712 
different 0.576545 -0.541972 -0.295755 1.475604 -0.063194 -0.550894 0.802132 -1.229306 -1.340724 0.637918 1.000613 -1.030211 -0.187174 -0.941099 -1.200279 1.883904 -0.278253 2.463108 -0.774420 -0.156453 -2.597732 0.274000 -0.644690 1.022691 1.736503 0.759759 -0.877342 0.125457 0.496734 -1.768589 0.722784 0.542814 -1.119955 -1.672284 1.319502 -1.257665 0.171419 -0.016992 -1.170889 -0.895819 1.602685 -0.675816 1.351940 1.758810 -0.218130 -1.555951 -0.734107 -0.270213 
matlab -1.013514 1.109116 -0.864176 0.813932 -1.070784 1.506203 0.119883 -1.072456 -0.678087 0.289715 -2.508272 1.851459 0.090251 -0.225059 -0.207450 1.968921 -0.637125 1.363387 0.430464 -1.331028 0.597384 -1.456055 0.786304 -0.748647 2.825926 0.168020 -2.108166 0.717290 0.331135 1.645408 -0.031098 -0.773074 -2.211309 -1.456303 0.868379 -2.355710 -0.603458 1.967155 0.189822 -1.104785 0.886551 2.144108 0.920617 1.644882 -0.842723 0.508783 0.130111 -0.010944 
change -0.140961 0.165767 -1.693027 -0.085358 -2.448220 -1.001809 -0.080500 3.118540 -0.949477 0.127862 -0.856628 0.945246 -0.567663 -0.540915 -1.284676 2.192230 -1.832486 -0.753625 -2.561131 0.077301 -1.956615 -0.416696 0.632850 -1.572443 0.937703 2.030343 1.048045 0.428337 1.039504 0.460745 -0.214405 1.129295 0.223932 0.265631 0.074135 -1.070693 0.669064 -1.301487 -2.098493 0.001483 0.894188 -0.780953 -1.845420 0.551251 -0.130296 1.977722 0.317497 -1.955688 
ajax -0.351110 1.155751 1.135339 2.160895 0.379950 0.189285 -3.034464 1.029922 -0.676042 2.171821 -0.273216 0.951724 -0.995813 1.861206 1.815770 -0.886889 -0.114782 1.257570 -2.390626 1.638309 0.300160 -1.375959 1.075619 -1.520666 1.713871 -0.701095 0.002337 -0.942708 -1.324703 0.349082 -0.392998 -0.557804 -2.428373 -2.134022 0.873681 -2.924208 0.699966 -1.149137 1.803568 -1.263102 -1.778315 2.042367 -1.106663 -1.386213 0.586082 0.053036 0.329482 -1.817607 
excel 2.654604 2.842818 0.600158 1.209538 1.391691 -0.394258 -0.014444 1.050025 1.102848 -0.073868 -0.168145 1.927677 -1.647808 0.817055 1.141093 0.155217 -1.292534 0.638417 -1.028593 0.154626 -0.688190 1.000518 2.420676 -2.473197 1.187158 1.418421 -1.373950 1.053845 -1.185966 1.077008 1.987938 0.108673 -1.798901 -1.614034 0.673360 -1.778301 0.571982 2.904863 2.754405 -0.504717 1.331345 3.348857 -0.594039 2.057478 -0.227666 1.245195 -0.698989 0.855257 
another 0.523249 -0.852241 -1.449134 0.734531 -1.531536 -0.351640 -1.361492 0.719633 0.049425 0.396812 3.189617 1.046100 -1.915139 -0.453215 0.317536 0.046272 -1.556597 1.151512 1.520887 -1.581292 -0.389680 0.441004 1.988648 -0.575391 1.598860 -0.401819 -0.221815 -2.911975 1.390561 -1.449912 0.418935 -0.562050 -0.043113 -1.698819 0.887678 -1.152878 0.628640 0.947229 -2.634070 -1.912431 1.114858 0.707822 1.537892 0.401742 1.422698 -1.090151 -0.080244 -0.503108 
MATLAB -0.818159 0.703332 -0.431211 -0.268339 -0.109659 2.821301 0.251077 0.432193 0.021656 0.583337 -2.370224 0.727508 -1.128922 1.080521 -1.411998 1.640391 0.789852 1.892529 0.362171 -1.125111 -0.570610 -2.376035 0.174347 -0.274270 1.563574 -0.381703 -0.024566 0.267804 -0.788655 2.142324 -1.713559 0.856092 -1.955851 -1.775542 0.602411 -2.719164 -1.339082 1.186264 0.422174 0.037010 -0.831105 2.157692 0.144997 1.449542 -0.722986 0.618705 0.163321 -0.533582 
server -0.451429 -0.969353 0.816097 1.199457 -0.725332 -0.372139 -2.651742 -0.043964 0.256549 -1.224046 2.929641 0.345589 0.278899 -1.526932 0.494796 -0.320778 0.773461 0.572129 -0.943237 1.174397 0.940485 -0.279531 1.278797 -0.129211 0.723694 0.810132 -0.237678 0.483391 0.411052 -0.541295 1.178732 -0.128454 0.624318 0.086988 -0.283436 1.377833 2.794828 -0.145252 1.701109 -1.314234 -0.990699 0.272860 1.559955 1.442321 1.432567 1.098883 -0.976397 0.405990 
object 2.541938 -0.928426 0.424799 2.106319 -1.380526 0.136133 -0.784585 -0.175951 0.539255 -0.968168 0.247298 0.666472 -2.270595 0.389933 1.552606 -0.590718 -0.812386 0.979173 0.465522 0.247646 1.196266 1.793978 0.572363 1.971532 0.823874 -0.200817 1.866354 0.184563 -0.276227 0.835005 0.017595 0.418336 -1.392710 -2.231706 1.131326 -0.133368 2.036706 0.375712 0.642997 -1.950540 -0.795487 -1.066396 -1.901948 -0.658160 -0.039808 -0.098422 0.905980 -0.193640 
same 1.384741 0.192001 0.145221 1.600342 -2.261373 -0.227203 0.051194 -0.709952 -0.807403 0.951684 0.883664 1.030711 -2.113132 -1.964932 -1.441831 0.957464 0.217393 0.161007 -2.164993 0.820353 -2.702568 0.184359 -1.123705 0.531039 1.491704 2.483498 0.272104 0.018330 2.144906 -0.019185 -0.120721 0.334769 -2.706800 2.183063 1.012107 -2.165611 0.774076 -1.811230 0.332813 0.604745 -0.322669 -0.919814 1.502743 2.927402 -0.160616 -1.589749 -2.349459 0.282245 
/ 0.823868 -0.139814 -0.525833 -0.383397 -0.857996 0.353683 -0.095431 0.160923 0.598588 0.687150 0.416220 -0.490337 -0.098502 -1.343442 -0.866543 0.199351 -0.274319 -0.903920 -0.182918 0.084880 -0.522373 -0.018620 0.717471 0.426705 0.043309 -0.346846 -1.512246 -0.683907 1.554553 0.307698 1.008525 -1.060421 1.325713 0.774082 0.075286 -1.133008 -1.708645 0.877498 1.410466 0.598278 0.013018 -0.925947 -1.185190 0.387956 -0.116019 2.767264 -0.715686 -0.499372 
table 0.053490 1.009916 0.411009 0.772170 -1.500986 -1.473306 -0.598231 -1.762636 2.830019 -1.341460 0.031784 2.348914 0.800578 -2.690762 1.696810 -0.841734 -1.073825 0.473681 -0.285820 -2.198168 1.905590 0.189845 0.796954 0.312499 0.198432 0.321247 1.435524 0.152268 0.161954 -0.797945 2.521785 0.976748 0.165629 -0.163203 1.656448 -1.819635 2.689525 0.784643 -2.341406 -0.638735 0.850878 0.491821 1.247073 0.891983 -0.393214 -2.359879 1.160992 -1.200786 
work -2.917002 -3.351406 -1.079886 0.280684 -0.328033 -2.492440 1.292580 0.491768 -1.073144 0.157566 1.454440 0.457063 -1.571398 0.426220 0.207771 1.232828 -1.087871 -0.411416 0.344466 1.197941 -0.474905 0.552922 1.186263 -0.255212 1.566491 1.174052 0.088626 -1.476048 -1.115481 -0.597257 -2.076674 0.795819 2.266462 2.002922 2.996898 -0.762732 1.817422 0.578376 1.262313 0.712398 -1.185757 -1.847359 -1.102921 -1.031584 0.648266 -0.092874 1.358120 -1.719829 
+ -0.799845 -0.113594 1.008845 -0.447624 -0.104542 -0.475748 -1.549771 0.365612 0.231925 -0.238585 -0.689804 -0.336943 0.169855 -1.258985 0.855687 -0.340936 0.873199 0.327921 0.387391 -0.820857 -0.006214 -0.878553 0.076022 0.231238 -1.980076 -1.174576 1.166174 0.712766 0.621382 -0.113608 -1.406600 0.913824 -0.372437 1.365711 0.568195 0.798627 0.152181 -0.467924 0.508526 1.319334 -0.442180 -2.021758 1.982013 -3.363423 -0.256492 2.580240 0.548845 0.595623 
Bash -2.485797 1.852699 -1.761998 -2.551705 0.480692 1.768854 0.499318 0.144135 2.343491 0.488784 -2.098906 1.420712 -0.203679 -1.145734 -1.114857 2.840781 0.566716 0.623319 1.725894 3.504459 1.862305 -2.169099 2.184581 -1.597257 1.031878 -1.173447 0.430527 0.519008 -2.494338 1.949737 -1.114998 1.801378 -1.453176 -1.170068 -0.293119 -1.682072 -0.251697 0.158717 -0.271100 0.122189 1.090746 1.179874 3.359762 -0.530514 0.433328 1.132134 -1.712754 -0.046331 
form 0.748561 -0.817738 -0.853700 -0.198083 -0.752376 -2.103380 -1.505634 0.012002 -0.587096 0.595975 -1.364436 0.877147 -0.125474 -1.453065 0.459648 -2.761369 -2.455347 0.178757 -0.605575 -0.656217 -0.651509 -1.899937 -0.996669 -1.607321 0.821280 -0.590888 -0.207271 -1.719915 -0.786982 -0.460127 1.639457 -0.260183 0.274514 -1.795236 0.671735 -1.632054 0.870490 -0.339941 -0.156818 -0.697531 -0.588905 0.025635 0.056657 -2.050429 0.090331 0.324597 0.496896 -0.286662 
class 0.976286 -0.655089 0.340238 1.313151 -0.587159 -0.127782 0.801663 -0.923360 0.420690 -0.314463 -0.993391 1.215510 -1.607743 -2.042638 -0.226174 -0.487474 -2.053988 1.082075 1.208246 0.563829 1.170885 0.174768 -0.688737 1.544396 1.396159 -0.443986 -0.252215 0.059772 0.241525 -0.761933 0.628861 1.296874 -0.140799 0.326442 1.395806 0.220464 1.068454 0.337058 0.739360 -1.123568 -1.717336 -2.449466 -2.092497 0.157962 0.970791 -0.322358 0.055008 0.530443 
what -4.958607 -0.537075 -0.027398 1.053309 0.860351 -3.425377 1.891331 2.220386 -0.930253 -1.532713 0.773775 -1.420063 -0.397310 -2.213194 0.621728 -0.373072 -0.513678 -0.119952 -1.708380 2.273652 -1.674042 -0.388278 -0.069989 -0.326104 0.128647 0.200303 -1.856550 2.606551 2.930478 2.409140 -2.077930 0.308416 -0.253097 0.871514 0.443231 -0.036752 -0.873294 0.976924 -2.612985 0.136893 -0.292377 0.393945 0.496020 0.319197 1.705247 -0.797311 1.088128 -1.427836 
possible 0.188697 2.407736 -0.239107 0.027731 -0.437784 1.464073 -2.635441 2.402961 -3.702660 -0.235130 1.972338 -0.252068 0.105361 -1.833880 0.376856 -1.962905 -1.151049 -0.343286 0.323769 -1.549392 -0.924235 -0.605141 -0.220856 2.196705 1.832691 -0.015851 -0.914413 -0.761357 -1.539585 -0.128946 1.615740 -0.764998 -0.811393 -0.836653 0.734740 0.313636 -1.992755 2.411782 -1.129763 -0.139239 -0.375175 -2.491485 1.506166 -0.418075 -0.509565 -1.271843 -1.960719 -1.602830 
up 1.011813 0.643487 -1.399266 -1.638538 -0.954015 1.293086 1.397485 0.198370 -0.257265 -2.319724 2.417154 -1.000566 -0.506157 1.856519 2.022378 1.140823 0.737477 1.577087 -2.670025 0.603587 2.976286 0.111722 -1.072645 -1.633084 1.443654 1.432363 0.483800 -0.041118 1.035517 -0.433516 -1.606222 2.724551 2.442447 0.603440 0.880515 -1.299084 0.231139 -0.402076 0.151664 2.020120 -0.093789 0.485294 -0.779897 -0.523359 -0.475171 0.802321 0.704430 -0.542631 
spring 2.106389 -0.749232 0.533372 0.426291 -2.178947 -2.741432 -0.731686 -0.632705 1.100478 0.454926 -0.594813 1.279580 0.201125 -1.514197 -0.359186 -0.975750 -0.186438 1.511211 -1.526216 0.832978 1.097825 -2.495155 0.843358 0.477193 -1.512803 -0.306445 -1.363205 0.418904 0.422357 1.926955 -3.040063 -1.010026 -1.862747 -3.055569 3.662141 -1.694541 -1.141267 0.404954 1.222461 -2.690709 -2.054639 1.428414 -0.649509 -0.825945 1.760934 -0.001628 -0.301057 -0.601663 
string 0.437349 2.225480 -0.929342 0.039785 0.379059 -0.904492 0.148230 0.565567 0.543090 -0.032786 -0.991771 1.484682 -0.533994 -0.538558 0.034208 0.504208 -0.286707 0.015455 1.562569 2.715547 0.677265 0.218897 -0.193857 1.674458 0.426049 0.032007 1.589542 0.845555 -1.457012 1.648656 2.700641 1.624275 0.041382 -0.089703 0.665616 -0.303912 1.400384 0.952876 0.588024 -1.498323 0.986422 -1.019517 0.462796 -0.815692 -0.355745 -0.703605 2.402959 -0.886595 
image -0.420684 2.634549 -0.923407 1.908217 1.431195 0.063473 -2.331102 0.417640 -1.020354 -0.236981 0.092876 -0.153155 -1.254434 1.331882 0.801837 0.673649 -1.970538 0.137513 -0.725756 -1.468269 -1.693394 1.230766 0.177747 0.599394 1.890962 0.132655 -1.019847 1.934148 -1.398541 0.450861 1.970499 0.541361 0.611389 -0.901282 0.122251 -2.567685 2.644564 2.319498 0.480820 0.147924 -0.107260 0.017510 -1.894593 -0.219564 -1.011655 1.368129 -0.857209 0.066984 
new 2.036394 1.733600 -1.217744 0.381476 0.682175 -0.141933 0.058481 0.166340 -1.271362 -0.426267 1.044382 0.803689 -0.061541 -0.784690 0.052698 -0.439839 -2.151749 -0.280802 -0.470806 -0.851578 0.337760 0.023127 -0.347769 -0.228624 0.226345 1.864802 -1.948385 -0.870796 0.251910 -0.936924 -1.039419 0.245572 0.006702 -0.499500 1.078017 -1.265899 -0.930442 0.879450 -2.326800 -0.081509 -0.089422 0.494602 0.086062 -0.133259 0.204230 0.911395 1.484192 1.963863 
find -0.554723 -0.662248 -1.549642 1.119363 -2.641085 -1.267777 1.853066 0.960466 -0.809149 0.331798 -0.704185 0.504390 -1.591025 -0.975858 -0.588289 0.967570 -0.032300 -1.641331 -1.171930 2.926673 0.344350 2.591248 1.769815 -0.836567 0.500404 2.334615 0.818262 1.674736 2.153326 0.357508 -0.661220 0.295211 -1.317251 -0.158761 -0.954720 0.256306 -1.781041 -0.979412 -1.854794 -0.466911 1.201894 -1.096837 -2.113934 0.749206 0.733318 1.291834 1.306629 -1.174855 
database 0.380355 1.123714 0.907563 -0.235251 0.094246 -0.893588 -1.831554 -1.290284 0.023243 1.171156 2.057294 0.792367 -1.864083 -1.396662 -0.199094 -1.424580 -1.164207 0.694799 -0.570403 -1.365950 1.458297 -0.321393 0.828669 0.789281 0.424728 1.354230 0.542836 -0.751117 0.572568 -1.360485 -0.148170 0.105692 0.691326 0.186149 1.298954 0.657457 2.088291 -0.782669 0.330350 -1.776922 1.847631 0.796954 -0.230178 0.608204 0.932783 -0.429271 0.541222 0.265554 
Best -1.261013 1.839453 -0.389545 -1.265064 -0.520419 -0.255911 -1.460225 -0.615761 1.381450 -1.457721 2.040744 -2.860636 1.212043 -1.108088 -0.840405 0.770792 -3.087829 1.558636 -0.690795 -1.414221 0.607310 1.036799 1.371215 -0.550059 -0.825834 -0.734135 -0.864077 1.558574 0.753894 0.806543 0.609367 -0.815157 -2.413938 2.520055 0.702641 0.036155 -3.503930 1.155387 -2.343859 -1.308528 1.399778 0.537870 -1.514425 -0.291815 -0.480160 0.667241 0.488571 0.663760 
Subversion -0.813695 0.623051 0.969452 0.853580 0.035146 -0.680767 -0.746158 -1.633957 1.709639 0.952471 1.861719 -0.282775 -1.038432 -0.729256 -1.821236 0.403537 0.620624 -1.325368 -1.220134 -0.061721 1.684829 1.288666 0.921420 -0.375506 0.115252 -0.011309 -1.463607 1.273591 -0.729430 0.420776 -2.085754 0.521506 -1.520878 -1.112065 0.214774 0.717021 -0.119324 0.126255 -0.320987 -1.102400 -1.430354 3.394972 0.870956 1.636963 1.339922 1.146848 -0.600519 1.344647 
line 2.509422 0.636399 -2.008074 -0.497470 -0.356655 -1.192477 -0.573664 -0.026014 0.502544 2.100996 0.667741 1.018304 -0.419993 0.614886 -0.595046 0.688542 0.346755 -1.593535 2.414312 0.640385 3.065704 -2.052386 -0.132913 0.100216 2.302315 -0.028778 1.173222 0.249991 -0.532841 3.370240 0.652653 1.345875 1.196309 -0.087091 1.072168 -0.769560 0.709676 1.901560 -2.140223 1.546209 2.017514 -1.627696 1.631483 1.715647 0.515906 2.131006 -0.021180 0.619273 
In -0.860455 -1.574509 -0.671673 1.420986 0.805552 -3.451394 2.517682 3.969461 0.580906 0.889273 -0.094804 -0.703587 1.704974 -0.638098 1.713829 0.002076 1.118061 0.257118 -0.008847 -0.237643 -0.565907 -0.498244 -0.540417 2.253573 -0.660068 1.227023 0.129029 1.043933 -0.739979 1.437468 -0.324056 1.037423 1.311415 0.432604 -1.673352 1.367352 -1.767761 -0.170317 -0.940776 -0.433133 1.224671 0.840989 -0.965539 -1.587139 1.328628 1.224405 -0.609423 -0.335290 
content 0.687502 0.505337 -0.405207 -0.751640 0.487632 -0.741067 -0.890241 -2.058122 -0.536583 -0.080720 0.935665 -0.001154 0.615924 1.044448 0.301400 -0.133923 -3.143636 1.038876 -2.194541 -0.520460 -0.247810 -0.103495 -0.504032 1.272165 2.379786 1.157880 0.463716 1.229390 -2.053197 0.041683 2.382518 0.413630 0.418661 -0.492608 1.719370 -1.183002 0.669248 -0.748156 -1.846092 -1.022969 -1.414919 0.374543 -1.317996 0.353630 1.780577 -0.825892 -0.849274 1.017959 
any -1.725280 -0.468878 -1.493231 1.237678 -0.939912 -0.445808 -1.542850 0.937529 1.676600 -1.341565 0.991943 0.925553 -0.295635 0.103223 -0.900167 -0.711626 -2.007396 0.079743 0.784151 -0.400164 -0.141190 0.778290 0.259253 1.414304 1.494947 0.372555 0.044275 -0.311968 1.296809 -0.191746 0.126508 -0.141251 -2.139738 1.188218 -0.029150 -1.439112 -2.309543 0.021453 -0.543238 2.277317 -0.460006 0.603038 -0.231754 0.225648 2.498014 -1.320853 -0.483146 1.141542 
but -0.432083 0.089171 0.088170 1.051714 -2.184522 1.441447 -0.077566 1.226048 0.541023 -0.842474 1.592810 -0.612195 -1.884185 -1.427709 0.945608 0.721232 -0.667634 1.659593 -0.174180 0.327743 -0.107043 1.873801 0.503565 -1.412563 1.379970 -0.945191 0.556960 0.735813 0.681333 -0.161925 -0.201595 0.819523 1.195527 -0.011476 1.111103 -1.542987 0.634207 0.533195 -0.974010 2.280485 -1.328209 0.794610 1.928991 -0.955843 1.204698 -2.802907 0.730441 0.407101 
working 0.719603 -0.603454 -0.149502 1.046425 -1.813752 -0.366116 -2.752860 -0.921252 1.259737 0.617150 0.704480 0.349405 0.770419 -1.672898 1.726243 1.676469 -2.425345 -0.626970 -0.853459 1.613957 0.749320 2.133779 -0.399990 -1.065298 2.017439 1.284590 -0.442893 1.596201 -1.393794 0.906916 -0.897247 2.146461 0.613417 1.869954 -0.064882 -0.593865 1.786300 0.510432 0.451015 3.162731 -1.618393 -0.794017 0.578011 -1.190196 0.900599 -0.430604 1.969524 1.097378 
directory 0.214932 0.292337 -0.204841 0.424725 -1.027660 0.315707 -0.169711 -1.691213 -0.186614 -1.322064 0.576277 0.390745 -0.578892 0.108294 -0.539068 0.407085 0.651608 -0.685379 1.035655 1.536089 2.140983 1.485220 -0.119417 -0.615687 2.705141 -0.176521 -0.200466 1.742627 -0.379946 0.035729 0.905110 1.591506 0.342737 -2.453853 -0.253364 1.773101 1.448312 1.636353 0.068048 -2.490274 -0.028307 0.378377 1.845391 -0.961053 1.235473 -0.331775 -1.206491 0.930722 
via 1.734774 0.261902 -0.194875 -1.031693 -0.018371 1.001059 -1.885665 0.772043 0.594607 -0.737740 0.276756 0.492376 -0.879320 -0.304573 0.278794 -0.238697 -1.699122 1.407979 -0.528642 1.074739 -1.076489 -0.046734 -0.984794 -0.540500 0.158726 1.077179 0.318494 -2.101775 1.283395 0.197926 -0.212561 -0.835867 -2.426546 1.200409 -0.967945 -0.635682 0.118126 0.653725 1.427145 -0.058599 0.938842 -0.533539 1.363311 -0.167362 -0.073542 0.526890 -0.034041 0.374700 
after 1.165337 1.721897 -0.411537 -0.938392 -1.123767 0.650022 -0.394904 2.338392 -0.180790 0.874341 1.199268 1.496236 0.076688 -0.087099 1.931444 -0.227907 1.165596 -0.859682 -0.263181 -1.210267 -1.848190 -0.104545 0.340726 -1.292200 0.137905 -1.120508 -1.028461 -0.039582 1.408379 -0.239400 0.220411 -0.667076 1.168733 0.171886 0.372061 0.076390 -0.532422 0.400416 -0.421884 0.615897 -1.219267 0.299167 1.650681 -1.561978 1.485216 0.585588 -0.314899 -1.117422 
two 0.658296 -0.209454 1.025115 -0.108882 -0.239872 -1.838629 1.639435 -1.477377 -0.538184 1.956319 0.642983 -0.343614 -1.235974 0.269039 -1.162140 0.431622 -1.492292 1.120362 0.195803 -0.379657 -1.734443 0.016016 -0.963363 0.087943 2.799691 0.404814 0.551706 0.836934 0.857320 -1.048917 -0.624968 0.003963 -0.786809 -0.574746 1.939141 -0.618359 -0.584228 -0.163111 -0.548791 -1.430117 1.848259 -1.047734 2.982555 3.096682 0.974579 -0.953760 2.908496 -1.282959 
which -0.292911 1.231579 -0.559130 -0.774212 0.765548 0.291477 0.596698 2.970620 -0.014416 -1.301763 -0.439502 0.581223 -1.382049 -3.030834 0.559096 -1.713869 -0.423106 0.249024 -1.792399 0.226719 0.257502 -0.047535 -1.755769 0.170673 0.507441 -1.319288 -1.532777 1.210494 3.322041 1.087803 -1.091705 -0.355454 -0.619091 0.591092 0.504309 0.714414 -0.060434 1.165451 -1.724488 0.465079 -0.155882 1.637681 1.823078 1.030938 2.580786 -1.585111 1.566880 0.208532 
only 0.726772 -0.244438 -0.005469 0.670797 -1.041299 -1.847228 1.036020 -2.382402 -0.458211 0.965707 -0.053031 0.558865 -0.079027 0.221977 1.552024 -0.538464 -0.764216 0.195029 -0.461517 -0.548454 0.964240 1.188494 -0.000939 -1.852420 2.865931 0.280055 0.142148 0.147727 -0.460159 -1.477050 -0.297060 -0.018587 -1.636409 0.769909 -1.709179 -0.857944 1.218003 -0.259070 -2.636998 -0.091750 -0.406225 0.088466 2.065195 -1.728266 1.072136 -0.685752 0.989507 1.235929 
svn 0.905623 1.341441 -0.315819 1.387803 -1.079533 -1.296842 -1.515846 -0.382717 1.184252 1.452464 1.618992 0.236352 -2.150157 0.614175 -0.576570 0.027947 0.130468 -0.684828 -1.336009 -0.130273 3.124905 2.029351 0.901995 -1.400921 1.320077 -0.617710 -2.382632 2.278968 -0.397814 -0.500740 -1.612421 1.392267 -2.219123 -2.494482 0.212947 1.115479 0.666749 0.606546 -0.962488 0.472484 -1.928243 3.113606 0.570645 0.902153 2.167706 1.134845 -1.085425 0.531183 
values -0.134997 -0.489574 -0.921189 0.055292 -1.275939 -0.440896 -0.543617 -0.360788 -0.089440 0.500010 -2.022795 -0.339112 -2.228100 1.031527 1.218404 0.102254 -0.076247 -0.176870 0.107600 -0.517407 0.931851 0.800270 0.350108 0.817857 0.390368 0.248346 2.133543 0.355378 -0.651550 -0.199036 1.678439 1.751840 0.842049 -0.876634 1.538661 -2.810020 1.026361 0.128888 0.996802 -1.215799 1.504865 -0.823898 0.260885 0.262456 0.352649 -1.577875 0.294563 -0.893583 
field 1.277787 1.554569 0.235096 0.407057 -0.367350 -0.078144 0.030914 -0.762767 -0.684241 -0.895264 -0.575180 1.450315 0.447424 -1.278265 1.534895 -0.561067 -1.399856 0.684038 0.505806 -0.419518 0.672837 1.304647 -0.931760 0.184774 0.196674 1.469307 2.414789 0.220838 -1.548329 -0.044260 2.212460 0.241448 0.510630 -1.082691 0.323512 -0.386334 1.913305 -0.407510 -0.577236 -0.184606 0.829355 0.756856 -0.253483 -1.022524 0.134101 -0.913928 -0.077442 1.140058 
Problem -0.196419 0.091707 -0.541844 -0.790269 1.023235 -0.661113 1.088011 -2.782532 0.013829 -0.957139 1.545349 -0.153185 -1.087921 -0.764371 0.460348 0.529637 -0.499393 -0.802036 0.982253 -0.379481 -0.929663 0.141435 0.351359 0.526631 0.042978 -0.479833 -0.729559 -2.006766 1.258210 0.988841 -0.456603 0.508733 0.385439 -0.056568 0.281375 -1.624077 0.842432 0.374793 1.288061 0.562458 0.899300 -0.328600 0.210276 -2.021727 0.705195 1.311214 0.594365 -0.012278 
view 0.653955 0.028774 -0.855825 0.141529 0.301364 -0.909032 -0.848727 -0.682936 -0.596971 -0.869309 -0.507671 1.864566 -0.547815 -0.835167 0.632625 -1.484324 -1.422804 -0.338279 -0.512943 -0.798996 0.556054 -0.336306 0.335176 -1.210758 -0.603389 1.586151 1.253803 0.485223 -0.907128 -0.873962 0.302968 0.942302 -0.308149 -1.012144 1.141531 0.451757 2.013461 0.250740 -1.313468 0.177938 -0.266470 0.357685 -1.147705 -1.300864 0.129383 -0.175785 -0.284133 -0.645052 
Getting 0.459094 -1.155586 0.435262 0.324472 -0.755465 1.645721 0.757053 0.484749 0.208612 -0.559439 0.941445 -0.397064 -0.721748 -1.836239 1.689480 0.104481 -0.990545 -0.294542 -1.144053 -0.162209 -0.718524 -0.833316 -0.580036 -0.623319 -0.425119 -0.250641 2.913903 0.709823 1.458440 1.150921 0.096355 0.064661 -0.501382 -0.371938 -1.131501 -0.776769 0.555219 -0.347930 -2.156198 1.460104 0.343798 0.309813 -1.341647 0.829476 0.210473 1.371728 0.317758 -0.370221 
drupal -0.993993 -0.432576 -2.775123 -0.709483 -0.245559 0.061489 0.324399 -0.608596 0.103288 1.180528 -0.081780 1.944100 -0.199809 -0.621234 0.253854 0.673537 -0.175943 1.041856 -2.823338 -0.153199 -0.106275 0.588851 1.941040 -0.029432 0.577494 2.371996 -1.060345 0.008598 -1.352174 -0.584057 -0.925987 -0.896367 -0.022027 -2.395158 3.045556 -0.919153 -0.963933 -1.069073 -1.795026 -1.625608 -0.400801 2.512895 0.467338 -0.880475 0.040727 -0.500183 -1.001065 1.861876 
scala 0.550597 -1.330112 0.085165 0.332712 -1.709546 0.745686 1.159735 -1.302271 0.398921 -0.979086 -2.545514 0.854576 -0.870481 -0.571152 -0.980664 0.793000 0.484921 0.481538 0.288449 -0.703793 0.978199 -0.465101 0.542702 -0.257277 1.333125 -1.714509 -0.453439 -0.329167 -1.759153 1.391762 -1.260755 -0.327138 -2.715652 -1.067488 2.265449 -1.035182 -2.356747 0.200317 0.804456 -1.143502 -2.577949 1.771971 -0.152074 0.967352 0.211113 -0.335915 -0.005110 0.098332 
XML 1.751684 -0.111227 0.944708 0.642327 0.283593 -1.221004 0.905561 0.257759 1.143756 -0.512262 -0.715882 -1.622760 -1.779432 0.254243 0.295889 -1.174997 -1.869416 1.187203 1.385549 0.208480 1.046110 1.267190 1.032255 1.596685 -0.665737 0.122323 -0.736699 -1.497019 -0.018422 0.360233 -0.322307 0.919375 0.170301 -1.379327 -0.676049 -0.337688 -0.788116 0.639298 0.679233 -1.804830 1.432433 0.944518 -1.559152 -0.961045 1.186234 0.837768 0.562990 1.342057 
Web 1.635897 -1.263019 1.207827 0.055178 2.354716 -1.585269 -1.578993 0.716922 1.264723 -2.164853 1.991678 -1.306594 0.530117 -1.420477 -1.054699 -1.162804 0.293004 0.004986 -0.213521 -0.002234 -0.779095 -1.214019 -0.942470 0.119687 -1.518108 1.794614 -0.336610 -0.728649 -0.638269 -0.428569 -0.183027 1.824618 -0.681957 0.498265 -1.249597 0.408355 1.764220 -0.596883 -1.200353 -0.900370 -2.298098 1.084321 -0.343741 1.257920 0.655912 2.877186 0.224725 -2.573243 
display -0.640522 -1.335057 -1.777540 1.554948 -0.706300 -0.464365 0.507739 0.743484 -1.073724 -1.056584 -0.396058 1.137324 0.619484 -0.312232 -0.688826 1.269043 -0.582769 0.394807 -2.691910 -0.870686 -1.472175 0.799551 0.490550 -1.429869 0.325265 1.180432 1.936670 -0.143566 0.248037 0.026095 0.254745 0.425472 -0.104987 0.170015 0.581820 0.076232 0.756924 -0.412454 -1.935431 -0.248610 1.925506 0.145407 0.133292 -0.215497 1.124212 1.333853 -0.632703 -1.088928 
access 0.166960 -1.678419 -0.562888 0.106925 -1.817732 -0.530168 0.399470 1.218446 -0.516855 -0.225172 2.063234 -0.243089 -0.123409 -1.448985 -1.524274 0.450946 -0.181358 0.621469 -1.948470 0.778167 -0.680222 0.249451 1.266021 -0.702217 -0.583885 0.231220 1.497962 0.283577 0.145838 -1.588105 -0.017525 0.969932 -1.524504 -1.227714 -1.098784 -0.567228 -0.100881 -0.381567 0.229167 -1.585989 0.256182 0.489786 -0.984950 -0.050847 2.241940 -0.711606 0.548491 -0.063390 
method 0.580099 -0.243109 0.834243 1.438858 -0.592530 -0.038580 0.245195 0.033079 0.000045 0.446948 -0.134731 1.039790 0.453468 -1.916307 0.372491 -2.072654 -0.552228 0.052664 0.257149 0.145591 0.912324 -0.408983 -0.256468 0.644602 2.002574 0.629553 0.792751 -0.815425 -1.111877 0.519872 1.337805 0.031483 -1.011081 -0.267161 0.128391 -0.338922 0.477602 0.559991 1.380085 -0.609897 -0.530247 -0.848110 -1.729673 -1.122266 0.224497 -2.086862 0.210479 -0.351947 
i -1.510009 0.411775 -0.127105 0.616379 -0.722061 -0.521757 1.917156 1.389275 1.430452 2.423830 -1.229060 2.597150 -0.150785 -0.990008 1.079330 -0.007118 1.673063 3.490715 -1.932577 -0.501924 1.487120 -0.127335 -0.052695 0.672030 -0.055930 2.040942 -1.474859 2.674944 -0.359880 -1.982130 -0.152187 -0.073768 -2.261409 0.194228 -0.007434 -0.354672 0.921565 2.024973 -0.672887 1.108686 -0.416160 -1.987945 -0.067207 -1.898916 0.855295 -0.673288 -1.438805 0.210234 
variable -1.022763 1.267347 -1.996327 0.266367 -0.173959 -0.658098 0.311527 -0.836686 -0.040878 0.005071 -1.023078 1.522936 -1.088976 -1.419658 0.565191 0.125997 -1.503207 -0.361534 -0.262986 1.259423 0.406222 -0.498302 0.084416 2.053078 0.728894 -0.947910 0.270500 1.398125 0.149721 0.501551 2.453316 0.907124 -0.845870 -0.766472 0.813337 -1.149326 0.392900 0.560379 0.310597 -1.798695 -1.314125 -0.723992 -0.578020 -0.884452 -0.709801 0.642678 0.886142 1.039331 
name 0.831546 0.251570 -1.307074 -0.345887 -0.646855 1.505970 0.313847 0.929329 0.919104 0.395276 1.016026 0.712414 -1.692848 1.442984 -0.180143 -0.465462 -0.942790 0.224855 -0.813444 0.739662 -0.189486 -0.614593 -0.617833 0.516669 -0.752578 -0.718141 -0.624907 0.270016 1.059580 0.107448 -1.310058 2.701622 -1.021111 -1.844138 0.722103 -1.817781 -0.447796 -0.181092 -1.446675 -1.509971 0.009958 -1.367243 0.551109 0.311128 0.297953 -0.139747 0.150807 -0.402841 
array 0.209439 1.603212 -0.700589 1.927139 0.640362 -0.595700 -0.230929 0.943900 -0.279891 -0.600184 -2.316501 0.036216 -2.954473 0.940970 0.825510 0.134677 -2.440825 0.627987 1.246160 -1.300423 1.384176 0.179602 -0.008925 0.622188 2.170661 -1.504144 2.057380 1.982096 -0.712659 -0.716657 1.474357 0.324666 -1.924129 -2.050689 0.334658 -1.558217 1.194669 1.143807 1.213339 -1.073686 1.498442 -0.169090 -0.869751 0.727156 0.047756 1.348188 0.571087 0.490660 
out -0.186258 0.332878 -0.387771 -0.631780 -1.108037 1.792277 1.405387 1.163783 1.078642 0.509105 -0.368897 0.026593 0.116648 0.589599 -0.235095 0.213546 -1.670377 -0.716700 -1.883935 -0.558272 -0.002321 -0.739496 -0.854634 -0.251654 0.328521 -0.528914 1.762259 2.291046 0.330631 -0.907034 -0.997747 1.725526 0.248145 0.538652 -0.491266 -0.061359 0.837930 0.738955 -0.387771 -0.590792 -0.476401 -0.175559 1.635912 0.638291 2.333014 0.121555 0.573547 -0.814980 
within 0.413535 -1.321733 -1.318988 1.389412 1.003114 1.730143 0.792635 0.994913 1.161890 -0.145754 1.394428 0.634578 -0.094574 -1.271471 -0.140362 -0.071075 0.576784 1.117467 -0.921434 1.219964 -1.734581 0.098212 -1.098003 0.891990 0.529453 -0.414936 0.557211 0.225861 0.903908 1.213075 1.645788 -0.387189 -1.539060 0.088195 -0.814571 1.778921 0.963010 -0.129435 -1.784953 -0.299101 0.544331 2.189355 -0.370684 -0.752408 -0.239783 0.693891 1.478020 0.215683 
WordPress -1.571791 0.739893 1.613548 0.213565 0.970412 1.437944 -0.601067 -0.239735 0.939290 1.254490 -1.430503 1.360219 -0.322881 0.810988 -1.986128 0.132260 0.863350 0.785034 -2.322855 1.362656 1.623408 -1.948844 0.258224 -0.165453 -0.666442 0.549448 -0.336871 -0.423575 -3.260372 0.596519 -1.155585 0.341622 -0.933473 0.866470 0.853677 -1.091936 1.186804 -1.014869 -1.923051 -0.329466 -2.168954 2.325365 1.404257 -0.769728 0.723341 0.776997 -1.399834 -0.206430 
project 1.220123 -2.065484 0.207628 1.045404 -0.928872 -0.274719 -0.911682 -1.126220 0.020417 -1.694060 -0.258545 0.140322 -0.989228 -0.901425 -0.801375 0.678375 -0.644021 -1.052251 1.050548 -0.336383 2.076364 -0.176797 -0.588509 -0.359760 1.357068 1.426483 0.431219 0.488379 0.215216 -0.139865 -0.280070 1.671815 0.119185 0.103329 0.227227 1.870668 -0.067973 1.671988 -0.481606 1.267987 -1.657128 -0.569286 -2.062387 0.927744 0.495866 1.000551 -0.741239 1.334154 
column 1.613630 1.152231 -0.153201 0.466180 -1.897979 0.210401 -0.365363 -1.012380 1.083584 -0.448718 -1.528634 1.891692 0.702641 -1.358315 0.879902 -1.243514 -0.248971 0.025481 -1.159784 0.446474 0.971356 0.303813 -1.058007 0.248313 0.745901 1.090890 2.312479 0.728168 -0.992610 -0.792648 1.621542 1.300964 -0.105262 -1.424963 -0.477281 -1.727075 2.068051 1.646134 -1.163614 -1.950362 1.617685 -0.135664 0.690527 0.536938 0.242678 -1.765911 1.562382 -1.405330 
based 0.639604 -0.328660 0.003278 -0.590850 -1.415824 0.271191 -1.823938 -0.506099 -0.549807 -1.361820 -0.587487 0.392380 2.021666 -1.096343 -1.629798 -1.261250 1.780292 1.733034 -1.921488 1.157151 0.615106 1.984247 0.762143 -0.440151 0.468062 1.006360 -0.737709 -1.273079 1.070716 -1.696716 1.703286 -2.472760 0.488966 0.035994 0.223571 -2.219738 0.522766 0.138465 0.177609 0.150506 1.454476 -1.201012 0.432012 0.548315 1.073796 3.023872 -0.788646 -0.645142 
number -0.070335 0.203440 -0.762577 -0.060273 -0.527590 0.715743 1.183194 -0.259130 0.697916 1.507156 -1.571345 -0.887923 -1.024804 0.375177 -0.477240 -0.739398 -1.210608 -0.822691 -2.836670 -2.205703 1.253228 -0.541915 1.161195 0.153146 2.519748 0.070203 2.450496 2.691440 1.477879 0.181889 1.578866 1.395490 -0.998634 -1.399699 0.197732 -0.080216 0.098927 0.530466 -1.389970 -0.203959 0.042327 -1.641739 0.436114 0.775105 1.585108 0.512877 1.532582 -1.644773 
URL -0.201157 0.003777 0.302927 -0.195104 0.266600 -0.085698 -0.316530 -1.543960 0.095859 0.962548 0.508762 -0.421154 -0.363415 -0.469894 -0.699930 0.646686 -1.154775 1.581717 -2.189092 1.045211 0.799240 -0.251711 0.147849 0.180199 0.051001 -1.503146 -0.002023 1.055456 -1.327228 -1.170476 1.298058 1.228996 1.562281 -0.228911 0.547341 -1.055128 1.909303 -0.159473 0.019067 -0.519934 -1.690241 -0.848262 0.890042 -2.250135 0.231744 1.222391 0.517434 1.437609 
site 0.172019 -0.872986 0.783568 1.361175 -0.181950 -0.725335 -2.150851 -2.538168 0.557942 -0.200721 1.057384 -0.201091 0.028933 -0.673047 0.854294 0.603137 -1.400231 -0.371538 -1.587936 2.040948 1.257424 0.342329 -1.464749 -1.433471 0.956747 2.486125 1.713044 -0.548140 -2.017878 -1.097436 0.146681 0.549773 1.628418 -0.982564 1.382891 0.026628 0.249835 0.370713 -0.096186 -2.329334 -1.342009 -0.227742 -0.920954 0.064282 1.184295 -0.638370 -2.453771 1.262223 
update -0.094762 -0.532578 -1.049220 2.052651 -2.000159 -1.074671 -1.806272 0.519704 -0.611680 -0.750151 1.126013 0.688903 0.929895 -0.320411 -0.104650 -0.242220 -1.067159 0.337583 -1.033948 -1.769254 0.210692 0.422806 0.683336 -0.684816 0.817133 1.517102 1.119731 -0.272938 2.161374 0.079762 -1.442839 -0.321918 0.643501 -0.023593 1.504909 1.999925 1.103641 1.343674 0.627232 -0.500580 1.460967 0.335704 0.506445 -1.216901 2.311168 0.602371 1.256721 -0.692591 
What's -1.978919 1.233516 -1.194332 0.602960 -2.407603 -1.413792 0.729571 -1.584391 2.660131 -0.984420 0.902399 -1.199242 -0.468525 -0.655246 -0.988861 -0.424048 0.172296 -1.076535 -0.278668 1.582647 -1.199463 -0.108134 -0.290655 0.704338 0.929386 0.771561 1.903133 3.862010 2.330583 0.778738 0.890386 1.495019 -1.450388 0.431162 0.188169 -0.584011 -2.443075 0.731583 -2.404262 -0.655148 0.153498 0.087230 -3.573864 1.537032 -2.125590 -0.138092 -2.163693 -0.058411 
vs -0.601105 0.262175 2.367051 -0.628650 -0.804027 0.965389 -0.588790 -0.197091 0.728890 0.374915 -0.985276 0.554829 0.968111 -1.109377 0.022933 -1.311859 -0.010494 -1.088533 0.395382 0.501037 -1.589096 0.401971 -0.533818 0.326987 1.730087 0.998582 0.339801 -0.743507 0.387177 -0.486420 -1.634468 -0.203090 -0.754360 0.910015 0.126913 0.100246 -1.094835 -1.147627 0.547913 0.186040 1.389049 -1.082193 -0.332101 -0.245696 0.663096 0.339476 -0.330575 0.314322 
specific 1.145765 1.766981 -1.472882 0.738211 -0.140507 0.127838 1.410203 -0.101377 0.561121 0.030038 -0.467398 0.142416 0.295673 0.207804 -2.367775 0.353092 -0.997584 0.656827 -0.761798 0.028985 0.370086 -0.164936 0.501060 -0.444009 0.308739 0.057353 -0.246847 -0.156367 1.000272 -0.830190 -0.056758 1.589941 0.386547 0.026452 -0.235264 -0.401130 -0.016610 1.320689 -2.798197 0.160572 -0.464084 2.070282 1.116889 0.430594 1.111090 0.723504 1.004165 0.224261 
at 1.785954 1.480888 0.380082 0.521270 1.217467 2.403068 1.103770 -0.036079 -0.223529 0.277824 -1.182425 0.075080 0.655258 0.759143 -0.111379 0.253640 0.598250 -1.900015 0.467412 1.546005 -1.368067 -0.459174 -2.625766 0.528550 1.840769 -0.483608 0.373670 -0.877460 1.879910 -0.356066 -1.512366 0.770266 0.658603 0.727966 0.852640 -0.465201 1.436640 0.620515 -0.776509 -0.091872 -1.179425 -0.988737 0.813688 0.385084 -0.203350 2.083808 -2.398479 -0.038376 
default 0.915664 1.997487 -1.367463 0.904133 0.334273 0.862683 0.186724 -0.431139 -0.001306 -0.671706 0.082557 0.646775 0.773686 -0.642002 -0.366878 0.588002 -0.375465 0.350650 0.257897 1.294393 0.142037 -0.117214 -0.838004 0.223023 0.565939 0.858227 -0.420149 -0.877411 0.123955 -0.352306 -0.811986 1.508254 0.344313 0.486950 0.198864 -0.675034 0.008324 0.106058 -2.334249 -0.206180 0.609950 -0.974023 -0.986997 -0.986601 -0.467401 0.354398 -0.405482 0.606296 
PHP -1.013976 0.086585 -0.407405 0.253296 0.955339 0.453706 -0.755487 -0.210324 1.401346 1.008000 0.619067 -0.547391 0.638512 -0.211426 -1.534728 0.483106 -0.225731 1.181833 -0.569611 0.984841 0.152870 -1.749923 1.354766 -0.482376 0.313480 -0.218269 0.321831 -1.777618 -0.387647 0.316259 0.570846 1.792041 0.126954 0.317641 -1.043318 -0.822757 -0.696888 -0.657847 1.337177 -0.186506 -1.275002 0.158236 0.601518 -0.557089 0.648655 0.836977 0.054825 -0.120323 
Does -0.938010 1.139151 0.571454 1.591609 -0.704431 -0.644185 -0.048881 0.883192 1.347548 0.002793 0.973049 -1.303644 2.116649 -0.541624 0.775195 -1.260260 1.138720 0.615221 0.921405 -1.974585 -0.905569 0.415518 -1.840537 1.485323 1.017700 -0.273771 0.676693 0.481796 -0.041676 0.759210 -0.209123 1.409349 0.294738 1.009446 -0.742439 1.883535 -1.584451 1.293394 0.420502 1.219467 -1.372448 -0.890013 0.568057 -2.386699 -0.143698 -0.861230 -0.934048 0.419604 
2008 0.289865 -2.013739 0.794867 0.137054 3.397003 0.601134 -0.115214 -0.270569 -0.036535 -0.423036 2.128148 -0.191225 0.005708 1.158284 -1.187236 1.115535 -0.163555 -1.532859 0.523855 -0.582978 0.066897 -0.285260 0.871117 -0.230930 0.536815 1.645958 0.855127 -0.091300 -1.657070 1.871348 -1.613982 1.885203 0.048295 1.004724 2.325465 0.973173 -1.797336 1.284922 -0.153684 0.890562 -2.497556 0.625892 -0.199438 1.111240 1.433087 1.439876 -1.297022 0.005142 
& -1.187998 -0.166770 0.065297 -0.432383 0.390589 1.216580 -0.008960 -0.631663 0.040722 1.742538 1.256343 -0.993118 -0.118489 -0.896262 0.494636 0.441458 0.474397 -0.319752 -0.379914 -0.717101 -0.993130 1.138681 -0.626525 0.450652 -0.317255 -0.413254 -0.851543 1.346509 0.430805 -0.719601 0.108281 -0.367482 0.550071 -0.315856 -0.276980 -1.034923 -0.931078 -0.023922 0.645049 0.475896 1.173257 0.305640 -0.214034 -0.649219 0.281421 1.143667 0.395390 -1.264092 
apache -0.937078 1.165196 0.534790 -0.270236 -0.707419 -0.432073 -1.120552 -0.797300 -0.054087 0.577843 0.775930 -1.312325 -1.468134 -0.388305 0.376726 1.557439 0.820725 0.705496 -1.646676 2.625227 1.905710 0.404317 1.458015 -1.004634 -0.244577 -0.544895 -1.705587 1.209531 -0.708025 -0.542693 -2.115019 -0.664147 0.166668 -1.753478 1.530735 -2.041694 -1.033886 0.966710 0.714707 -0.455306 -3.551767 0.395299 1.782039 -0.498401 0.298058 1.490360 -0.644138 1.476296 
version -0.586244 -1.064468 0.760580 -0.119019 -0.513723 1.128105 -0.983056 0.803669 0.727398 1.172433 0.803922 0.864678 0.302515 0.263610 -0.626888 0.819863 1.710520 -2.294176 -1.040332 -0.483178 1.060943 0.354021 -0.683920 0.189733 2.088665 0.328701 1.538605 -0.151147 1.151523 -0.655634 -0.407847 0.808352 0.982396 -2.154870 -0.635860 -0.534728 0.068112 -0.228836 -0.234260 -0.612921 -0.820775 -0.061926 -0.114149 1.477801 1.518226 0.315441 0.308950 -1.180751 
through 0.477261 0.570090 -0.465624 -0.570673 -0.523410 0.844120 -0.380925 -0.288693 -0.323058 0.789216 -0.002690 0.021833 -0.383387 -1.366303 1.960418 -1.181092 -0.137871 0.545044 -0.737090 0.403315 -0.360759 0.867723 -1.500691 -0.560107 0.233949 -0.757195 0.069768 -0.521906 0.616327 0.155655 -0.304654 -0.549840 -1.789255 1.054210 -1.130719 2.286556 0.810456 -0.349787 0.008116 -2.007598 1.301107 0.583872 1.218647 -0.269540 -0.197658 2.008059 0.255551 -0.418315 
output -0.540864 0.682468 -1.687287 -1.407992 -0.028278 0.161042 0.512489 0.074008 -0.781343 1.463867 0.612240 0.590781 -2.075769 0.809396 -0.934355 -0.213293 -0.896507 -1.303429 0.386235 0.393655 -0.755493 -1.454971 0.587106 -0.380537 1.595568 -0.009078 0.250755 1.695900 0.252013 0.390168 0.450601 0.476866 0.263813 -1.257154 1.459206 -0.865582 0.105233 0.882812 -0.090852 0.486993 -0.475808 -0.945646 -0.723818 -0.805088 0.986999 0.679511 0.269388 -0.044208 
Custom -0.419764 -0.974242 -0.350108 -0.790729 0.940939 0.377565 0.079475 -1.561908 -0.098230 -0.666043 -1.548290 -0.588842 0.145062 -1.395198 -0.369342 0.806723 -0.762379 0.963354 0.117550 -1.145363 -1.570804 0.368384 -0.076993 -0.206504 -0.886400 1.004614 0.567515 -2.014871 -1.313010 -0.149457 0.106364 1.760624 -0.216225 1.813904 -0.648133 -1.267422 -0.103965 -0.092161 -0.465375 0.798706 0.991283 0.488098 -1.368355 -1.612979 0.306373 1.746633 -0.608175 -0.724678 
search -0.140391 0.890390 -1.039977 -0.116257 0.092673 -1.575861 -1.225745 -0.067146 -1.180878 -0.604201 -0.643529 0.386045 -0.998683 -0.693628 -0.869460 0.041191 -0.782603 0.224494 -0.898545 0.633148 -0.972002 0.838311 -0.169466 0.234391 -0.444202 1.351376 1.480497 -0.237702 0.272477 1.159660 1.610352 0.859332 0.789472 -0.033230 1.067917 -0.400905 -0.728496 -0.159439 -1.223453 -0.820385 1.101907 -0.450229 0.242032 -1.214970 0.391767 -0.340144 -0.354760 1.199608 
run -0.486583 -1.290747 -1.792825 1.364162 -1.062257 -0.905456 -0.321389 1.381310 0.601147 -0.750470 2.527529 0.588388 -1.160586 0.161592 0.051498 2.088926 -0.790363 0.296059 0.933585 1.780618 0.732651 -1.088796 1.052356 -1.367098 0.676539 0.396247 1.793419 -0.613440 -0.427352 0.598624 -0.232837 1.111260 0.449792 2.159330 1.389189 0.733987 1.002005 -0.271211 1.467458 -1.221604 -0.906234 -2.614628 0.451510 1.849897 1.195554 1.342835 -0.105236 -1.218068 
Where -2.716201 0.742103 0.851942 -1.198927 1.920651 -1.133848 2.069238 1.300579 -1.108134 -1.988343 0.364992 -0.143803 -0.290842 -1.130816 0.260475 -3.231601 -0.712625 -0.437419 -1.162260 1.676853 0.541567 0.005878 -1.347170 1.922378 -0.840503 1.761564 -0.003649 0.972462 2.921535 1.696704 -1.955622 -0.279551 -0.126697 0.764587 0.837884 0.435358 -0.339665 1.932266 -2.914015 0.175945 1.218076 0.112255 0.909490 0.761222 -0.177130 0.132276 -0.889980 0.013041 
menu -0.368102 0.453048 -1.216715 0.057274 0.469688 -1.658446 0.343368 -2.363188 -0.820137 1.105168 -0.086339 0.893488 -0.585259 0.426995 1.808368 -0.314302 -0.767235 0.050610 0.757570 -0.573062 -0.203305 -0.309145 -1.016669 -1.765673 -1.196263 1.902330 2.286926 -0.601471 -0.572313 0.133227 1.251432 0.649150 2.157595 -1.033399 0.865232 -1.019270 -0.040289 0.928686 -1.894303 -1.057250 -2.406262 -0.216908 -0.873297 -2.424143 -0.556320 0.558510 -0.547493 0.005788 
like -1.257420 -0.100574 0.572715 0.937384 1.191620 -0.552620 -0.290365 1.128494 -0.593082 -0.724826 -0.191135 1.248479 0.315436 0.732573 -2.304432 -0.758794 1.899812 2.023268 -0.015317 -0.770307 -0.799188 -0.445038 -1.745557 0.693312 0.594842 -0.058515 -0.196787 -1.209036 0.613848 0.050622 0.180598 0.548451 0.682871 2.177286 0.878018 0.696944 -1.093857 1.335572 -0.097210 1.382531 0.448146 -0.815448 -0.247517 -1.075400 -0.044357 1.458375 -0.104280 1.881684 
show -0.386692 -0.869312 -0.012394 1.186228 -0.926632 -1.584787 2.440197 0.672823 -1.478522 0.459386 -0.616689 0.475759 1.501860 0.572167 0.830389 1.693867 -0.832172 -0.138511 -1.624414 -0.027965 -1.232740 1.082795 0.710094 -3.030335 1.657362 0.878173 2.324800 0.774824 0.527035 -0.622698 0.339003 1.453686 1.452360 0.870246 1.186887 -0.489285 0.882518 0.353690 -1.681451 -0.278857 -0.531986 -0.307242 -0.258738 -0.888742 -0.221344 1.129980 -1.539120 -1.656208 
should 0.496511 -2.225728 0.100123 0.952738 -2.752409 -0.962915 -2.612199 0.337828 -0.393412 2.285264 1.011710 0.511677 2.450868 -0.908214 2.066198 -0.662763 1.577856 0.766053 0.695668 -1.347589 1.051808 1.367443 -2.063233 0.331879 3.186354 -0.150275 1.167636 1.165255 -0.048168 0.176818 -3.667727 0.437076 1.197343 1.149612 -0.448251 0.882896 -2.260442 -0.862475 -0.624263 -2.669459 0.065647 0.738124 1.988235 0.391658 -1.810382 -0.080924 0.157528 2.243203 
app -1.680361 -1.890750 0.184075 -0.117484 -0.680611 -1.562452 -1.360063 -1.376140 0.967869 -2.056719 1.121790 0.660438 -0.600216 0.462156 0.678968 -0.353074 0.533049 -0.014061 1.304360 1.114728 0.879561 -0.425490 -1.074862 -2.034777 0.380820 0.444282 0.723722 0.490339 0.577900 0.324748 -0.261952 0.570232 0.538814 -2.137614 1.209258 0.156481 1.639442 0.886220 1.256095 -1.735824 -2.433034 -0.263206 -0.411112 0.213085 -0.078575 2.696758 0.057909 0.626370 
single 2.200350 1.640828 -1.222891 -0.827392 0.176483 -0.776511 -0.361333 0.363012 -1.356095 -0.445822 -0.157801 0.054707 -0.022269 -0.823845 -2.055534 1.296733 0.552208 0.152018 -0.011484 -0.680682 0.334761 -1.048012 0.204371 -0.016751 0.449111 0.244275 0.634206 -0.698022 2.158471 0.350144 0.559794 1.057189 0.196053 -0.025411 2.252882 -0.396225 0.477322 -0.552456 -0.099393 -0.219236 0.931768 -0.295947 0.027081 1.144448 2.185784 0.787478 -0.420772 0.519026 
Error 0.397321 -1.028291 0.614693 -0.500264 0.707156 0.110877 0.634752 -1.477382 1.269363 -2.256509 1.933071 0.919999 0.598216 -0.077025 1.174732 0.671811 -0.518964 -0.995552 0.967609 0.992788 -1.167415 -0.132608 0.324553 0.343181 -1.128019 -0.207671 -1.463472 0.599147 -0.395231 1.108942 -0.766181 1.462602 0.417653 1.728930 -0.100140 -0.353867 1.042012 1.137000 0.455723 0.960003 1.130280 0.820523 0.007368 -1.606920 1.766684 0.740315 0.899247 -0.802137 
some -0.707460 0.723839 0.174188 0.861110 -0.856296 0.239830 0.729918 0.115929 -1.376968 -0.185055 1.051352 -1.139253 0.340011 0.972614 -0.071818 -0.584680 1.245074 0.656856 -0.983095 -0.574429 0.222527 0.641062 0.965112 -0.546573 -0.140875 1.716349 -1.041251 -0.632090 1.235204 -2.033123 -0.157574 1.178422 1.060295 -0.309005 0.686142 -1.409356 -0.653522 1.009703 -0.434078 0.209868 0.394106 -0.147576 1.367379 0.246902 1.945314 -0.813508 0.832746 0.802559 
question -1.183349 -1.692690 0.297784 -0.101490 0.176858 0.961538 0.874654 -0.183207 0.210513 -0.366633 0.105039 -1.437605 0.226314 -1.451507 -0.214507 -0.771149 0.877455 0.316728 -0.432246 1.311487 -0.360556 -0.024117 -0.789705 0.390292 0.989424 0.774111 0.165802 -0.405057 0.088203 -0.296464 -0.632536 -0.912518 1.638773 0.754455 0.592452 -1.042177 -1.202353 -0.183336 0.122870 1.797386 2.668668 -0.470801 0.268507 -0.551890 -0.503522 0.608963 0.161652 -1.293946 
window -0.729780 -1.274423 -1.498288 0.618994 0.994944 -1.321658 -0.853987 -0.080288 -0.560111 -0.502140 1.076426 2.021947 -0.515522 1.070892 1.246228 0.791873 -1.867202 -0.617673 1.781450 -1.040128 1.664520 -2.371761 -2.172534 -1.941581 1.503303 2.457066 1.262117 1.219840 -0.961719 0.343043 0.702453 -0.235709 0.978844 -1.066681 -0.006288 0.191199 1.960294 1.685767 -1.347218 0.139778 -2.403355 -0.836454 0.872326 -0.171107 -0.713310 2.405950 -1.347311 -1.059126 
time -1.009803 0.525726 0.358933 0.342066 0.340938 0.469529 1.207311 -0.511929 0.337986 1.836125 0.130848 1.404262 -0.058684 0.064105 -0.040439 0.033862 0.425781 -0.567837 -1.873991 0.681549 -0.788739 -1.023748 -0.959005 -0.656815 1.254387 0.960388 0.211493 0.277882 1.481921 -0.306897 -0.153101 0.206581 1.610079 -0.330953 -0.020949 -2.201075 0.649622 0.141432 -0.491150 -1.426759 -0.560260 -0.831169 0.898559 1.681478 0.504730 0.329999 1.087650 -2.617246 
product -1.399948 1.114250 -0.624916 3.570297 -2.117918 0.121806 1.197156 -0.610013 0.224320 0.023139 -1.140480 0.448161 -1.172309 0.182407 -1.084862 -0.738070 -1.376424 1.257296 -1.270913 -0.760748 1.357216 -0.171617 -1.543188 0.568952 -0.602187 1.274575 0.562277 -1.080908 -0.911930 -1.444087 -0.479461 0.353890 1.697364 -1.795311 0.129837 -2.215962 1.650587 0.867735 -1.312861 -0.581862 1.440057 1.578685 1.204201 -0.334238 -0.409384 0.568863 -1.558077 -1.198421 
VBA -0.395119 -2.552151 -0.520586 0.709338 -0.073940 1.406276 0.266634 -0.499223 1.997404 -0.663768 -0.192273 -0.257596 0.285682 0.651221 0.784354 0.235734 -1.135285 -0.222075 0.458887 0.518054 0.690541 -0.680580 0.830672 -0.267644 0.646387 0.894346 -1.773142 -1.037111 -1.020711 2.255464 0.409409 2.886503 -1.792462 0.905194 -0.651463 -0.583137 -0.180164 0.833813 -1.031247 -1.986457 0.938004 2.229097 1.399257 0.972630 -0.683542 -1.132825 0.511430 -2.820392 
other -1.612363 0.188593 0.012305 1.101525 -0.059894 0.089176 -1.159701 -0.494640 0.136959 -0.345666 0.695966 -0.378061 -1.212562 0.349381 -0.074132 1.422444 0.016893 1.281537 0.988139 0.596514 -1.157176 -0.958525 0.658979 -0.742746 2.284481 -0.067586 0.127868 -2.389222 0.764301 -1.514500 -0.971522 0.049711 -0.572435 0.356851 1.542786 -0.273831 -0.586137 -0.076663 -1.747921 -0.868251 0.446194 1.374119 0.049811 1.563859 0.033833 -0.197667 -0.623256 0.230317 
call -0.437961 -1.230020 -1.033399 1.618388 -2.201100 0.474317 0.888726 1.447208 0.332509 -0.491273 0.520659 -0.050084 0.148289 0.193062 2.227378 0.224179 -3.081390 0.815736 -2.010663 0.732645 0.535445 -0.589186 2.029538 0.386694 0.759188 -0.689687 1.694451 -1.472141 0.324239 0.329329 0.165178 -0.425167 1.710037 0.118851 0.837629 -0.531028 1.231310 -0.116090 0.628502 -1.903698 0.061269 0.580444 -1.188989 -0.246759 0.948217 1.418835 0.633038 -0.806940 
Windows -0.498777 -1.862290 1.108874 -0.261815 1.910702 -0.042869 -0.337436 -0.798068 0.361908 -2.604902 2.382185 0.428160 0.145032 -1.322938 -1.552525 1.306515 0.548956 -0.061604 0.825815 -0.902079 0.294690 0.084511 -0.033128 -1.192631 0.851165 1.118740 -0.665763 -0.665875 -0.312409 0.282447 0.429352 0.364223 0.639951 0.262097 0.278504 -0.447803 0.653793 0.190775 0.881255 -0.901312 -1.185576 0.039253 1.130389 1.117898 0.524186 1.215388 0.668966 0.311014 
than -0.570212 2.541825 3.799570 1.185204 -3.056764 0.001909 -0.954311 0.566597 2.126551 0.588577 0.287449 -0.700821 -1.697070 -1.250172 -1.044759 -0.360050 0.062829 -0.446046 0.651806 -0.992450 -2.149102 0.174285 0.539305 0.509399 1.746119 -0.874048 1.557063 -2.103215 0.798861 -2.860523 1.093392 -1.114671 -1.712378 2.455947 0.464244 -0.261297 -0.513838 1.878834 -1.519893 0.293214 0.676480 -1.161565 1.647247 0.575944 -2.762752 0.417833 -1.642297 2.732084 
QT -1.448959 0.988779 -0.838497 -0.615435 0.427673 0.108401 -0.150708 0.125040 -0.831701 -1.058626 -1.101873 0.768041 0.867940 -1.035438 -1.638210 1.495967 0.377717 -0.330785 0.541083 -2.333172 -0.318683 -0.462186 0.353885 -0.413191 0.280991 -0.559225 -2.317462 -1.220533 -1.223766 1.129904 -1.536314 -0.295961 -1.332022 -1.051582 1.366781 -2.139469 -1.057117 0.826930 1.159756 -0.185841 -2.089590 0.667947 -0.410101 0.152931 -0.537555 1.472021 -1.081465 -1.169522 
Drupal: -0.256578 2.054314 -1.134892 -1.871168 -0.384897 -0.244160 1.481046 -1.080178 -0.841266 1.224822 -1.812986 1.878812 0.652159 0.117311 -0.299896 0.926212 0.859777 -0.346285 -1.417023 -1.150220 -1.579394 -0.797513 0.632527 -0.102591 1.028608 1.586064 -0.823613 -1.223182 -2.159814 0.095636 -0.627099 -0.565292 -0.426487 -0.934455 1.798955 -1.003690 -0.049207 -0.051698 -1.507815 -0.964392 -0.649768 3.687967 -0.201251 -2.409978 0.622337 -0.120186 -0.923136 0.446332 
doesn't -1.384390 -0.433737 1.491835 0.323059 -1.250401 2.023124 0.204764 0.227044 -0.375554 1.368628 2.418934 1.949759 1.024000 -0.614924 2.975376 -0.332668 -0.147923 1.563048 1.158653 -1.611902 0.349196 0.865954 -0.825258 0.421006 1.260352 -0.604782 -0.566737 0.172903 -0.502308 -1.562070 -0.046832 2.842373 -0.200265 0.621289 -1.356038 -0.402998 -1.137905 -0.144748 0.044073 0.353645 -0.266776 -1.156086 1.859798 -3.395931 -2.468216 -0.457052 -1.277215 1.167987 
Java -0.556709 -1.134043 0.063068 0.142369 -0.565542 0.680355 0.953385 1.283260 0.917368 -0.096841 1.202299 1.010763 -0.599821 -1.752214 -0.605797 0.083286 -0.410716 0.197731 1.680138 -0.219485 1.697822 0.220456 0.666341 1.371323 -0.090413 -0.095185 -0.345542 -1.666540 0.098350 0.126375 -0.889919 0.338054 -1.031349 0.018619 1.195644 -0.326271 -0.841704 -0.246545 1.137169 -0.617391 -1.079483 0.011319 -1.437201 0.695287 0.106521 0.375555 0.808157 -0.420605 
write -0.675007 0.260385 -0.721677 1.010632 -0.489117 -0.059342 1.331507 1.892293 -0.147332 -0.523018 0.422978 -0.626495 0.062470 -1.236730 -0.792925 2.075274 -0.439356 1.670521 1.396630 1.087492 -0.052865 1.013360 1.255294 -1.114463 1.023346 0.885771 1.021536 -0.419368 0.935045 1.548255 0.058701 0.983297 -0.171761 -0.243336 -0.763746 0.791999 -0.568856 1.207512 0.505804 -2.184992 1.660752 -1.751637 -2.250094 -0.505223 -0.172507 0.951922 0.320048 0.197022 
order 0.587382 -0.146344 -0.552747 2.095511 -1.141134 -0.429130 -0.218926 -0.069693 0.515454 0.340348 -0.950607 1.306446 -1.707948 0.541033 0.301454 -2.085036 0.428404 0.302288 -1.257483 0.324722 0.714547 -0.083290 -0.678661 1.285401 -0.679469 0.764350 0.652356 0.701577 -1.007022 -0.485235 0.525702 1.846273 1.225596 0.249082 0.225352 -2.701492 1.364961 -0.010444 -0.567235 0.773812 0.624858 -0.194787 0.582377 -0.281002 -0.288382 0.384165 -1.345684 0.063405 
subversion -0.106404 1.415400 -0.003124 0.588263 -0.307481 -0.447027 -0.712971 -0.935395 0.669505 0.918886 0.612328 -0.056045 -0.860580 0.609779 -1.644681 0.683358 0.801234 -1.212119 -0.567355 0.327889 2.207709 0.569731 1.438833 -1.153748 1.253075 -0.085841 -0.368904 0.833193 0.064968 0.112118 -1.245750 0.846250 -1.975800 -2.989259 -0.186960 0.575915 0.184488 -0.144255 -0.466179 -1.995411 -1.550352 3.118589 1.248859 1.298219 1.481058 1.517813 -0.401049 1.742471 
running -1.420424 -1.570524 -1.365097 0.412289 -0.492856 0.713414 -1.106717 0.713754 2.056845 -0.532671 0.998269 0.982804 0.513704 -0.073453 1.098399 0.456074 1.178372 -0.791155 0.824256 0.818271 0.637977 -0.932766 -1.359995 -1.059256 1.504439 0.185140 0.623098 -0.409466 0.047193 -1.069398 -0.429032 -0.425415 0.409070 0.120523 2.358896 0.505212 -0.142015 -0.760915 0.121347 -1.286465 0.376722 -2.065751 1.172413 1.223511 1.366163 1.508143 0.795874 -1.039139 
oracle 0.305213 1.323750 0.918498 -0.195466 -0.682847 -0.765082 -1.659234 0.302657 0.690479 -0.424069 0.814611 2.951043 -0.131111 -0.691551 0.216383 -1.135751 1.190047 1.517188 -0.230460 -0.561595 1.452773 1.379794 1.626465 -0.289201 0.314959 -0.558766 0.329107 0.804042 -0.862976 0.940855 -0.508352 0.251913 -1.653337 -1.522595 2.159014 -0.488968 1.701931 -0.314578 1.647628 -2.772151 0.175977 2.299460 1.803888 1.854495 -0.836916 0.383082 0.762395 -0.419141 
return 0.643407 -0.310605 -1.481905 1.766928 0.596914 -0.220284 1.662847 1.219121 0.560611 -0.537113 0.286895 0.393023 0.095545 0.129468 0.157657 0.582900 -1.470174 0.043386 -0.185688 2.364625 -0.657868 0.709487 -0.025654 -1.284045 1.020702 -0.536896 1.683846 1.102392 0.125642 -0.387742 -0.374228 1.193222 0.084012 0.677919 1.860544 -0.241956 -0.369945 -1.035015 0.523887 -1.432416 0.197443 0.429150 -0.601806 -1.165585 0.382479 -0.674083 1.303762 -1.623304 
