12340 20
0 -0.272763 0.006544 0.240123 -0.409016 0.100356 0.157505 -0.175896 -0.221355 -0.106329 0.031715 0.016575 0.168940 -0.502923 0.197871 -0.329070 0.044109 -0.136473 -0.286382 0.203370 0.018575 
1 -0.284644 0.248645 0.192016 -0.026592 0.250570 -0.030681 -0.250223 0.141446 0.243113 -0.446581 0.044737 0.075166 -0.102261 -0.086983 -0.495847 -0.037953 -0.306563 -0.152641 -0.128746 0.088647 
2 0.028603 0.420072 0.000672 0.049362 0.130698 -0.253250 0.333439 0.238076 0.280088 -0.415978 0.231006 0.274207 0.001555 -0.031616 0.124872 -0.127527 -0.105696 -0.232878 -0.195279 -0.234027 
3 -0.049602 0.407086 0.332551 -0.110528 0.367158 0.103039 -0.095525 -0.002750 -0.526240 0.043533 0.078374 0.070504 0.063752 0.323601 0.012256 0.258227 -0.181936 0.146948 0.077577 -0.167916 
4 0.106426 0.013021 0.340632 -0.228955 0.049547 -0.005270 -0.083378 -0.367022 0.149782 -0.268020 -0.039232 0.056379 -0.101523 0.114008 0.365210 -0.176734 -0.356127 0.268605 0.354435 -0.253791 
5 0.120340 0.276071 0.277336 -0.135874 -0.075036 0.042591 0.228587 0.209605 0.017049 -0.417327 0.053181 -0.205404 0.269563 0.209139 -0.135270 0.231067 -0.272117 0.173279 -0.172112 -0.411139 
6 -0.142392 -0.015831 0.345359 -0.284863 0.111293 0.047890 0.049717 -0.211773 -0.156085 -0.501023 -0.055427 0.072219 0.049250 0.352784 -0.293343 0.240701 -0.123959 -0.367711 0.006719 -0.109036 
7 -0.118420 0.252571 0.355820 -0.292720 0.005814 -0.084472 -0.057748 0.262583 0.099800 0.024928 0.375097 0.098022 0.430221 -0.071023 -0.076562 -0.060863 -0.160781 -0.479499 0.116132 -0.024356 
8 0.052265 0.386959 0.492566 -0.275658 0.161012 0.046411 0.192720 -0.066014 0.399525 -0.113156 0.144692 0.101357 -0.029605 -0.074662 0.284988 0.175657 -0.279928 0.044708 0.018584 -0.237661 
9 -0.059724 0.135672 0.074960 0.219689 -0.327867 -0.506113 0.091738 -0.087207 0.176262 -0.351679 0.145911 -0.150095 -0.070872 0.175696 -0.041202 0.169995 0.079528 -0.221613 0.335973 -0.333328 
10 -0.056095 0.147829 0.342365 -0.304126 0.028518 0.156674 0.098627 0.098801 -0.380034 0.102621 -0.030737 0.145110 0.402929 0.299860 -0.072808 0.170914 -0.040323 0.346995 0.263291 -0.255640 
11 -0.152146 0.365355 0.118575 -0.349180 -0.173566 -0.191287 -0.247364 0.239303 0.273794 -0.021493 0.302741 0.172221 0.033774 0.216715 0.151290 -0.284124 -0.080946 0.218893 0.226982 -0.260314 
12 0.268722 0.284812 0.020499 -0.054020 0.019607 -0.093173 -0.191242 -0.300126 -0.277792 -0.200463 0.142176 0.220400 -0.081453 0.299873 -0.368876 0.013177 -0.426604 0.120506 0.169369 -0.251939 
13 -0.291124 0.071418 0.366449 -0.166659 0.096561 -0.145811 0.278042 -0.107500 0.179183 -0.104121 0.123896 -0.206687 0.026741 0.084899 -0.445147 0.305782 -0.327723 -0.187492 -0.216696 -0.196280 
14 0.160922 0.084041 0.267272 -0.091885 0.086147 0.073199 0.089560 0.224186 0.584204 -0.176624 0.013743 -0.264704 -0.151861 -0.143915 -0.180297 -0.072749 -0.187448 -0.468341 -0.192074 -0.020297 
15 -0.250668 0.224259 0.570463 -0.001021 0.178807 -0.290009 0.079266 0.016861 -0.242926 -0.366718 0.216528 0.266652 -0.087894 0.003367 -0.198075 0.243940 -0.095416 -0.036740 0.101062 -0.013125 
16 0.218331 0.271956 -0.055525 -0.351245 0.124500 -0.373009 0.042757 -0.103679 0.400607 -0.145461 0.047547 -0.010148 -0.344626 -0.127810 0.105930 0.339053 -0.003230 0.020249 -0.001109 -0.372814 
17 0.415714 0.168308 0.333557 -0.168812 0.124991 -0.248502 0.316195 -0.042016 0.039359 -0.188410 0.214971 0.361071 0.174160 -0.089829 0.100235 0.036609 0.284309 -0.154776 -0.231744 -0.240963 
18 -0.025585 0.305420 0.179573 0.122091 0.067630 0.222996 -0.058609 -0.060186 0.218129 -0.049250 0.257557 0.040483 -0.082767 0.174283 -0.131323 0.432177 -0.486070 0.159482 0.100345 -0.408114 
19 -0.063705 -0.220176 0.398703 -0.157810 -0.289683 -0.387232 -0.229208 -0.037656 -0.149798 -0.381118 0.212016 -0.089318 0.051641 0.265904 0.027283 -0.107770 -0.247110 -0.036808 -0.264140 0.192977 
20 0.127831 0.293493 0.302380 -0.234780 0.095555 -0.356774 -0.017566 0.068491 0.138910 -0.066125 0.358876 -0.119254 -0.364207 0.009131 -0.223837 -0.110107 -0.407811 0.074817 0.090103 0.260546 
21 0.222960 0.241177 0.280802 0.260697 0.125106 -0.002244 0.043682 0.214278 0.188915 0.042314 0.218262 0.214577 -0.512998 0.007821 -0.186081 0.318788 0.045600 0.133151 -0.216646 -0.290596 
22 0.440641 0.235601 0.406640 -0.008213 -0.199804 -0.222526 0.124126 -0.120579 -0.136562 -0.018768 0.067586 -0.062134 -0.187023 0.339886 -0.285083 -0.180170 -0.113341 -0.187838 0.279590 0.218071 
23 0.149204 0.133032 0.371021 -0.215146 -0.196759 -0.192968 0.195500 -0.019067 0.262442 0.038243 0.304919 0.227495 0.317754 0.323475 0.234462 -0.258046 -0.255725 0.094875 0.210110 0.028052 
24 -0.066915 0.306970 0.391818 -0.259453 0.364506 -0.086737 -0.332254 0.184340 0.099680 -0.049869 0.099589 -0.126051 0.134429 -0.253430 -0.115869 0.161721 0.002898 0.063019 -0.229303 -0.423115 
25 0.432515 0.122504 0.093212 0.209390 -0.219810 0.099234 -0.082755 -0.083830 0.001968 -0.283389 0.027313 0.175220 0.250222 0.098069 0.014660 -0.162365 -0.168201 -0.035549 0.184985 -0.631672 
26 0.038157 0.237239 0.013463 -0.416352 0.028572 -0.074838 0.386901 -0.083847 0.329731 0.011787 0.379348 -0.101865 -0.300088 0.195093 -0.010206 0.349222 -0.238265 0.134063 -0.132275 -0.005852 
27 0.318979 0.440281 0.108632 -0.304589 -0.033691 -0.104169 -0.164730 0.015299 -0.155952 -0.054030 0.459042 0.011947 -0.003955 -0.038735 0.058914 -0.172829 -0.378587 0.239082 0.258769 -0.141647 
28 0.072552 0.558885 0.164934 -0.382156 0.057219 -0.044301 0.019325 -0.127906 0.162398 -0.015845 0.223208 -0.115343 0.262534 -0.285038 0.013578 -0.387490 -0.087558 0.044869 0.036901 -0.293040 
29 -0.114863 0.018777 0.232187 -0.309178 0.391185 -0.205200 0.009747 -0.086068 0.287297 -0.589978 0.212704 -0.029170 -0.125659 0.233987 0.106215 0.174643 -0.122904 0.039456 -0.107758 -0.130436 
30 0.061741 -0.247697 -0.095919 -0.341677 0.125644 -0.116178 -0.341492 0.236129 0.000435 0.189098 -0.320630 -0.090369 0.216214 -0.065279 0.030651 -0.402796 -0.331158 0.276655 -0.042519 0.241455 
31 0.212036 0.313738 0.476295 -0.278511 0.184575 -0.053574 -0.018092 0.089574 -0.330021 0.228892 -0.312331 -0.106196 0.148222 -0.218345 0.067517 -0.163895 0.031751 0.309910 0.171182 0.096650 
32 0.223669 -0.383464 -0.099896 0.225492 0.377295 -0.015890 -0.104826 -0.091823 0.058809 -0.149748 -0.322259 0.193347 0.046844 -0.073479 -0.039811 -0.177287 -0.463913 0.366106 0.005384 0.151896 
33 -0.030206 0.041925 0.519556 -0.033448 -0.119723 -0.042315 -0.052331 0.038046 -0.344104 -0.252993 -0.530723 -0.253796 -0.172854 0.018234 -0.280103 -0.053509 -0.210652 0.068116 -0.071133 -0.108925 
34 -0.156269 0.105203 0.055026 -0.496574 0.229595 -0.046059 -0.060960 0.387630 -0.074249 -0.126573 -0.328911 0.101479 -0.027646 0.084087 -0.296682 -0.067875 0.025808 0.227678 0.027677 0.460809 
35 -0.144320 0.074915 0.564162 0.011599 0.054317 0.201056 -0.155388 0.160123 0.146666 -0.348570 -0.172556 -0.276752 0.115541 0.159272 -0.408499 -0.122322 -0.108849 0.263468 -0.065520 0.080625 
36 0.077360 -0.177531 0.263934 -0.249599 0.143510 -0.134142 -0.023722 0.220590 -0.027485 0.019819 0.010192 -0.066406 -0.234252 -0.451594 -0.295996 -0.122323 -0.414387 -0.308220 -0.032621 0.328475 
37 0.322855 -0.175117 0.205132 -0.263779 -0.172650 0.179352 -0.008829 0.078865 0.194354 0.009270 -0.323739 0.176491 -0.231754 -0.156191 -0.414860 -0.232269 -0.397813 -0.001233 -0.002242 -0.221194 
38 0.044880 0.032042 0.455068 -0.215323 0.271654 -0.071356 -0.217369 0.397191 0.311277 -0.096225 0.275826 -0.065876 -0.270518 -0.260828 0.139048 0.013825 -0.090298 0.206294 -0.158654 0.190837 
39 -0.359897 -0.026427 -0.080704 -0.444238 0.091598 -0.103333 0.037030 0.271815 0.013532 -0.048819 -0.561859 -0.103838 -0.193013 -0.238063 0.125246 -0.174136 -0.159778 0.143467 0.232605 -0.049031 
40 0.167761 0.407565 0.255915 -0.335818 -0.026024 0.179212 -0.193847 0.213169 -0.149623 -0.127144 0.078900 -0.227601 -0.303284 -0.050172 -0.122653 0.048614 -0.528150 -0.053129 -0.137138 0.051100 
41 0.092932 0.099327 0.219101 -0.481986 -0.173696 -0.285380 -0.083390 0.236971 -0.139950 0.034720 0.300916 -0.131089 0.145245 0.112460 -0.177469 -0.200873 -0.228899 0.291036 0.293835 0.262507 
42 -0.204615 -0.024952 0.304866 0.011509 0.184524 -0.464922 -0.158667 0.361469 -0.055339 0.320738 -0.284120 -0.329411 -0.207505 -0.157449 -0.087132 -0.240647 -0.034169 -0.059168 0.110969 -0.113543 
43 -0.248198 -0.281387 0.108493 -0.001758 0.226137 -0.062252 0.066433 0.335420 -0.324852 -0.153621 -0.017178 -0.030883 0.099865 0.164079 -0.244513 -0.259193 -0.489874 -0.024673 0.350031 -0.134781 
44 -0.419411 -0.273063 0.126968 -0.373138 -0.062683 0.374185 -0.088100 -0.105558 0.145554 0.137474 0.022317 0.355869 -0.324353 -0.059089 -0.123758 0.046917 0.048136 -0.268213 -0.012119 0.251969 
45 0.026484 0.387449 0.502658 -0.187601 0.275939 -0.302682 -0.201285 0.053664 -0.166506 0.017357 0.139978 0.276952 -0.290034 -0.088773 -0.099523 0.053991 -0.186258 -0.170933 -0.114766 -0.209632 
46 -0.127444 -0.207389 0.495385 0.010495 -0.235141 0.189265 0.026951 0.331176 -0.114931 -0.134032 0.010708 0.117646 0.091556 -0.312932 0.094480 -0.079386 -0.165034 0.518459 -0.086064 -0.153643 
47 0.149244 -0.006221 0.104067 0.004223 -0.004397 0.124261 -0.198163 0.189662 -0.296227 0.078250 0.148042 -0.042918 -0.065718 -0.188985 0.121091 -0.305444 -0.643877 0.199764 0.240207 0.313580 
48 -0.255922 0.077945 0.204304 -0.125789 0.023267 -0.226477 -0.166914 0.579273 0.069741 0.010707 -0.175565 -0.140274 -0.123690 -0.131421 -0.138228 -0.534496 0.044255 0.208147 -0.061679 0.116976 
49 -0.117626 -0.061016 -0.071234 0.393643 0.232876 0.036580 -0.210144 0.054026 -0.150899 -0.223755 0.153525 -0.221100 -0.131684 -0.176447 -0.514610 -0.333513 -0.382126 0.013320 -0.049938 0.035389 
50 0.068830 -0.229388 -0.034407 0.077589 -0.195979 -0.221997 -0.236782 0.280529 -0.361639 -0.446022 0.136134 -0.325231 -0.137690 -0.115966 -0.383698 0.090941 -0.121753 -0.031365 -0.026627 -0.233544 
51 -0.172257 0.124735 0.018583 -0.455600 0.348038 0.153801 0.344797 0.033185 0.011478 -0.237865 -0.463209 0.093627 0.219916 -0.225041 -0.051995 -0.164645 -0.061021 0.222788 0.140815 0.006074 
52 0.003175 -0.315998 0.051102 0.102647 0.252725 -0.212350 0.037373 -0.044173 0.217719 -0.342687 -0.309873 0.093423 -0.046280 -0.428442 -0.087781 -0.337341 -0.288262 0.018441 0.162593 0.296669 
53 -0.000614 0.140473 0.010515 -0.400648 0.440430 -0.169828 -0.027996 0.161321 0.034832 -0.060496 -0.077695 -0.125306 0.093739 -0.184404 -0.408436 0.254715 -0.083088 0.464775 -0.102913 0.188139 
54 -0.342864 0.022441 0.021294 -0.369522 0.238434 0.049657 0.253464 0.154102 0.088058 0.112145 0.014303 -0.115919 -0.300025 -0.311558 -0.432544 -0.015814 -0.266353 0.069750 0.319237 0.107289 
55 -0.080866 0.071628 0.274781 0.017867 -0.105746 -0.247491 -0.035313 -0.090910 0.043047 0.099382 0.350725 0.128195 -0.213944 0.019424 -0.522962 -0.501766 -0.323887 0.013290 -0.053847 0.001412 
56 -0.083533 -0.332987 -0.020658 -0.128134 -0.267214 -0.279108 -0.269885 0.344877 -0.246953 -0.196533 -0.242435 -0.131433 -0.356490 -0.017252 -0.261243 -0.271791 -0.015160 0.215642 0.044376 -0.174214 
57 0.049542 -0.506714 0.004145 -0.062993 0.292284 -0.340950 -0.186705 0.095334 -0.030110 -0.283915 0.185087 -0.299080 0.060012 -0.417837 -0.234567 0.009170 -0.096894 0.085613 -0.152722 -0.112338 
58 0.312194 -0.013627 0.156891 -0.328774 -0.090202 0.076491 -0.229889 0.067684 -0.078106 -0.212917 0.104547 -0.208239 -0.338199 0.071696 -0.048327 -0.352991 -0.491908 -0.051934 0.034766 0.316483 
59 0.251104 0.171511 -0.070817 -0.247408 0.134624 -0.346517 -0.085155 0.106161 0.126327 -0.325806 -0.116031 0.291919 -0.231804 -0.361870 0.150952 -0.058613 -0.448502 -0.147711 -0.044846 0.167062 
60 -0.254729 0.328584 0.426227 -0.194894 0.021625 0.361129 0.061719 0.271443 0.170038 -0.095567 0.320244 0.140201 -0.169977 0.084845 -0.145728 -0.030947 -0.138476 0.306993 0.214123 0.145973 
61 0.214933 0.145589 0.267458 -0.140861 0.155764 0.050596 -0.123373 -0.344838 -0.244829 -0.130168 0.154282 0.298361 -0.001919 0.338565 0.191651 0.127745 -0.145280 -0.210395 0.416959 -0.289245 
62 0.570778 0.025271 0.189170 -0.342925 -0.165668 0.216218 -0.102026 -0.389106 -0.000981 -0.197348 0.135021 0.136618 -0.172040 0.111992 -0.096071 -0.109910 0.093641 -0.036609 0.313980 0.190258 
63 0.170946 0.095956 0.391939 -0.199800 0.122490 0.539517 -0.044706 0.088445 0.324363 -0.179504 -0.141758 0.057702 0.016061 0.392628 -0.056808 -0.100331 0.244679 0.150492 0.177067 0.098461 
64 0.330971 0.164894 -0.074912 -0.232524 -0.251714 -0.023133 -0.285086 -0.087272 0.358806 -0.317241 0.210632 -0.104304 -0.202738 -0.041103 0.221634 -0.326734 0.014366 0.134311 0.205670 -0.327046 
65 0.036360 0.062832 0.312712 -0.194308 -0.304580 0.493145 0.127919 -0.174136 0.004885 -0.122933 0.334792 0.212231 0.093331 0.075325 -0.186670 -0.187572 -0.069017 -0.005967 0.447987 -0.119871 
66 0.212784 0.209205 -0.183255 -0.216063 0.176299 0.059414 -0.301652 0.216614 0.053341 -0.402999 0.225512 0.242036 -0.257293 0.035436 0.082399 -0.257294 0.312838 0.361259 0.064845 -0.102213 
67 -0.196545 -0.087776 0.015260 -0.071836 0.204314 0.420331 -0.032829 0.095861 0.293641 -0.071257 -0.136091 0.206867 -0.248351 -0.108599 -0.170418 -0.230184 0.221906 0.334440 0.471338 0.167974 
68 -0.080234 0.167163 0.355880 -0.117935 -0.000154 0.126623 -0.062876 0.251467 0.105902 0.013526 0.199434 0.543512 -0.345074 0.148286 0.080976 0.106937 0.050008 -0.044111 0.410690 -0.251177 
69 -0.339050 -0.039117 -0.201543 -0.420420 -0.181786 0.198147 -0.240963 0.062462 0.083711 -0.157038 0.073893 -0.263261 -0.348072 0.234825 -0.133764 0.206560 0.128414 -0.026533 0.377301 -0.170374 
70 0.135546 0.018845 0.021454 -0.030673 0.388707 0.186885 0.330978 0.136965 0.431661 -0.326103 0.014999 0.395024 -0.260691 0.232029 0.042157 -0.133502 0.025193 0.024727 0.263763 -0.066249 
71 0.160617 0.073693 0.350129 0.057115 0.126670 0.226476 -0.041859 0.229677 0.145974 -0.011521 -0.035590 0.223490 -0.161448 0.401852 0.068423 0.039840 0.040843 -0.342197 0.514761 -0.266190 
72 -0.042042 0.074381 0.383923 -0.348865 0.279940 0.448715 -0.174241 -0.209816 0.116150 -0.275190 0.060701 0.164602 -0.170843 -0.030787 0.127501 -0.015929 0.099126 0.083345 0.222737 -0.369424 
73 0.283882 0.066598 0.355847 -0.166705 0.160776 -0.182273 0.122562 -0.051972 0.298498 -0.520357 -0.091156 0.026848 -0.265985 0.124812 0.160384 -0.175490 -0.263834 -0.196408 0.252582 0.005723 
74 0.222431 0.231409 0.158969 -0.069699 -0.036859 0.250869 -0.212796 0.042268 -0.350111 -0.358430 0.432899 0.125323 0.137013 0.101108 -0.069267 -0.436149 -0.109036 0.002640 0.019277 0.255026 
75 0.398319 0.296370 0.270237 0.164461 0.161612 0.314352 -0.267042 0.025807 -0.070747 0.067305 0.273711 -0.052148 0.052696 -0.035838 -0.059230 -0.431550 -0.058668 0.091829 0.391875 0.100500 
76 -0.014005 0.018694 0.229884 -0.117458 -0.405087 0.243515 0.173402 -0.203313 0.158360 -0.334069 0.054205 0.475565 -0.359531 -0.063831 -0.072433 0.053825 0.228107 0.217726 0.171191 -0.044799 
77 0.505979 -0.043763 0.077336 -0.096220 0.383749 0.090523 -0.310994 0.140255 -0.240236 -0.232504 -0.195182 0.159588 0.117603 -0.024707 0.270867 0.028943 -0.139159 0.040376 0.406918 -0.066509 
78 0.208757 -0.000286 -0.225495 -0.175593 -0.110698 0.334695 -0.115936 0.097377 -0.017103 -0.109265 0.411903 0.342836 -0.148606 -0.017292 0.049230 0.249361 -0.272583 0.085536 0.507664 0.042214 
79 0.083552 0.261286 0.339029 0.036496 -0.155028 0.243263 0.210316 0.162953 0.024145 0.237460 -0.055220 0.468179 -0.250719 0.171147 0.061719 0.167273 -0.110846 0.451580 0.023326 0.185935 
80 0.395177 0.100008 0.512360 -0.277202 0.072031 0.388660 -0.146530 0.179003 0.103948 0.214390 0.172182 0.108403 -0.170430 0.075886 -0.180249 -0.135734 -0.008191 0.263902 0.082191 0.156112 
81 0.070605 -0.289876 0.213471 0.004799 -0.191953 0.431989 -0.273665 0.255403 0.299322 0.207487 -0.075389 -0.066588 -0.386193 -0.181729 -0.010134 0.011408 -0.223761 0.340938 0.081717 -0.060497 
82 0.226989 -0.028596 0.156350 -0.061707 -0.047913 0.469742 -0.191470 -0.251833 -0.138483 -0.151370 -0.078769 0.240843 -0.309083 -0.136264 0.237946 0.309308 -0.109294 0.257246 0.293931 -0.243239 
83 -0.052824 0.128373 -0.292675 -0.269468 -0.043477 0.018884 0.113452 0.266963 -0.100530 0.373443 0.130643 0.281991 -0.469933 0.141999 0.018556 0.203247 -0.353471 0.131897 0.251925 0.038205 
84 0.294406 0.272790 0.435363 -0.103807 -0.066044 0.077889 -0.181535 0.056925 0.037644 0.038741 0.028740 0.471827 -0.149059 -0.091274 -0.120173 0.320983 -0.043337 -0.380828 0.152449 -0.217799 
85 0.357801 0.223391 0.366455 -0.098149 -0.025151 -0.008113 -0.160500 0.226946 -0.031047 -0.328515 0.167171 0.230421 0.023902 -0.108269 0.135450 0.282056 -0.280833 0.289073 0.307529 -0.207517 
86 -0.241671 0.092354 0.212825 -0.012682 -0.267839 0.307945 -0.261782 0.053362 -0.150344 0.143821 0.352067 0.185510 -0.379231 0.012589 0.357197 -0.163452 0.322725 -0.029491 -0.171662 -0.123461 
87 0.172575 0.025963 0.245742 -0.160657 0.166943 0.105457 -0.328658 0.196515 0.048564 -0.002417 0.093984 0.165811 -0.089450 -0.051643 0.437400 0.049413 0.312344 0.339042 0.456477 -0.183631 
88 0.064865 -0.281544 0.523228 0.062921 -0.262109 0.433133 -0.035397 0.318782 -0.084756 -0.060093 -0.060142 0.144395 -0.206290 0.092309 -0.017055 0.119942 -0.159723 -0.118788 0.363487 -0.082821 
89 0.187575 -0.085345 0.422198 -0.029660 -0.407490 0.003941 -0.039435 -0.066830 0.139153 -0.296282 -0.080238 0.075119 0.305687 0.365736 0.153164 0.069388 -0.027790 -0.369790 0.305463 -0.027975 
90 -0.389939 -0.002644 0.171990 -0.165091 0.079218 0.118551 -0.156276 -0.156619 -0.162143 -0.348529 0.046365 0.486736 -0.408892 0.221590 0.100455 0.185242 -0.085977 0.171407 0.070331 -0.180496 
91 -0.322218 0.280320 0.164858 -0.304179 0.336811 0.146112 -0.126262 0.001047 0.122562 -0.463761 0.121140 -0.020799 0.052532 0.201100 0.051483 0.246567 0.370052 -0.129102 0.178403 0.099379 
92 0.390420 0.135311 0.338860 -0.122909 0.416465 0.231475 -0.123263 0.313120 -0.046177 0.037071 -0.012756 0.220709 0.315916 0.226301 -0.255229 0.035685 -0.074374 0.158322 -0.239623 -0.035213 
93 0.259114 -0.375426 0.206496 -0.154176 -0.002421 -0.053049 0.113306 0.272290 -0.270020 0.219982 0.004913 0.297545 0.305886 -0.428739 -0.015669 -0.145454 0.069985 0.208977 -0.179378 0.215204 
94 0.018075 0.130202 0.351274 0.065846 0.370809 -0.233604 0.207242 0.198843 0.296443 -0.060881 -0.278410 -0.081357 -0.335570 0.367247 -0.157550 0.269180 -0.220871 0.021770 -0.089752 -0.051445 
95 0.063450 -0.120594 0.026311 -0.426345 -0.163007 -0.265124 -0.162585 0.290601 -0.114397 -0.277840 0.295048 0.297066 -0.339113 -0.257728 -0.081520 0.058009 0.194288 0.005430 -0.236389 0.201374 
96 0.250055 -0.111501 0.423839 -0.313014 0.178740 -0.254919 -0.003818 0.291944 -0.073494 0.074704 -0.049008 0.039526 -0.326168 0.166290 -0.284645 0.247959 -0.361651 -0.099231 -0.109053 0.145684 
97 0.062837 0.244523 0.046964 -0.244024 0.033352 0.093386 0.321846 0.299729 0.142124 -0.240973 0.245763 0.468966 0.130998 0.050736 -0.216875 0.049296 -0.450517 0.086740 0.095249 0.154578 
98 0.003037 -0.094153 0.204232 -0.050530 0.152881 -0.018995 0.135397 0.313964 -0.190338 -0.203710 0.307382 0.417151 -0.009321 0.286635 0.205322 0.289580 -0.354319 0.202003 0.206523 -0.206732 
99 -0.012432 0.088651 0.260212 -0.108975 -0.202285 0.099317 -0.217384 0.355600 0.219284 0.083654 -0.204179 0.120365 -0.341167 -0.188883 -0.168943 -0.181568 -0.488998 0.024831 0.283180 -0.207708 
100 0.030970 0.230630 0.338637 0.116680 -0.066146 0.240682 -0.376684 0.204266 -0.282598 -0.298603 -0.065496 0.410237 -0.000942 -0.123223 -0.336814 -0.083143 -0.184324 0.234531 0.074184 0.002941 
101 -0.313598 0.020179 0.063969 -0.417999 -0.122154 0.144855 -0.336572 0.121957 0.187639 0.167808 0.164215 0.280727 0.104537 -0.221396 -0.241382 0.028302 -0.039113 0.365793 0.358340 -0.080499 
102 -0.205634 0.223107 0.390603 -0.113373 0.488294 0.164407 -0.088353 -0.040575 0.188491 -0.065926 0.005099 0.247559 -0.143590 0.025075 0.243124 -0.003637 -0.163803 0.394145 -0.047175 -0.318807 
103 -0.095482 0.115068 0.296649 -0.265802 0.122393 -0.063860 0.157343 -0.099007 0.151878 -0.220893 -0.119228 0.586330 0.008870 0.092223 -0.142230 -0.062748 -0.403228 -0.180440 0.163694 -0.284284 
104 -0.236222 0.059719 0.165620 -0.063965 0.184512 0.480604 -0.432956 0.030554 0.122492 -0.429176 -0.204386 0.026149 -0.226056 0.095951 -0.164269 0.141078 -0.096271 0.172304 0.135319 -0.222675 
105 -0.472147 0.153020 -0.270952 -0.368852 -0.080981 -0.103880 -0.167104 0.265906 -0.029799 -0.323774 -0.071883 0.200042 0.069502 0.257375 -0.306045 0.042611 -0.157684 0.165294 0.154543 -0.186261 
106 -0.192710 0.216480 0.388390 -0.164008 0.249950 0.223722 0.064840 -0.206360 -0.127868 -0.377526 0.365327 0.168527 -0.121812 -0.254316 0.233134 -0.072685 -0.084256 0.149848 -0.287484 0.082749 
107 0.164763 0.059939 0.126236 -0.464777 -0.146193 -0.010498 -0.000503 0.197025 -0.153958 -0.082498 -0.412688 0.101621 0.020862 0.236959 -0.273679 0.434505 0.191425 0.227758 0.094219 -0.219512 
108 -0.033846 -0.063368 0.390293 -0.259340 0.280600 -0.086689 0.035486 -0.046637 -0.285455 0.083151 0.042848 -0.083620 -0.535652 -0.258681 -0.209903 -0.211910 -0.017278 0.072984 -0.283564 -0.243933 
109 -0.369475 0.189498 0.547912 -0.116907 0.055083 -0.060325 -0.062513 0.349980 0.144556 0.012090 -0.004673 -0.052394 -0.246284 0.144954 -0.014258 -0.255071 -0.399886 0.046462 -0.073689 0.205909 
110 -0.026188 0.200678 0.004563 -0.170586 0.145234 0.129505 -0.130850 0.153953 -0.161840 -0.445532 0.315787 0.169964 -0.551930 -0.122297 0.030113 -0.054731 0.134180 0.144558 0.332166 -0.158789 
111 -0.130438 0.505435 0.222259 -0.245126 0.037515 0.275053 -0.020253 0.326561 0.189719 0.099385 0.107157 0.260729 0.029229 -0.071475 0.189643 0.117774 -0.354311 -0.033803 -0.134173 -0.328802 
112 -0.235904 0.471118 0.101145 -0.116672 -0.125649 -0.316157 -0.067739 -0.033647 -0.051065 -0.134290 0.105923 0.138837 -0.058943 -0.066737 -0.429248 0.089096 0.102938 0.522546 -0.186944 -0.085061 
113 0.004684 0.188669 0.255191 -0.248159 0.087249 0.254453 0.252094 0.364809 0.113978 -0.208298 0.283182 0.089652 0.123507 -0.056601 -0.309338 0.354585 -0.346142 0.070815 0.201607 -0.136820 
114 -0.118468 0.091117 0.379066 -0.252674 0.434913 -0.041861 -0.347933 0.427922 0.193321 0.103649 -0.017855 -0.097556 0.161179 0.059743 0.067750 0.230972 0.067630 0.212282 0.010150 -0.282618 
115 -0.189501 0.078065 0.355513 -0.412039 0.128673 0.172618 -0.029422 0.303840 -0.102094 0.055167 -0.258176 0.019452 -0.347611 0.016739 0.051077 0.170444 -0.385709 0.045263 0.344022 0.140877 
116 0.053675 0.046326 0.127763 -0.272443 0.291299 -0.227321 0.069639 0.227547 0.151448 0.008765 0.261913 -0.004342 -0.290639 -0.125287 -0.395033 0.331392 -0.011605 0.290001 0.262379 -0.317047 
117 0.073330 -0.024851 0.413502 0.163193 0.153388 -0.195680 -0.284406 0.134376 -0.131069 -0.408843 -0.051687 0.270461 -0.187545 -0.090456 -0.224480 0.356467 -0.229810 -0.159366 -0.273327 -0.041730 
118 -0.319264 0.036847 0.238520 -0.382023 0.220998 -0.372092 -0.088222 0.185863 0.125663 -0.052848 -0.085313 0.327673 0.173975 0.285565 0.137237 -0.184026 -0.075867 0.189010 -0.233273 -0.265736 
119 -0.012303 0.299683 0.204680 -0.203827 0.010818 0.213725 -0.282152 0.427886 -0.139906 0.027126 -0.256314 -0.009343 -0.536919 0.015569 0.036582 0.171385 -0.034371 -0.010062 0.329000 0.057056 
120 0.208929 0.323984 0.124550 -0.144487 -0.094589 -0.195158 0.161102 -0.106546 -0.052111 0.080688 0.362441 -0.111844 0.309130 -0.353624 0.085964 -0.273810 -0.128484 0.230161 0.186365 -0.412758 
121 -0.409862 0.068317 0.100461 0.159181 0.243150 -0.279646 -0.077415 0.037810 -0.049867 0.063391 -0.327523 -0.110670 -0.036343 -0.437403 -0.062802 -0.358129 -0.011799 0.104223 -0.217267 -0.371612 
122 0.362594 0.453785 0.334478 0.212882 -0.011838 0.121549 0.054827 0.098961 -0.093350 0.104110 0.094398 -0.053951 0.132253 0.051451 0.504575 0.177162 0.230207 0.002346 0.173631 -0.238859 
123 -0.009585 0.374609 0.446966 -0.140028 0.190138 0.032782 0.151600 -0.321397 -0.149838 -0.231095 -0.336518 0.065724 -0.318761 0.181201 0.120720 -0.190117 0.268564 -0.149927 -0.003529 -0.059055 
124 0.358275 0.198528 0.267036 -0.054173 0.456347 -0.169165 0.240769 -0.357839 0.047080 -0.057536 0.127622 0.238957 -0.190740 -0.011959 0.069771 -0.254978 -0.070471 0.028579 -0.141873 -0.351942 
125 0.147004 0.036317 0.301980 -0.276563 -0.241403 -0.137954 0.244656 -0.312737 0.118165 -0.220480 -0.074388 0.439780 -0.237251 -0.075453 0.137941 -0.019162 -0.018119 -0.402751 0.253098 -0.070283 
126 0.388374 0.320027 0.069575 0.251491 0.206585 0.008436 -0.052367 0.099602 -0.061202 0.366368 0.386178 -0.193119 -0.342725 -0.028912 0.190108 0.177228 -0.102768 0.292049 0.130892 0.003930 
127 -0.267739 0.589730 -0.010781 0.159892 0.088738 -0.184884 -0.260222 0.125169 -0.342669 0.162969 -0.028968 -0.123817 0.032461 0.152718 0.352727 -0.032102 0.097147 -0.140921 0.171454 -0.246467 
128 0.243547 0.437299 0.114464 0.072016 0.376738 -0.417544 -0.134735 0.154582 -0.040604 -0.284997 -0.212963 -0.258234 0.040150 0.157669 0.012432 -0.080765 0.308258 0.103153 0.065658 0.186570 
129 -0.079807 0.192708 -0.054410 0.242572 0.443718 -0.115159 -0.142923 -0.402505 0.254757 0.115780 0.204565 0.004310 -0.377206 -0.142094 -0.078395 -0.263818 0.132087 0.009910 -0.033165 -0.353653 
130 0.355829 0.037848 0.439638 0.003658 -0.138581 0.109865 -0.006369 -0.137534 -0.390649 0.399336 -0.271325 0.099481 -0.216795 -0.145821 -0.101709 -0.053253 -0.243079 0.204210 -0.011305 -0.224670 
131 -0.042973 0.209161 0.206885 0.406936 0.064877 -0.058939 0.043219 -0.099552 -0.078174 -0.502744 -0.218377 -0.541675 0.012021 -0.147060 0.038852 0.196246 0.010565 0.054897 0.145150 -0.201482 
132 0.056050 0.582616 0.258440 -0.203561 0.351939 -0.039920 0.161062 -0.310933 -0.089780 -0.152907 -0.231574 -0.134157 -0.162466 0.159419 0.199844 -0.082916 -0.037329 -0.193942 -0.238573 -0.059181 
133 -0.112013 0.041222 0.177726 -0.277438 -0.308582 -0.385650 0.041705 -0.223263 -0.203547 -0.103966 -0.291291 -0.267051 -0.412911 0.137797 0.239712 0.076230 0.074692 -0.030575 0.179106 -0.286190 
134 0.303037 0.188008 0.094580 0.290940 0.392482 -0.138231 -0.029258 -0.222290 0.117284 -0.112348 -0.089498 -0.386424 -0.320806 -0.207908 0.134341 -0.056261 0.136457 -0.002998 -0.322605 -0.286428 
135 -0.047771 0.147649 0.194119 -0.098113 0.568379 -0.297538 0.182791 -0.169056 0.028782 0.035238 -0.075439 0.031755 -0.400310 -0.174601 0.135803 -0.219471 0.224372 -0.315407 -0.089679 0.176219 
136 0.106967 -0.222954 -0.002586 0.003292 0.026564 -0.585811 0.096753 0.193792 0.213272 0.002670 -0.065132 0.104965 -0.357544 0.184832 -0.016056 0.116185 -0.126598 0.046699 0.316469 -0.439506 
137 -0.032268 -0.228287 0.223073 0.114874 0.273841 -0.434401 0.261895 -0.068557 0.297752 -0.179835 -0.087465 -0.024093 -0.480170 0.110432 0.017466 0.093819 -0.266797 0.198203 0.234890 0.013152 
138 0.151352 0.012853 -0.229553 -0.417979 0.047296 -0.307815 0.221955 0.045205 0.068392 -0.111359 0.354539 0.199634 0.045047 0.143972 -0.286889 -0.013154 -0.207941 0.124070 0.465227 -0.195698 
139 -0.051495 0.380689 0.407424 -0.039261 0.190216 -0.201848 0.100492 -0.392512 -0.267307 -0.290502 -0.179099 -0.138870 -0.066872 -0.216185 -0.037160 0.178599 -0.067133 -0.100722 0.370606 0.010324 
140 -0.096143 -0.070623 0.158377 0.165820 0.267253 -0.209442 0.129520 -0.501010 0.163986 -0.163722 0.095447 -0.221412 -0.331908 0.140532 0.241840 0.012229 0.132439 0.073482 0.475954 0.016212 
141 0.186827 0.049896 0.037000 0.067747 0.093326 0.105393 -0.022432 -0.478533 -0.142621 -0.244596 0.004459 0.255835 0.019015 -0.412583 0.309706 0.445106 -0.209648 -0.015004 0.215066 -0.081479 
142 -0.047764 -0.081458 0.333301 0.262639 0.259073 0.130443 -0.093181 -0.231167 0.333193 0.163163 0.019118 -0.063434 -0.130358 -0.072853 -0.264670 0.073132 -0.447181 -0.238109 0.387801 -0.134068 
143 0.360178 -0.096066 0.232851 0.074150 0.030291 0.001434 -0.052226 0.098232 0.372801 -0.243982 -0.265860 0.297310 0.309601 -0.013482 -0.076502 -0.163907 -0.006444 0.022538 0.289642 -0.466102 
144 0.299797 0.338851 0.020090 0.208564 0.450660 -0.231602 -0.139935 0.332647 0.188217 0.004704 0.105697 -0.208391 0.186226 0.084024 0.270861 0.133102 0.251978 -0.116374 0.080731 -0.240847 
145 0.163594 0.211218 -0.078127 -0.264464 0.225472 -0.204530 0.057148 -0.004338 0.128056 0.399478 -0.343294 -0.185403 -0.180523 -0.021295 0.285015 -0.120395 -0.248414 -0.309259 -0.308210 -0.217495 
146 0.084283 -0.226328 -0.043707 -0.239136 -0.055892 -0.500665 -0.129084 -0.359031 0.234313 -0.062375 0.090035 0.089844 -0.066052 0.192086 0.168835 -0.315920 0.327427 0.160322 0.272101 -0.178123 
147 -0.044276 -0.051356 0.225017 0.289393 0.216976 -0.310246 0.098578 -0.429097 0.368421 -0.133219 -0.202331 -0.157673 -0.381668 -0.220884 0.080406 0.218740 0.035450 -0.149628 -0.021608 -0.178000 
148 -0.502520 -0.042657 0.153176 -0.199038 0.075318 -0.337171 0.148443 0.083769 0.002204 -0.046353 0.381428 -0.227655 -0.199306 -0.157157 -0.228508 0.079301 0.178950 0.106503 0.297655 -0.282502 
149 -0.222754 0.325167 0.135207 -0.012117 0.040330 -0.342175 -0.270029 0.093947 -0.241858 -0.232616 0.309923 -0.000715 -0.294038 -0.155977 -0.176647 0.226411 0.083765 -0.349703 0.061090 -0.301356 
150 -0.016942 0.250895 0.585198 0.154425 -0.095254 0.072266 -0.033790 0.343597 -0.431579 0.128039 -0.017710 0.195188 -0.063415 -0.384542 0.026097 0.006117 -0.105289 0.157512 -0.077692 0.036795 
151 0.247157 -0.098081 0.423743 0.282150 0.010670 0.226113 -0.162746 -0.174024 -0.092392 -0.195291 0.030426 0.279280 -0.187094 -0.046038 -0.370529 -0.056952 0.009726 -0.366013 0.126523 -0.329835 
152 -0.024424 0.108455 0.073214 0.006375 -0.085698 0.393710 0.232935 0.241826 0.070177 -0.353112 -0.185263 -0.361420 -0.214086 -0.041507 -0.144321 -0.201053 0.134050 -0.134650 0.512696 -0.069472 
153 -0.008372 -0.229785 0.287126 0.105613 0.177365 0.417513 0.022019 -0.019513 -0.103753 0.070543 0.254562 0.475112 0.039985 0.013186 -0.431803 -0.085694 0.117697 0.242744 0.240345 -0.120439 
154 -0.145585 -0.103583 0.396487 -0.036157 -0.230640 -0.167107 0.294859 0.245522 -0.037690 -0.115557 -0.362718 0.205097 0.082345 -0.124614 -0.435483 -0.375333 -0.081111 -0.131085 -0.063749 0.110293 
155 0.139399 0.328968 0.430272 -0.218426 -0.226401 -0.012314 0.101149 -0.287816 0.113731 -0.243162 0.270578 -0.316959 0.068587 -0.089478 -0.181543 0.250036 0.118096 0.135357 0.256887 0.206985 
156 0.155208 0.117128 0.142957 -0.225628 -0.183087 0.011622 0.336399 -0.035423 0.449711 -0.034945 -0.151325 0.126562 -0.408664 -0.451199 0.011464 -0.186274 0.037613 0.188165 0.164390 0.176442 
157 -0.128871 0.072754 0.359159 0.288798 0.324837 0.131260 0.358715 -0.187981 0.035830 -0.033231 -0.177057 -0.104805 -0.557572 -0.245384 -0.157110 0.045675 -0.167630 0.081117 -0.039940 0.008480 
158 -0.066480 -0.468267 0.274489 -0.060311 -0.162871 -0.117580 0.328605 -0.323773 -0.247352 -0.269803 -0.037431 0.384014 -0.238573 0.045921 -0.154780 0.012491 -0.239107 0.058917 -0.131503 -0.015570 
159 -0.101874 0.081291 -0.104102 -0.283744 -0.101192 -0.312220 -0.079139 -0.049183 0.380093 -0.128934 0.097542 0.249996 -0.116230 -0.320902 -0.144135 0.118194 0.108668 0.375480 -0.237451 -0.426317 
160 0.402149 -0.235309 0.163617 -0.035210 -0.329182 0.212603 0.122710 -0.219857 -0.009945 0.188353 -0.052767 0.047449 -0.279882 -0.174228 -0.059941 -0.331429 -0.020008 0.143097 0.473377 -0.173889 
161 -0.146165 0.204472 -0.052104 -0.380054 0.294705 -0.203749 -0.032808 -0.036402 -0.291215 -0.056983 0.162989 -0.057050 -0.156997 -0.390740 -0.046008 0.353703 -0.343310 0.303524 -0.152426 0.057110 
162 -0.088590 -0.158590 0.386131 -0.034309 0.032687 0.194843 -0.033477 0.126259 0.363176 0.178197 0.353110 0.230109 0.037703 -0.223213 -0.156966 0.124791 -0.191957 0.438192 0.101134 -0.297994 
163 0.285639 0.192471 0.393301 -0.150133 -0.315229 0.299736 0.459253 0.241019 -0.045960 -0.239511 -0.215749 0.199787 -0.134150 -0.098734 -0.145456 -0.029984 -0.084755 -0.117776 -0.141639 -0.095224 
164 0.180946 -0.448660 0.261281 0.015659 0.067560 0.184087 -0.173798 -0.144124 0.085367 -0.124166 0.380879 0.022801 -0.153605 -0.317567 0.258045 0.100132 0.012841 0.073836 0.217963 -0.430749 
165 -0.146789 0.220064 0.315672 0.190531 -0.421610 -0.078555 0.312455 -0.111232 -0.020187 -0.371256 -0.029782 0.151037 -0.216522 0.100135 0.228935 -0.024586 -0.398464 -0.028827 -0.061635 -0.254719 
166 -0.122819 0.332606 0.287077 0.033863 0.466119 -0.110817 0.221027 0.027388 0.203764 0.055992 -0.246139 0.360687 -0.071298 -0.440019 -0.023880 -0.022952 0.022481 -0.144246 0.179599 -0.151259 
167 0.190331 -0.344141 0.248481 0.332383 -0.190061 0.189510 0.192789 0.200987 0.102567 -0.172065 -0.093613 -0.248978 0.210611 -0.476054 0.112482 0.008294 0.121963 -0.049635 0.333889 -0.010667 
168 -0.056090 0.121098 -0.060551 0.093716 0.095794 -0.175049 -0.095757 0.038716 -0.074304 -0.120590 0.012744 0.355455 0.365521 -0.342586 0.125797 0.047220 -0.209150 0.036685 0.436355 -0.517841 
169 0.052710 -0.206474 0.362143 -0.094971 0.052338 -0.041374 0.157652 0.240822 -0.093766 0.084955 -0.074205 0.246253 -0.250735 -0.171171 0.061072 0.154065 -0.478733 -0.447079 0.244903 -0.190502 
170 -0.300850 -0.156881 -0.046088 0.054526 -0.094012 0.203867 0.035832 0.129288 -0.063046 -0.047474 0.266611 -0.313607 -0.374566 -0.364996 0.133938 0.033302 -0.130713 0.450145 0.299875 -0.183057 
171 -0.228502 -0.127411 -0.006957 -0.036421 0.181643 0.363346 0.168283 0.015274 -0.109119 0.030677 0.155009 -0.172242 0.267345 -0.176600 0.235149 0.166425 -0.268637 -0.160085 0.084568 -0.616012 
172 -0.050489 0.307007 -0.009032 -0.176503 -0.042674 0.242026 -0.078973 0.041510 -0.195569 -0.086926 0.109009 -0.063410 -0.195459 -0.012504 -0.205738 -0.206905 0.212702 -0.334990 0.634549 -0.241424 
173 0.179131 -0.040178 0.423875 0.138659 -0.061313 -0.235843 0.257742 0.052802 -0.197745 -0.370086 0.238104 0.264514 -0.077686 0.137924 -0.038179 0.158112 -0.353137 -0.069670 0.112961 -0.377146 
174 -0.200317 -0.370943 0.482245 -0.113511 -0.059596 0.379504 -0.002991 -0.110509 0.140988 -0.078590 -0.173225 0.151033 -0.073259 -0.082001 0.200459 -0.261743 0.148242 -0.015949 0.336576 -0.286119 
175 0.069178 -0.212202 0.172175 0.341775 0.154436 0.234104 0.294567 0.237821 -0.056170 -0.169393 -0.259268 -0.023676 -0.294186 -0.284898 0.080183 0.061228 -0.341183 0.211595 0.193112 -0.325203 
176 -0.298321 0.097153 0.506601 0.375150 0.171749 0.012821 -0.065124 0.170284 -0.062366 -0.299605 0.174017 -0.187564 -0.215778 -0.435031 0.121384 0.078951 -0.030061 -0.120269 -0.098265 -0.019119 
177 -0.367458 -0.100443 0.284707 -0.266504 -0.165642 -0.001776 -0.013445 0.060842 -0.049062 -0.234546 0.002999 0.361591 -0.073475 0.259536 -0.421295 0.104567 -0.174188 0.274358 0.171308 -0.295235 
178 0.194062 0.072072 0.398013 0.195107 0.183484 0.379035 -0.033621 0.141137 -0.258237 0.291962 0.001084 -0.350059 -0.271758 -0.215059 0.104142 -0.212611 -0.236954 -0.144628 0.182996 0.033263 
179 -0.291539 0.232664 0.027939 -0.084760 0.082621 0.118645 -0.229242 0.233685 -0.159177 -0.271206 0.202936 0.092131 0.092089 0.126220 -0.539586 -0.226135 -0.327481 -0.061730 0.260239 -0.175507 
180 -0.102249 -0.344332 0.165905 0.179576 0.077561 0.250651 0.077190 -0.211655 -0.069389 -0.310037 0.148768 0.129533 -0.010832 0.014191 -0.364172 0.072173 -0.466077 -0.085660 0.244124 -0.359793 
181 0.054313 0.385883 -0.054127 -0.172787 0.478066 0.298073 -0.009048 -0.136446 0.027853 -0.171226 -0.068652 0.250550 -0.169480 -0.207881 0.091177 0.451708 -0.029980 -0.004069 0.294178 -0.099678 
182 0.015222 0.144446 0.117035 -0.128250 0.340020 0.188088 0.000552 0.445980 0.101387 -0.026345 0.384918 0.448521 0.033928 -0.085944 0.176902 -0.026684 -0.341494 0.179467 0.180423 -0.128997 
183 0.113110 0.050098 0.289964 -0.312702 0.201654 0.288041 -0.294118 0.101959 -0.261599 0.127622 0.026195 0.338491 0.286836 0.061259 -0.285717 -0.014026 -0.303544 -0.034234 0.345939 -0.038413 
184 -0.451799 -0.350658 0.092208 -0.495013 0.056348 0.002493 -0.274364 -0.053587 -0.096020 -0.081804 0.112287 -0.223562 -0.027803 -0.161125 0.029851 -0.216910 -0.313236 0.080186 -0.044922 -0.279835 
185 -0.008643 0.336906 0.284163 0.214761 -0.141128 -0.273427 0.055616 0.149658 0.155961 -0.419981 0.084052 -0.000862 0.013924 0.001349 0.248823 -0.465862 -0.339277 0.079909 -0.168479 0.050885 
186 0.056777 -0.235194 -0.177659 0.255443 0.158740 -0.108678 -0.121842 -0.132320 0.064157 -0.338933 0.297552 -0.156501 -0.052638 0.084718 -0.371046 -0.357088 -0.230234 0.154151 0.170273 -0.402944 
187 -0.262298 0.383172 0.414396 0.260714 -0.038384 -0.202135 0.127819 -0.259390 -0.204300 -0.185777 0.163657 0.056575 -0.311002 -0.072165 -0.251579 -0.301026 0.007487 0.143517 -0.185128 -0.041606 
188 -0.318807 -0.014275 0.144054 -0.000423 -0.030493 0.108127 -0.056070 0.025108 0.091386 0.100207 0.211249 -0.127825 0.111185 -0.136158 0.173359 -0.171260 -0.463922 0.399488 -0.203518 -0.524532 
189 -0.358870 -0.239919 0.193236 -0.166219 0.137426 -0.044252 -0.205152 0.258412 0.073280 -0.505259 0.065269 0.171890 -0.331949 -0.022436 -0.234145 0.192066 0.141615 -0.081891 -0.042313 -0.305864 
190 -0.097927 -0.023649 0.358914 -0.302417 -0.142777 0.277891 -0.346942 -0.171241 0.184620 -0.051113 0.345384 0.010752 -0.084046 0.062270 -0.433669 -0.020556 -0.298898 0.261277 0.045613 -0.083980 
191 0.047187 -0.079060 -0.016929 -0.057247 0.262498 -0.081153 0.106120 0.429402 -0.020753 -0.427297 0.256350 0.139934 -0.497828 0.140153 0.021707 0.172464 -0.151127 0.327235 -0.139186 -0.039045 
192 0.134969 -0.012646 -0.017890 0.129505 0.002322 0.222990 -0.071232 -0.314552 0.105549 -0.337166 -0.050626 0.130161 -0.526953 -0.108412 0.337414 0.127656 -0.054681 -0.108542 0.077205 -0.475552 
193 -0.248740 -0.008118 -0.119584 -0.043536 -0.077028 0.156781 0.076598 0.360112 0.107574 -0.059919 0.269812 -0.135912 -0.189239 0.324342 -0.167398 0.200121 0.199311 0.474447 0.245717 -0.339252 
194 0.044189 -0.374912 0.260849 -0.024088 -0.108906 0.096722 -0.190591 0.330369 0.012415 0.074871 0.508965 0.194329 -0.411622 0.094599 -0.125771 -0.086286 -0.222257 0.253185 0.022179 0.063043 
195 0.009717 -0.120201 0.478472 -0.089864 -0.104332 0.124068 -0.415445 -0.176136 -0.158118 -0.053938 0.211755 0.045132 -0.332514 -0.123906 -0.274636 -0.076107 -0.259544 0.117883 -0.243396 0.310042 
196 0.186637 -0.143147 0.165124 0.056050 0.271381 -0.121250 0.115409 0.353740 -0.230136 0.032471 0.307519 -0.143577 -0.469620 0.242234 -0.195280 -0.241534 -0.210156 0.259259 -0.176603 -0.002346 
197 -0.070313 0.073737 0.496043 0.163299 0.174762 0.078423 -0.171757 0.012308 0.393843 0.264144 0.164544 0.002880 0.108378 -0.108678 -0.222307 0.059721 0.103081 0.430338 0.051894 -0.351467 
198 0.368482 -0.093761 0.324870 -0.478648 -0.248030 -0.170718 -0.047211 0.238546 0.137918 -0.176322 0.269722 0.146224 0.174466 0.205849 -0.156805 -0.095021 0.021514 0.183625 0.117300 -0.269030 
199 -0.045897 -0.337608 0.028702 0.077082 0.417512 -0.095157 -0.519499 -0.027829 0.158890 -0.063605 0.237661 0.113367 0.199400 0.077252 0.196932 -0.382110 0.261137 -0.078385 -0.126822 0.059648 
200 0.205975 0.255860 -0.039400 -0.157690 0.146860 -0.150855 -0.292997 0.396011 0.219884 -0.066735 -0.274730 0.126838 0.005984 -0.250866 -0.229076 -0.203221 -0.312921 -0.023860 0.325322 -0.270667 
201 0.007251 -0.017140 0.193044 0.148089 0.241584 -0.281547 0.149244 0.156893 0.271088 -0.360086 0.156942 0.098672 0.159017 0.223610 -0.348425 -0.349972 -0.036824 0.161690 0.340660 -0.236013 
202 0.153633 -0.149005 0.151916 -0.247852 -0.157672 -0.015246 -0.352429 0.628840 -0.034244 0.192372 -0.004527 0.076548 -0.129682 -0.000057 -0.052961 -0.316554 -0.063305 0.167145 0.240768 -0.266730 
203 -0.186958 0.107809 0.180172 -0.407959 -0.157469 0.153025 -0.000352 0.257981 0.109110 -0.007037 0.246645 -0.380367 0.218325 -0.019409 -0.268863 0.033906 -0.341211 0.264481 0.328492 0.080846 
204 0.247955 -0.178160 -0.025199 0.125782 0.367255 0.014054 -0.135475 -0.124114 0.273228 -0.453147 0.205178 -0.100239 -0.349299 -0.083940 -0.277273 0.293692 -0.084652 0.219038 0.109099 0.173526 
205 -0.219176 -0.068871 0.110183 -0.404760 0.350198 -0.106687 0.078092 0.104891 0.143651 -0.546071 -0.021150 -0.030409 -0.437259 0.110331 0.085759 -0.096450 -0.113617 -0.203973 0.159321 0.001747 
206 -0.406336 0.257064 0.006171 -0.010761 0.060351 0.341215 -0.360523 0.354813 -0.278772 -0.134669 -0.291781 -0.045522 0.030986 -0.018325 -0.084599 0.112764 -0.328090 0.218705 0.170811 -0.061944 
207 -0.144133 -0.249364 -0.078321 -0.066644 -0.036154 -0.013975 0.052365 0.122533 -0.184993 -0.041746 0.301520 -0.257447 -0.490797 -0.304502 0.034947 -0.215069 -0.034173 0.475075 0.189259 -0.224254 
208 0.125158 0.300085 -0.081470 -0.362365 0.114610 -0.131189 -0.449442 0.122290 0.010546 -0.384835 0.325504 0.071954 -0.106186 -0.107128 -0.078602 -0.136248 0.126253 0.057328 0.427261 -0.020704 
209 0.066344 0.355329 0.017624 0.004501 0.112252 0.003857 -0.218569 0.020817 -0.175269 0.112136 0.297737 -0.113093 -0.442751 -0.286087 0.083672 -0.384457 -0.226973 -0.096731 0.026769 -0.411319 
210 0.148417 0.207952 -0.026037 -0.303279 -0.172431 0.123380 -0.008590 -0.188122 0.041651 -0.206119 0.306539 0.376109 -0.437095 -0.331541 -0.076528 -0.174154 0.125892 0.227831 0.272333 -0.054146 
211 -0.251365 0.100155 0.391096 -0.430511 0.047844 -0.071319 -0.223971 0.023751 -0.135286 -0.122502 0.096845 0.290449 -0.314355 -0.112161 0.160190 -0.090427 -0.308096 -0.051091 0.315001 -0.247674 
212 -0.094255 0.197030 0.154106 -0.101380 0.106353 0.378905 0.215451 0.162987 -0.147582 0.157377 0.027424 -0.022934 0.107736 -0.016374 0.443543 0.045134 -0.211542 -0.031142 0.536858 -0.313048 
213 -0.071304 -0.223354 0.389704 -0.344014 0.008047 0.167445 0.157537 0.038117 -0.328487 0.016896 0.383270 0.277405 0.198118 -0.208140 0.037850 0.179741 0.236133 0.242581 0.178105 -0.160511 
214 0.033219 -0.043364 0.409889 0.068179 -0.175797 0.232473 0.154330 0.277678 0.124987 0.471403 -0.035200 0.015393 -0.237756 0.181311 0.041697 -0.256494 0.242107 0.335181 0.266445 0.016889 
215 -0.214080 0.161807 0.339052 -0.275176 0.215698 0.157578 -0.205508 0.051357 0.051347 -0.168100 0.328679 0.350358 -0.241918 -0.153675 0.331832 -0.222396 0.129791 0.046230 0.273248 0.155074 
216 -0.014457 0.144143 -0.022681 -0.264503 0.235148 -0.137530 -0.190672 0.168970 -0.036379 0.389774 0.311974 0.321453 -0.178815 -0.336986 -0.013505 0.142402 -0.426412 -0.209440 0.094016 -0.122429 
217 -0.319828 0.001867 0.208760 -0.161365 0.320132 0.322764 0.010319 0.144571 0.013345 -0.556806 -0.027002 -0.016969 -0.145120 0.107325 0.315897 0.150564 0.008042 0.016464 0.331657 0.154338 
218 0.111121 0.132790 0.267550 -0.475966 0.065708 -0.141652 -0.040990 0.302969 -0.208758 0.183816 -0.274274 0.323169 0.198479 0.211482 -0.309023 0.023274 0.096521 0.108077 0.301559 0.070117 
219 -0.356573 0.334009 0.305913 0.057993 0.167778 -0.208525 0.095777 0.337856 0.085651 0.078202 0.035032 0.251873 0.007825 -0.097694 0.006879 -0.057147 0.094012 0.306748 0.524766 0.006775 
220 -0.164432 0.044542 0.216049 -0.248723 0.093827 0.353110 0.175694 0.083188 -0.363548 0.459785 -0.028791 0.107918 -0.446111 -0.005945 0.125982 0.083473 -0.104915 0.292983 0.077394 -0.101926 
221 -0.354845 -0.247420 0.139898 -0.454980 0.038773 0.114162 0.006891 -0.100149 0.111756 0.080356 0.300820 0.276909 -0.159916 0.343384 -0.123867 -0.216933 -0.017645 0.135441 0.314656 -0.228048 
222 0.143106 0.110304 0.224573 -0.345072 0.376395 -0.078933 -0.136633 0.287140 0.045440 0.235232 0.037190 0.285667 -0.130172 -0.343258 -0.056716 -0.026782 -0.187425 -0.062476 0.453666 -0.157758 
223 -0.112081 -0.026111 -0.053125 -0.004148 0.042021 0.476604 0.221693 0.082035 -0.221730 -0.341695 -0.110791 0.488121 0.063875 -0.257685 -0.069853 0.210624 0.239706 -0.125211 0.299214 -0.016614 
224 0.196796 -0.028698 -0.055894 -0.074923 0.172354 -0.044567 0.253623 -0.016231 -0.237900 -0.024380 0.377975 0.467486 0.109610 -0.344613 -0.282186 0.238862 -0.018937 0.360021 0.157362 0.120988 
225 -0.167250 0.079143 0.189384 -0.010938 0.175997 0.361581 0.379950 0.481276 0.128555 0.161117 0.055407 -0.146005 -0.057349 0.122564 -0.021317 0.023747 -0.170191 0.342601 0.383643 -0.111125 
226 -0.180533 0.178498 0.254157 0.127101 -0.073632 -0.099792 0.189822 0.256010 0.053196 0.363467 0.003757 0.356962 -0.227503 0.069554 -0.170634 0.254199 -0.146615 0.366931 0.383295 -0.148624 
227 0.007939 -0.068473 0.344492 -0.231281 0.354015 0.246987 -0.080120 0.085819 0.107566 -0.043514 -0.283354 0.315293 -0.262410 -0.154053 0.136678 0.135659 0.126506 0.457776 0.236468 0.136568 
228 0.209862 -0.012944 0.163627 0.077037 -0.116255 0.147742 -0.083823 0.037631 0.141739 0.685617 0.204277 0.183353 0.115326 -0.201412 0.258203 0.127999 -0.204323 -0.139459 0.338222 -0.035747 
229 -0.079444 0.251596 0.002852 0.010075 -0.176096 -0.036835 0.009565 -0.084903 -0.130025 0.024875 0.214157 0.463011 -0.241945 0.227370 -0.190525 -0.275663 -0.414383 0.443631 0.007328 -0.147462 
230 -0.060991 0.221909 0.382660 -0.277342 -0.267403 0.287156 -0.044933 -0.035809 0.002024 0.434977 0.203780 -0.070634 -0.276368 0.043633 0.143394 0.258242 -0.282524 -0.021181 0.076285 0.281211 
231 -0.344809 -0.321837 0.501323 -0.313350 -0.012984 -0.090389 -0.026632 0.006773 0.074658 -0.191922 0.212142 0.450841 -0.041845 0.062874 -0.148374 -0.107139 -0.137430 -0.143293 0.121710 -0.186604 
232 0.383299 0.166506 0.141694 -0.278370 0.359543 0.019706 0.324208 -0.193310 -0.056705 0.183123 0.131955 0.357591 -0.009572 0.004359 0.191164 0.039216 0.356342 0.110325 0.239575 -0.197176 
233 0.186033 0.158471 0.221176 -0.186209 0.370878 -0.310754 0.074987 -0.237820 0.050255 0.108540 0.368978 0.460552 -0.023648 0.199111 -0.026291 -0.218956 0.108969 0.141761 0.210129 0.181288 
234 0.076713 -0.004761 0.070716 -0.554024 0.387123 0.118734 -0.139745 -0.138476 0.000163 -0.091112 0.373806 0.194441 -0.162599 -0.129363 -0.067734 -0.308374 -0.143491 -0.035113 0.050741 -0.355515 
235 0.263493 -0.154594 -0.081993 -0.215309 0.267790 0.061646 -0.179209 -0.008943 0.005980 0.241737 0.480394 0.442333 0.052957 -0.129074 -0.049786 0.013474 0.098296 -0.058210 0.464582 0.099816 
236 0.192029 0.054167 0.355411 -0.408842 0.260505 0.092992 -0.126353 -0.229341 0.062172 0.151265 0.361796 0.037340 -0.313653 -0.445874 0.170275 -0.062866 -0.035709 -0.141260 0.003419 -0.106035 
237 0.025453 0.152439 0.414489 -0.064964 -0.277123 0.002106 -0.498399 0.165927 -0.058984 -0.035855 0.051427 -0.204686 -0.049627 -0.408548 -0.054286 -0.374089 -0.224404 0.065161 0.176190 -0.011938 
238 0.496996 -0.028275 0.329205 0.105725 0.318696 0.270154 -0.272099 0.317633 -0.289361 0.034452 -0.141574 0.050803 -0.214197 0.154453 0.014871 0.218126 -0.007777 -0.055079 0.156662 0.174494 
239 -0.136640 0.111009 0.245496 0.073303 0.101967 0.064925 -0.250570 0.213251 0.165981 0.263016 -0.325487 0.263855 -0.260689 0.025635 0.402657 -0.019600 -0.327324 -0.152202 0.376944 -0.068385 
240 0.086020 -0.330884 0.225365 -0.037389 0.009341 -0.055877 -0.048128 0.356165 -0.280606 -0.079555 -0.435597 -0.104735 -0.241499 0.185764 -0.404274 0.056641 -0.295966 0.081960 0.221431 -0.099734 
241 -0.315859 -0.156169 0.460117 0.026540 0.271996 0.297766 0.290032 0.330366 0.220745 0.028631 -0.164145 0.010702 0.118886 0.009116 -0.105835 0.059969 0.017133 0.182435 0.251616 -0.324066 
242 0.095883 -0.201386 0.258729 -0.136547 0.154373 -0.343346 -0.032226 -0.028973 0.088521 -0.038737 -0.193082 -0.048762 0.171450 0.292249 -0.522040 -0.341243 -0.266709 -0.072392 0.148206 -0.264496 
243 0.015655 0.043510 0.185646 0.164567 0.180522 0.219062 0.426706 -0.097905 0.180949 -0.303374 0.103697 0.212012 -0.176756 -0.419524 -0.389967 0.086281 0.095086 0.292745 0.058083 0.136815 
244 0.027589 -0.132552 0.433900 0.031640 0.152662 0.199230 -0.218307 0.185549 -0.293080 -0.117550 -0.102689 -0.050085 -0.324925 -0.166455 0.127006 0.064316 -0.206965 -0.355840 0.327542 -0.322885 
245 0.288977 -0.354647 0.256374 0.136766 0.325676 0.255745 0.079807 -0.190053 0.119030 0.247927 0.008409 0.170257 0.147173 0.193913 -0.264597 0.168978 -0.355061 0.315363 0.053882 0.037135 
246 -0.006731 0.010424 0.180415 -0.030162 0.294756 -0.301986 0.311119 -0.133067 -0.241027 -0.168613 -0.064219 0.245671 -0.349226 -0.440805 0.061823 0.178247 -0.202673 -0.271124 0.179593 0.155262 
247 -0.292872 -0.261805 0.356962 0.018052 0.138610 -0.059494 -0.185667 0.194581 -0.311257 0.123419 0.099010 -0.108492 -0.261597 -0.249708 0.040871 0.337865 -0.016796 0.001441 0.128726 -0.475077 
248 -0.156662 0.006454 0.476143 0.116609 0.295514 0.243648 0.267265 -0.135271 -0.002198 -0.007722 -0.133267 0.340922 -0.008139 -0.081428 0.106170 0.305211 -0.056462 -0.095465 0.123717 -0.475291 
249 0.128054 -0.413624 0.063315 0.218492 0.083082 0.312476 0.065406 0.236973 0.051814 0.334308 0.036572 0.315469 -0.111219 -0.158055 -0.087889 0.167730 0.158282 -0.248870 -0.034901 -0.468051 
250 -0.036043 -0.132165 0.290530 -0.223039 0.443662 0.386504 0.125950 0.184653 0.160862 -0.017565 0.048079 0.159616 0.032888 -0.037538 -0.159130 0.275651 -0.355627 -0.025323 0.383150 0.138603 
251 0.073864 0.409256 0.276018 0.029084 0.130242 0.049018 0.304738 0.158038 0.010375 0.056805 0.098092 -0.115215 -0.286876 -0.383694 -0.391184 -0.234057 -0.295305 0.195327 0.006464 0.154461 
252 -0.227932 -0.220649 0.130688 -0.267794 0.389546 0.226254 -0.236839 0.078607 -0.111753 0.015166 0.158288 -0.067349 -0.081710 0.026913 -0.488607 0.063646 0.015379 -0.346549 0.246830 -0.267589 
253 0.301295 -0.087694 0.186853 0.081612 0.051469 0.167899 -0.162653 -0.012520 -0.394095 0.233720 -0.082864 0.553150 -0.089887 -0.002069 -0.415478 0.047779 0.002016 0.113566 -0.222342 -0.185480 
254 -0.248770 0.206210 0.285458 0.089343 0.417835 0.157421 0.194765 -0.117725 -0.289946 -0.362146 -0.355719 -0.045832 -0.047701 -0.038471 0.025138 0.097597 -0.355440 -0.131777 -0.051396 -0.225502 
255 0.050594 -0.023574 0.082648 -0.057841 0.201093 0.014875 0.379341 0.332526 -0.264955 0.261975 -0.435501 0.281964 -0.172159 0.072896 0.006880 0.322736 0.122535 -0.121537 0.007242 0.338498 
256 -0.008216 0.215932 0.078986 -0.557411 0.160805 -0.038645 -0.033708 0.314463 -0.160062 0.262411 -0.039210 -0.030896 -0.520658 -0.068709 -0.236950 -0.009048 0.166211 0.147312 -0.114282 -0.132643 
257 -0.283463 0.001545 0.311030 0.211706 0.155039 0.099041 -0.291125 -0.095423 -0.281447 -0.079865 0.055694 0.582262 0.032408 0.117561 -0.053388 0.024387 0.101224 0.344270 -0.135102 0.239425 
258 -0.021407 0.069827 0.391479 -0.368504 -0.121045 0.078516 0.047729 0.170336 -0.110106 0.231233 -0.363141 0.431611 -0.275049 -0.011987 -0.180104 -0.036057 -0.277815 0.255630 -0.118049 -0.061297 
259 -0.162744 0.178764 0.027075 -0.186127 -0.020785 -0.397439 0.263934 -0.075747 0.127261 -0.119346 -0.357324 0.284649 -0.070068 -0.103529 -0.363418 -0.019314 0.225558 -0.070970 0.058401 -0.475239 
260 0.269635 0.139379 0.341813 -0.281565 0.177462 -0.290212 -0.348527 0.085538 0.195544 -0.093613 -0.205181 0.365637 -0.061550 0.141266 -0.153378 0.371760 0.165713 -0.086892 -0.016483 -0.153957 
261 0.188970 -0.010475 0.255900 -0.032172 -0.126103 -0.056382 -0.246515 -0.155690 -0.143402 -0.296192 -0.055167 0.434323 -0.123562 -0.242033 -0.329686 0.301352 -0.362180 -0.234969 -0.158891 -0.092803 
262 -0.187097 -0.077480 0.235735 -0.282013 -0.091079 -0.030406 0.200885 0.409795 0.111701 -0.008482 -0.021056 0.187065 0.009506 -0.055816 -0.246952 0.458249 -0.134016 -0.214838 0.253335 -0.394868 
263 0.189140 0.051756 0.156657 -0.318329 0.096230 0.148712 0.342707 0.267372 0.033545 -0.175196 0.056441 -0.312663 -0.045595 -0.263950 -0.107291 0.393831 -0.292428 -0.370582 -0.077605 -0.123968 
264 -0.399276 -0.238506 0.010494 -0.277890 0.057404 -0.244581 0.027336 0.355325 0.086185 -0.158438 0.179428 0.042967 0.205226 -0.251216 -0.160257 0.258494 0.052693 -0.327108 -0.281656 -0.250672 
265 -0.127864 -0.031159 0.464641 0.122108 -0.171643 -0.168391 0.165563 0.095583 -0.077361 0.062686 -0.425851 0.471411 0.084407 -0.374786 0.016490 -0.002674 0.035981 -0.204713 0.230016 0.006644 
266 -0.038979 0.087376 0.456011 0.053572 0.312730 0.226348 0.287869 -0.064661 0.006296 -0.236974 0.034256 0.423220 -0.075864 -0.071778 0.019263 0.382437 -0.206486 0.004763 0.327511 -0.001675 
267 -0.102181 0.262533 0.433772 0.156535 0.305261 0.107025 0.349141 0.064022 0.117759 -0.059255 -0.355933 0.444546 0.088412 0.017208 -0.022657 0.195513 -0.083276 0.200814 -0.154474 -0.132946 
268 -0.024606 -0.454661 0.405468 0.110356 -0.174605 0.262519 -0.271076 -0.148242 -0.051957 -0.045628 -0.140712 0.183022 -0.071710 0.125057 -0.150967 -0.254119 -0.053036 0.333454 -0.330970 -0.177375 
269 0.159592 0.099854 0.017867 -0.140241 0.107209 -0.091656 0.174352 0.287537 0.263863 0.173973 0.078267 0.264742 -0.299769 0.106170 -0.012092 0.189643 -0.410905 -0.208092 0.269761 -0.461885 
270 0.270670 -0.008939 0.401195 -0.133290 0.323371 0.011064 -0.245130 0.172674 0.008300 -0.169231 -0.158915 -0.231928 -0.279950 0.094636 -0.291667 -0.046363 -0.222150 0.376332 -0.076459 -0.272425 
271 -0.091769 0.110531 0.046675 -0.246029 -0.081230 -0.000299 0.327898 0.238633 0.314775 -0.293563 0.142975 0.025282 -0.176644 -0.423747 -0.095975 -0.063567 0.124853 0.308051 -0.295761 -0.342452 
272 -0.166041 -0.282657 0.398989 -0.198944 -0.033404 0.113216 -0.176272 0.030392 0.280185 -0.200535 -0.154558 -0.170703 -0.112447 -0.210069 -0.466215 0.014855 -0.218929 0.373293 0.103134 -0.061844 
273 0.195473 0.334949 0.296760 -0.129714 0.092855 -0.226340 -0.021730 0.104353 -0.064504 0.273138 0.102909 0.464463 -0.044525 0.103625 -0.460327 0.007324 0.234443 0.017809 0.039922 -0.294724 
274 0.035851 0.079210 0.253297 -0.236494 0.210176 0.050291 -0.017267 0.321497 -0.252834 -0.361735 -0.108939 0.143898 -0.070475 -0.201370 -0.397818 -0.278974 -0.383415 0.243735 0.081264 0.004434 
275 0.273419 0.036394 -0.088256 -0.319414 0.017189 -0.095269 0.175048 0.251709 -0.311515 0.180594 -0.066690 0.401745 -0.199690 -0.261943 0.165524 0.198151 -0.232220 0.431127 0.003801 -0.016367 
276 -0.270755 -0.148409 0.074527 -0.157028 -0.047720 0.283823 -0.383964 0.035870 0.352928 -0.247483 0.068597 0.282021 -0.242186 -0.304814 -0.013499 -0.213662 -0.011180 0.220686 -0.300619 0.190426 
277 -0.065589 -0.001395 0.250178 0.048344 0.010514 0.029561 -0.132371 0.026998 0.420549 -0.075887 -0.197990 0.280659 -0.289990 0.164556 0.050221 0.476515 -0.171781 -0.099471 0.427634 -0.218884 
278 0.161127 0.110312 0.445618 -0.341510 0.140260 -0.022708 -0.151328 -0.073086 0.260094 -0.344729 0.101393 0.036102 -0.513044 -0.092724 0.048842 0.108251 -0.266127 -0.002372 0.176457 -0.110824 
279 0.117515 0.159919 0.292515 -0.105364 0.305860 -0.198417 -0.504390 -0.131009 0.130308 -0.351212 -0.156113 0.047867 -0.131283 -0.223198 0.034457 0.214120 -0.268185 0.020372 -0.242672 -0.217138 
280 -0.307168 -0.322298 0.023102 -0.334411 0.056899 -0.212538 0.149502 -0.114280 -0.057475 -0.033151 0.249797 0.309551 0.223288 -0.225464 0.148023 -0.026938 -0.297281 0.424111 0.192095 -0.120368 
281 0.112423 0.371984 -0.149788 0.011127 0.388434 0.088359 0.184659 -0.034289 0.149919 0.049229 -0.007541 0.387845 -0.026831 0.014124 -0.060103 -0.337939 -0.233473 0.100294 -0.022473 -0.522760 
282 0.253218 0.425578 -0.029688 -0.326273 -0.075705 0.098395 -0.227997 0.007463 0.081245 -0.284613 -0.157778 0.062351 -0.039629 -0.031969 -0.345739 -0.190987 -0.356826 0.003780 0.052639 -0.418183 
283 0.025595 -0.056289 -0.070955 0.118061 0.049136 0.138864 0.131624 0.136023 -0.244394 0.002886 0.176391 0.050614 0.015701 -0.302916 -0.437167 -0.027795 -0.058493 -0.724614 0.113280 -0.032482 
284 0.253159 0.081198 0.458138 -0.123846 -0.179571 -0.086841 -0.095117 0.081594 -0.036926 0.140723 -0.122057 0.084512 -0.452518 -0.315671 -0.342691 0.275678 -0.182056 -0.173505 0.029842 -0.208316 
285 0.180445 -0.104065 0.087750 -0.077670 0.585487 -0.320975 -0.265713 0.204104 -0.191292 -0.082680 -0.122672 0.026471 -0.171197 -0.272803 -0.125145 0.261878 -0.158223 0.134119 0.235508 -0.197889 
286 0.100688 -0.176443 0.169972 0.107391 0.013188 -0.323820 -0.312297 0.044026 0.258792 -0.426061 0.130767 0.123004 -0.096548 -0.218592 0.210128 0.099272 -0.387563 0.289014 0.264951 -0.134273 
287 -0.143909 -0.298979 0.249557 0.097362 0.455110 0.063455 -0.175855 0.035564 -0.032838 -0.176118 0.043728 0.174611 0.067775 -0.516560 0.032115 0.244930 -0.047822 0.377582 -0.178398 -0.034259 
288 0.014025 0.019904 0.566172 0.075673 0.218115 -0.405711 -0.053532 0.243756 0.042011 -0.320259 -0.195719 0.070566 0.100000 -0.047176 0.209707 -0.219243 -0.010514 0.262255 0.272496 0.060361 
289 -0.241046 0.073371 0.330215 -0.332017 0.019470 -0.059917 0.019906 0.117546 0.045610 -0.141882 -0.219857 0.352288 -0.592880 -0.230342 0.150966 -0.034909 -0.142424 -0.071572 -0.183699 -0.129120 
290 -0.158423 0.017797 -0.002151 0.047728 0.336990 -0.170541 0.159078 0.127712 -0.319011 0.092887 0.057600 0.322397 0.126073 -0.364817 0.133650 -0.354103 0.149738 0.342262 0.328853 -0.174470 
291 0.118707 -0.160744 -0.100944 -0.167754 0.180824 -0.381611 -0.213499 -0.079236 0.135092 -0.013414 -0.378681 0.022452 -0.126012 -0.056107 -0.391738 -0.221227 -0.456160 0.255090 -0.082462 -0.166858 
292 0.339789 0.122562 0.173372 -0.213662 -0.175566 0.238721 0.073817 -0.112465 -0.298537 -0.083413 0.434345 0.323623 -0.187335 -0.232328 0.200046 0.010087 0.010263 0.139617 0.351165 0.162261 
293 -0.007235 -0.183041 0.470919 -0.054634 -0.113884 0.152576 -0.086717 -0.161583 -0.300641 0.023778 0.136553 0.098458 -0.133787 -0.173008 0.116791 -0.007479 0.067210 -0.215118 0.437268 -0.499000 
294 0.049218 0.269739 0.455026 -0.276342 -0.112246 -0.093828 0.265402 0.032237 0.172660 0.448294 0.023212 0.293983 -0.116933 -0.036965 0.118870 -0.091639 0.150087 0.227739 -0.033560 -0.343068 
295 -0.194775 0.169686 0.181682 0.031659 0.011795 -0.195940 -0.168221 0.210628 0.073611 -0.318428 0.219602 -0.000951 -0.083695 -0.620515 0.079598 -0.203538 -0.034286 -0.010250 -0.062229 -0.433663 
296 -0.108212 -0.316469 0.310676 -0.425757 -0.297880 -0.194764 -0.019722 -0.223403 -0.044074 -0.158594 0.241556 0.447863 -0.105037 -0.174258 0.123731 0.100287 -0.092967 -0.125284 0.057483 -0.230113 
297 -0.195243 -0.149456 0.196156 -0.316992 -0.146160 -0.357056 -0.123076 -0.020150 -0.011845 0.160890 -0.095670 -0.282135 -0.404528 -0.296012 -0.368269 -0.001545 -0.168458 0.031375 0.108081 -0.305718 
298 -0.231095 0.169172 0.351574 -0.160630 0.369023 -0.224915 0.004237 0.208037 -0.053016 -0.127419 -0.026351 -0.190394 -0.354546 0.177326 -0.210752 -0.008178 0.169904 0.439157 0.204130 -0.132257 
299 -0.050438 0.069203 0.340421 -0.315131 -0.119053 0.248106 -0.244014 0.329484 0.258873 -0.269562 -0.052829 0.261307 -0.056641 0.024487 -0.046959 0.187679 -0.386876 0.308349 -0.185993 0.048027 
300 0.140848 0.022217 -0.123499 -0.301037 -0.415435 0.114016 0.299938 0.173685 0.097853 0.185756 -0.031838 -0.030570 -0.293717 0.163086 -0.426940 -0.121420 -0.335914 0.103992 -0.175428 -0.240280 
301 -0.092733 -0.041546 0.369853 -0.061681 -0.000918 0.212320 -0.086286 -0.209164 0.330386 -0.017300 -0.338574 -0.015484 -0.088696 -0.048006 -0.381288 -0.086365 -0.056884 0.413090 -0.254634 -0.356018 
302 0.186337 -0.332071 0.367583 -0.195014 -0.175476 0.158780 0.359129 0.066040 0.006687 0.232117 0.005764 0.371804 0.029062 0.257384 0.137217 0.067851 -0.174831 0.330213 -0.165806 -0.206653 
303 -0.268975 0.519363 0.033042 -0.250046 0.334504 0.033740 0.026947 0.011224 0.175718 -0.359301 0.179623 0.058645 0.037976 -0.130015 0.202949 0.050029 -0.415190 0.124535 -0.152144 -0.107989 
304 0.216615 -0.348923 -0.071535 -0.153265 -0.348890 -0.276131 -0.019376 -0.163538 -0.042704 0.017543 -0.047349 0.411678 -0.110252 0.080675 0.069449 0.129955 -0.493401 -0.177921 0.264916 -0.134618 
305 -0.128751 -0.289719 -0.284802 -0.278930 -0.083055 -0.019532 0.332372 0.163526 -0.076522 0.021866 -0.315975 -0.093434 -0.272130 -0.356058 0.049603 -0.189248 -0.217878 0.406411 -0.170701 -0.017037 
306 0.133491 0.398797 -0.081505 -0.395464 -0.106972 -0.286932 0.074317 -0.104067 -0.139306 -0.001525 -0.160444 -0.105867 -0.155994 -0.444720 0.321893 -0.263963 -0.141060 -0.274761 0.051276 0.014152 
307 0.139665 -0.420374 0.045295 -0.018773 -0.373513 0.381865 0.251361 -0.021756 -0.138529 0.371953 0.023968 -0.234562 0.094357 -0.096766 0.031195 -0.016025 0.005174 0.135198 0.257772 -0.367431 
308 0.263788 -0.078066 0.269365 -0.002842 -0.181467 -0.007504 -0.093042 -0.002810 0.444597 0.171113 -0.342120 0.340753 -0.041803 0.285478 0.029135 0.358783 -0.102389 0.079329 -0.338029 -0.078357 
309 -0.230757 -0.129922 -0.006543 -0.118227 0.138531 -0.095144 0.136647 0.396350 0.130489 -0.508997 -0.094937 0.119067 -0.296887 0.169345 -0.155495 0.462205 -0.152262 0.134515 -0.085399 0.096666 
310 -0.528603 0.013754 0.048674 -0.067457 0.097518 0.028295 0.159890 -0.159932 -0.169566 -0.140455 -0.309068 0.143647 0.291835 0.157848 0.124262 -0.265246 -0.422419 -0.193014 -0.164107 -0.221077 
311 0.137962 -0.408303 0.280361 -0.272810 0.187981 0.036259 0.292280 0.069212 0.350490 -0.001776 0.220062 0.280828 -0.078087 0.208383 -0.309068 -0.110814 -0.291321 0.077766 0.171769 -0.080469 
312 0.142272 -0.146964 0.157429 -0.250716 0.053957 0.297766 -0.137523 -0.090729 0.022040 -0.231347 -0.192223 0.241894 -0.129679 -0.151537 0.262076 0.098718 -0.353168 0.029454 0.458819 -0.384721 
313 -0.308344 -0.028826 0.365812 -0.124889 0.094116 0.325705 0.100058 0.029608 0.248700 0.204775 0.037012 0.363731 0.020154 0.264545 -0.118155 0.157273 -0.209279 0.345120 0.102464 -0.330005 
314 0.129634 -0.140451 0.225020 -0.097295 -0.158102 0.226551 -0.005524 -0.376059 0.364692 0.273750 -0.202354 -0.200662 0.085858 0.156969 -0.099718 -0.167304 0.139242 0.334220 0.023320 -0.441434 
315 -0.288429 -0.381490 -0.007325 -0.297295 -0.356238 0.104603 0.396493 0.161341 0.007013 0.264292 -0.084374 -0.135441 -0.129128 0.270390 0.116088 0.196362 -0.304367 -0.092071 0.102923 -0.113401 
316 0.080416 -0.404427 -0.036836 -0.128759 -0.479992 -0.111407 0.198760 -0.178740 0.104983 0.295428 0.377265 -0.062043 0.160503 0.072871 -0.242030 0.101171 0.180738 -0.194861 -0.241063 -0.157060 
317 0.166310 -0.259992 -0.004801 -0.556184 -0.144695 -0.016792 0.326794 0.006697 -0.028811 0.217882 -0.224320 -0.191160 -0.142102 -0.079605 -0.367609 0.252010 -0.105396 0.134955 0.105158 -0.258080 
318 0.249162 -0.336742 0.269581 -0.106400 -0.282868 0.112076 0.327483 0.116284 0.052621 0.055877 -0.147991 0.225155 0.138417 -0.039389 0.249375 -0.172577 -0.455764 -0.192513 0.263399 -0.147834 
319 -0.145897 -0.013188 -0.205204 -0.067539 -0.251207 -0.263146 0.112864 0.515079 0.110730 -0.145946 0.175345 0.170049 -0.081868 0.196560 -0.068339 -0.248645 -0.079421 0.121839 0.244031 -0.485505 
320 -0.061048 0.182035 0.051643 -0.061129 -0.058730 -0.265840 -0.172495 0.234121 0.156768 0.205420 0.059829 0.002639 -0.011806 0.204671 -0.244140 0.106324 -0.442451 0.406635 -0.170418 -0.473909 
321 -0.233902 -0.149953 0.194797 -0.162883 -0.315956 0.276104 0.291205 0.385066 0.133684 0.042782 -0.274313 0.102744 -0.164771 -0.221517 0.013516 -0.364339 -0.217960 -0.170759 0.228148 0.076310 
322 0.000195 0.029156 -0.165634 -0.409210 0.223413 0.133211 -0.081866 0.022843 0.470889 0.066533 -0.116096 0.275879 0.235278 -0.141882 -0.277483 0.044233 0.073358 0.286611 0.060384 -0.409897 
323 -0.014363 -0.157264 -0.027183 -0.045025 -0.312444 -0.319119 -0.133710 0.028823 -0.117114 -0.255056 -0.276271 0.330234 -0.296361 0.195267 -0.263655 0.298899 -0.320946 -0.273880 -0.018686 0.163704 
324 0.289075 0.211086 -0.179240 0.078418 0.250871 -0.147771 -0.096943 0.391283 0.128372 0.034985 0.211796 0.020558 -0.146779 0.167506 -0.297168 0.089979 -0.357415 0.250313 -0.064674 -0.427497 
325 0.215903 -0.117964 0.226700 -0.024491 -0.334928 -0.146744 0.423127 0.368058 0.207337 0.018693 0.230975 0.321455 -0.231566 -0.113364 0.113711 0.203088 -0.163379 0.168773 0.181187 -0.174894 
326 -0.024492 -0.211864 -0.043043 -0.351404 -0.343431 -0.230951 0.019728 -0.077780 -0.012239 -0.174667 -0.199323 0.290605 -0.244048 -0.057026 -0.260400 -0.080845 0.122602 -0.182878 0.473132 -0.295178 
327 0.159507 -0.049954 0.239401 -0.002122 -0.283949 -0.294982 0.143542 0.032991 0.190678 -0.018549 0.117933 -0.057467 -0.129500 0.075803 0.217061 -0.219571 -0.565502 -0.000878 0.106108 -0.471807 
328 -0.140725 0.228219 -0.138693 -0.133769 0.017930 -0.076059 -0.059689 0.117481 0.245097 -0.290528 0.107309 -0.109925 -0.001971 0.237632 -0.397697 -0.083636 -0.427840 0.276001 0.070915 -0.462115 
329 0.283347 -0.212588 0.272056 0.101496 -0.247475 -0.171815 0.225583 0.213326 -0.045296 -0.166355 0.090130 -0.093790 -0.013879 -0.164506 -0.266446 -0.124389 -0.548658 0.163390 0.333942 -0.058642 
330 0.318451 0.215343 0.222659 -0.460466 0.319875 0.050801 -0.082717 0.248508 0.101470 -0.101672 0.155066 -0.478852 -0.090784 -0.034755 0.219999 -0.140192 -0.079417 -0.199007 0.109018 -0.088512 
331 0.001569 0.427094 0.031125 -0.424396 0.308350 -0.172323 0.379911 -0.038609 0.261923 -0.237879 0.113154 -0.088261 0.024415 -0.053940 -0.047795 -0.277470 -0.182963 0.037925 -0.143387 -0.286135 
332 0.194290 0.422589 -0.111478 -0.090583 0.104879 -0.114986 0.137601 0.045121 -0.123236 -0.476442 0.133646 -0.021887 -0.295322 0.053594 0.105330 -0.350661 -0.275570 -0.204263 0.338337 -0.032271 
333 0.054263 -0.112071 -0.062713 -0.491904 0.160894 -0.054842 0.085282 -0.250559 -0.211249 -0.241489 -0.003198 -0.292303 -0.260102 -0.210018 0.033768 -0.063606 0.406628 0.369552 -0.175773 -0.038643 
334 0.096249 0.190532 -0.225895 -0.198578 0.010776 0.233406 0.338887 -0.097693 0.265627 -0.181637 0.088958 0.245956 -0.276438 0.258324 -0.186548 -0.306404 -0.145440 0.219761 -0.300955 -0.284915 
335 -0.230265 0.249352 -0.243362 -0.243387 0.195412 -0.193898 -0.332535 -0.069554 -0.182972 -0.324141 -0.146529 -0.400400 -0.006844 -0.273857 -0.124834 -0.180518 0.060024 -0.324128 -0.151372 -0.003700 
336 -0.128183 0.043202 -0.055299 -0.389786 0.397001 -0.135410 -0.174761 0.169550 -0.159726 -0.178548 0.056705 -0.116316 0.019361 -0.294320 0.015893 -0.517417 -0.276695 -0.114747 0.258727 0.075512 
337 -0.043589 0.307865 0.047830 -0.488077 0.339949 0.037462 -0.130627 -0.011315 -0.245227 -0.542569 -0.002399 -0.245478 0.133811 -0.081943 -0.231527 0.130684 0.076894 0.086359 0.010250 0.071346 
338 0.020068 -0.070447 -0.168228 -0.552764 0.187085 0.296724 -0.054254 0.337622 0.211930 0.027893 -0.028548 -0.112176 -0.104821 0.026080 0.248927 -0.477185 -0.103471 0.115788 0.166561 -0.092323 
339 -0.053474 0.319819 -0.306014 -0.374528 -0.108031 -0.263418 0.138179 0.166988 0.079520 -0.103987 0.057779 -0.152247 0.300307 0.333716 0.003924 -0.175629 0.123980 0.126542 -0.255340 -0.400317 
340 -0.098495 -0.002223 -0.264624 -0.440124 -0.108577 0.218952 0.048314 0.302938 0.182624 -0.188926 0.037068 -0.594029 0.220005 -0.108952 -0.054545 0.002873 0.250071 -0.086859 -0.123307 -0.029902 
341 0.188367 -0.161592 0.169178 -0.201627 -0.152036 -0.186296 -0.005421 -0.327942 0.107821 -0.580888 -0.215826 -0.170030 -0.238535 0.203827 -0.303924 0.228667 0.078456 0.015800 0.098822 -0.141116 
342 -0.195861 0.119595 0.239239 -0.579403 0.118849 0.134460 0.049632 0.069556 0.171604 -0.584486 0.095924 -0.024209 -0.015052 -0.260844 0.010575 -0.045924 0.143407 -0.051232 -0.133224 -0.150338 
343 0.155482 0.140970 -0.002135 -0.249653 0.214140 0.178816 0.265911 0.034585 -0.035207 -0.486616 -0.003424 -0.226657 -0.027453 -0.281087 0.273713 -0.030228 -0.352076 -0.123176 0.330538 -0.224689 
344 -0.044466 0.254724 0.038342 -0.087754 0.275808 -0.178743 -0.070471 -0.255363 0.050647 -0.362227 0.011976 -0.159197 0.171893 0.119941 0.397210 -0.149486 0.009837 0.176273 -0.203649 -0.538344 
345 -0.316329 -0.021052 0.196302 -0.343978 -0.118477 0.210539 0.141928 0.140810 0.324307 -0.575425 0.225667 -0.027345 -0.161855 -0.081930 0.059963 0.045787 0.186641 0.181122 -0.220866 0.036286 
346 -0.204575 -0.080049 -0.280211 -0.004394 0.413425 0.176158 0.373899 0.258516 0.015097 -0.447595 0.259824 -0.058648 -0.023888 -0.009144 -0.019467 0.121017 0.311278 0.274693 -0.004046 -0.071131 
347 -0.019244 -0.294056 -0.114399 -0.482276 -0.094367 -0.133820 -0.189435 -0.083228 0.065587 -0.051745 0.067280 -0.020484 0.254517 0.127077 0.052840 -0.141235 -0.474793 0.123380 -0.453483 -0.189649 
348 -0.046723 -0.157265 -0.343397 -0.400552 0.099330 -0.113859 -0.135004 0.443905 0.126205 -0.221959 -0.059522 0.220033 -0.219790 0.224643 0.008941 0.105310 -0.277761 -0.288269 0.150463 -0.215943 
349 0.021010 0.395591 -0.195712 -0.208692 -0.080322 -0.051691 0.281655 -0.157588 -0.023154 0.038686 0.213421 -0.172700 -0.245615 0.009402 -0.139470 -0.311862 -0.243501 0.065086 -0.227700 -0.527273 
350 -0.223926 0.053308 0.267514 -0.377560 -0.172356 -0.175351 -0.083049 -0.109821 0.009074 0.044189 0.297203 -0.376562 -0.021810 0.009214 -0.160667 -0.297180 -0.263685 0.081856 -0.088632 -0.471749 
351 0.162054 0.138523 -0.389861 -0.088426 0.059819 -0.128456 0.274490 -0.119844 -0.172979 -0.118527 0.156028 0.134918 -0.483253 -0.287273 0.144179 -0.303377 0.289150 0.101557 -0.102375 -0.255241 
352 -0.081763 0.197812 -0.056019 -0.699116 -0.195890 0.211597 -0.018386 -0.167044 -0.063633 -0.143561 0.264381 0.058357 -0.367217 0.129697 -0.015764 -0.269849 0.140429 0.030771 0.077093 -0.039826 
353 -0.244755 0.058361 -0.183695 0.052129 -0.308227 -0.061813 -0.108068 0.079031 0.151077 -0.365479 -0.001754 -0.170665 -0.404208 0.117074 0.176433 -0.390329 -0.025096 -0.258851 0.052916 -0.408583 
354 0.210466 0.181762 -0.304013 -0.306414 0.008093 0.199195 0.311853 -0.133271 0.339976 -0.311233 -0.091675 0.033222 -0.350956 -0.081930 -0.134436 -0.355665 0.133932 0.239920 0.097105 -0.015974 
355 0.272550 0.165907 -0.250411 -0.362970 0.117926 0.029582 0.179603 0.192926 0.043386 -0.339662 -0.330519 -0.083333 0.209602 -0.451027 0.148206 -0.096158 -0.162462 -0.119336 -0.255678 -0.038248 
356 -0.121115 -0.187789 -0.199292 -0.037070 -0.418927 0.180616 0.311636 0.183962 0.368107 -0.154100 0.104459 -0.045252 0.045634 -0.010824 -0.147965 -0.467564 0.223260 -0.150526 -0.234998 -0.165077 
357 0.233864 -0.065116 -0.341970 -0.273839 -0.262603 0.071090 -0.160030 0.446321 0.321025 -0.281364 0.149519 -0.111659 -0.122702 -0.034247 -0.323447 -0.242263 -0.189795 -0.046356 0.119990 -0.034038 
358 -0.527528 0.343905 -0.067737 -0.222019 -0.146379 0.160780 0.075865 0.405417 -0.074172 -0.245889 -0.209528 0.096733 0.129830 -0.245454 -0.078926 -0.059793 -0.162893 0.094522 -0.015865 -0.300528 
359 0.084794 0.146400 -0.332531 -0.327215 0.122239 0.239994 -0.140924 -0.122415 -0.088658 -0.499190 -0.224553 0.130586 -0.294714 -0.004701 -0.205660 -0.047664 -0.207610 -0.185218 0.335755 0.015273 
360 0.034372 0.133533 -0.071674 0.244695 -0.303916 0.084135 0.169436 0.388739 -0.089771 -0.076196 -0.043313 -0.029845 -0.176765 0.165363 0.083463 -0.155373 -0.292967 0.205231 -0.210274 -0.598507 
361 0.168551 -0.002365 -0.350425 -0.007891 -0.227993 -0.412677 0.023778 -0.116163 0.105844 -0.178015 0.031379 -0.230852 -0.091088 -0.231886 0.309249 -0.043800 -0.336314 -0.340142 0.337247 -0.114245 
362 0.008133 0.373827 -0.381961 0.109854 -0.228564 0.244586 -0.116205 -0.294776 -0.020585 -0.049876 -0.028382 -0.073336 -0.264039 0.168135 0.001738 -0.416598 -0.097604 0.032269 -0.137202 -0.423950 
363 0.243999 -0.029916 0.073649 0.362674 -0.122813 0.087351 0.125793 0.213256 0.351153 -0.351404 0.172662 0.074219 0.209068 0.198822 -0.392931 -0.102891 -0.394841 0.004586 -0.157772 -0.086311 
364 -0.308146 -0.030209 -0.361345 -0.244326 -0.216867 0.284792 0.270473 0.019949 0.302421 -0.164630 -0.048266 -0.118985 -0.324808 -0.242967 -0.083892 0.114605 -0.123188 -0.082243 0.149701 -0.384802 
365 0.299603 -0.254859 0.025011 0.204994 -0.172532 -0.352865 0.138559 0.061609 0.346990 -0.313893 -0.076762 -0.249866 0.100473 0.218706 0.439658 -0.093744 0.079207 0.159229 -0.211207 -0.043079 
366 -0.089608 0.064646 -0.014401 -0.213855 0.066719 0.131216 0.346962 0.107000 0.396577 -0.260976 -0.190574 0.099228 0.053481 -0.460864 -0.327447 -0.087175 0.025120 0.011843 0.379022 -0.205661 
367 0.151121 -0.413353 0.100793 0.058036 -0.039202 -0.243916 -0.210764 0.196703 0.024758 0.061385 -0.215933 0.184314 -0.202070 -0.163553 0.099840 -0.501036 -0.168271 -0.273972 0.362395 -0.018895 
368 0.261603 -0.267974 -0.003295 0.157956 0.001962 0.212028 -0.167788 0.183680 -0.114250 -0.069300 0.045499 -0.248822 0.166052 0.065447 -0.218169 -0.344888 -0.210956 -0.205772 0.343954 -0.492497 
369 0.309131 -0.314123 -0.176419 0.261910 -0.110688 0.167020 -0.124492 0.057750 0.214012 -0.291749 -0.371152 0.199881 -0.198540 0.064569 0.082995 0.132668 0.132683 -0.392985 0.251727 -0.186960 
370 0.189711 0.054096 0.126979 -0.278381 -0.539119 0.080502 -0.015891 0.130951 -0.041356 -0.409954 0.229709 -0.151925 -0.049780 -0.057373 0.119934 -0.308583 0.087948 -0.181875 0.354108 -0.160409 
371 0.089323 -0.019895 -0.298051 -0.412729 -0.353568 -0.036897 -0.231562 0.096534 -0.150438 -0.299750 0.319448 -0.170598 -0.257279 0.087058 0.106165 -0.203094 -0.256305 -0.197884 0.260581 -0.021458 
372 0.269217 -0.319601 -0.073221 -0.098449 -0.271326 0.032961 0.086067 0.360209 0.185473 -0.072810 0.253139 0.196272 -0.337463 -0.041198 -0.047741 -0.048380 -0.345269 -0.137531 -0.269242 -0.354038 
373 -0.142952 -0.069410 -0.058625 -0.072540 0.118405 -0.289456 -0.105975 0.312900 0.151753 -0.273079 0.032035 0.026218 0.046995 0.052253 0.187953 -0.000685 -0.441630 -0.040284 0.437608 -0.481005 
374 -0.115738 -0.211239 -0.108045 0.021940 -0.386157 -0.235628 0.077966 0.053421 -0.136434 -0.453696 0.174021 0.098723 0.007396 -0.108192 0.215808 -0.351146 0.022159 -0.212068 -0.182650 -0.437392 
375 0.210480 0.280503 0.016640 -0.023311 0.264698 0.349668 0.270925 0.276356 0.298060 -0.130387 0.325365 -0.043142 -0.367745 -0.146726 0.163110 -0.304072 0.135058 0.019057 -0.139320 -0.081746 
376 -0.204962 0.322194 -0.283961 0.006054 0.046105 0.048528 0.039905 0.354334 0.093875 0.036687 0.018767 -0.031223 -0.189032 -0.056766 0.265523 0.053518 0.095188 -0.292100 0.213456 -0.614924 
377 0.341280 -0.246992 -0.182157 -0.230400 0.186009 0.264284 0.101942 0.252685 0.383667 0.008604 0.063423 -0.287620 -0.154521 -0.022128 0.152124 -0.342094 -0.128858 -0.130851 0.353714 0.013116 
378 -0.204758 0.071149 0.138532 -0.154897 -0.095026 -0.173559 0.398480 0.064833 -0.059786 -0.286547 -0.066087 -0.081416 -0.011694 -0.024158 0.125656 -0.484502 0.063838 -0.184623 -0.144568 -0.548355 
379 0.184290 -0.339808 -0.129740 0.054310 -0.031758 0.299852 0.026529 0.209615 0.135896 -0.115090 0.240226 0.061920 -0.442651 0.057007 0.205111 -0.254076 -0.380970 -0.194146 0.146434 -0.303116 
380 -0.200213 -0.415180 0.036814 -0.119019 0.091851 0.168507 0.084024 0.070585 0.242123 0.025365 0.333067 -0.043865 -0.104397 0.356821 0.016820 -0.448724 -0.111146 -0.285683 0.310712 -0.143721 
381 -0.108787 -0.385162 -0.074909 -0.105435 -0.271042 -0.094826 0.379584 0.371022 0.373602 -0.211277 0.358372 0.084619 -0.123653 0.023529 -0.165650 -0.152553 0.077125 0.082155 0.225582 -0.094565 
382 0.189732 0.127843 -0.246583 -0.259593 -0.018952 0.139464 0.033279 0.122815 0.439727 -0.269660 -0.134093 -0.076832 0.139505 0.258507 0.089894 -0.397188 -0.298947 0.173664 0.202549 -0.284295 
383 -0.048886 -0.284615 -0.178303 0.016489 0.040724 -0.246225 0.240066 0.392444 0.450208 -0.044921 -0.063533 0.291122 -0.111309 -0.159152 0.048452 -0.351725 0.036698 -0.149162 -0.193386 -0.303886 
384 -0.181771 -0.169602 -0.102316 0.015004 0.045342 0.205153 -0.139639 0.095697 0.056976 -0.431097 -0.264084 0.330359 0.090350 -0.097481 0.015850 -0.437401 -0.334679 -0.160027 -0.191482 -0.321265 
385 -0.373825 -0.246327 0.247295 -0.286015 0.295884 0.054581 -0.112288 0.045067 -0.105558 -0.113891 -0.108822 -0.056252 -0.054358 0.144651 0.252298 -0.368417 -0.375191 -0.194980 0.000300 -0.332088 
386 -0.087211 -0.158442 -0.419205 0.228925 0.146639 0.242018 0.057812 0.147798 0.185886 -0.270868 0.286786 0.130877 -0.151333 0.178459 0.224481 0.044029 -0.338088 0.199447 0.063048 -0.401813 
387 -0.001000 0.201173 0.065327 -0.078588 -0.358061 0.174032 0.344815 0.081725 -0.012409 0.124236 0.321376 -0.075171 -0.016983 -0.013125 0.101922 -0.454562 -0.239736 -0.247117 0.212951 -0.398910 
388 -0.404665 -0.219036 -0.183255 -0.267670 0.212141 -0.246559 -0.090152 0.049399 -0.021130 -0.365882 -0.219821 -0.234302 -0.066285 0.338994 0.237541 -0.324378 -0.001643 -0.109359 0.161992 0.099912 
389 0.273359 0.266753 -0.271071 -0.136043 -0.376372 0.264922 0.065935 0.341328 -0.022415 0.031823 0.179202 0.212795 0.025701 0.296260 -0.230223 0.066986 -0.268846 -0.320196 0.109680 -0.133324 
390 0.154648 -0.258926 0.101521 -0.211941 -0.192896 0.257837 -0.081171 0.014307 -0.206639 -0.261299 0.415910 -0.163069 0.057638 0.378013 -0.429185 -0.048019 -0.221327 0.154116 -0.077432 -0.146048 
391 -0.185961 -0.150474 -0.275839 0.298001 -0.100883 0.144530 0.085450 0.183687 0.142959 -0.431021 -0.342868 -0.121438 -0.100856 -0.004703 -0.201697 0.201606 -0.357603 0.061404 0.334207 -0.179965 
392 0.216063 0.057036 0.144148 0.004921 0.262326 0.150578 -0.057975 -0.142990 0.270425 0.086501 -0.301620 -0.217861 -0.041716 -0.206160 -0.262946 0.022268 -0.016396 0.383043 0.204870 -0.540439 
393 0.148899 0.157356 -0.137294 0.156363 0.018278 -0.020334 0.078035 0.235103 -0.193839 0.072774 -0.186562 -0.120790 0.220066 -0.151782 -0.325810 0.292192 -0.199196 0.058519 0.343433 -0.575629 
394 0.036635 0.147150 -0.099018 -0.106397 -0.185361 0.082256 -0.320762 -0.088841 0.018522 -0.081684 -0.063913 0.249864 -0.052367 0.022579 -0.346538 -0.310557 -0.427629 0.088712 -0.224075 -0.519336 
395 0.124145 0.191986 -0.259090 -0.252627 -0.284485 0.052965 0.387255 -0.215923 0.495387 -0.062319 -0.097101 -0.069019 0.000665 0.214495 -0.203766 -0.100791 -0.215029 0.017595 -0.074565 -0.350965 
396 -0.019044 0.206011 0.106479 0.127283 -0.175444 0.164468 0.118935 -0.042601 0.189021 -0.412594 0.139207 0.170640 -0.063669 -0.383067 -0.399337 0.063671 -0.463832 -0.185855 -0.013523 -0.192939 
397 -0.334964 -0.400619 -0.306552 -0.197187 -0.083709 0.087683 -0.005448 0.179493 0.223232 -0.228812 0.269663 0.155963 -0.184985 0.226862 -0.030465 0.302262 0.117960 0.038214 0.026267 -0.392725 
398 -0.088418 -0.200576 0.066558 -0.018108 -0.093241 0.318751 0.279794 -0.117059 0.024172 -0.330164 -0.010835 0.035021 -0.148491 -0.190731 0.241165 0.338136 -0.304575 0.049335 0.219486 -0.509583 
399 0.024856 -0.219109 -0.175079 -0.027728 -0.336617 -0.257638 0.089960 -0.344007 -0.089708 0.273039 0.002985 -0.201680 0.335857 -0.051882 -0.118608 0.008989 -0.155889 0.231911 0.528273 -0.061248 
400 -0.301906 -0.250106 -0.299905 0.212339 -0.015724 -0.217604 -0.138342 -0.279372 0.216894 0.059944 0.206331 0.201572 -0.159642 0.312439 -0.344883 0.039417 -0.316821 0.089181 0.139353 -0.247575 
401 0.174306 -0.054394 -0.026082 -0.052308 0.121300 -0.191669 0.116691 -0.290499 0.016363 -0.414949 0.035539 -0.112816 -0.211306 -0.361525 -0.175094 -0.196739 -0.253873 0.166931 0.538044 -0.028648 
402 0.248579 -0.342900 -0.183403 -0.453047 -0.114765 -0.094271 0.008123 0.244763 -0.023488 -0.041476 -0.347335 0.314810 -0.119050 -0.335416 -0.317968 -0.121863 0.013994 0.013856 0.119238 0.143005 
403 0.105107 -0.168192 -0.055516 0.008513 -0.367387 0.075931 -0.365011 -0.272458 0.077646 -0.313019 -0.162181 -0.033355 0.169878 -0.313114 -0.413971 0.137491 0.033364 0.178427 0.311804 -0.174739 
404 -0.109998 0.172420 -0.362716 -0.321608 -0.197304 0.131355 0.209506 -0.124833 0.070438 -0.479248 -0.204310 0.108471 0.026338 -0.074090 -0.213275 0.001522 -0.175105 -0.268348 -0.152513 -0.376517 
405 0.059942 -0.001901 -0.224111 -0.182048 -0.123943 0.486457 -0.066717 -0.229896 0.213218 -0.240831 -0.194565 -0.080774 0.113116 -0.001110 0.052760 0.351935 -0.274130 0.347235 -0.097770 -0.333425 
406 -0.229487 -0.074541 0.406642 -0.033418 0.089452 -0.146105 0.266045 0.112686 -0.042588 -0.209987 -0.312348 0.350415 -0.017130 0.174347 0.173944 -0.516804 -0.103489 0.135997 0.065138 -0.186378 
407 0.211996 -0.325964 -0.249798 -0.100495 0.222050 -0.022052 0.374697 -0.315835 -0.050355 0.009726 -0.005270 -0.086967 -0.130912 -0.147518 -0.245452 -0.303117 -0.149824 0.074557 0.474665 -0.178339 
408 0.166632 -0.129230 0.059391 0.022797 -0.541395 0.170397 0.198176 0.169722 -0.001815 -0.409682 -0.117102 0.069196 0.044408 0.267257 -0.332675 0.051935 -0.310038 0.266202 0.129318 0.066647 
409 0.125397 0.116782 -0.197439 -0.557505 -0.049624 0.031692 0.136160 -0.225394 0.391508 -0.055269 -0.254783 0.132500 -0.276473 -0.349002 0.028421 0.112249 0.048124 -0.034693 0.265734 0.153133 
410 0.137353 -0.136230 0.236474 -0.178721 -0.211768 -0.120213 -0.171835 -0.369274 0.250079 0.116719 0.210964 -0.106787 -0.008160 -0.259869 -0.016262 -0.463057 -0.126301 -0.311799 -0.162884 -0.308980 
411 0.227468 -0.299369 -0.203173 -0.020092 -0.104094 0.155910 -0.148341 -0.255141 0.023404 -0.042048 0.105562 -0.462153 0.208378 0.147006 -0.114194 -0.017417 0.277706 0.505119 -0.100719 -0.216514 
412 -0.196897 0.124377 -0.003636 -0.256559 0.166648 0.507865 0.132292 0.088592 0.271245 -0.060071 -0.136616 -0.318429 -0.205679 -0.104922 -0.198475 -0.202166 -0.441798 0.178272 -0.000198 -0.105319 
413 -0.315108 -0.201535 -0.227145 -0.507131 0.176601 -0.062299 -0.188483 0.054963 0.243577 -0.005175 0.051318 -0.014523 -0.052695 0.176590 -0.487308 0.072326 -0.347942 -0.055608 -0.088094 -0.083186 
414 -0.198474 0.252455 -0.365704 -0.041106 -0.130126 -0.154022 -0.036828 0.200710 0.202791 -0.197580 0.262782 0.162093 -0.224856 -0.038871 -0.059601 -0.195362 -0.384523 -0.078674 -0.115622 -0.492395 
415 -0.073538 -0.021685 -0.050088 0.041743 -0.478935 0.066588 0.284286 -0.331909 0.212072 -0.367933 -0.113142 0.269465 0.088446 -0.266544 -0.154550 -0.138624 0.247948 -0.057983 0.153289 -0.298338 
416 -0.119410 0.010568 -0.312735 -0.353112 0.270267 0.193113 -0.018171 0.013870 0.043210 -0.031345 0.049926 -0.238842 0.178496 -0.124683 0.014099 0.252980 -0.091611 0.523370 0.278016 -0.344507 
417 -0.105260 -0.282619 -0.336359 -0.288177 0.137842 -0.103351 -0.078203 0.243493 -0.004372 -0.056909 -0.302852 -0.239947 0.195593 0.000463 0.047458 0.198833 -0.074328 0.235216 0.542381 -0.173647 
418 0.143540 -0.435366 0.097809 -0.224517 -0.019354 0.094537 -0.389221 0.103425 0.060532 -0.231914 0.020343 0.135854 -0.020598 0.275613 -0.197724 -0.049935 -0.356030 0.304962 0.378028 -0.037655 
419 0.166499 -0.361418 -0.115259 -0.021854 -0.395037 0.093574 -0.066417 0.127390 0.431035 -0.444091 0.256963 0.190719 -0.074892 0.081638 0.113079 0.303101 -0.183727 -0.017331 0.019452 -0.075276 
420 -0.090628 -0.166963 -0.383512 -0.141969 -0.273294 0.116165 -0.197353 -0.171057 0.364306 -0.163491 -0.338073 0.158594 0.122729 0.087341 -0.202916 0.061220 -0.285361 0.222548 -0.287710 -0.245027 
421 -0.155969 -0.248209 -0.016214 -0.351600 -0.407362 0.098425 0.315241 0.381511 0.266263 -0.135940 0.203788 -0.158269 0.324271 -0.143985 -0.122401 -0.142508 0.012786 0.168032 -0.150065 -0.039706 
422 -0.134813 0.092276 0.087686 -0.009204 -0.268628 0.011899 -0.202204 0.504176 -0.000624 -0.483593 0.231625 -0.121669 -0.341757 0.055461 -0.022785 0.094590 -0.050456 -0.244122 0.204218 0.250305 
423 0.272803 -0.072052 0.200012 -0.101862 0.048208 -0.207062 -0.196094 0.146655 -0.031624 -0.387082 -0.200184 -0.247067 0.243259 -0.463012 0.168247 -0.105168 0.035620 -0.248987 0.307573 -0.205213 
424 -0.283372 -0.262543 0.228961 -0.186356 -0.253242 0.329321 -0.115736 0.296906 0.295490 0.071880 0.092987 0.042285 -0.346851 -0.252066 -0.043776 -0.086705 0.112294 0.231658 0.117364 -0.336520 
425 -0.112644 -0.530791 0.206848 -0.132244 -0.016574 0.005266 -0.012769 0.229008 0.188985 0.135937 0.182624 -0.173950 -0.554806 -0.255857 -0.207907 0.159564 -0.125903 0.078985 -0.070594 0.074506 
426 -0.217374 -0.254957 -0.079318 -0.223089 0.002299 0.211211 0.211467 0.092592 0.327949 -0.466430 -0.112071 -0.399007 0.212264 0.259429 0.158947 0.147760 -0.045952 0.216945 0.156812 0.060670 
427 0.215825 -0.056299 0.051937 -0.287877 -0.523901 0.004023 -0.057001 0.207707 -0.155848 -0.132615 -0.060245 -0.292677 -0.111553 -0.101830 0.305077 -0.330853 -0.104323 -0.378940 -0.100233 -0.150868 
428 0.141363 -0.274382 0.141173 -0.325796 0.031158 0.092495 -0.089710 0.321431 -0.066209 0.043982 0.137224 -0.154337 -0.114360 0.322471 0.407229 -0.219603 -0.479032 0.102571 -0.167835 -0.097523 
429 0.055471 0.279652 0.298506 -0.225548 0.049434 0.005979 -0.511084 0.447795 -0.117583 -0.157141 -0.191688 -0.009907 0.271073 -0.218069 0.211233 0.111647 -0.033162 0.080905 0.152185 -0.173920 
430 -0.090108 0.231265 -0.215669 0.009875 -0.135198 0.511982 0.027620 0.428041 -0.000422 -0.424654 0.146628 -0.036901 0.245812 -0.168626 0.065293 -0.149973 -0.193098 -0.242098 0.052114 -0.099897 
431 0.310874 -0.079190 0.112305 -0.168942 -0.324584 -0.094479 0.021216 0.083479 0.319466 -0.364311 -0.113814 0.034143 -0.223149 -0.192211 0.301991 -0.265440 -0.174037 0.129496 0.288289 -0.326750 
432 0.174882 -0.175821 0.056702 0.186783 -0.070929 0.046100 -0.206682 0.505688 -0.021737 0.176719 0.297177 -0.123742 -0.436935 -0.142373 0.360960 0.024619 -0.268145 -0.022015 0.017340 -0.211448 
433 0.278693 -0.327684 -0.032351 -0.046951 -0.415029 -0.022045 0.210374 0.218822 0.090814 -0.037538 0.372272 -0.135619 0.213967 -0.189243 0.229791 -0.034944 -0.426148 -0.073071 -0.238944 -0.023168 
434 0.113877 -0.028235 0.324561 0.174577 0.223885 0.197863 0.167255 0.098189 0.192889 -0.283150 -0.054210 -0.268070 -0.333130 0.193337 -0.036641 -0.201752 -0.443168 -0.314111 0.180711 0.115013 
435 -0.079121 -0.239924 -0.019574 -0.125475 -0.087407 -0.140779 0.425876 0.229452 0.219897 -0.483641 0.395918 -0.059594 0.008651 0.213978 -0.277135 0.048523 -0.000394 -0.127829 0.223929 -0.156526 
436 -0.094626 -0.190196 0.157299 0.253405 -0.273875 0.349757 0.200016 0.310676 0.024563 0.106274 -0.048952 -0.188430 0.083597 -0.139266 -0.264217 -0.300922 -0.185163 0.274617 -0.089549 -0.421645 
437 -0.086052 -0.056910 -0.231897 -0.212034 0.322691 0.271729 -0.024192 0.284605 -0.045845 -0.025410 0.220442 -0.274490 -0.121930 -0.108381 -0.085302 0.142353 -0.106385 -0.502668 0.275490 -0.332178 
438 0.100950 -0.042538 0.039509 0.031403 -0.281067 0.323748 0.262840 0.352733 0.434368 -0.029690 0.095629 0.013868 -0.140208 -0.369345 0.116970 -0.164776 -0.412416 -0.032823 0.041620 0.198589 
439 -0.287284 0.140386 -0.089934 0.057251 0.078138 0.094088 0.336007 -0.087974 0.352380 -0.462346 -0.011947 -0.039846 0.200945 0.002572 -0.391530 0.152600 -0.411580 0.061578 -0.144591 0.008087 
440 -0.040685 -0.018794 -0.170663 -0.438761 -0.208444 -0.079601 -0.158939 0.258945 -0.035554 -0.115255 0.093547 -0.114512 0.204715 -0.121078 -0.340651 0.038289 -0.080370 -0.457748 0.102884 -0.444060 
441 -0.138645 -0.104179 -0.007717 -0.241309 -0.266980 0.352220 0.162042 -0.085074 0.304924 -0.168630 0.169635 -0.070419 -0.333406 -0.020017 -0.115136 -0.170471 -0.359486 -0.131948 0.120828 -0.461016 
442 0.222067 -0.254655 0.004120 -0.281991 0.022019 0.235523 0.304044 0.520759 -0.071008 -0.107358 -0.175093 -0.375997 -0.101889 -0.124202 0.209385 -0.063616 -0.318319 0.092829 0.050461 -0.109208 
443 0.044297 -0.330568 -0.189661 -0.085161 0.041174 0.211654 -0.106978 0.136974 0.482318 -0.457885 -0.125699 -0.057199 -0.214932 -0.279108 -0.097037 -0.243729 -0.023283 0.135515 0.093440 -0.294831 
444 0.193057 -0.006594 -0.030293 -0.193957 -0.365775 -0.118490 -0.079771 -0.153386 0.124664 -0.154335 0.362467 -0.215859 0.079519 -0.181773 -0.436346 -0.255101 -0.235125 -0.154681 0.107218 -0.378872 
445 -0.246579 -0.009122 -0.163800 -0.048547 0.062652 0.042239 0.009041 0.143504 0.138168 -0.535558 -0.080052 -0.275855 -0.059611 0.114147 0.309978 0.134014 -0.053388 -0.058764 0.439796 -0.405924 
446 -0.067329 -0.326106 -0.292912 -0.037537 0.073840 0.231409 0.145291 -0.044974 -0.227026 0.135456 0.030327 -0.475272 -0.353378 -0.196326 0.129040 0.086233 -0.313682 -0.005560 -0.068398 -0.363971 
447 -0.344356 -0.175518 -0.061926 -0.197532 0.125451 0.092548 -0.080072 0.282658 0.075641 -0.426656 -0.170171 -0.252310 0.256742 0.055985 -0.036814 -0.089107 -0.498992 0.254777 -0.091260 -0.127255 
448 -0.121275 -0.313972 0.317903 0.214136 -0.122623 0.069688 -0.195012 0.133155 0.325227 -0.170405 0.047641 -0.188924 -0.251159 -0.261898 -0.310767 0.102061 -0.328608 0.075069 0.241009 -0.284612 
449 0.386845 -0.209505 -0.121761 -0.036405 0.019796 0.297831 0.273014 -0.104103 0.198453 -0.016586 0.253709 -0.357451 0.095310 -0.247000 -0.352951 0.044231 -0.160226 -0.022277 0.149023 -0.372880 
450 0.040914 0.439784 0.257001 0.058741 -0.068061 -0.124037 -0.078569 0.094083 -0.345582 -0.413116 -0.267059 0.189514 0.141834 -0.173834 -0.055581 0.204611 -0.235299 0.116731 -0.061304 -0.367432 
451 0.095904 -0.024894 -0.230199 -0.126995 0.365166 0.021936 0.101806 0.077163 0.099787 -0.511890 0.286765 -0.044875 -0.263583 -0.056229 0.311654 0.038572 0.201542 0.143501 0.061398 -0.422428 
452 -0.268036 0.289376 -0.273258 -0.100852 -0.033615 0.402597 -0.014947 -0.205635 -0.209298 -0.035695 0.273015 0.201152 -0.242097 0.213752 -0.050474 -0.277275 0.065717 -0.279955 0.351829 -0.059729 
453 -0.179723 -0.315846 0.195340 -0.334416 -0.350690 0.182339 -0.037333 0.326618 -0.252700 -0.342996 0.290696 -0.001615 -0.093002 0.158565 -0.014187 0.258562 -0.149580 0.089018 -0.236151 0.026868 
454 0.303646 0.135131 -0.031816 -0.246472 -0.103082 -0.051283 0.266743 0.017660 -0.551735 -0.174212 0.117129 -0.023100 -0.052560 -0.020058 -0.309958 0.175969 -0.038590 0.133398 0.029248 -0.493660 
455 0.007275 -0.139853 0.284781 -0.124851 -0.065641 0.277893 0.163452 0.060114 -0.114065 0.239120 -0.062471 0.186171 0.132983 0.234398 -0.575681 0.117221 -0.403372 0.018775 0.051725 -0.282086 
456 -0.140325 -0.081278 0.201498 -0.010946 -0.291367 0.427024 -0.227747 -0.063551 0.118079 -0.257582 -0.136065 0.258363 -0.424291 -0.003246 -0.044172 -0.136643 -0.204402 0.204606 -0.064744 -0.394692 
457 -0.100893 -0.248994 -0.201937 -0.556703 0.159318 -0.141309 -0.240926 0.004754 -0.243665 -0.317409 -0.171628 0.001080 -0.128442 -0.051407 0.055109 -0.284777 -0.101569 -0.344931 0.131999 -0.184761 
458 0.243046 -0.150371 -0.034290 0.421086 0.023403 -0.224089 -0.023308 0.279212 0.186083 -0.518758 -0.018050 0.008393 -0.106532 -0.182527 -0.273901 0.107338 0.062788 -0.389323 -0.035078 0.135922 
459 -0.042701 0.468443 0.219204 0.095577 0.160883 0.075747 -0.294335 0.264996 -0.381462 0.209159 0.043640 -0.097673 0.118534 0.060864 -0.187034 -0.085891 -0.287624 0.105690 -0.154415 -0.393084 
460 -0.121309 0.044136 -0.416317 0.037930 0.192807 -0.109898 -0.405509 0.306814 0.209424 0.186879 0.074233 0.078132 0.007139 -0.035342 -0.146939 -0.100933 -0.495432 -0.203523 -0.285868 -0.093180 
461 0.412018 0.188646 0.024196 -0.238447 0.324663 0.398701 -0.088713 0.449516 0.213531 -0.207933 0.055868 0.071669 -0.107113 0.079568 -0.310830 -0.072760 -0.119693 0.114288 0.109844 0.081554 
462 0.245680 0.190641 -0.170004 -0.395548 0.150315 0.404675 -0.052012 0.234026 0.120967 0.063440 0.157137 -0.090583 -0.056918 -0.204332 -0.139370 0.089208 -0.528891 -0.263979 0.025899 -0.009912 
463 0.075704 0.053008 -0.137965 -0.143017 0.145169 -0.362603 -0.090764 0.189354 -0.030806 -0.375606 0.091752 -0.447987 -0.308028 -0.123078 0.090924 0.152620 0.195676 -0.219535 -0.119734 -0.402210 
464 0.310957 -0.232865 0.079279 -0.333846 0.044741 0.323456 -0.296511 0.122937 0.010097 -0.332381 -0.322705 -0.160166 -0.097674 0.052110 0.284805 0.272001 -0.220234 0.212365 -0.045242 0.135314 
465 -0.118462 0.081571 -0.334434 -0.392468 -0.067600 0.063663 -0.279394 0.141310 -0.215346 -0.481608 -0.078052 0.078152 0.035556 0.098568 -0.069431 -0.277046 -0.345286 0.308538 0.039997 -0.087691 
466 0.206994 0.229681 -0.107013 -0.003641 -0.071660 0.377756 0.080151 0.410397 0.243857 -0.182162 -0.011926 0.285066 0.092738 -0.023769 -0.518377 -0.300690 -0.013530 0.114224 0.093538 0.076962 
467 0.186093 0.282811 -0.089998 -0.118173 -0.148293 0.392415 0.238768 -0.002409 -0.255708 -0.047380 -0.101329 0.310694 0.211352 -0.162896 -0.135927 0.079498 -0.552077 -0.034153 -0.221527 -0.069767 
468 0.180336 -0.269802 -0.363398 -0.007233 -0.074902 0.059715 0.201797 0.190864 -0.302290 0.119370 0.078771 0.182245 -0.494688 -0.036031 -0.137562 -0.266321 -0.003905 0.166924 -0.088612 -0.399507 
469 -0.158938 0.148213 0.372910 -0.096027 0.058190 0.434708 0.379871 -0.233343 -0.163670 0.122280 -0.070424 0.144605 -0.198231 -0.131668 -0.325448 0.157122 0.013206 -0.170802 -0.204320 -0.295701 
470 0.295728 -0.006344 -0.281087 -0.151161 0.294020 0.360470 -0.185422 0.296106 -0.188571 -0.249364 0.182147 -0.109818 -0.310576 -0.281157 -0.037798 -0.096686 -0.069836 0.252137 0.202251 -0.183251 
471 -0.146819 -0.325725 0.232377 -0.405989 -0.079542 0.157976 0.186561 0.193640 -0.036547 0.246355 0.278843 0.011465 -0.321819 0.172725 -0.369382 -0.116917 -0.226559 -0.130707 0.232716 -0.062778 
472 -0.046692 0.304800 0.210160 -0.318371 -0.022037 0.232504 -0.104440 0.220105 -0.069856 -0.062821 -0.303640 0.120540 -0.159131 -0.237794 -0.209985 -0.143050 0.193394 0.220877 0.499402 -0.218912 
473 0.316130 -0.121570 -0.199979 -0.171943 0.113196 -0.248429 0.114982 -0.239605 0.136750 -0.333697 -0.039987 0.234244 -0.394928 -0.251737 -0.087616 -0.378303 -0.183340 -0.073188 -0.099611 -0.254992 
474 -0.376716 0.182677 0.258100 -0.036478 0.059955 0.024969 0.307127 0.246457 0.126177 -0.301866 0.094306 0.129565 0.111179 -0.046452 -0.383373 0.037898 -0.213145 0.038061 0.061793 -0.501129 
475 0.041785 -0.174333 -0.252268 -0.155016 0.298831 0.107480 -0.177424 0.311373 0.004039 -0.526711 -0.196497 -0.224887 0.142432 -0.051921 -0.285085 -0.214688 0.062032 0.214966 -0.074725 -0.279809 
476 0.108603 0.241673 -0.365765 -0.254888 -0.016822 0.020300 0.032043 0.259454 -0.358486 0.014684 0.065015 -0.188072 -0.094446 0.081901 -0.369854 -0.073898 0.131331 -0.023145 0.254211 -0.503385 
477 0.129488 -0.251720 -0.115423 -0.084911 -0.124497 0.149663 -0.261391 0.331022 -0.277099 0.037740 -0.066694 -0.171551 0.015675 -0.134578 0.269618 -0.167389 -0.490637 -0.111797 0.122899 -0.429015 
478 0.089606 0.238382 0.007098 0.035048 -0.187462 0.007813 0.157349 0.153953 0.197204 -0.235373 -0.273249 -0.022777 -0.246506 -0.046799 -0.193150 0.487706 -0.256094 0.095915 0.385753 -0.344994 
479 -0.099947 0.283377 -0.114829 0.012185 0.134844 -0.052562 -0.112030 -0.116568 -0.295806 0.028026 -0.293739 0.291131 -0.154505 -0.286017 0.131331 -0.104590 -0.446903 0.177611 -0.279965 -0.382688 
480 -0.167525 0.071208 0.298844 -0.161062 -0.127548 -0.168975 -0.062967 0.223512 -0.368214 0.317896 -0.534016 -0.222379 0.286951 -0.162092 -0.101859 0.002514 0.145140 -0.131531 -0.119724 0.099555 
481 0.295775 -0.274544 -0.194838 0.139456 -0.081964 0.206403 -0.378534 0.009369 0.323437 0.085647 0.081359 0.117331 -0.023468 -0.101337 -0.386722 0.104371 -0.447778 0.233277 0.044836 -0.162798 
482 0.109785 0.217453 0.011080 -0.228322 -0.223440 0.016557 -0.393773 0.071807 -0.271943 -0.310263 0.145687 0.041999 0.274407 -0.244048 0.063880 -0.151133 -0.413028 0.321708 0.010258 -0.220945 
483 -0.288958 0.076789 -0.356541 0.151748 -0.259359 0.007371 0.275847 -0.131785 0.134707 0.030036 0.287710 -0.254449 0.537387 0.224039 0.060973 -0.227078 -0.120446 0.020165 0.101245 -0.116975 
484 -0.042249 0.056117 -0.144792 -0.075843 -0.257568 0.021331 -0.326526 0.402408 0.109363 0.114305 0.007656 0.210022 -0.521187 -0.116571 -0.402638 -0.128341 -0.166649 0.101494 0.187999 -0.163026 
485 -0.042873 0.070177 0.131818 -0.336820 0.165672 0.400475 0.027772 0.206677 0.157802 0.128544 0.146793 -0.194174 0.264051 -0.014982 -0.155045 -0.004830 -0.592310 0.171979 0.178512 -0.155364 
486 0.014372 0.291173 -0.110244 -0.029899 -0.284724 0.345917 0.042035 -0.138096 -0.389629 -0.205598 -0.038897 -0.392107 0.118098 -0.207136 0.080541 -0.342546 -0.253685 -0.255251 -0.117322 -0.084307 
487 -0.169827 -0.051043 -0.237623 -0.381633 0.272543 0.023631 -0.311339 -0.206337 -0.334682 0.029041 -0.076229 0.145941 0.071266 -0.105104 -0.342395 0.175895 -0.218783 -0.104788 0.242231 -0.360988 
488 -0.109972 0.069621 0.317009 0.014963 -0.054622 0.440460 0.049626 0.024477 -0.209543 -0.150290 -0.364473 -0.168954 0.368171 0.011630 0.222287 -0.184379 -0.158047 -0.037602 0.320887 -0.325507 
489 0.053371 -0.152968 -0.032965 -0.005746 0.239420 -0.305461 -0.113181 0.175107 0.056693 -0.101079 -0.259487 0.131573 0.254428 -0.094375 -0.471884 -0.240814 -0.229922 -0.080495 0.167272 -0.488699 
490 -0.303011 -0.297247 -0.129223 0.078994 0.037998 0.040907 -0.116516 0.079312 0.098723 0.121205 -0.104932 -0.074529 0.407733 0.296497 0.275933 -0.016413 -0.579611 0.047777 0.112273 -0.226942 
491 -0.265732 0.015113 -0.235148 -0.281410 -0.214269 0.162837 0.147612 -0.314003 -0.214224 -0.139525 0.142261 -0.284398 0.326452 -0.284797 -0.210297 -0.116572 -0.337162 0.219158 0.144446 -0.085500 
492 0.114547 -0.292362 -0.242085 -0.423010 -0.342365 0.156355 -0.336786 0.056228 0.019749 -0.003556 -0.087051 0.106957 0.000577 -0.208917 -0.265231 -0.162127 0.072401 0.337722 0.330679 -0.131408 
493 -0.213724 0.099005 0.140380 -0.018751 -0.283840 0.040455 -0.245018 -0.298054 0.027166 -0.271305 0.117655 0.279178 -0.222315 0.119995 0.143120 -0.112079 0.098829 0.215999 0.369975 -0.486919 
494 0.197398 -0.170448 -0.034473 -0.034037 0.121366 0.338926 -0.291721 0.177430 0.102006 -0.040287 0.124247 -0.116628 -0.066987 -0.035342 -0.355546 -0.168558 -0.167245 0.593713 0.163865 -0.272956 
495 -0.029896 0.209791 0.424066 -0.215821 0.193613 0.144355 0.328633 -0.021180 -0.187269 -0.118184 0.300303 0.074031 -0.044538 -0.278135 -0.466759 -0.104460 -0.162337 -0.029605 0.014583 -0.285746 
496 -0.086695 0.060947 -0.365121 -0.361415 -0.183934 -0.258687 -0.193976 -0.172259 -0.109047 -0.359904 -0.222771 0.215411 0.028244 -0.230521 -0.158087 -0.247116 -0.056020 -0.125404 0.047165 -0.397804 
497 0.233205 0.352037 0.091341 0.201932 0.123566 0.143098 -0.410510 0.026583 -0.337844 0.013090 0.000981 -0.233231 -0.120773 0.284883 -0.394239 0.046042 -0.249363 0.066303 0.239207 -0.147647 
498 0.013685 -0.294151 -0.098823 0.072877 0.111960 -0.074387 0.094461 -0.164356 -0.010624 0.227533 0.068981 -0.237998 0.095814 -0.046442 -0.449214 -0.110249 -0.353504 -0.030056 0.253650 -0.561630 
499 0.011758 -0.006963 0.079966 -0.329222 0.064406 0.125750 -0.194179 -0.324078 -0.077540 -0.099199 0.266565 0.117325 -0.336308 0.282299 -0.311037 -0.417844 -0.090091 -0.160377 0.135610 -0.324504 
500 -0.232547 0.167381 0.064179 -0.168191 -0.204974 0.026915 0.094731 -0.022930 -0.186014 -0.094887 0.131704 0.187028 -0.242749 0.019618 -0.302030 0.390991 0.129966 -0.044108 0.255546 -0.591423 
501 -0.016828 0.245625 -0.117760 0.248324 0.378449 0.077160 0.194635 0.058471 -0.379982 0.164255 0.287034 -0.081912 -0.273118 -0.291262 0.021213 0.322371 0.170464 0.012528 0.047972 -0.342920 
502 0.117710 -0.085021 -0.024786 -0.459286 -0.226926 -0.052471 -0.096643 0.160262 0.171248 -0.064768 -0.223969 -0.182522 0.355321 0.139341 0.162176 -0.280684 -0.082705 0.303189 0.335565 -0.314589 
503 -0.121802 0.100960 -0.096340 -0.131788 -0.213627 0.297243 0.053443 0.163108 0.254577 -0.226880 0.016384 -0.011974 -0.063958 -0.114777 0.137148 -0.083208 0.261236 0.218631 0.563587 -0.437613 
504 0.350568 -0.447132 -0.027118 0.106068 -0.157204 -0.183011 -0.048852 0.013430 -0.090187 -0.203907 -0.186288 -0.020629 0.128898 0.301298 -0.193528 0.112007 -0.307748 0.364804 -0.112421 -0.348931 
505 -0.023950 0.356739 0.291570 -0.210237 -0.271785 0.258559 -0.012685 -0.297681 0.296625 -0.197304 -0.155720 0.041335 0.235332 0.243555 -0.256654 0.228976 0.031566 0.220063 0.266603 -0.084151 
506 -0.192457 -0.149382 -0.189729 0.149383 -0.195367 -0.159157 -0.403008 -0.092834 0.043064 0.097234 -0.331328 -0.029174 0.138296 0.067539 -0.307723 -0.292244 -0.282096 -0.174109 -0.374827 -0.267746 
507 0.254647 -0.236142 0.296919 -0.220228 -0.297248 -0.194017 -0.051100 0.195279 -0.224841 -0.249495 0.118182 0.048983 -0.393137 -0.268976 -0.225777 0.044805 0.086717 -0.108182 0.330489 -0.196174 
508 0.160379 0.423219 0.279492 -0.148648 0.158921 0.206677 0.213189 -0.108740 -0.239320 0.132986 -0.333065 0.161397 0.030356 -0.382013 -0.195125 0.059799 -0.265841 -0.008961 0.073216 -0.305201 
509 0.139713 -0.104228 -0.052599 0.161170 -0.496802 0.172293 -0.118296 0.221733 -0.134893 0.022652 0.326794 0.124718 -0.006369 -0.133850 -0.046416 -0.059065 -0.061564 0.116898 0.174731 -0.623357 
510 -0.034416 0.145858 0.091176 0.077865 0.458525 0.223175 0.204482 0.213295 0.204167 -0.064917 0.058077 -0.398372 -0.315451 -0.006827 -0.314797 0.143855 -0.221912 -0.152586 -0.166622 -0.296979 
511 0.352388 0.071850 -0.008191 -0.293514 -0.323555 0.076158 0.008167 0.376054 0.203778 -0.041363 0.295356 0.318726 -0.316053 -0.071453 0.054502 -0.121752 -0.297733 -0.127815 0.210598 0.168199 
