20000 20
0 -0.181271 -0.314408 -0.001950 -0.085341 0.365924 -0.148666 0.089825 0.255980 -0.502396 0.283374 -0.174016 0.062609 -0.096082 -0.129830 -0.209251 0.186087 0.340678 0.089731 -0.097524 0.162403 
1 -0.189367 0.017776 0.005436 0.021397 0.054530 0.108284 -0.081200 0.472557 -0.020396 -0.148070 0.247319 0.111487 -0.169892 -0.213901 -0.178671 -0.224902 0.072852 0.647149 -0.140736 -0.147514 
2 -0.199488 -0.116482 0.168740 -0.406608 0.066459 -0.322041 0.269199 -0.008663 0.284402 -0.214677 -0.238144 -0.378247 -0.158953 0.044269 0.291929 -0.019245 0.035740 -0.189890 -0.122301 0.283367 
3 -0.090409 -0.301121 -0.089549 0.222423 -0.003315 0.419016 0.259813 0.301903 -0.086332 -0.014991 -0.025696 -0.241790 0.158780 0.100916 -0.268422 -0.297649 0.253041 0.323464 -0.186412 0.207793 
4 0.228271 -0.173805 0.189125 -0.402664 0.072886 -0.047762 -0.241135 -0.192117 -0.028719 0.371765 -0.267400 -0.151366 -0.379643 0.241961 -0.037015 0.218069 -0.199210 0.169439 -0.055910 0.246095 
5 0.067712 0.045892 -0.276247 -0.032282 -0.135288 0.089530 -0.170794 -0.181292 -0.417466 -0.107707 -0.183990 -0.233382 -0.197384 -0.024248 -0.226440 0.417995 0.386845 0.208067 -0.011870 0.307856 
6 0.049970 0.062158 -0.370825 -0.261564 0.316379 -0.318717 0.033502 0.400673 0.244464 0.126184 -0.177537 -0.165786 0.278005 0.146894 0.230641 -0.249871 0.146544 0.154669 -0.172600 -0.001333 
7 -0.165095 -0.148048 0.343861 -0.327158 -0.110139 0.180892 0.259531 0.392085 -0.174916 0.254341 0.309081 -0.078361 -0.078143 0.033945 0.138889 -0.266223 0.246700 -0.124656 -0.104376 0.279174 
8 -0.172812 0.165063 -0.270124 -0.178442 -0.098237 0.133307 0.164777 0.417963 -0.086999 -0.224287 -0.006054 -0.220587 0.208877 0.246131 0.341468 -0.036938 -0.015880 -0.384136 -0.292069 -0.216694 
9 -0.227343 0.126048 0.041078 -0.049183 0.190138 0.324531 -0.323384 -0.013597 0.247992 -0.204951 -0.028612 -0.383343 -0.088527 -0.339095 0.299422 0.274148 0.190794 -0.033167 -0.122259 -0.301209 
10 0.343246 0.156314 0.243404 -0.118518 -0.190883 -0.085618 0.129635 0.109147 -0.351031 0.300227 -0.180217 0.259670 0.251297 -0.061797 0.174180 0.395009 -0.217430 0.206711 0.181428 -0.149811 
11 0.016009 -0.028562 0.402623 0.173609 0.351691 -0.032777 -0.265061 0.312319 -0.055284 0.480792 -0.237028 -0.048935 -0.080030 0.119363 0.273328 0.223513 0.225810 -0.045742 0.143857 -0.047238 
12 -0.038596 0.148938 0.079949 0.041980 -0.032411 -0.112522 0.197843 -0.260847 -0.257083 -0.222769 -0.154355 -0.270399 0.246371 0.319556 0.326121 0.473967 -0.230762 0.195113 0.177228 -0.134450 
13 0.329537 -0.097930 0.302581 -0.200391 -0.091363 -0.319537 -0.089174 -0.201058 -0.137639 0.223384 -0.047323 -0.076461 -0.353038 -0.166647 0.059316 0.293342 0.381309 0.217331 -0.193934 -0.205258 
14 0.324986 0.313782 -0.045028 0.010729 0.178045 -0.353613 0.116029 -0.269599 0.412881 0.157000 -0.074277 -0.246442 -0.091667 -0.270687 -0.191549 -0.047286 -0.088671 -0.191212 0.242464 -0.256335 
15 0.528033 -0.238310 0.353737 -0.386715 -0.001015 -0.001646 -0.039302 -0.100726 0.048290 0.236029 -0.320956 0.119503 0.093259 -0.184989 0.144930 -0.287741 0.201593 0.012299 0.087366 -0.086832 
16 -0.066003 -0.047718 -0.406953 -0.051011 0.299487 -0.074572 0.295260 0.260868 0.343948 0.257006 0.061439 -0.157514 0.110671 -0.151353 0.258743 0.246071 -0.190266 0.350802 -0.080046 -0.182773 
17 -0.341721 0.074862 -0.005202 -0.248068 -0.089880 -0.178962 0.317400 0.309626 -0.236532 -0.021229 -0.186469 0.072843 -0.229234 -0.202922 -0.035601 0.317888 -0.377472 -0.339620 -0.161536 0.053843 
18 0.386009 -0.054538 0.272700 -0.029656 -0.140918 -0.056476 -0.010645 0.341907 0.336720 0.091933 -0.413425 0.035382 -0.109971 -0.169698 0.137441 0.081340 -0.060233 -0.197160 -0.172990 -0.447090 
19 0.033185 0.046407 0.053636 0.171053 0.283252 -0.025317 0.039720 0.149490 -0.194142 0.182027 -0.499939 0.043063 0.215013 0.142166 0.139304 0.390321 -0.291050 -0.300597 -0.184795 -0.299629 
20 0.178314 0.345080 0.109121 0.147282 0.354318 -0.406116 -0.066151 -0.303124 0.018156 -0.065546 -0.145616 0.075473 0.186726 -0.268003 -0.333817 0.189473 -0.180269 0.083830 -0.308625 0.092018 
21 0.136514 0.023702 0.255347 0.255915 0.266084 0.104987 -0.226002 0.192147 -0.128000 0.014887 0.523908 0.150669 -0.051134 -0.027583 -0.360966 0.374144 0.158384 -0.025858 -0.102819 0.237736 
22 -0.001790 0.150635 -0.324006 0.024995 -0.166676 0.123525 0.150904 -0.165768 -0.125337 0.229659 -0.354490 0.031482 -0.565398 -0.127601 -0.074547 0.201390 -0.260394 0.278172 -0.146290 -0.186135 
23 -0.598853 -0.093847 -0.307243 0.103448 -0.052999 0.193003 0.025276 0.023303 0.309308 -0.206069 -0.171352 -0.228478 0.147644 -0.133589 -0.090056 0.403152 0.129624 0.143579 0.073788 -0.115666 
24 0.025091 0.263880 0.390902 -0.550645 0.035813 -0.126209 -0.412105 0.004108 -0.150557 0.075789 0.292810 0.116092 -0.065145 -0.042479 0.172476 -0.021324 -0.123255 -0.279132 -0.021237 -0.170965 
25 0.212718 0.070930 0.142835 -0.282742 -0.209754 0.078476 -0.282322 -0.021996 -0.074905 -0.131007 -0.314967 0.223846 -0.168345 0.041452 -0.363486 0.019973 -0.229193 -0.325243 -0.367424 0.301751 
26 -0.155838 -0.083197 0.334168 -0.280631 -0.058844 -0.036670 0.413699 0.217535 -0.122269 -0.054099 -0.272871 0.106989 0.155157 -0.372596 0.165203 -0.132613 0.023318 0.079821 0.265032 0.407893 
27 0.278242 -0.340788 -0.198247 -0.094650 -0.129363 0.213812 0.420872 0.074594 0.046432 0.194210 0.214180 -0.063291 0.112365 0.176939 0.313914 0.169762 -0.249665 -0.130513 0.326001 0.257578 
28 -0.087826 -0.235789 -0.221466 0.319135 -0.032921 0.077050 -0.094040 0.275430 0.249964 -0.104543 -0.107709 -0.178364 -0.194539 0.365355 0.280356 0.186597 -0.142379 -0.302688 -0.294633 -0.306263 
29 0.148947 -0.112175 -0.322380 -0.050228 -0.217881 -0.076699 0.367885 0.148065 0.047282 0.468574 -0.098614 0.166541 -0.062252 0.248221 0.295539 0.059525 -0.169010 -0.355246 -0.240155 0.141741 
30 -0.193163 0.358523 -0.200526 -0.198353 -0.273521 0.016828 -0.276422 0.390455 0.293888 -0.056428 -0.081013 -0.165687 -0.260518 0.047625 0.138976 0.210889 0.086811 -0.345248 0.226674 0.122571 
31 0.222941 -0.006410 -0.188987 -0.229312 0.263365 -0.168740 -0.267727 0.193674 0.070124 -0.269876 0.329614 -0.184240 0.053016 0.071225 -0.288911 -0.189279 0.475861 0.236734 0.140345 -0.072323 
32 0.243850 -0.186738 0.210325 -0.031840 -0.350151 0.157675 -0.026061 -0.156378 -0.276934 -0.428931 -0.272575 -0.266397 0.287562 0.098833 0.086072 -0.121290 -0.278279 0.108331 0.247890 0.129127 
33 0.092981 -0.089327 0.362002 0.029943 -0.316479 0.268724 -0.183413 0.107567 0.202390 0.457788 -0.330696 -0.035742 -0.148603 -0.020522 0.151384 0.144454 0.324007 0.247699 -0.107089 0.169086 
34 0.080809 0.079606 -0.273302 0.187527 -0.152656 0.357399 0.089082 -0.094803 -0.339033 0.181572 -0.162976 -0.190493 0.142112 -0.423705 0.173949 0.480427 0.039615 0.104202 -0.012009 0.158711 
35 -0.150111 -0.283197 0.095295 0.467664 0.181865 0.111545 0.115143 0.160076 0.167923 0.072362 0.425583 -0.331100 0.023187 -0.010103 0.346353 0.331313 -0.063452 0.052585 0.080757 0.131194 
36 0.243291 0.271013 -0.244897 0.007332 0.045943 0.217301 0.135763 -0.192474 -0.023358 0.097360 -0.305516 -0.444506 0.201234 0.097330 -0.197503 0.111912 0.439562 0.237252 0.222761 -0.030820 
37 0.297525 0.313423 0.314255 -0.002574 0.441409 0.046079 0.152247 -0.245870 -0.194653 -0.189589 0.036670 0.120144 -0.183589 0.020734 0.158583 0.133405 -0.179856 -0.413400 0.246465 0.056561 
38 -0.509129 0.023239 -0.096098 -0.189092 0.137750 0.131004 -0.177490 0.007229 0.077798 0.505181 -0.135746 0.149759 0.353213 -0.093067 -0.064455 -0.208249 0.094760 0.138201 -0.150644 0.306160 
39 0.136209 0.419465 -0.033672 0.156157 0.232550 -0.314614 0.136502 0.294295 0.265404 -0.095032 -0.173825 0.240006 0.309866 -0.154984 -0.119612 0.201269 0.183478 0.338312 0.163941 0.067348 
40 -0.309662 0.415963 0.126802 -0.012810 0.436965 0.053006 0.169933 -0.008505 -0.081286 0.179677 -0.127731 0.167207 -0.092803 -0.305465 0.235756 0.101947 -0.198389 0.041211 -0.271888 -0.355112 
41 -0.060511 0.017786 -0.262040 -0.370311 0.115239 0.089688 0.306192 -0.189815 0.315153 -0.123408 -0.394144 -0.281153 -0.043707 0.277156 0.049710 0.288365 -0.132370 -0.292344 -0.003201 0.151078 
42 -0.128925 -0.129036 0.041347 0.204900 -0.068018 0.103037 0.129797 -0.337752 0.378410 0.093810 -0.196009 -0.165715 -0.134468 -0.431130 0.145617 0.268541 0.123091 0.193307 0.286678 -0.356392 
43 -0.400752 -0.206927 0.218588 -0.276545 -0.069852 0.010024 0.411325 -0.250806 0.043902 -0.261544 0.206803 -0.109837 -0.117198 0.306264 0.118698 0.074518 0.256454 -0.100208 -0.213089 -0.248381 
44 0.053516 0.246496 -0.108958 -0.216188 0.200793 0.379651 0.180468 0.079921 0.125743 -0.024640 -0.083592 -0.129998 -0.153131 -0.336963 0.277279 -0.035861 -0.196981 0.332542 0.401941 -0.296558 
45 0.264160 0.328996 0.217608 0.077969 -0.179608 -0.307897 -0.064469 -0.224696 0.162678 -0.280284 -0.353037 0.007289 -0.076092 0.096347 -0.202992 0.297359 0.354937 -0.105207 -0.065101 0.266729 
46 0.198761 -0.274390 0.009129 0.232898 0.113611 0.341669 0.000072 0.348934 0.148246 -0.308056 -0.039908 -0.101391 -0.310179 -0.151217 -0.217649 0.240511 -0.311518 -0.232858 0.273408 -0.020460 
47 0.057904 0.105059 0.286586 -0.412586 -0.254651 -0.101070 -0.277078 -0.060069 0.146602 0.259428 0.132678 -0.354758 0.121827 0.262897 -0.118597 0.036347 -0.212677 -0.052967 -0.343785 0.282821 
48 0.198849 -0.309602 0.076788 0.058625 0.143246 0.135101 -0.195062 0.069415 -0.032638 -0.089686 -0.529507 -0.311586 0.144927 -0.337883 0.178432 -0.171946 -0.313539 0.051508 0.291345 -0.068171 
49 0.111099 0.257720 0.054284 0.413549 0.207796 -0.121527 0.155328 0.153161 0.091045 0.111092 -0.259502 0.368923 0.131102 0.352085 -0.119003 -0.124445 0.436183 -0.091881 0.217329 -0.030480 
50 0.195686 -0.029536 0.028974 0.082872 0.047166 0.088767 0.122242 -0.115399 -0.367296 0.218380 0.094809 0.592890 0.073069 0.183345 0.214271 -0.119671 -0.482899 -0.033742 0.014640 -0.194751 
51 -0.252800 0.419005 -0.004814 -0.077437 0.031017 0.142123 -0.144177 -0.165268 0.133082 -0.289445 0.476230 0.132704 0.191056 0.357515 0.087834 -0.281663 -0.001979 0.016473 0.188800 0.228171 
52 -0.119899 -0.205857 -0.360466 0.275766 0.214063 -0.013432 0.131853 0.274002 -0.114195 -0.098427 -0.423380 -0.396059 -0.026959 0.101341 0.082424 0.046193 0.324308 -0.322590 0.080314 0.065896 
53 -0.359412 0.276687 -0.016875 -0.034554 -0.192994 -0.145584 0.047385 0.097935 0.242061 -0.057449 0.203651 0.273601 -0.319669 0.305441 -0.182836 0.197961 0.257443 -0.343910 -0.282855 -0.107834 
54 0.090654 -0.206192 0.450577 -0.148069 0.038121 -0.164685 -0.154743 -0.292998 0.199824 -0.150113 0.513001 -0.030468 0.183681 -0.197366 0.237372 -0.098879 0.026608 0.093635 0.072672 -0.325303 
55 0.370304 -0.170264 -0.052474 -0.316017 -0.060342 0.030946 0.200677 -0.134057 -0.161434 0.038533 0.179007 -0.147924 -0.330977 -0.465519 -0.184756 0.033932 -0.319638 -0.169105 -0.293106 -0.093473 
56 0.343827 -0.075689 0.139213 -0.070040 0.255796 -0.069815 0.081796 0.048852 -0.330302 0.174563 0.056308 -0.278473 -0.170915 0.174539 -0.435195 0.212564 0.068610 -0.369076 -0.274585 0.203765 
57 -0.162972 0.153342 0.249536 0.187993 0.108800 0.061136 0.090314 -0.175462 -0.266046 -0.187504 -0.311220 -0.345915 -0.147547 -0.019284 -0.091278 0.088643 -0.056390 0.089433 -0.446470 -0.475920 
58 -0.107027 0.085224 0.126271 0.164338 0.009520 0.504583 0.241687 -0.004546 0.200629 0.246331 0.218523 -0.026609 -0.045070 0.161799 -0.343166 -0.140620 -0.335333 0.317520 -0.310334 -0.022146 
59 0.216099 0.133507 -0.178604 -0.301552 0.035042 -0.135087 0.047324 -0.049242 -0.068399 -0.090853 0.425881 0.400462 -0.207451 -0.100775 0.422577 -0.103436 0.380886 0.152793 -0.015890 0.150638 
60 -0.425095 0.041323 -0.050444 0.129864 -0.269416 0.042501 0.179212 0.033596 0.140014 0.260216 -0.025412 0.085930 0.167044 -0.116313 -0.341794 0.293499 0.220746 0.280986 0.407558 -0.238774 
61 -0.251697 -0.020418 0.040546 -0.546404 0.068226 0.143645 -0.030854 -0.041300 -0.041590 0.203893 -0.174490 -0.083262 0.066567 0.030149 -0.352742 0.139705 -0.135105 -0.368273 -0.447187 0.155765 
62 -0.113762 0.470031 0.016454 -0.017661 0.111098 -0.026997 0.196762 -0.206099 -0.207496 -0.315752 -0.320122 -0.062088 -0.390207 0.091880 0.074049 0.074343 -0.132303 -0.449017 0.124611 0.125838 
63 0.267371 -0.022258 -0.022771 0.371592 0.350811 -0.108022 0.088229 0.059977 -0.260447 -0.029109 0.352143 -0.212380 0.402028 0.073679 0.135402 -0.104675 0.164369 -0.325750 0.171264 -0.216107 
64 0.268946 -0.064997 0.269367 -0.533284 -0.100737 -0.230411 -0.261120 0.079362 -0.210404 -0.200757 -0.352054 0.025988 -0.144438 -0.330959 -0.041708 -0.021679 -0.013267 0.201006 0.196453 -0.088335 
65 0.125203 0.027564 -0.162350 -0.201329 0.199278 -0.544823 -0.039005 -0.067720 0.328192 0.104718 -0.356055 0.008072 -0.170218 -0.238783 -0.357625 0.062933 0.003337 -0.276510 -0.016314 -0.184181 
66 0.313919 -0.323729 -0.142117 -0.188112 -0.373383 -0.070686 0.113655 0.010814 -0.422386 -0.201567 -0.230076 -0.198634 -0.153253 0.233337 -0.218453 0.027142 0.075936 -0.147371 -0.284502 -0.193336 
67 -0.219495 0.405594 -0.129120 -0.236160 0.182280 -0.398801 -0.270180 -0.178009 -0.025467 -0.092193 -0.277390 0.302534 0.301780 0.252106 -0.253560 0.000829 0.047734 0.057131 -0.105354 -0.068813 
68 0.182488 0.062741 -0.048055 0.339789 0.326575 -0.007301 0.284640 -0.309315 0.048288 -0.024813 -0.178082 -0.241656 -0.159550 0.324204 -0.384449 0.372742 0.127641 0.051051 -0.130639 0.123578 
69 0.201012 -0.310887 -0.015559 -0.082990 0.202489 -0.082931 -0.047768 -0.323401 0.015586 0.095670 -0.346332 -0.279387 -0.073978 0.001245 -0.335339 -0.247862 0.159223 -0.130006 0.383740 0.353262 
70 0.093182 0.075437 0.335656 -0.148397 0.017295 0.219621 -0.055427 -0.319704 -0.208052 -0.443217 -0.061262 -0.156330 -0.446516 0.156601 -0.148183 0.174373 0.215760 0.215975 -0.073174 0.233214 
71 -0.058725 0.101109 -0.170502 -0.521362 -0.343507 0.149065 -0.057619 -0.118227 -0.195340 -0.014298 -0.186780 -0.062134 -0.108444 -0.179110 0.039939 0.592433 0.032994 -0.058517 -0.222563 -0.018848 
72 -0.325489 -0.087154 -0.327600 -0.063467 -0.029600 -0.297186 0.241648 0.125401 0.311169 -0.281306 0.129403 -0.124068 -0.154118 -0.373654 0.074671 -0.057168 0.236054 0.371104 -0.161598 -0.109233 
73 -0.009265 -0.122314 0.252136 0.049436 -0.004653 0.348123 0.286182 0.121197 -0.056110 -0.417016 -0.064525 0.104541 0.262340 0.004316 -0.329320 0.531787 0.089199 -0.192283 0.062596 0.007513 
74 0.309811 -0.311876 0.367866 0.136006 -0.226214 -0.117111 0.286101 -0.094583 0.304536 -0.094116 0.201683 -0.119949 -0.185084 -0.199417 0.125651 0.118381 0.189445 -0.158857 0.386152 0.162826 
75 0.131563 -0.043988 -0.200993 0.100129 0.339118 -0.148020 0.312349 0.247195 -0.170587 -0.358757 -0.264140 -0.090459 -0.321353 0.392964 0.011629 0.019176 -0.290251 0.179288 -0.141979 0.065232 
76 0.153414 0.215946 -0.091821 0.085262 0.264364 -0.167493 0.253602 0.174680 0.499767 0.057166 0.295953 0.092048 -0.145845 -0.155031 0.273895 -0.196756 0.319601 0.257614 -0.201139 -0.065288 
77 0.080540 -0.173134 0.176976 0.149142 0.005854 0.069774 0.145644 0.134004 -0.249027 0.191145 0.092077 -0.301577 0.271720 0.165134 -0.037673 0.385586 0.044604 0.338670 0.429461 -0.340006 
78 -0.314122 -0.054161 -0.101394 -0.096396 0.278833 0.050137 0.294110 0.374290 0.121698 0.090904 0.219848 -0.569804 -0.088028 0.179963 -0.043982 0.026243 0.054860 0.334708 -0.085690 -0.103640 
79 -0.133159 0.042643 0.096468 -0.380377 0.407568 0.024189 -0.275962 0.182449 0.322701 -0.016842 -0.057196 0.110902 -0.062951 0.041114 -0.267421 -0.106111 0.046179 -0.402727 0.208131 0.366416 
80 0.020276 0.446458 -0.080143 -0.084460 -0.189146 -0.061797 0.035141 0.105656 -0.124360 0.019655 -0.116788 0.326314 0.029954 -0.416179 0.337379 0.075382 0.358127 -0.008277 0.388628 0.160555 
81 0.321531 0.163447 0.040124 0.161041 0.236901 -0.360369 0.147680 0.042687 -0.146544 0.268410 0.310718 -0.228558 -0.200774 0.329796 -0.346882 0.106274 0.167443 -0.139461 -0.242230 0.059804 
82 -0.117927 -0.112466 -0.139817 0.024619 0.415669 0.004200 0.188793 0.207946 -0.221859 0.320181 -0.273525 0.047571 -0.413687 -0.310199 -0.320620 0.010700 -0.229408 0.046699 0.218383 0.004308 
83 -0.183803 -0.374740 0.035690 -0.376186 -0.120814 0.139338 0.078076 -0.088109 0.212019 -0.138992 0.230577 0.017117 0.420696 -0.299347 0.358888 -0.152234 -0.202291 0.188042 0.146060 0.034815 
84 -0.143802 -0.036346 0.207283 -0.026322 0.005501 -0.443336 -0.283681 0.413031 0.402701 0.181594 0.058427 -0.024762 0.146134 -0.158232 0.258451 -0.268337 0.271069 -0.059750 0.096437 0.126409 
85 -0.060821 0.179236 0.166384 0.007333 0.057381 0.135856 0.119161 0.494077 -0.131423 -0.344924 -0.237728 0.303545 0.294987 -0.064950 -0.256203 0.217053 0.215248 0.115750 0.305531 0.120044 
86 0.025439 0.083444 0.258317 0.054524 0.201914 -0.371339 -0.123802 0.275109 0.431162 -0.154837 -0.030598 0.247236 0.111815 -0.484950 0.070134 -0.216362 -0.233140 -0.125941 -0.019233 0.105279 
87 0.291514 -0.360612 -0.120549 -0.064811 -0.308716 -0.257297 -0.004927 0.211778 0.013998 -0.079757 -0.091641 -0.245218 -0.357677 0.055693 -0.031502 0.219668 0.164578 -0.139593 -0.130769 -0.490739 
88 0.163155 -0.067605 0.077061 0.270038 -0.064858 0.224742 -0.401657 0.079205 0.420193 -0.081941 -0.383796 0.154991 -0.055370 0.199355 -0.057705 -0.167416 -0.022736 -0.409920 0.010254 -0.264976 
89 0.400241 0.269665 -0.260976 -0.068129 0.379833 0.074861 0.502244 -0.146826 0.036473 0.114956 -0.138247 0.234189 0.221711 -0.186094 -0.138262 0.207823 0.027044 -0.165205 0.069763 -0.056274 
90 0.002651 0.362541 0.248349 0.102945 -0.321648 -0.210287 -0.161583 -0.060405 -0.148813 0.174155 -0.093052 0.086818 -0.056754 -0.144184 -0.096551 0.497196 0.206339 -0.399163 0.232992 0.115956 
91 0.434504 -0.127168 0.116359 -0.283531 -0.166916 0.062649 0.120558 -0.178142 0.147973 -0.276255 0.323269 -0.069976 -0.017373 0.208827 -0.298045 0.471360 -0.011918 0.072657 -0.000522 0.234723 
92 -0.070804 -0.348219 -0.262728 0.221913 -0.164124 -0.136807 -0.064160 -0.304817 0.063138 -0.085912 -0.176061 -0.159658 -0.438821 -0.038624 0.178766 0.436550 -0.285032 -0.077875 0.056087 -0.194624 
93 0.351092 -0.141911 0.236186 0.279112 -0.132355 -0.000768 0.132288 -0.320623 0.012106 0.305856 0.076942 -0.175059 -0.261448 -0.200756 -0.122298 0.229931 0.261813 -0.394134 0.229667 0.041393 
94 -0.173138 0.126109 -0.081706 -0.350831 -0.177450 -0.070736 0.086420 0.303283 0.144102 0.398348 0.114216 0.361873 -0.160220 0.188107 -0.126071 0.147946 -0.232357 0.336710 -0.165782 0.267008 
95 -0.264613 0.299798 0.269966 0.031335 -0.334538 -0.059719 -0.220322 0.444417 0.043204 0.157886 -0.297474 -0.158493 -0.107189 0.108656 -0.278057 0.102897 0.023392 -0.000009 0.081899 0.381900 
96 -0.015052 -0.118133 0.503781 0.199199 -0.020370 0.103003 0.517369 -0.022323 -0.147341 0.012534 -0.338386 -0.014404 0.294595 0.129891 0.254343 0.108626 0.168969 -0.258130 0.005292 0.034817 
97 -0.074378 -0.178102 0.193755 0.117073 -0.035336 -0.117993 -0.262211 -0.382944 0.412165 -0.303097 -0.005089 -0.084963 -0.247159 0.052138 0.010285 0.346849 0.170280 0.338136 -0.070480 0.281818 
98 -0.184879 0.277182 -0.036167 -0.114704 0.081860 -0.162798 0.054216 0.171544 0.156792 0.292578 -0.391978 -0.176817 0.048767 0.010349 0.202670 -0.050589 0.059290 0.235489 0.520142 0.371778 
99 -0.181096 0.247239 0.318054 -0.430523 -0.273095 0.291324 0.167079 -0.378656 -0.281274 -0.232884 -0.328581 0.019338 -0.117836 -0.035017 0.061490 0.060484 0.149258 0.018668 0.041486 0.015274 
100 -0.026354 -0.086984 0.133307 -0.166842 -0.261064 0.156560 0.120386 0.256278 0.293045 -0.202470 -0.249135 -0.313599 0.240873 0.321248 0.183681 0.042079 0.317174 0.020227 -0.159158 -0.403664 
101 0.196211 -0.078954 0.399722 -0.231914 0.038368 -0.065854 -0.195279 -0.110232 0.281881 0.147074 -0.209153 0.303945 -0.053023 -0.023598 0.166666 0.364745 -0.147975 0.069040 -0.297788 -0.410938 
102 0.290090 0.069468 -0.272672 0.128915 -0.135992 -0.175467 -0.221568 0.035486 0.232870 -0.125200 0.247722 -0.273501 -0.169754 -0.411397 -0.392658 0.072340 0.146404 0.330975 -0.085758 -0.136144 
103 0.183457 0.339016 0.198731 -0.043638 0.215583 -0.129925 -0.304517 -0.235477 -0.174424 -0.083095 -0.417242 -0.158628 -0.127458 -0.240514 0.015888 0.174988 0.431496 -0.060148 -0.256391 -0.037224 
104 -0.252620 0.381649 0.107396 -0.298563 0.293363 0.296669 0.324655 0.129208 -0.437259 -0.023224 -0.053014 -0.076531 0.268469 0.018455 -0.061803 0.072678 -0.189828 -0.230289 -0.087015 -0.122983 
105 0.033210 0.272413 -0.031152 -0.243271 -0.074813 -0.021439 0.154152 0.104268 0.084451 0.212210 0.447896 0.179795 -0.377265 0.229206 0.121460 -0.233656 -0.073008 -0.162515 -0.457391 -0.183256 
106 -0.121434 0.242198 -0.209444 -0.184737 -0.308509 -0.236046 0.284018 0.027298 0.155445 -0.317757 0.009466 0.055699 0.022642 -0.264033 0.105311 0.032848 0.441293 -0.249082 -0.334801 0.191571 
107 -0.240907 0.049325 -0.346882 -0.370875 -0.148767 -0.260329 0.102092 -0.227882 -0.127596 -0.020116 0.150954 0.031216 0.412887 0.126387 -0.326832 -0.004801 -0.165168 0.283862 0.152773 -0.253897 
108 0.121660 0.383333 -0.154192 0.067973 0.426820 0.077950 -0.176971 0.259917 0.144706 0.059128 -0.331255 -0.295382 -0.286177 0.227659 0.239599 0.171854 0.071687 -0.258516 0.011830 -0.092409 
109 -0.398080 -0.016756 -0.020900 0.356363 -0.116660 0.053963 -0.067665 0.155242 0.197437 -0.264924 -0.036157 0.358016 -0.066614 -0.471445 0.307026 0.087262 0.041432 -0.183135 -0.224662 -0.125161 
110 0.316025 0.155293 0.192129 0.049490 0.352504 0.393994 -0.243265 0.167833 0.169081 0.182649 -0.158884 -0.328021 0.224478 -0.096440 -0.216462 0.245896 0.247800 -0.197631 -0.085673 -0.014413 
111 -0.315677 -0.228730 -0.002823 -0.128842 0.000346 -0.358624 -0.130050 0.058513 0.232663 0.021653 -0.436226 0.009580 -0.144104 0.165787 -0.277308 0.303732 0.320071 0.261493 -0.203539 -0.088501 
112 -0.314901 -0.169769 0.388389 -0.301235 0.326076 -0.144602 0.006917 0.106912 0.030358 0.300789 0.197736 -0.052554 -0.070077 -0.234287 -0.256479 0.135562 0.168047 -0.310479 -0.293155 -0.062612 
113 -0.150566 0.133022 -0.058515 0.163098 -0.348217 0.482088 0.227218 0.107474 0.336862 0.095804 0.041295 -0.126232 -0.029859 0.192425 -0.443994 -0.138613 0.098503 -0.021947 0.265446 -0.193815 
114 -0.346567 -0.401621 0.162184 0.149655 -0.231908 0.148364 -0.071323 0.049170 0.179017 0.253584 -0.104304 -0.264799 -0.066020 -0.240037 -0.165329 0.083275 0.384756 0.359012 -0.181517 -0.055889 
115 0.330369 0.087777 0.121624 0.136860 -0.407082 0.185693 0.276859 0.139362 0.241953 0.296928 -0.045821 -0.054200 -0.431574 -0.269596 0.107304 0.209836 0.084678 -0.131593 -0.245425 0.049091 
116 0.213609 0.025460 0.255181 -0.191667 -0.200495 0.028461 0.148798 -0.232093 0.116019 -0.172599 -0.272725 0.248611 -0.320828 0.262829 -0.351955 0.382098 0.079618 0.124583 -0.284816 -0.102737 
117 0.156681 -0.158184 0.163507 -0.208666 0.259415 -0.251792 0.238841 0.044555 -0.177307 0.328993 -0.033322 0.212284 -0.057956 0.428223 -0.169775 0.224428 0.381643 0.176705 0.115315 0.220181 
118 0.143196 -0.075988 0.169162 -0.105304 -0.214441 -0.225929 -0.270586 0.151009 -0.251815 -0.000045 -0.520039 0.182453 -0.203047 -0.073473 0.094438 0.218892 0.287020 0.317267 0.256486 0.146774 
119 0.317208 0.398634 -0.177297 0.025414 -0.289770 -0.294062 -0.012268 0.057024 0.328604 -0.052269 -0.462955 -0.272891 -0.049566 -0.011184 0.090924 0.134016 -0.225338 -0.123767 0.190394 -0.062322 
120 0.479676 -0.227021 0.222007 -0.110468 -0.016434 0.184936 0.329745 0.096265 0.239322 0.029948 0.320379 -0.028665 0.017920 0.292574 0.098050 0.150373 0.186230 -0.356038 -0.117989 0.221953 
121 -0.149752 -0.112539 -0.246508 0.093004 -0.140455 0.004094 -0.136467 0.331696 0.234570 -0.442580 -0.485751 0.138405 0.008347 0.125626 -0.316644 0.118742 0.132297 0.020772 -0.021663 -0.304099 
122 0.054346 0.448053 0.141973 -0.261896 0.081145 0.235654 0.253834 -0.207390 -0.078803 0.431706 -0.170281 -0.283037 -0.177616 0.064127 0.326974 -0.102628 0.128297 0.061659 -0.046370 -0.246552 
123 -0.314660 0.207620 0.263701 -0.268372 -0.053895 0.278441 -0.301981 -0.165832 -0.333373 0.228388 -0.322360 0.231343 0.133244 -0.306095 -0.152823 -0.077243 -0.095233 -0.108003 -0.065846 0.174988 
124 -0.091569 0.015164 -0.185012 -0.419980 -0.359848 0.106446 -0.281470 -0.062287 -0.111876 0.339821 -0.101287 0.333505 0.137543 0.038473 -0.019298 0.368902 -0.113887 0.182399 -0.303892 0.109165 
125 0.024557 -0.058609 -0.290929 -0.105791 0.327192 -0.298876 0.156580 0.336008 -0.120952 0.087100 0.160684 0.064484 -0.390813 -0.205593 0.019344 -0.168091 -0.416877 -0.226532 0.197352 -0.162645 
126 0.109803 0.058458 0.109539 -0.162822 0.411032 0.120156 -0.240492 -0.244011 -0.045906 0.206182 0.307600 0.001820 0.260550 -0.303600 0.128576 0.122498 0.339292 0.340125 0.284033 0.054211 
127 -0.239758 0.361106 -0.195804 -0.351494 -0.300519 -0.276081 0.168282 -0.054038 -0.354512 -0.449171 -0.153301 0.042524 0.182607 0.132279 -0.101754 0.001059 -0.066619 0.143056 0.042771 0.108569 
128 -0.232513 0.044827 -0.346057 -0.064523 0.042418 0.374937 0.241805 0.102322 -0.224493 0.008941 -0.330511 0.135204 -0.076465 -0.420577 -0.067405 0.141646 -0.326231 -0.063539 -0.298422 -0.154400 
129 -0.144836 0.062619 -0.219812 0.133406 -0.386105 0.249221 0.228534 0.084949 -0.266247 0.110493 0.143432 -0.169874 -0.347505 0.157695 0.163526 0.297493 -0.327682 0.200126 -0.030804 -0.310779 
130 0.134353 0.517757 0.152086 -0.268911 -0.018666 0.381155 -0.232526 0.031404 -0.213515 -0.153100 -0.195433 -0.306636 -0.200903 -0.107244 0.125429 0.127811 -0.132653 -0.049186 0.334781 0.021885 
131 0.137242 0.104942 -0.033341 -0.212670 0.058500 -0.114955 -0.061081 0.184093 0.174903 -0.362850 -0.055799 -0.207979 0.178372 -0.486337 0.302346 -0.198619 0.242218 -0.027977 0.384565 0.233211 
132 -0.284714 0.397299 0.375642 0.186965 0.135918 0.026592 0.087219 0.108278 0.393062 -0.274057 -0.368614 0.177477 0.018948 -0.111125 -0.074554 0.098522 -0.076328 -0.006330 -0.337885 -0.039137 
133 -0.166375 -0.264491 -0.147477 0.083408 0.033695 -0.262674 0.411630 -0.197989 0.481671 -0.381077 -0.039453 0.128796 0.050424 -0.007735 -0.103945 0.078933 0.129983 0.256265 -0.233133 -0.207263 
134 -0.123463 0.199205 -0.080850 -0.026921 -0.105751 -0.095933 -0.186753 -0.044958 0.167547 -0.142908 0.269313 0.293671 -0.269135 0.019265 0.312946 0.419559 0.332387 -0.333057 -0.312777 -0.085174 
135 0.007630 -0.191162 -0.342157 -0.160602 0.214258 0.225810 0.291226 -0.172509 -0.277949 0.240336 -0.184170 0.125685 0.144640 0.344298 -0.382483 0.186853 -0.292608 0.124887 0.041795 -0.026490 
136 -0.469164 -0.224089 0.238178 -0.098887 -0.026195 -0.090977 0.258885 0.386988 0.209319 0.277880 -0.186609 -0.344102 0.013475 0.080107 -0.277475 0.085741 -0.127475 0.139127 -0.186583 0.042358 
137 -0.049425 0.237016 -0.316519 0.227996 0.083682 -0.240913 -0.088310 -0.306640 0.432310 0.200987 -0.044119 0.241597 -0.197981 0.062236 -0.082833 0.103394 -0.245851 -0.273551 -0.037594 0.370722 
138 -0.360259 0.243239 0.132806 -0.295194 -0.131870 0.016791 0.400582 0.300754 -0.015141 0.247714 -0.043513 -0.124280 0.316458 -0.045768 -0.105183 -0.058373 -0.208471 0.293409 -0.333051 0.039588 
139 0.412142 0.007003 0.365080 0.000271 0.209417 0.303726 0.126387 0.052470 -0.313408 0.092140 -0.058383 -0.095296 0.230750 0.135097 0.304741 0.114633 0.132723 -0.382956 -0.216189 0.185089 
140 -0.258494 0.177277 0.151999 0.258728 0.146084 0.178497 -0.050409 0.219576 0.298851 0.066343 0.136867 0.056268 0.488557 -0.231800 0.196166 0.060156 -0.180134 -0.295557 -0.058046 -0.366676 
141 -0.218361 0.319572 -0.280848 -0.468927 0.003200 0.166631 0.138219 -0.253613 -0.093568 0.046983 0.079573 0.239410 0.058891 -0.207022 -0.059817 -0.088885 -0.391595 0.251341 0.127641 0.273855 
142 0.075712 -0.205152 -0.167774 0.403149 -0.423324 -0.076957 -0.041973 0.142660 0.226869 -0.207744 0.073951 -0.409706 -0.231486 -0.272129 -0.242143 -0.083365 -0.232575 0.041354 0.056125 -0.184756 
143 0.171380 0.415690 -0.179499 -0.239742 -0.305491 0.049024 -0.143759 0.089217 0.213263 -0.394822 0.208727 0.326114 -0.082769 0.013778 0.336375 0.078130 -0.149211 0.182588 -0.029176 -0.223050 
144 -0.112623 0.392281 0.006093 -0.054926 -0.140799 0.204171 -0.400246 0.034071 -0.389342 0.082005 -0.181184 -0.099122 -0.134864 -0.281826 -0.265665 0.247152 0.256142 0.329916 0.052886 -0.004235 
145 -0.106991 0.194913 -0.057369 0.050874 -0.213006 0.236861 0.263098 -0.111666 -0.193113 0.238908 -0.004950 -0.254748 -0.310041 0.135703 0.550455 0.182176 0.256359 0.070785 -0.282318 -0.032611 
146 -0.407241 -0.250713 0.185323 0.088824 -0.246061 -0.080080 -0.054769 0.602717 0.018282 0.185039 -0.333218 0.042754 -0.176226 0.103119 -0.067643 -0.007489 -0.286172 0.041299 -0.010135 0.135566 
147 0.109997 0.211690 0.108551 -0.014330 0.165166 0.137326 0.445552 -0.113373 0.366580 -0.134461 -0.128903 0.082497 -0.368444 -0.047280 0.136526 0.268484 -0.411894 0.209432 0.231885 -0.041353 
148 -0.130613 -0.009456 0.059591 -0.060640 -0.146746 -0.461660 -0.071348 0.048688 -0.206409 -0.195673 0.254325 -0.406146 -0.409822 0.063286 -0.101865 0.065991 0.184276 -0.362737 -0.175488 0.199867 
149 -0.028106 -0.069922 0.141344 0.132642 -0.118308 0.184154 -0.328576 0.386690 0.352465 0.198361 -0.136033 0.181252 -0.420956 -0.017731 -0.237341 0.306651 0.226281 0.107764 -0.113333 -0.181293 
150 -0.037372 -0.368844 -0.005435 -0.294222 0.011308 0.372450 0.087364 0.159873 -0.021467 -0.186668 0.177390 -0.341678 0.239293 0.435349 0.178338 -0.054940 -0.171805 0.070122 -0.322992 -0.005956 
151 0.355024 0.421821 -0.236116 0.197255 0.294288 0.168952 0.092025 0.072227 0.489735 0.009997 -0.153052 0.158492 -0.051787 -0.115794 0.206086 0.086762 0.312197 -0.132005 0.035122 0.042771 
152 0.051781 -0.015306 -0.036317 0.139265 -0.125879 0.323348 -0.176623 -0.107268 -0.232995 -0.075809 -0.091214 -0.074977 -0.009862 -0.376426 -0.483157 0.032438 0.212045 -0.426656 0.308340 -0.202325 
153 0.381506 -0.107223 -0.068740 -0.419252 0.246319 0.175347 0.184018 0.191415 0.093535 -0.080203 -0.286828 -0.292757 -0.101688 0.138034 0.082731 0.342959 0.228652 0.313526 -0.086808 0.073508 
154 0.056428 -0.222175 0.279065 -0.019224 0.077045 -0.297923 -0.372297 0.296781 0.366471 -0.180364 -0.083127 -0.164911 0.319532 -0.265210 -0.038407 0.143377 -0.241371 0.151803 -0.199912 -0.176503 
155 -0.224970 -0.025929 -0.112211 -0.334651 0.074543 -0.155068 0.115597 -0.131532 -0.043897 0.161744 -0.372892 -0.349521 0.112698 0.020689 -0.043474 0.418563 -0.268358 -0.450146 -0.007794 -0.098207 
156 0.171111 -0.309676 -0.103773 -0.127302 -0.124285 0.275906 0.257580 -0.081005 0.145947 0.142303 -0.588892 0.060450 -0.112801 -0.435187 0.122347 0.050802 0.057457 0.162868 0.197011 -0.055362 
157 -0.236483 0.259176 -0.224200 0.026144 -0.091925 0.210170 0.205818 0.102610 -0.150197 0.162137 0.244681 -0.427514 -0.309927 0.183767 0.450939 -0.099432 -0.049817 -0.068426 0.224283 -0.168625 
158 0.263546 -0.279755 0.114563 -0.528186 -0.036750 0.181059 0.443766 0.037754 0.098603 0.133799 0.245671 0.020135 0.248663 -0.029792 -0.250874 -0.102517 0.057529 0.222177 0.129191 0.183775 
159 0.038600 -0.165909 0.028527 -0.113436 -0.132661 -0.118152 -0.286711 -0.340442 0.151175 -0.281851 -0.141125 0.102762 -0.120717 -0.002494 0.203684 0.446431 -0.287687 -0.336930 0.165028 -0.340563 
160 0.344628 0.044878 -0.090690 -0.348990 0.136694 -0.210266 -0.007686 0.364233 -0.046659 0.177890 0.171221 -0.121739 0.272331 -0.156354 -0.297087 0.233507 0.004607 0.090395 0.320869 -0.350815 
161 0.334433 -0.185552 0.060031 -0.153296 0.283710 0.347716 -0.157578 0.198928 -0.262442 -0.112136 0.382924 -0.259870 -0.219720 -0.140477 -0.177854 0.215087 0.005456 -0.255700 0.002869 0.232123 
162 0.163600 0.044999 0.294069 0.145976 -0.165097 -0.062500 -0.127300 0.102762 0.248336 0.247953 -0.285690 0.028000 0.018931 -0.563542 -0.075867 0.133894 0.027356 -0.299146 0.085675 -0.400929 
163 -0.287419 0.053694 0.213501 0.178165 0.053282 0.124687 0.514402 0.180442 -0.098687 0.330693 0.217703 0.128145 -0.127620 0.011640 -0.106915 0.322510 0.344823 0.058416 0.121198 -0.264280 
164 -0.089754 0.451927 -0.378091 0.002131 0.205182 -0.027293 -0.043955 0.084709 -0.168459 -0.018916 -0.164830 0.311895 -0.123407 -0.211687 0.072171 0.066838 0.352492 -0.272747 -0.183532 0.370905 
165 -0.006797 0.087426 -0.193729 -0.214795 -0.329928 -0.082228 0.063811 -0.231751 -0.009513 -0.262029 -0.319783 0.440351 0.156843 -0.219936 0.192971 0.374003 -0.223070 -0.083697 -0.179605 -0.176681 
166 0.302726 0.085499 0.115857 0.059227 -0.321458 0.178182 -0.184734 -0.195861 -0.026971 -0.077589 0.374258 -0.239003 0.082056 0.212854 0.077552 0.035063 0.492635 0.006294 -0.385459 0.148372 
167 0.248192 0.198761 0.379119 0.273518 -0.141964 -0.007434 0.105003 -0.191298 0.282359 -0.153361 0.069512 -0.119592 0.036835 -0.516931 0.207598 -0.088766 -0.238289 -0.152247 0.184834 -0.237625 
168 -0.236823 0.096006 -0.368877 -0.255419 0.038945 0.308549 0.261178 -0.179146 0.115745 -0.277594 -0.165989 0.164976 -0.151001 -0.274678 -0.287231 0.034060 0.401781 -0.199402 -0.065282 0.061453 
169 0.010306 0.086302 0.247276 -0.067092 -0.081478 0.083382 -0.277713 -0.010499 -0.132316 -0.225531 0.172240 0.446254 0.220666 -0.329369 -0.433900 0.167856 0.105865 0.232394 0.262186 0.176675 
170 -0.069396 -0.201105 -0.188344 0.093961 -0.457765 -0.174366 -0.069392 -0.401009 -0.051907 -0.042097 -0.145020 -0.230371 -0.299550 -0.041264 -0.014888 0.450438 0.224349 0.181488 -0.140390 -0.169604 
171 -0.140677 0.066988 0.155376 0.385010 -0.193433 0.154262 0.067733 -0.370962 -0.425739 0.185345 0.192913 0.001563 0.195435 -0.092816 -0.029971 0.292908 0.179316 -0.038494 0.072632 -0.417967 
172 -0.060775 0.296779 -0.401500 0.063729 -0.334951 0.214329 0.046055 0.162902 -0.264187 0.035766 0.270078 0.253776 0.217166 -0.027350 0.282955 -0.198640 -0.341540 -0.178893 -0.022725 0.176523 
173 -0.192389 -0.049251 0.212925 -0.100052 0.213780 0.414923 -0.138110 0.040463 0.024136 -0.420853 0.065094 0.070400 0.194765 0.011098 0.154729 0.278685 0.236097 0.068065 -0.108332 -0.517660 
174 -0.233141 0.020266 0.427264 -0.162901 -0.194222 -0.285894 0.235815 0.057513 0.242755 -0.096652 -0.327545 0.491478 0.023150 0.027141 -0.024740 0.227335 -0.093439 -0.233418 0.152460 0.025238 
175 -0.045292 0.359371 -0.227427 -0.229179 0.074955 -0.340975 -0.098902 0.221568 0.185164 0.249199 -0.021001 0.067965 -0.174374 -0.342104 0.208203 -0.203873 0.124318 0.160039 -0.426010 -0.165673 
176 -0.126196 -0.008106 -0.034622 0.003898 -0.355786 0.064763 -0.359389 0.031515 0.187142 -0.352836 0.040108 -0.256372 -0.237336 -0.384979 -0.303727 0.101141 0.371525 0.002327 0.065020 0.213850 
177 0.121482 0.265463 -0.250016 -0.130067 0.101750 0.093075 -0.292901 0.057802 -0.021789 0.449547 0.173309 -0.050656 0.166649 -0.091471 0.342481 -0.148579 -0.021148 0.485452 0.137979 -0.247735 
178 0.304160 0.271242 -0.225953 0.246497 0.077190 -0.051505 -0.386793 0.090316 -0.003395 0.381668 -0.028755 -0.168215 0.170745 0.312583 0.090949 0.013166 0.304841 0.208841 0.306880 0.122031 
179 0.159195 -0.118240 0.097381 -0.342414 0.177771 -0.260788 -0.124304 -0.360845 -0.068065 0.079039 -0.337179 0.159955 -0.303631 0.138301 0.068020 -0.209722 0.164611 -0.061090 -0.281661 -0.410399 
180 0.199117 0.492896 -0.135948 0.234214 0.120100 -0.023596 -0.242575 0.358222 -0.304632 0.084559 -0.133965 -0.002616 -0.262092 -0.345345 -0.093933 0.069736 0.164522 0.006564 0.212079 0.224248 
181 0.192175 -0.130473 0.165583 -0.144325 0.001746 -0.304412 -0.090306 -0.031247 0.163746 -0.198499 -0.280203 -0.231599 -0.011222 0.278617 -0.279769 0.311000 0.167154 -0.320779 0.326737 0.327550 
182 -0.109140 0.224458 -0.119079 0.040225 0.407293 0.307085 -0.380941 0.169005 0.345957 0.117673 -0.026175 -0.345959 0.144587 0.267733 0.235497 0.105702 0.075570 -0.064742 0.001296 -0.254980 
183 0.149944 0.233136 -0.073960 -0.432867 0.034274 0.070787 0.212999 -0.486166 -0.306039 -0.067060 0.266987 -0.048038 0.137226 -0.320594 0.158311 -0.116134 0.008070 -0.159284 -0.034589 -0.289600 
184 0.225288 0.226963 -0.157644 -0.237769 -0.192550 -0.137314 0.326395 -0.125747 -0.065134 -0.092768 -0.043976 -0.160382 -0.229305 -0.042520 -0.126083 0.240505 0.365956 -0.296944 -0.279417 0.411417 
185 0.035945 0.040668 -0.174364 -0.162027 -0.223465 0.003085 0.290581 0.390111 -0.061135 0.238902 -0.313981 0.348191 -0.306567 0.166308 0.156374 0.165992 0.356863 -0.210625 -0.110267 0.125200 
186 0.176760 -0.211412 0.209774 0.272977 -0.218923 -0.055705 -0.348551 0.178032 -0.197769 -0.059290 0.458911 0.329910 0.281246 0.117222 0.029655 0.158656 0.058873 0.254726 -0.072195 0.216341 
187 -0.191156 0.388378 -0.068324 0.406199 -0.120004 0.232953 0.169550 -0.049944 0.090270 -0.367295 -0.257767 -0.165253 -0.154385 0.221940 0.049727 0.158089 0.273542 0.331590 -0.088226 -0.114554 
188 0.183794 0.186272 -0.087952 -0.303602 -0.075155 -0.021314 -0.157152 0.334219 -0.111044 -0.108018 -0.029571 -0.165351 -0.313886 0.160663 -0.242441 0.133130 0.386421 -0.240438 0.245988 -0.410388 
189 0.021187 0.231939 0.176256 0.315474 0.261477 -0.038995 -0.289726 -0.242781 -0.062609 0.080314 0.091068 -0.008809 0.388057 0.004817 -0.330891 0.319276 -0.005215 -0.373439 0.122115 -0.259263 
190 0.370078 0.567933 0.045998 0.249395 -0.385814 0.208356 0.184505 0.310380 -0.154226 0.048952 0.048154 0.010495 0.056313 0.011978 0.116495 0.129295 -0.025580 0.110486 -0.218285 0.175542 
191 0.104462 -0.204375 0.238255 -0.361306 0.178090 -0.076224 0.137716 0.169473 -0.182198 -0.084072 -0.162152 0.194487 0.263978 -0.025163 0.032166 0.463054 -0.332093 -0.121834 0.018639 0.398959 
192 0.111523 -0.096813 -0.176940 0.386442 0.223131 0.446982 0.139645 0.060068 -0.183117 0.211034 0.253039 -0.276072 -0.061428 0.277597 0.123340 -0.235184 0.064539 0.206406 0.118064 0.307374 
193 0.211668 0.368544 0.395436 0.142800 -0.006303 0.027207 0.305823 -0.152066 -0.132964 0.212611 -0.171037 -0.277108 -0.246748 0.015287 0.228426 0.104805 0.244571 0.333130 0.238855 -0.064272 
194 -0.340836 0.274457 -0.143028 -0.231222 0.369989 -0.082662 -0.318540 0.071902 -0.075224 -0.191689 0.034437 -0.140382 -0.253438 0.266846 0.402863 0.307331 -0.022478 0.037670 -0.144562 0.076896 
195 -0.008618 -0.257624 -0.159477 0.210355 0.347225 0.158364 0.166190 0.354338 -0.361815 0.269646 -0.095788 0.100441 -0.349779 0.066898 0.235412 0.077194 0.133770 -0.072318 0.341739 -0.118591 
196 -0.395224 0.087442 -0.067873 -0.186610 -0.143531 0.221612 0.031942 -0.153335 -0.051636 0.188785 -0.236175 0.199049 0.191744 -0.205481 -0.314516 0.438777 -0.064952 -0.299565 0.231590 -0.225268 
197 -0.122213 0.045225 0.151321 -0.081116 0.380038 -0.364185 -0.302093 -0.368336 -0.156723 -0.087701 0.048091 -0.066015 0.292866 -0.030476 -0.323028 -0.102529 0.378431 -0.124486 0.059454 -0.216392 
198 0.068628 0.045216 -0.395403 0.229634 0.357409 -0.298901 -0.252558 0.201523 -0.159256 -0.134056 -0.349398 -0.229980 -0.014277 -0.180190 0.088153 0.183635 0.163055 -0.146943 -0.215084 0.275285 
199 -0.247108 -0.230235 -0.006935 0.202870 0.112865 -0.161384 -0.129473 0.433614 0.198786 0.336599 -0.288398 -0.000197 -0.306726 -0.008249 -0.172631 -0.050955 -0.222023 0.235321 -0.339009 -0.137930 
200 0.413230 0.282785 0.091246 -0.226461 0.275049 0.058618 0.344362 0.224844 -0.201550 0.225381 -0.242475 -0.147728 -0.164036 0.116388 -0.357003 0.241301 -0.167475 0.065420 -0.075617 -0.072253 
201 0.053028 -0.217370 0.042657 -0.450341 -0.106197 -0.208814 0.372436 -0.118894 0.107658 -0.048090 -0.120719 -0.195059 0.308950 0.157298 0.128625 0.339441 0.067458 0.095925 0.405625 -0.202042 
202 -0.160109 0.448878 0.336759 0.148865 -0.344336 -0.022904 -0.310645 0.020330 -0.259934 -0.159751 0.167583 -0.097542 -0.011131 -0.081515 -0.384712 0.313860 -0.010236 -0.115868 -0.065547 -0.139680 
203 -0.330561 0.144048 -0.118299 -0.220447 0.247547 0.166275 -0.113497 0.008886 0.367054 0.280990 0.004798 -0.150535 -0.152047 0.034289 -0.300810 0.074736 -0.437163 -0.010467 0.340115 0.204616 
204 -0.123651 0.219465 0.293598 -0.312547 0.194753 -0.121787 0.117458 0.474931 0.144427 0.195376 -0.338525 0.283127 0.111429 0.192031 0.244708 0.207181 0.226004 0.023756 0.041829 0.035525 
205 -0.065439 0.195032 0.238712 -0.090288 0.130098 -0.263059 -0.077267 0.064680 -0.459868 -0.005054 -0.158451 -0.203150 -0.331322 0.158839 -0.067260 0.375824 -0.024802 -0.463486 0.123198 -0.083667 
206 0.293004 0.184980 0.131550 0.057695 -0.034889 0.129322 0.139906 -0.079104 0.063692 0.209347 -0.258717 0.337339 -0.391632 -0.189093 -0.231745 0.054077 0.318147 0.129510 0.373465 -0.289276 
207 -0.247213 -0.093812 -0.488005 -0.247766 -0.067885 0.107477 -0.101622 0.224069 0.272960 0.089940 -0.398003 -0.300624 -0.153204 0.086366 0.014060 0.251335 0.336585 0.031667 -0.097387 0.066354 
208 0.267045 -0.340784 0.207860 0.055745 0.266038 0.268363 -0.027574 -0.215951 -0.242256 0.257057 -0.179305 0.233256 -0.132504 -0.395354 -0.059206 0.090964 0.038443 -0.103824 0.313184 -0.262187 
209 0.347645 0.352603 -0.235832 -0.164103 0.252615 -0.072112 -0.287338 -0.226195 0.151792 -0.320417 0.089284 0.402513 -0.217547 -0.156224 0.132062 0.104406 0.099431 -0.227300 -0.011946 -0.109827 
210 -0.083459 0.327432 -0.234071 0.214500 0.106802 0.008064 -0.145057 -0.097300 0.070603 0.327869 -0.394391 0.066646 -0.175981 -0.384370 0.255529 0.307866 -0.002336 0.200909 -0.261375 0.151992 
211 -0.055506 -0.014414 -0.200006 0.104920 -0.021462 -0.169447 -0.084244 0.282906 -0.185115 -0.226624 0.200720 0.324515 -0.366623 0.118733 -0.010488 -0.256555 0.384119 0.277698 0.093820 0.387639 
212 0.060561 -0.015105 0.314064 0.184080 0.007137 -0.313847 0.210662 -0.232875 0.173814 -0.256592 0.106963 0.263006 -0.334906 -0.056842 0.161509 0.309964 0.260590 0.326664 -0.244999 -0.132518 
213 -0.046405 -0.034214 0.041303 -0.242714 0.126793 -0.140942 0.111611 0.563001 -0.161512 0.224660 0.101681 0.119687 0.099273 0.052246 0.105516 0.047461 0.402096 0.381709 -0.010536 -0.368788 
214 -0.158868 -0.158623 -0.262851 -0.071550 -0.130445 -0.078471 0.050325 -0.139420 0.345957 0.079299 0.342383 -0.181982 -0.237376 0.220454 -0.098868 0.263047 0.011040 0.424157 0.232930 0.368407 
215 0.287638 0.269979 0.072289 0.095360 0.147653 -0.109865 -0.141425 0.099460 -0.039741 0.136420 0.278161 -0.117370 0.269136 -0.470977 0.196588 0.411168 -0.079239 0.114944 -0.335516 0.144676 
216 -0.056927 0.433656 -0.480979 0.181952 -0.098614 -0.133975 0.024562 -0.059229 -0.366949 -0.028069 -0.275148 0.170916 -0.159371 0.103406 0.270462 -0.098179 -0.171787 -0.342019 0.070368 -0.042306 
217 0.030832 0.396983 -0.096671 -0.259844 0.276544 0.350249 -0.181561 0.086293 -0.146859 -0.198282 -0.343024 0.162933 0.239877 0.196464 0.278068 -0.031075 -0.108093 0.055400 0.127610 -0.338331 
218 0.225578 -0.009942 0.081916 0.133030 0.308350 -0.357557 0.116155 0.003725 0.144000 0.078263 -0.078574 0.370479 0.031957 -0.481756 -0.214548 0.186059 -0.057839 -0.198984 -0.375046 -0.143272 
219 -0.099312 0.020613 0.036690 0.289485 -0.110160 0.366343 -0.289671 -0.179025 -0.244615 0.189671 -0.200409 -0.216963 0.113463 0.048242 0.348911 0.287669 0.010756 -0.093267 0.375102 0.300009 
220 -0.255124 -0.345797 -0.067204 -0.224486 -0.292868 -0.120952 -0.229374 -0.078040 -0.128306 0.025050 0.268892 0.305260 -0.003399 0.310310 0.045056 -0.004538 0.259709 0.262904 -0.394571 -0.167743 
221 -0.003974 0.242013 0.338040 0.128884 -0.025577 -0.293524 0.143483 -0.233213 -0.282151 0.083848 0.230639 0.102997 0.228828 -0.200503 0.025576 -0.310103 0.331710 -0.279675 0.096796 0.333620 
222 -0.306653 0.378983 0.362843 -0.089783 0.221002 0.361286 -0.159669 0.183818 0.222688 -0.117723 -0.147439 -0.055225 0.209943 -0.168642 -0.097974 0.007910 -0.070484 0.161098 0.366512 0.219775 
223 0.356869 0.224394 -0.070622 -0.027720 0.065777 -0.291868 -0.123987 -0.138084 0.147193 0.170639 0.088989 0.331461 -0.242729 0.127274 -0.133980 0.588884 0.232489 0.164065 0.030442 -0.047608 
224 -0.013378 0.134971 0.080847 -0.062216 0.435232 -0.163645 -0.288164 -0.053880 0.102978 -0.183036 0.346817 0.232868 0.194646 -0.328528 -0.138586 0.418736 0.044219 -0.322597 0.023836 0.058959 
225 0.045287 -0.129866 0.112491 -0.462108 -0.159426 -0.011558 0.125625 -0.016262 -0.112415 -0.012273 0.150113 -0.584251 -0.100042 -0.374455 -0.345275 0.111756 0.010139 0.221269 -0.066225 0.035220 
226 0.246645 -0.161028 -0.234797 0.223494 0.013475 -0.304996 0.384334 0.102712 -0.315096 0.028378 -0.323434 0.093349 -0.140454 0.074938 -0.079802 0.254490 -0.218878 -0.353533 -0.116343 -0.245706 
227 0.132931 0.410711 0.169990 0.165868 -0.369592 -0.334242 -0.290304 -0.266092 0.327672 0.075496 -0.043298 0.019748 0.195819 -0.221151 -0.180255 0.101277 -0.026758 -0.038708 -0.308477 0.105510 
228 0.464586 -0.009646 0.358627 -0.339446 -0.146675 0.202798 -0.035776 -0.011344 -0.095726 -0.041348 -0.088418 -0.074556 -0.163116 -0.310681 -0.018605 0.143358 0.317204 0.296904 0.339205 -0.063822 
229 -0.186767 0.111681 -0.097259 -0.192311 0.304962 -0.167975 0.282163 -0.159215 0.092139 0.076898 0.073513 0.292379 0.326331 -0.155935 0.244703 0.524962 0.000599 0.170049 0.251472 -0.127672 
230 0.211552 0.223875 -0.011242 -0.381543 0.232359 0.005856 -0.193497 -0.020973 0.278772 0.132009 -0.310245 0.301940 0.216251 -0.018593 -0.148441 0.165736 -0.335876 0.249639 -0.239791 -0.236033 
231 -0.058398 0.221629 -0.286727 -0.033190 0.436399 0.107417 -0.340439 0.081009 -0.022274 -0.083992 0.092206 0.305590 0.281932 0.354618 0.143018 0.261442 -0.067435 -0.070018 -0.195872 -0.297343 
232 0.308265 -0.155564 0.505890 -0.211200 0.080101 -0.188994 0.320878 0.044780 0.119647 -0.075058 0.242718 -0.213260 0.145810 0.012250 0.265268 0.079003 -0.248230 -0.001069 -0.277153 0.268971 
233 -0.082230 0.354189 -0.127809 0.008033 -0.302187 0.168946 0.202405 0.310638 0.345866 -0.042590 0.138574 -0.028886 -0.360556 -0.220276 0.082898 0.329830 -0.093095 0.095551 -0.147614 -0.344705 
234 -0.078214 -0.095716 -0.384109 0.054749 0.416136 -0.139651 -0.176652 0.034890 -0.133548 -0.069486 0.260242 -0.376110 0.357852 -0.141199 -0.256366 0.199701 -0.147562 -0.199577 -0.122888 -0.216642 
235 0.055659 0.073118 -0.253368 0.134576 -0.227205 0.142587 -0.147343 0.569807 0.109212 0.372830 -0.379505 -0.096478 -0.087495 -0.115981 0.350395 -0.028408 0.109628 -0.012381 -0.123875 -0.120158 
236 0.183305 0.241359 -0.071113 0.154607 -0.317496 0.126898 0.463006 -0.116178 -0.263623 0.173054 0.146580 -0.294376 0.228482 -0.409025 0.112644 0.131893 0.020788 0.058099 0.129727 -0.237893 
237 0.098676 -0.197607 0.246650 0.072805 0.301290 0.082112 -0.174433 0.437000 -0.065779 0.365810 0.120373 -0.340699 -0.146449 0.210871 0.313409 0.193030 -0.025280 0.032936 0.271658 0.143292 
238 0.041051 -0.309459 -0.243576 -0.296701 -0.190684 -0.116298 -0.130752 -0.153221 0.225585 -0.235125 0.157054 0.338509 -0.131055 0.286265 0.003088 0.291467 -0.225929 -0.362909 -0.180895 0.140528 
239 0.259810 -0.331005 0.247708 -0.116180 0.272640 -0.333393 -0.229055 0.197157 0.304949 -0.084138 0.162309 0.217568 -0.230174 -0.287940 -0.130622 -0.029622 -0.182360 -0.148136 0.243140 0.171343 
240 -0.414051 0.084548 0.081988 0.079642 -0.050210 0.199130 0.168585 0.301585 0.328758 -0.024646 0.106777 -0.150180 -0.231895 -0.438860 -0.003559 0.209469 -0.086409 -0.435409 -0.120604 0.047952 
241 -0.111454 0.307280 0.127542 -0.460189 0.236680 -0.299881 -0.145134 -0.138725 0.027701 -0.272811 -0.116201 0.090762 0.133977 -0.277729 0.025956 -0.122198 -0.216674 -0.409352 0.202478 -0.125399 
242 0.023059 0.271623 0.205686 0.254342 0.376967 0.219266 0.185926 0.194673 0.302055 0.154003 0.046748 -0.064696 0.230297 -0.109348 0.319562 0.260909 0.071529 0.286055 0.083760 -0.324921 
243 -0.201268 0.324886 -0.191544 -0.242841 -0.416715 -0.251649 -0.052442 0.134361 0.013063 0.074064 -0.021338 -0.328399 -0.268448 0.468569 0.009993 0.197923 0.045151 -0.200856 -0.112889 0.022817 
244 -0.075072 -0.052216 0.420542 -0.019983 -0.067518 0.287393 -0.189838 0.058889 -0.292885 -0.209882 -0.043928 -0.250483 -0.181214 -0.365232 0.497276 0.211950 0.049228 0.028093 0.156785 -0.083577 
245 0.309109 0.244825 0.136080 -0.371375 -0.227344 0.338883 0.144663 0.196952 -0.197174 0.067473 0.315716 -0.260270 0.310487 0.023602 -0.018594 -0.066969 -0.209515 0.114786 -0.226932 0.201553 
246 -0.220538 0.353617 0.329325 0.237128 0.145059 0.033979 -0.330903 -0.147987 -0.286235 -0.351988 -0.107563 0.105353 0.280657 0.175781 0.025364 0.188191 0.357384 0.066923 -0.015293 0.037161 
247 0.271331 0.230066 0.176108 -0.085797 -0.055965 -0.257689 -0.003204 0.019288 -0.004658 0.042684 -0.037644 0.149778 -0.376931 0.013011 0.307214 0.462591 0.172581 -0.111994 0.153995 -0.472021 
248 0.249543 0.175896 -0.306840 -0.238932 0.188967 -0.108943 0.245498 -0.111363 0.218267 -0.212837 0.101680 -0.144332 0.068108 0.297842 -0.231387 0.068742 -0.204906 -0.425781 -0.131138 -0.345114 
249 -0.030921 -0.327030 0.266728 -0.183991 -0.377349 0.007467 0.004469 -0.179676 -0.310463 0.063157 -0.288249 -0.015658 0.151538 -0.220206 -0.257287 0.372114 -0.218607 -0.299408 0.122263 -0.011706 
250 0.222565 0.161281 0.300414 -0.375441 -0.096634 0.039189 -0.179948 -0.243670 0.408286 0.303489 0.008428 -0.011901 -0.256925 0.082595 0.044723 0.261037 -0.287966 0.152033 0.286714 0.019659 
251 -0.140402 -0.275913 0.246043 0.173510 -0.037291 -0.118469 0.023218 -0.385975 0.246817 -0.045754 -0.376127 0.056749 0.178921 0.207567 -0.219757 -0.104645 -0.244697 -0.207187 0.221409 0.393326 
252 0.111081 -0.009600 -0.159694 -0.295758 -0.181477 -0.241008 0.262949 0.462023 -0.144564 -0.259434 0.142825 -0.202450 0.322787 0.068169 -0.337558 0.031249 -0.121808 -0.208391 0.262228 -0.024293 
253 -0.376441 0.167632 -0.163425 -0.248980 -0.192462 0.360441 -0.231131 0.309120 -0.211354 -0.044749 0.185790 0.152308 -0.074321 0.118133 0.197266 0.120169 -0.232527 -0.317846 0.200631 0.230189 
254 -0.202973 0.331717 0.247338 -0.178447 0.031011 0.347688 -0.272876 -0.090045 -0.262771 -0.345568 -0.261030 -0.114081 -0.102234 -0.008543 0.187851 0.065798 -0.294416 0.020519 0.203985 0.320715 
255 -0.312364 0.303629 0.095707 -0.320803 0.084898 -0.212850 0.268378 0.158381 -0.030300 -0.388480 0.254772 0.280525 -0.045596 -0.001700 0.072743 -0.012124 0.249252 -0.291264 0.133132 -0.284422 
256 -0.335326 0.323287 0.004908 -0.228620 -0.284690 -0.001867 0.307365 0.046334 0.032537 -0.173034 0.311929 0.276243 -0.191830 0.319068 0.294632 0.170027 0.095995 -0.231419 -0.167162 -0.058619 
257 -0.119634 0.292264 0.169208 -0.185101 0.259464 0.326831 -0.171676 0.408494 -0.015993 -0.220406 0.177958 0.324643 -0.441650 -0.018929 -0.075729 -0.013080 0.078809 -0.169918 0.085560 -0.193071 
258 0.247590 0.170067 0.018148 -0.234903 0.006891 0.194055 0.261955 0.413035 0.119489 -0.251772 -0.094406 -0.061018 -0.153659 -0.220038 -0.202931 -0.253601 -0.175001 0.204327 -0.315245 0.371169 
259 -0.157269 0.372196 -0.128972 -0.538019 -0.081263 0.178123 0.247362 -0.147827 -0.016779 0.000706 0.167227 -0.318621 -0.198543 0.247019 0.095533 0.049928 -0.127675 -0.077639 -0.284236 0.253621 
260 0.181615 0.361317 0.343331 0.258972 0.354517 0.382581 -0.151440 -0.253466 0.284141 -0.065771 -0.042119 -0.237255 0.142044 -0.060129 -0.027160 0.090319 0.023889 0.259219 0.188644 -0.114584 
261 -0.171342 0.381698 0.165053 -0.169552 0.010210 0.278542 0.069668 -0.344406 0.106559 0.221682 -0.389478 0.046204 -0.320856 -0.058218 -0.320710 0.013842 0.183768 0.169136 0.285666 0.010291 
262 -0.312752 0.237416 0.099753 -0.214151 0.150772 0.186012 -0.033541 -0.149124 0.200923 0.179049 -0.192351 0.112283 0.296663 0.346494 -0.293192 0.313995 -0.275604 0.196444 0.270612 -0.082937 
263 -0.135264 -0.262540 -0.090660 -0.274954 -0.012323 0.061863 0.419153 0.133877 -0.127496 0.281813 -0.385361 -0.168924 -0.005471 -0.323774 -0.122403 -0.080846 -0.018154 0.334200 0.057208 -0.342029 
264 0.339242 0.032479 0.043135 -0.279049 0.323109 0.241912 -0.440376 0.235421 0.186978 0.091868 0.220709 -0.318695 0.028120 -0.135979 0.100967 0.014364 0.216912 0.311939 -0.008441 0.155136 
265 0.119780 0.344155 0.296392 -0.165914 -0.208326 -0.302541 0.131233 -0.047036 0.223433 0.357700 -0.133684 -0.187540 -0.259323 -0.280917 0.336875 -0.201448 0.182457 -0.065484 -0.018917 0.168492 
266 -0.162512 -0.349817 -0.021238 -0.164179 0.305981 -0.197634 -0.032153 0.222024 -0.342201 0.276574 -0.080840 -0.092234 -0.460920 -0.038765 -0.189552 0.092281 0.180620 -0.317323 0.108157 -0.169564 
267 -0.078066 0.381137 0.162309 -0.229081 0.287691 0.045971 -0.011245 -0.137231 0.156700 -0.295584 -0.046601 -0.199865 0.537971 -0.122355 0.073492 0.095004 0.138014 0.341568 0.038950 0.236417 
268 0.156887 0.037093 0.113828 -0.192484 0.081628 0.272908 0.396135 -0.098245 -0.039631 0.344767 0.266117 -0.387553 -0.209669 -0.269160 0.107236 -0.130970 -0.087851 0.240820 0.227636 0.268784 
269 0.127706 0.057170 -0.121571 -0.333331 0.161462 0.092676 -0.197610 -0.116125 -0.374529 -0.009839 -0.199277 0.235236 -0.421680 -0.268954 0.090822 0.079128 -0.146460 -0.366360 0.016214 -0.333663 
270 -0.083366 -0.005356 0.259141 -0.263201 0.220955 0.459126 -0.161743 -0.104045 0.243828 0.033725 -0.217433 0.029854 0.235082 -0.152381 -0.021827 -0.002308 0.036823 0.128462 -0.058824 -0.592408 
271 0.222636 0.235970 0.176070 -0.371743 0.047476 0.014724 -0.255068 0.340732 0.263021 -0.163727 -0.286026 0.023067 -0.166804 0.146339 -0.140788 -0.201784 0.038304 -0.426331 -0.117534 0.238293 
272 -0.135986 -0.253947 -0.208709 -0.004286 -0.276827 0.276574 -0.292977 0.471666 -0.029270 -0.214221 -0.308309 0.086660 -0.202688 0.001741 0.335538 0.135525 0.034615 0.226647 0.108857 0.161998 
273 0.111766 0.259653 0.408637 0.150627 -0.413356 0.168321 -0.150747 0.353234 0.337535 -0.038225 -0.252025 0.008112 -0.296865 0.157331 -0.077805 -0.022834 -0.161832 -0.224012 0.084680 0.041838 
274 -0.032889 0.221949 -0.028263 0.137670 -0.201879 0.397415 -0.211322 -0.264268 0.325687 0.188850 -0.097223 0.335297 0.041309 0.075056 0.351935 0.197401 -0.315885 0.118898 0.152615 -0.213843 
275 -0.128509 -0.214132 0.037047 0.250435 0.148833 -0.059037 0.055639 -0.232094 0.094917 0.253501 -0.229286 -0.172305 -0.074130 -0.421841 -0.118269 0.514724 0.100289 0.009811 -0.403531 0.006641 
276 -0.010473 0.410339 0.165796 0.040185 -0.148307 -0.234660 0.080730 0.350291 -0.274378 0.050123 -0.342036 0.059938 -0.140088 0.086145 -0.106672 0.140067 0.412940 0.365035 -0.176304 -0.069670 
277 0.405358 -0.086091 0.270309 0.206416 -0.008841 -0.004136 0.192835 0.371209 0.196324 -0.141083 0.110636 -0.225169 -0.170219 -0.017422 -0.146314 -0.201527 -0.375175 -0.065537 0.418091 0.070585 
278 -0.233994 -0.276043 0.190759 -0.154066 0.477196 -0.093924 0.228447 -0.264376 -0.004859 0.072637 -0.242488 -0.040177 -0.072688 -0.389010 0.206152 -0.085193 -0.063137 0.117049 0.377973 -0.132923 
279 0.167906 0.115151 0.307437 -0.282216 -0.169277 0.076664 0.154036 0.040173 0.394176 0.046034 0.159309 -0.137249 -0.151530 0.078738 -0.581435 0.272501 -0.187658 0.132651 -0.118879 -0.119889 
280 -0.021810 0.079611 0.270896 -0.143172 0.469193 -0.037877 -0.119586 -0.075989 0.225762 -0.277337 -0.164811 -0.063244 -0.045987 0.379082 -0.088320 0.374772 -0.258061 -0.350633 0.100335 -0.070196 
281 -0.256143 0.048654 -0.441726 -0.026498 0.076525 0.297978 0.307340 -0.133923 0.304621 0.241158 0.321928 0.247386 -0.103011 -0.187365 -0.260035 0.267178 -0.113735 0.025403 0.082166 0.091211 
282 0.260239 0.296659 0.114923 -0.151192 0.184843 -0.092516 0.125225 -0.228315 -0.230482 -0.238827 -0.348215 -0.234521 -0.229260 -0.100121 0.284764 0.404868 0.102025 0.291452 -0.039775 0.082009 
283 0.097372 0.166171 -0.334123 0.045819 -0.086975 0.077998 0.138701 0.202190 -0.460851 -0.370083 -0.195681 -0.078994 -0.103316 -0.132710 -0.162715 0.293286 0.348629 0.322296 0.052400 0.112168 
284 -0.180176 -0.339929 -0.233411 -0.108139 -0.180327 0.200131 0.007235 0.018785 -0.360664 0.122695 -0.129011 -0.254330 -0.342244 -0.015020 0.149096 0.252750 0.085133 -0.499741 -0.109124 0.118361 
285 0.126878 -0.014307 0.108081 -0.349544 0.025256 0.113063 -0.026221 0.205719 -0.274008 0.069474 -0.431623 -0.029701 0.104214 0.090747 0.303356 0.378445 -0.073971 -0.481123 -0.072986 0.172333 
286 0.134724 -0.073589 0.400531 -0.059580 0.288866 -0.376497 0.254796 -0.172441 0.107194 -0.284003 -0.184391 0.085656 0.078128 0.161531 -0.233392 -0.131047 -0.449807 0.122095 -0.137849 0.138011 
287 -0.042481 -0.175426 -0.223627 0.200854 0.089740 -0.054583 -0.179538 0.006427 0.188800 -0.102425 -0.261806 -0.463157 -0.362784 0.297269 0.484962 -0.094934 0.132378 0.064647 0.130296 0.041305 
288 -0.105473 -0.304393 0.369979 0.286075 -0.095203 0.092955 0.400539 0.286217 0.200329 -0.047556 0.055655 -0.354728 -0.064168 -0.238456 0.046027 0.171842 -0.278779 0.030348 0.168912 -0.215223 
289 -0.149253 0.001572 -0.273857 -0.206605 0.112719 -0.308957 0.101223 0.164084 -0.107278 0.023172 0.281215 0.364898 -0.257807 0.094588 -0.019776 0.358339 -0.349480 0.370820 0.162998 -0.002999 
290 -0.312168 -0.191918 0.129237 0.154443 -0.315330 -0.112496 0.316073 0.204722 0.070364 0.108397 -0.294242 0.104440 -0.004279 -0.331158 0.298035 0.191993 -0.329834 -0.152519 0.291078 -0.070186 
291 -0.073055 0.057619 0.266076 -0.221251 0.027007 -0.201149 0.013859 0.007225 -0.505093 0.023146 -0.361570 0.225154 0.140495 -0.015669 -0.214484 0.370738 0.071316 -0.112173 -0.256355 -0.325969 
292 -0.106259 0.015178 -0.212814 -0.164742 0.412818 0.055545 -0.059567 -0.432507 0.264211 -0.297780 -0.039641 -0.067429 -0.043225 -0.140292 -0.088051 0.407531 0.409860 0.067379 0.108887 0.087007 
293 -0.478048 -0.143118 -0.113431 -0.234856 -0.045541 0.254575 -0.078861 -0.259427 -0.345697 -0.332753 -0.038949 -0.294276 -0.220454 -0.027480 0.120671 -0.075720 0.004703 -0.233281 -0.316369 -0.005721 
294 0.004900 0.095379 -0.322573 -0.389500 0.118156 -0.221844 -0.001307 0.141634 0.061957 0.235819 -0.270881 -0.063846 -0.455355 -0.246413 0.218874 -0.099123 -0.181400 -0.224911 0.308747 0.101793 
295 -0.010019 0.017008 -0.150035 -0.343167 0.121308 -0.481974 0.176951 -0.105194 -0.385797 -0.073844 -0.111139 0.032671 -0.306246 -0.111532 0.326908 0.180751 0.198882 0.001493 0.121712 -0.319526 
296 0.316632 0.142332 0.128725 -0.285666 -0.280897 0.058490 -0.041402 -0.285675 0.308354 0.393086 -0.204079 -0.016376 -0.159004 0.426257 -0.048269 -0.086643 -0.052213 -0.063107 -0.160585 0.273563 
297 0.189134 0.097486 -0.037111 0.251762 -0.428445 0.286945 0.034418 -0.245052 0.177585 0.383567 0.285689 0.262797 0.053178 0.100031 0.024143 0.016663 -0.334919 -0.084969 0.302224 -0.095189 
298 0.239222 0.187406 0.284011 0.202829 0.315430 -0.217032 0.034822 -0.110999 0.351741 -0.005576 0.025015 0.125537 -0.041384 -0.121266 -0.393357 -0.016146 -0.303482 0.263386 0.054495 -0.386948 
299 0.373924 0.394012 0.100283 -0.126336 -0.202688 -0.173241 -0.137261 0.262479 0.230160 -0.286417 -0.113424 -0.293531 0.011019 -0.112121 -0.172199 0.145034 0.197656 -0.294310 0.295194 -0.099232 
300 0.009892 0.010724 -0.280987 0.136194 -0.307216 -0.279925 -0.226510 -0.219153 0.262029 0.227636 -0.222503 -0.118194 -0.173768 0.255010 0.302260 0.015957 0.397606 0.230464 -0.218666 0.019899 
301 0.263992 0.256121 -0.398700 -0.152118 0.211264 0.179399 -0.297044 -0.096203 -0.036939 0.421327 0.244785 0.159523 -0.223904 -0.158954 -0.044150 -0.111416 0.311053 0.068518 0.219243 -0.069099 
302 -0.454665 0.100846 -0.125367 0.325533 0.127071 0.063391 -0.031541 -0.181619 0.351011 0.387766 0.025178 0.122675 -0.233781 -0.074621 -0.003195 0.271032 0.159751 0.356477 0.142601 0.106765 
303 -0.068551 0.072250 0.133808 -0.097726 -0.171675 -0.179281 -0.018563 -0.204786 0.215110 0.149681 -0.320725 0.310533 -0.228829 -0.240765 -0.220641 0.181252 0.380679 0.266993 0.257710 -0.340994 
304 0.212413 0.298113 0.172350 -0.214526 0.213266 0.103113 0.002332 -0.169534 0.222277 0.356734 0.114294 -0.455301 -0.106608 0.288108 0.063367 -0.165249 -0.301640 0.041477 0.177389 -0.241919 
305 0.083127 0.542351 0.041857 0.179445 -0.045502 -0.051102 0.050571 0.294365 -0.206981 -0.065429 0.418940 -0.288085 0.093683 0.135261 -0.022121 0.294490 -0.187854 0.173101 -0.285762 -0.065407 
306 -0.292963 0.251665 -0.296978 0.110964 0.055884 -0.230332 -0.056597 0.203920 -0.127155 0.143025 0.095864 -0.045157 0.153697 0.346979 -0.321927 0.448565 -0.010436 0.118771 -0.221511 -0.298939 
307 0.425524 0.150230 -0.031244 0.141206 -0.182204 -0.035221 -0.129408 0.139121 0.113500 -0.285871 -0.398770 0.079908 -0.059780 -0.266405 -0.195622 -0.322423 -0.211346 -0.104923 0.245824 -0.334697 
308 -0.454439 0.237934 -0.277890 -0.120825 0.391673 -0.013684 -0.209468 -0.070733 0.137020 0.410508 0.063302 -0.271176 -0.121291 -0.092261 -0.198250 -0.034437 0.178473 0.278222 0.007157 -0.068680 
309 -0.066147 0.326751 0.400552 -0.157319 0.223381 0.174240 -0.335611 -0.031737 -0.022275 -0.297912 -0.044103 -0.214422 -0.380312 0.065207 -0.118896 -0.095996 -0.256552 -0.216362 0.029373 -0.294724 
310 -0.242920 0.135869 0.166218 -0.277303 -0.124729 -0.059075 -0.400242 0.025882 0.454208 -0.074062 0.307069 -0.002156 -0.328473 -0.123155 -0.225483 -0.271748 -0.207606 0.121038 0.045599 -0.156285 
311 0.213723 0.082757 0.385473 0.101059 -0.321316 -0.137682 0.245884 -0.017987 -0.192178 0.184366 0.338800 -0.337579 -0.076146 0.067802 -0.319098 0.033732 0.278877 0.196332 -0.064406 0.268693 
312 0.322309 0.049230 0.248051 0.212784 0.135783 0.053273 0.225454 -0.103113 0.046530 -0.405758 -0.326838 -0.255688 0.128374 -0.185081 0.281423 0.323562 -0.086245 -0.150818 -0.043352 -0.313778 
313 0.271517 0.400981 -0.250420 -0.074795 0.442235 0.324142 -0.400382 -0.030941 0.213757 -0.177312 0.204777 0.141987 -0.223436 -0.062550 -0.098354 -0.057927 -0.066838 0.031754 0.049470 0.145845 
314 0.309528 0.435750 0.070957 0.133624 -0.095489 -0.099758 -0.029559 0.301228 0.335009 -0.110186 0.186114 -0.223174 0.315271 0.258062 0.028371 -0.003041 0.018164 -0.243577 0.379956 -0.033071 
315 0.055607 -0.155309 -0.298009 0.035251 -0.148936 -0.382585 -0.040445 0.585596 -0.047969 0.326243 -0.224307 -0.050154 0.037413 0.048542 -0.128516 0.166787 0.186087 0.063285 0.180092 0.298163 
316 -0.430501 -0.018566 -0.046563 0.014195 -0.149897 -0.031286 -0.276966 -0.211941 -0.438650 -0.132759 -0.300966 0.274180 0.025475 -0.089797 -0.326406 0.165840 0.227081 -0.005625 0.218419 0.221412 
317 -0.060784 -0.035307 0.039210 -0.008684 -0.267218 -0.164559 0.221458 -0.100881 -0.482734 -0.214012 -0.302289 -0.102660 -0.279716 -0.353166 -0.119389 -0.087273 0.034527 -0.352928 0.290767 -0.140908 
318 0.092469 -0.052712 0.422039 -0.052735 -0.078470 -0.202541 0.052078 -0.023503 -0.209437 0.358077 -0.201995 -0.345709 -0.298994 0.376626 0.256211 -0.102981 0.104616 0.022191 -0.318938 0.065396 
319 0.147809 -0.332848 0.022949 -0.113880 0.132542 -0.400750 0.116418 0.250924 -0.173688 0.004098 0.009551 -0.429672 -0.050950 0.339013 -0.466372 0.010650 -0.075379 0.163199 -0.069420 0.109610 
320 -0.123120 -0.111062 0.115458 -0.201320 0.074591 0.064359 -0.242299 -0.145808 -0.155046 -0.093689 -0.001527 -0.251154 -0.230902 -0.010123 -0.296207 0.375830 0.008852 0.292365 0.409129 -0.444665 
321 0.302175 0.249465 0.216040 -0.454344 -0.117631 -0.001133 -0.176820 0.211078 0.103368 -0.272425 -0.302882 0.258471 -0.245974 -0.152952 -0.165999 0.108893 -0.069082 -0.038838 0.218124 -0.288243 
322 -0.151079 -0.086141 0.388467 -0.218293 0.212877 -0.257157 0.106399 0.226691 0.364860 -0.144577 0.219868 0.044598 -0.095008 0.318673 0.114180 -0.197313 -0.364432 0.247639 0.137171 -0.131088 
323 0.058070 -0.071093 -0.272219 -0.158215 0.325088 0.517434 -0.304711 0.250625 0.138865 -0.249952 0.188307 0.008987 -0.219532 -0.195150 0.204429 0.137899 -0.265365 -0.084822 0.136496 0.052223 
324 0.306477 0.017190 -0.128424 -0.064231 -0.203327 0.141082 0.046684 0.365850 0.469144 0.308482 0.251929 -0.158637 0.327761 -0.210742 0.281100 0.009080 0.070428 -0.024769 -0.101071 -0.193048 
325 0.197075 -0.017764 0.221147 -0.404777 -0.164114 0.166519 0.206764 -0.178066 -0.177042 -0.280046 0.349038 0.176998 -0.202163 -0.144157 -0.243355 0.317892 0.252258 0.010120 -0.175741 0.198746 
326 0.320181 0.429554 -0.064051 -0.162640 -0.097352 -0.035577 -0.298191 -0.040197 -0.321947 0.177995 0.067673 0.140221 -0.121872 0.030538 0.041213 0.308879 -0.164701 -0.138321 0.381721 0.341617 
327 -0.237441 -0.175042 0.324821 0.189052 -0.226146 -0.088747 0.098014 -0.227930 0.188357 0.177869 0.051890 0.081531 -0.022436 -0.023454 -0.016683 0.622215 0.363924 -0.130301 0.181681 0.061567 
328 0.321529 -0.235578 -0.360443 -0.213772 -0.023127 -0.349885 -0.303513 0.113056 -0.025933 -0.062604 0.138188 -0.030961 0.468627 -0.023038 -0.299463 -0.040261 0.079161 0.221167 -0.207481 0.057720 
329 0.305951 -0.136300 -0.162537 -0.306765 -0.250628 -0.046532 -0.114765 0.283182 -0.315095 0.240409 -0.238063 0.083136 0.000133 -0.383234 0.122044 0.054824 -0.304509 0.104796 -0.210590 -0.274696 
330 -0.020151 0.091144 -0.040179 0.052971 0.336294 -0.168143 0.064035 -0.045455 0.182465 -0.311375 0.352035 0.406577 0.032454 -0.240774 0.159996 -0.157274 -0.297205 0.212959 0.327574 0.263640 
331 -0.126199 0.500077 -0.043929 0.074751 0.282477 -0.191117 0.216093 -0.234087 -0.009464 -0.189519 -0.094432 -0.238302 -0.315995 -0.276509 0.241433 0.207473 0.319599 0.002052 0.162981 0.024490 
332 0.150433 0.232827 0.080635 -0.051865 0.081821 -0.211905 -0.258512 -0.381661 -0.083373 0.172136 0.213398 0.027467 -0.375950 -0.278285 0.183469 -0.172916 0.235744 0.383760 -0.236810 -0.160424 
333 -0.307370 -0.251345 0.218988 0.013477 0.324400 0.463525 -0.274049 0.126419 0.198835 -0.115562 -0.203598 0.061868 0.160675 -0.005655 -0.018791 -0.107439 0.133504 -0.468936 -0.054744 0.080004 
334 0.097443 0.227655 0.174013 -0.154847 0.066257 -0.301241 0.177556 -0.196178 0.204475 -0.210528 0.417356 0.185596 0.173304 0.285962 -0.009349 -0.341914 -0.307193 -0.140374 0.080752 -0.274067 
335 -0.166334 0.002020 0.011220 -0.423694 0.100154 0.288307 -0.023243 -0.207525 0.441532 -0.033958 0.001923 0.285067 -0.366279 0.112192 0.230553 0.206429 -0.200806 0.188479 -0.124838 -0.211211 
336 0.313985 0.179237 -0.057804 -0.167157 -0.069996 -0.060245 0.144156 -0.254888 0.014114 -0.018636 -0.365084 0.255783 -0.263607 0.163057 0.355597 0.346733 0.224108 -0.212797 -0.284525 -0.158929 
337 -0.286076 -0.382282 0.204478 0.106100 -0.105464 0.011053 -0.151735 0.211057 0.391713 -0.122396 0.148806 0.017805 -0.358019 0.185956 -0.222456 -0.167537 -0.372038 0.109421 0.025912 -0.240602 
338 0.451904 0.012424 0.296498 0.339591 0.067380 -0.113018 0.191197 -0.212572 -0.118170 0.198189 -0.243810 -0.216539 -0.039428 -0.233195 -0.098616 0.398057 0.212640 0.246087 -0.062135 0.004469 
339 -0.082716 0.088477 -0.075735 -0.082193 -0.074950 0.173045 0.198328 0.067516 0.508366 -0.020337 0.136885 0.102017 -0.246834 -0.068275 -0.276741 0.157425 0.476785 0.188560 -0.053321 -0.415585 
340 -0.100473 -0.062369 -0.498502 -0.569146 0.202179 -0.145282 -0.027288 -0.000960 0.122506 -0.136401 -0.324293 -0.066023 0.156079 0.103458 0.044894 0.130512 0.007950 -0.163883 0.241665 -0.261307 
341 -0.055766 0.141004 0.451559 -0.071865 0.176053 -0.253487 -0.107276 0.093707 -0.345186 0.032393 0.098176 -0.206469 0.083205 -0.406718 -0.078525 -0.192608 -0.177644 0.472885 -0.083389 0.046784 
342 -0.329683 -0.054709 -0.079984 0.361347 0.151318 0.238921 0.055206 0.072279 0.225889 0.230626 0.111037 -0.406474 0.221055 0.093268 -0.243295 0.129516 -0.238855 0.110999 0.101219 0.410099 
343 0.084164 0.351565 -0.223816 0.115865 -0.149670 -0.146111 -0.207747 0.197777 0.230906 -0.054537 -0.093497 0.475593 0.078286 -0.232522 -0.153142 0.208469 0.007537 0.269651 0.387663 -0.195949 
344 -0.019432 -0.276201 0.113402 -0.093601 0.190133 0.365426 0.051777 -0.214429 -0.112056 0.463273 0.191714 -0.142303 -0.354467 0.014882 -0.192520 -0.016482 0.027671 -0.396823 0.192306 0.201902 
345 -0.259037 -0.311595 -0.203908 0.035067 -0.041974 0.370980 0.013990 -0.017820 0.049672 -0.005218 0.335500 -0.188416 0.261684 0.104464 -0.025708 0.347964 0.127945 -0.253826 -0.269334 -0.384804 
346 -0.281810 -0.173735 0.043120 0.277118 0.202324 0.470151 -0.504572 0.011046 -0.299811 -0.018109 0.030302 0.221980 -0.023380 -0.155320 0.155540 0.234186 -0.223048 0.024644 0.019290 -0.014442 
347 0.086909 0.355023 0.291252 -0.148869 -0.060072 0.047312 0.140096 0.342662 0.111106 -0.324540 -0.170528 -0.239649 0.250284 -0.282680 -0.039473 0.294212 -0.185353 -0.296117 0.078135 0.231361 
348 0.043186 0.100456 -0.083568 0.017097 0.029625 0.085674 0.180228 0.198001 -0.222516 0.002644 -0.083935 0.160417 0.355952 -0.417000 0.078086 -0.190360 0.297503 -0.028631 0.128397 -0.608133 
349 -0.337531 0.061669 -0.424425 -0.096631 0.324803 0.067836 -0.139210 -0.146855 -0.395983 0.078859 0.017595 0.192721 -0.281464 -0.213507 -0.018308 0.070956 -0.320727 -0.157235 -0.271907 -0.097878 
350 0.286755 0.255443 -0.298032 -0.147916 -0.345131 -0.383441 0.043716 0.294066 0.179782 0.294837 -0.242682 -0.072627 -0.262589 -0.260763 -0.071663 -0.072856 0.030682 -0.139766 0.126117 0.141758 
351 0.228105 0.064781 0.198884 0.069706 -0.279601 -0.287221 -0.077213 -0.025594 0.267644 0.264188 -0.036383 -0.433409 0.169934 0.312403 0.226968 0.154391 -0.100312 -0.207251 0.134770 -0.358428 
352 0.076652 -0.179763 -0.451695 -0.191666 0.145892 0.260910 -0.134232 -0.009159 0.102674 0.121285 0.134128 0.053654 0.151918 -0.242338 0.298927 -0.370339 0.138892 -0.302230 0.212305 0.321623 
353 0.205921 0.112080 -0.257356 -0.163076 0.149968 0.266942 0.219261 -0.236581 0.180726 0.141142 -0.219465 0.252882 -0.416603 -0.123441 -0.069948 0.165303 0.211935 -0.327736 0.334852 0.065198 
354 0.273428 0.406234 -0.308446 0.208486 -0.114874 0.307207 -0.092123 0.150243 0.016267 0.309628 0.033308 -0.118817 0.102089 0.177347 -0.044424 0.455903 0.269800 -0.063134 -0.041330 0.203547 
355 -0.389863 -0.055986 0.258014 -0.032706 -0.315672 0.000087 0.226858 0.333222 -0.088960 -0.180924 0.300971 -0.335259 0.223606 0.213273 -0.151943 -0.011383 0.071557 -0.203816 -0.096739 0.311015 
356 -0.113535 -0.055662 0.349336 0.210258 -0.015480 0.284449 -0.106164 0.247006 -0.055905 0.149895 0.250127 -0.338264 0.085713 0.041361 0.191817 0.398932 0.477143 -0.160451 -0.041523 -0.040260 
357 0.253270 -0.153256 -0.183899 -0.369673 0.451946 0.390763 0.170605 -0.206068 -0.053141 -0.130535 -0.166042 -0.339386 -0.218541 -0.178950 0.092394 -0.105948 -0.002151 0.165777 0.075856 0.134040 
358 -0.144468 0.361037 0.146908 -0.027610 -0.207616 0.240597 -0.302181 -0.314573 0.373728 -0.319384 0.137028 0.036675 -0.067855 -0.342578 -0.064312 0.014081 -0.210007 -0.114774 0.261168 -0.146944 
359 0.088114 0.074829 0.129651 0.080256 -0.103311 -0.149587 -0.165855 0.384857 0.126562 0.038218 -0.075043 -0.191052 -0.045626 -0.600856 -0.162331 0.035152 0.179428 0.163134 -0.439559 0.228882 
360 0.505740 -0.037605 0.168280 -0.464992 0.151657 0.307453 -0.311985 -0.102120 -0.042813 0.221908 0.229495 0.121322 0.144084 0.025751 0.031985 0.234687 -0.114771 -0.100253 -0.013204 0.231523 
361 0.178433 -0.201277 0.120583 -0.426039 0.417608 0.293425 -0.307415 0.054004 -0.147806 -0.154693 -0.023865 0.078002 -0.345557 0.123787 0.177889 0.143550 0.018975 -0.012614 -0.081600 -0.356501 
362 0.242361 -0.261462 0.376999 -0.157239 0.352238 -0.202790 0.180141 0.265305 0.092601 -0.318862 -0.458218 -0.046592 0.223606 -0.083549 0.202384 0.027330 0.008287 0.116781 0.056866 -0.002043 
363 -0.286628 -0.235412 0.382672 -0.198210 -0.155511 0.381921 0.278812 0.203343 -0.047559 0.051188 -0.278484 -0.146064 -0.170105 -0.347279 0.052873 0.218124 -0.162935 0.039185 0.171998 -0.161925 
364 0.388382 0.163571 -0.214245 0.266236 -0.283833 0.288352 0.022698 0.045623 0.317241 0.338861 0.096757 0.096071 0.087819 -0.038748 0.277892 0.010487 -0.070473 0.074764 -0.296507 0.346753 
365 -0.051583 0.088744 0.007351 0.168162 0.283888 -0.332784 -0.210316 0.273813 -0.068255 0.153999 -0.180541 -0.292886 -0.206286 0.353564 -0.429832 0.283571 0.047094 0.077733 -0.020654 -0.249839 
366 0.037011 -0.181616 -0.116049 -0.002801 0.207433 0.131744 -0.613946 -0.233827 0.170856 0.135008 -0.105377 -0.046528 -0.322834 0.029673 0.155794 0.168873 -0.001039 0.135691 0.472421 0.002545 
367 0.278988 0.303984 -0.119799 -0.132203 -0.031465 -0.317039 -0.077030 -0.216478 0.325416 0.001581 -0.196703 -0.193153 0.351680 -0.049147 0.105690 0.375650 -0.241095 0.025539 0.349377 -0.050104 
368 -0.210977 -0.087509 0.151536 0.003909 -0.396802 -0.074601 -0.268939 0.250477 -0.344174 -0.128502 -0.023687 0.085056 -0.213246 0.142120 0.194556 0.437594 0.162220 -0.318989 -0.159680 0.188214 
369 -0.114787 -0.267104 0.117623 0.039501 0.096424 -0.105699 -0.059906 0.142718 0.048894 0.029928 -0.146300 -0.473533 0.013646 0.182164 -0.252278 0.334105 0.470368 0.191128 -0.288117 -0.239386 
370 0.349924 0.223632 0.059452 0.332750 0.381309 0.043605 -0.139156 0.387309 -0.072227 0.214008 0.117714 -0.011715 0.020185 -0.105453 0.126811 -0.127241 0.032711 0.501030 0.182946 0.047270 
371 0.170594 -0.116814 -0.154404 0.175461 -0.395320 0.149767 0.043869 -0.061809 -0.514722 -0.303907 0.043084 0.206324 -0.137355 0.173515 -0.075882 0.308770 -0.049496 -0.221234 0.338724 0.015828 
372 0.259275 0.013999 0.483107 0.096154 0.054465 0.140132 0.474226 -0.224544 0.024109 -0.133992 0.267444 0.106107 -0.128274 -0.107097 0.351937 -0.034703 0.096790 -0.000909 -0.148104 -0.326216 
373 -0.170835 -0.182346 0.170834 -0.357732 -0.164840 0.127329 -0.027907 -0.167303 0.262845 -0.004106 -0.174093 -0.210779 -0.002223 0.215316 -0.186155 -0.321887 -0.289766 0.299925 0.373133 -0.258140 
374 0.109630 0.263701 -0.015270 0.113126 0.256929 0.157455 0.299129 0.259954 -0.264286 -0.342231 0.002533 -0.105841 -0.173474 -0.020275 0.275001 -0.165367 -0.448165 -0.076791 -0.184813 0.291537 
375 0.042310 0.093242 -0.220483 0.347707 0.407743 0.224802 0.128710 -0.124308 0.198537 0.104772 0.028051 0.242960 0.274952 -0.330903 -0.285765 -0.119323 -0.269070 0.288191 0.102912 0.118090 
376 0.137124 -0.141526 0.078083 0.166403 0.058867 0.348929 -0.396090 -0.080907 -0.293934 0.233248 -0.127165 -0.006967 0.000637 0.094811 0.106149 0.472827 0.223722 0.332160 0.000783 -0.278397 
377 0.196534 0.051352 -0.034729 0.202696 0.158892 0.277455 0.326821 0.006488 -0.236948 0.273459 0.350719 0.242166 -0.009813 -0.001886 -0.036396 0.446484 0.264551 0.008998 0.312516 -0.162122 
378 -0.404096 -0.104125 -0.071112 -0.225360 -0.126183 -0.216456 0.081289 -0.161263 0.038264 0.347940 0.015129 0.228860 -0.112898 0.233864 -0.257758 0.312268 0.316017 0.193442 -0.262309 -0.249034 
379 0.135763 0.074809 0.135316 -0.066669 -0.204593 0.299275 -0.191917 0.314437 -0.248932 0.323638 -0.313242 0.056079 -0.278015 0.006804 0.379457 -0.018757 -0.322563 0.181647 -0.110739 -0.217096 
380 -0.166808 -0.000159 -0.081031 0.005806 -0.109893 -0.310117 -0.014257 -0.078438 0.301787 0.014603 0.246807 0.302719 -0.308632 0.431201 -0.327898 -0.158568 -0.216496 0.193947 -0.208006 -0.255985 
381 0.013166 -0.119478 -0.090394 0.036223 -0.261257 0.084228 0.177331 0.270339 -0.355415 0.045132 -0.199706 -0.395882 -0.285238 0.385645 0.243628 0.180703 -0.283221 -0.194386 -0.107840 -0.139668 
382 -0.246706 0.326769 -0.299335 -0.408920 0.267839 -0.179912 -0.220990 -0.049577 -0.224965 0.093055 0.341485 0.097254 -0.292577 -0.209570 0.254070 -0.136541 -0.011899 -0.053884 -0.056953 0.125686 
383 -0.068763 0.218207 -0.270613 -0.162931 -0.310779 -0.147635 0.155711 -0.267832 -0.075688 -0.213336 0.165062 0.106972 -0.339701 -0.293029 0.380660 0.263788 -0.276866 0.020827 0.180431 0.134895 
384 -0.267066 -0.071334 -0.164567 -0.541497 0.065935 -0.193267 -0.195479 -0.042740 -0.000535 0.101181 -0.047281 0.286255 -0.404547 -0.025493 -0.047037 0.425129 -0.124659 -0.156757 0.063155 0.189146 
385 -0.165122 0.419307 -0.131565 0.149909 0.231743 -0.229931 -0.109957 -0.002655 0.003759 0.135099 0.179211 -0.057117 -0.041309 0.048145 0.361796 -0.169714 -0.100110 0.333953 0.266990 -0.477770 
386 0.517779 -0.084673 -0.196601 -0.213962 -0.245871 -0.024726 -0.487451 0.043711 -0.200322 -0.309091 -0.054960 0.082352 0.080423 0.039859 0.172476 -0.089655 0.311540 0.174800 -0.140291 0.033402 
387 -0.095967 -0.118502 -0.234450 0.021933 0.053407 -0.269160 0.056399 -0.309727 0.411726 -0.285562 -0.213645 0.283108 -0.298229 0.126449 -0.027899 -0.191651 -0.133880 -0.159805 0.026744 -0.428271 
388 -0.035078 0.425852 -0.351563 -0.371829 0.029725 0.242904 0.351518 -0.073792 -0.232371 0.105453 0.163989 0.284433 -0.100891 -0.032782 0.161807 -0.031741 0.236458 -0.057375 0.082845 -0.298745 
389 0.178294 0.000376 0.282678 -0.293632 0.332112 0.067388 0.067603 -0.203578 0.074382 0.088769 0.190786 0.207941 0.061806 -0.137785 -0.014363 0.250801 -0.384703 -0.450317 0.130124 0.307494 
390 0.260754 -0.277546 -0.261072 -0.049160 0.312382 -0.424751 -0.292620 0.110439 0.197398 -0.265277 0.265176 -0.085899 0.132098 0.140691 -0.218874 0.259567 -0.217344 -0.044898 0.132377 0.047376 
391 0.397537 0.310982 -0.275721 -0.064770 0.216594 0.205728 -0.328153 0.191674 -0.224314 -0.299445 0.232789 0.147454 -0.123567 -0.190792 0.105846 0.010028 0.267343 -0.233137 -0.064834 0.149852 
392 0.327307 0.416638 0.303420 0.123000 -0.036688 -0.139453 -0.216285 0.145318 -0.038353 -0.198530 -0.072175 -0.041831 -0.023133 -0.212311 -0.136056 0.354948 -0.332666 0.280511 -0.059276 -0.304268 
393 0.189016 0.194165 -0.147356 -0.006081 0.271180 -0.023090 0.160127 -0.283816 0.023672 -0.325590 -0.237573 -0.432626 -0.128137 0.155763 0.131914 0.306366 -0.127699 -0.445857 0.031885 0.079545 
394 -0.051447 0.132373 -0.278124 -0.281092 0.231946 0.264597 0.264658 -0.277203 0.035733 0.180665 -0.253727 0.258806 -0.189458 -0.050444 0.383270 0.395691 0.070506 -0.118421 0.140426 0.082911 
395 0.225250 -0.106041 0.247032 0.000838 0.284136 0.133235 0.199571 -0.079450 -0.164155 0.297092 0.072334 0.093110 -0.282462 -0.398849 -0.028862 0.466082 -0.144661 0.118053 -0.300955 0.144520 
396 0.495605 0.085409 0.086022 0.035270 0.082605 0.295850 0.124933 0.445356 -0.153075 -0.277286 -0.287439 0.131213 0.239239 0.077532 0.155488 0.091576 -0.244878 -0.227165 0.144481 -0.041548 
397 -0.067635 -0.285807 -0.095994 0.249652 0.356742 -0.208236 0.301691 -0.178703 0.215030 -0.215791 0.208947 -0.366818 0.024571 -0.257516 0.198592 0.180039 -0.106875 -0.206826 -0.278580 -0.083812 
398 -0.195445 0.184001 0.225520 0.307889 0.295267 -0.187431 -0.275164 0.322777 0.209439 -0.329390 0.204832 -0.034963 0.169048 -0.262732 0.027530 -0.145638 0.255485 0.064531 -0.114879 -0.286928 
399 -0.147553 0.149254 -0.226554 0.049384 -0.261326 0.054117 -0.081032 -0.110912 0.387791 -0.303059 -0.534987 0.130939 0.341996 0.217219 -0.028816 0.110387 0.295907 0.009422 -0.033608 -0.023992 
400 -0.154068 0.300863 0.214430 0.416459 0.037011 -0.252245 -0.054724 0.077637 0.091103 0.238454 0.320014 0.013539 -0.195024 0.201145 -0.396208 -0.213071 -0.070352 -0.063232 -0.117418 -0.347774 
401 0.030103 -0.243155 0.182878 0.004015 0.177826 -0.306851 0.014845 -0.068675 -0.084842 -0.007796 -0.444110 -0.324688 -0.295745 -0.025215 -0.166054 -0.287102 0.310659 0.298992 0.145590 -0.246321 
402 -0.090892 0.095756 -0.078307 0.371071 0.294915 0.211691 -0.050751 -0.291147 0.074836 0.323390 -0.356780 -0.157493 -0.228514 -0.105516 0.160893 0.096670 0.238536 -0.298105 -0.295332 -0.160516 
403 -0.024207 0.028419 -0.013102 0.003954 0.222619 0.331997 -0.463326 -0.210388 -0.186299 0.116808 -0.021789 -0.346620 0.023503 0.110251 -0.237067 0.483879 0.194091 -0.114160 0.224478 0.081187 
404 -0.353791 0.284700 0.136212 -0.035613 -0.096793 -0.011497 -0.165198 -0.096501 0.259728 0.091079 -0.064266 -0.219766 0.162652 -0.355626 -0.471813 -0.101176 -0.119779 -0.332618 0.269513 -0.127599 
405 -0.000861 0.204279 0.413660 0.093686 -0.035996 -0.431342 0.048550 0.226427 0.134388 -0.287104 -0.144336 -0.329280 0.461630 -0.000469 0.087716 -0.103307 -0.162382 0.099610 0.019510 0.198779 
406 0.278833 -0.031159 -0.246836 -0.541306 -0.070555 0.148551 0.117049 0.296453 0.266137 -0.339520 0.050803 -0.018481 0.062855 -0.099123 -0.081233 -0.080140 0.241457 -0.394340 0.092841 0.021516 
407 0.151172 0.047921 -0.086083 -0.314723 0.234665 0.268620 0.045857 -0.220936 -0.310458 0.144858 -0.073922 0.163839 -0.410302 0.221817 0.202784 -0.079082 0.048683 0.252171 0.061569 -0.453758 
408 -0.105211 0.376983 0.017401 -0.226863 -0.103012 -0.250321 0.014618 -0.123711 0.284491 0.316995 -0.254046 -0.034673 0.136184 0.058547 0.239456 0.103843 0.228684 0.472704 0.067869 0.297732 
409 -0.288779 0.082570 0.221305 0.152232 -0.121979 -0.310887 -0.193235 0.309296 -0.272784 -0.232540 0.310162 0.037965 -0.322915 0.304293 0.147728 0.086430 -0.258069 0.227608 0.149024 -0.014229 
410 -0.269325 0.001954 -0.093922 -0.128676 0.069697 0.286998 -0.142256 -0.420996 0.287808 -0.401058 -0.186968 0.066017 -0.305562 -0.107461 0.090882 -0.151731 0.076747 -0.411975 0.149317 0.016658 
411 0.164047 -0.307725 0.375596 -0.156842 -0.036878 -0.267636 0.052515 0.264204 0.184842 0.011263 -0.055979 -0.228466 -0.180543 0.145220 -0.314238 0.237976 0.210234 0.157552 -0.243088 -0.374663 
412 0.382377 0.284966 -0.198470 -0.028011 -0.145921 0.321512 -0.407609 0.268739 0.224812 0.297325 0.119619 0.095411 0.006392 0.069206 0.005437 0.061807 0.007089 0.211463 0.353850 -0.168427 
413 0.029370 -0.108330 0.080859 0.309558 0.177519 -0.167450 -0.234629 0.066003 0.362552 0.115219 -0.224131 -0.133457 -0.195483 0.191930 -0.366470 0.448836 0.122206 -0.079736 -0.297512 -0.180837 
414 -0.218271 0.115804 -0.430910 -0.385651 -0.244099 -0.072795 0.221863 0.294369 0.042153 0.065924 -0.001450 -0.006589 -0.377586 -0.275003 -0.005712 -0.111610 -0.161631 -0.121266 -0.252129 0.250045 
415 -0.205453 0.229950 0.125278 0.322153 -0.270618 -0.263401 -0.174634 0.211313 0.248626 -0.084234 0.066404 -0.086103 0.264054 -0.402144 -0.104025 0.186348 0.434388 0.142135 -0.026934 0.018047 
416 0.137938 -0.113003 -0.272024 0.072426 0.148857 0.057143 0.235644 0.110789 -0.000224 -0.447171 0.067246 -0.486740 0.185429 -0.114491 0.195955 -0.002158 0.131369 -0.182444 -0.464482 -0.046407 
417 -0.043599 -0.069990 0.418587 -0.314041 -0.171066 -0.017984 0.105499 0.279627 0.446023 0.318401 0.327835 -0.121171 -0.095707 -0.080746 -0.195479 -0.094037 0.160888 -0.266131 0.130078 -0.040194 
418 -0.126159 0.341331 0.024971 0.134408 0.240258 -0.051400 -0.368288 0.352218 0.131695 0.190612 -0.256707 0.198787 -0.106514 -0.180456 0.128795 -0.158147 0.174054 0.035756 -0.090125 -0.494503 
419 0.167060 0.435113 0.233029 0.316987 -0.016592 0.130611 -0.271074 -0.043033 0.096871 -0.284816 -0.046768 0.150131 0.344304 -0.217004 0.256728 0.247236 -0.144978 -0.247202 0.112011 -0.180944 
420 -0.088598 0.174139 -0.146052 -0.052175 -0.193125 0.296684 0.330299 0.172203 -0.002114 -0.133833 0.410455 0.357836 0.118473 0.235646 -0.338792 -0.035213 0.357879 -0.013977 -0.213086 0.001831 
421 0.096455 0.074527 -0.135517 -0.368053 0.115293 0.209810 -0.371566 -0.246874 0.258684 0.048220 0.267254 -0.388523 0.030824 -0.098459 0.229202 0.129515 0.002071 -0.033558 0.344310 -0.289387 
422 -0.121710 -0.112131 0.000081 0.151366 0.413707 -0.102771 -0.219731 -0.081877 -0.186617 -0.010072 0.183653 -0.307114 0.256021 0.241466 -0.421341 0.422909 -0.031380 0.164805 0.143842 -0.144767 
423 -0.027459 0.031369 0.053998 -0.152876 -0.211814 0.372639 0.343258 0.292623 -0.138031 -0.072197 -0.226701 0.214379 0.268963 -0.183548 -0.256548 -0.117643 0.360200 0.360688 0.072881 0.111087 
424 0.227256 -0.247951 -0.130914 0.184288 0.140618 -0.175769 -0.169963 -0.311591 -0.261271 0.049107 0.416731 0.251115 -0.211148 0.122190 -0.332564 0.327766 0.126604 0.072626 -0.057525 -0.222657 
425 -0.117213 0.109385 0.044838 -0.056564 0.024863 0.308207 0.044730 0.219281 -0.169250 -0.078898 0.141751 -0.250436 0.127920 -0.326928 -0.450059 -0.106025 0.341604 -0.358082 0.351105 0.021898 
426 -0.326622 -0.093301 0.204812 0.505754 0.089401 0.441490 0.228068 0.075973 -0.048410 0.062006 0.226797 0.327915 -0.040909 -0.032412 0.003678 0.070884 0.170759 -0.309705 0.154016 0.066881 
427 -0.195699 -0.122749 -0.039230 -0.180574 -0.250925 0.052348 -0.064114 0.167155 -0.249980 0.061311 -0.185473 -0.138638 0.404391 0.422569 -0.449165 -0.049120 -0.091873 0.297929 -0.215022 -0.071887 
428 -0.212306 0.213324 -0.038901 -0.229575 -0.146942 -0.066449 0.188458 0.195598 0.393637 -0.384832 0.005413 -0.078352 -0.072161 -0.252126 0.097938 -0.011947 0.311010 -0.472017 0.218891 0.015917 
429 0.085559 0.066718 -0.192164 -0.412622 0.413656 -0.125612 0.243557 0.038744 -0.171286 0.069932 0.081879 0.034478 0.337114 -0.010341 0.192780 0.123342 -0.390861 0.183282 -0.256879 0.269686 
430 0.285083 0.405551 0.032451 -0.048168 0.283891 0.175764 0.075344 0.258458 0.219030 -0.036838 -0.336114 -0.018630 0.339971 0.232241 0.066061 -0.019769 -0.424405 -0.010594 -0.211756 0.070169 
431 -0.198980 -0.124341 0.438409 -0.030119 0.151262 -0.329015 -0.075739 -0.158876 0.380625 0.382753 0.160804 -0.164240 0.200620 -0.064639 -0.153357 -0.207544 -0.164114 -0.147907 0.275301 0.099493 
432 0.100736 0.134342 -0.004630 0.284292 -0.080709 -0.402662 0.101417 -0.155519 -0.204071 -0.165414 -0.111955 -0.356606 -0.414735 0.033063 -0.348721 0.257024 0.114571 0.065472 0.316013 0.032969 
433 0.307308 -0.319775 0.011903 -0.294289 0.351435 0.257226 0.074115 -0.153779 0.202619 0.090884 0.261751 0.240906 -0.017842 -0.118298 0.302567 0.109802 0.207870 -0.278296 -0.198713 -0.209333 
434 -0.252238 0.019524 0.436088 0.118121 -0.255984 0.342013 0.233696 0.078183 0.142481 0.208371 0.261415 0.094457 0.266291 0.241649 0.260902 -0.075966 -0.229234 -0.267169 -0.072062 0.124084 
435 -0.062099 0.363362 0.063513 -0.146539 0.018729 0.161429 -0.116872 0.253133 0.058424 0.272033 0.095038 -0.113969 -0.242661 0.356811 -0.305043 -0.073787 -0.044850 -0.540916 -0.222534 -0.078774 
436 0.139492 0.294691 -0.254992 0.024189 -0.407926 0.128425 0.144004 -0.020877 0.122541 -0.228247 0.355880 0.018628 0.303381 0.177815 -0.105766 -0.164666 0.131433 -0.044451 -0.388446 -0.312750 
437 0.410165 0.161642 -0.339775 -0.356252 0.206159 0.003855 0.188154 -0.135140 -0.175923 0.261437 0.323012 -0.166977 0.170802 0.250986 0.084120 -0.037875 -0.312651 -0.142993 -0.117114 -0.054637 
438 0.234874 0.278266 0.310075 0.063424 0.037643 0.033819 0.254458 -0.330626 0.216674 0.248111 -0.092025 0.090337 0.041054 0.398544 -0.093693 0.395239 -0.123140 0.054771 -0.295900 -0.185036 
439 0.037937 0.109055 -0.040165 -0.100561 0.197271 -0.040823 -0.267575 0.242999 -0.061802 0.069225 -0.098991 -0.063980 -0.234382 0.102017 -0.034332 -0.325987 -0.248141 -0.461437 -0.575790 -0.048884 
440 0.226322 0.340176 -0.083042 -0.157369 0.080599 -0.205691 -0.279136 -0.193128 0.207611 0.057014 0.205203 -0.283372 0.139872 -0.409944 -0.114492 -0.073970 0.295127 0.315897 -0.198161 -0.190421 
441 -0.003795 0.102066 0.346420 -0.070585 0.052998 -0.171460 0.283546 0.262483 -0.494888 0.069765 -0.185164 -0.205970 -0.325668 -0.329135 0.229283 0.158829 0.042228 0.121403 0.218765 0.004265 
442 -0.171822 0.194164 -0.018110 -0.043032 -0.235796 -0.105647 0.140236 0.444312 -0.206781 -0.127567 -0.454466 -0.130515 0.256098 0.182196 -0.361060 0.311434 -0.055926 -0.151750 -0.086444 0.066237 
443 0.351875 0.341147 -0.138745 -0.201821 -0.252537 0.116881 0.115850 0.192275 -0.424944 -0.152896 0.011278 0.003977 0.200443 -0.160390 -0.201304 0.065208 -0.128630 -0.163337 0.285932 -0.363643 
444 0.029495 -0.019006 -0.334235 0.054941 -0.181006 0.175442 0.266309 -0.187122 0.263740 0.006116 -0.018060 -0.013672 0.065657 0.098315 -0.394131 0.228013 0.238817 -0.584150 0.155636 0.025619 
445 0.300778 0.289210 0.295797 0.003661 -0.035547 0.031690 0.116097 -0.227078 0.361738 -0.253489 0.010664 0.091584 0.466857 0.105061 -0.170161 -0.097502 0.158751 -0.203453 -0.299218 0.209469 
446 -0.096337 -0.149627 -0.112051 0.064877 0.227430 -0.126000 -0.261758 -0.246676 -0.302664 -0.293527 -0.076123 0.275484 0.271054 -0.078135 -0.451928 0.266590 -0.070766 -0.294330 0.210946 0.064259 
447 -0.063955 -0.119816 0.257842 0.002380 0.012341 -0.166370 0.196734 -0.015869 -0.102425 0.161830 0.148887 -0.155593 -0.365208 -0.088527 0.062655 0.416901 0.494070 -0.317145 -0.021713 -0.317991 
448 0.017266 0.139927 -0.154201 -0.239359 -0.284424 0.228614 -0.034436 0.129790 0.044271 -0.293259 -0.153221 -0.252064 0.171703 0.323630 0.062614 0.218170 0.486236 0.237466 0.306866 -0.012868 
449 0.348115 0.477135 -0.221006 -0.299460 0.209813 0.023281 0.056731 -0.107755 0.093828 -0.006882 -0.380120 -0.186908 -0.226534 -0.039415 0.200836 0.147428 -0.110178 0.170603 0.048843 -0.326186 
450 0.131724 -0.335238 -0.038941 -0.297327 0.074194 0.299759 0.265769 0.355805 0.014861 -0.191317 -0.122690 0.278279 0.159012 0.249669 -0.248586 0.209558 0.096154 0.256657 0.286600 0.088609 
451 -0.365333 0.303225 -0.157028 -0.138007 -0.011290 0.116630 0.003992 -0.254760 -0.073983 0.484484 0.145775 0.146390 0.064579 0.180545 0.111622 0.347398 -0.261277 -0.226286 0.281289 -0.029139 
452 -0.366496 -0.087907 -0.164353 0.151169 -0.254245 0.211428 0.261101 -0.238121 0.193417 -0.126309 -0.293032 -0.121341 -0.013734 0.125543 0.320996 0.189799 -0.114047 0.208374 -0.249333 0.382507 
453 0.034844 0.074123 0.462012 -0.231809 -0.179432 0.026342 0.121071 -0.208337 -0.198494 -0.179451 -0.186647 0.135105 0.083709 -0.062744 -0.166678 0.257061 -0.373101 0.098040 0.427016 -0.272930 
454 -0.091995 0.094981 0.286118 0.355834 0.110281 0.213193 -0.307683 -0.235252 -0.171777 0.121519 -0.252322 0.142440 0.230802 -0.356517 0.134930 0.155513 0.039248 0.388812 -0.017026 0.249818 
455 0.335991 0.334262 -0.068431 -0.320588 -0.042433 -0.035244 0.063615 0.046244 0.118119 -0.199069 -0.189552 -0.137391 0.203581 0.275258 0.264569 0.191623 0.445326 0.013028 0.337312 -0.118793 
456 0.280950 0.150468 0.137844 0.039828 -0.127066 0.242423 -0.062698 0.213369 -0.099811 -0.284660 -0.135102 -0.405649 0.045439 0.106003 0.313938 0.406503 -0.183897 0.271711 0.028015 -0.306816 
457 0.239154 -0.035963 0.316887 0.130079 0.268301 -0.039288 0.149459 -0.106929 -0.097356 0.349810 -0.249465 -0.046888 0.345897 0.200437 0.062177 -0.145894 0.103315 0.374162 -0.279936 -0.326482 
458 0.074417 -0.189273 -0.312922 -0.044276 0.230856 0.343299 -0.379688 0.111395 -0.114022 -0.132693 0.205846 -0.052318 0.160773 -0.042745 0.089793 0.529656 0.166453 0.268277 0.190143 -0.056670 
459 0.210879 0.037072 -0.165286 -0.109521 0.244699 -0.017937 -0.088271 -0.393847 -0.374377 0.348659 0.340153 0.081418 0.251428 0.377664 0.157654 0.111776 0.079000 -0.141348 -0.070621 0.182424 
460 -0.300792 0.181888 0.361682 -0.143872 0.185580 -0.053986 0.268966 0.303546 -0.139842 -0.250115 0.092017 0.078671 -0.254475 -0.019507 0.010315 -0.213036 0.164465 -0.228068 0.232529 -0.427269 
461 0.206161 0.244790 0.285944 -0.151035 -0.358680 0.125266 0.223261 0.108634 0.178706 -0.226655 0.374315 0.030046 -0.162636 0.149287 -0.156256 -0.084457 0.193240 -0.299777 0.279205 -0.277918 
462 -0.004117 -0.182115 -0.195727 -0.084781 0.416707 0.008368 0.119368 0.396181 0.317370 0.226882 -0.197382 -0.086237 -0.011457 -0.165197 0.142079 -0.248214 -0.179415 0.373104 0.026309 -0.310637 
463 0.247276 -0.349592 0.152226 -0.273468 -0.100688 -0.184427 -0.032471 -0.040289 0.268971 0.139318 -0.108946 0.199535 0.133248 -0.177310 -0.350464 0.445663 0.176319 -0.251140 -0.192571 0.162903 
464 0.435025 -0.352565 0.199200 -0.044976 0.138310 0.173954 0.313219 0.478604 0.107760 -0.058041 0.084847 0.082023 -0.277079 -0.058406 -0.186537 0.292148 -0.044536 -0.134415 -0.128047 0.050048 
465 -0.155548 -0.170414 -0.029578 0.136262 -0.264278 0.293957 0.180820 -0.079265 -0.125593 0.071158 -0.219075 -0.166499 -0.494248 -0.326231 0.206770 -0.131128 -0.049442 -0.118306 0.180059 -0.419546 
466 -0.352629 -0.056149 -0.050783 0.152774 0.235702 -0.266483 -0.301096 -0.064235 0.117237 0.271382 -0.216383 0.045104 -0.021417 -0.209120 0.348681 0.247594 0.281904 -0.339544 0.217414 0.140992 
467 -0.235048 -0.137400 -0.204174 0.262632 -0.027644 -0.157447 -0.179559 0.008991 0.099542 -0.141759 0.018645 0.044689 0.071118 -0.120336 -0.410082 0.177631 0.176267 -0.073685 0.373720 -0.574075 
468 0.306226 -0.277714 -0.228115 -0.160101 0.175145 -0.111381 -0.273517 -0.221054 -0.176410 -0.031538 -0.051612 0.275936 0.369319 -0.161890 -0.048568 0.367954 0.060205 0.189477 -0.027440 -0.364858 
469 -0.078431 -0.278861 -0.050520 -0.209117 -0.327276 0.270550 0.102696 0.429585 -0.327643 0.100047 0.312668 -0.083472 -0.042960 -0.149057 -0.049631 0.033688 -0.217168 -0.227969 0.295507 -0.241246 
470 0.259544 -0.000392 0.115311 -0.140833 0.405984 -0.133370 0.001741 -0.319489 0.337727 -0.100431 -0.351773 0.191898 -0.206332 0.296832 0.061563 0.137840 0.189957 -0.026999 -0.040786 0.371694 
471 0.020704 0.033628 -0.000602 0.239554 0.160512 -0.293805 -0.265654 -0.123930 0.042582 0.093017 -0.166980 -0.060518 -0.028042 -0.120262 0.038940 0.577270 0.355584 -0.240967 0.273243 0.303077 
472 0.015369 0.212032 -0.305808 -0.230393 -0.252873 -0.155927 -0.022643 -0.151378 -0.030102 0.038866 0.014915 -0.081137 -0.415679 -0.166528 0.130369 0.184713 -0.369469 0.370769 0.174878 -0.362083 
473 -0.128571 -0.138640 0.035612 0.100011 -0.017378 -0.062509 0.176616 0.462912 0.142689 0.163697 -0.079071 0.295937 -0.130622 -0.006232 0.149526 0.615017 -0.162423 0.223759 0.038028 0.258263 
474 -0.175108 0.233198 -0.252322 0.321845 0.080796 0.222551 0.085239 0.296940 0.015523 -0.009503 0.219008 -0.270384 0.189413 -0.167456 -0.092171 0.370184 0.348631 0.215740 0.228343 -0.212432 
475 0.345109 -0.214841 -0.091009 -0.438226 0.011910 0.186716 -0.087660 0.220970 0.050223 0.423236 0.123982 0.174309 -0.347626 0.072423 -0.017457 0.243220 -0.244549 -0.171467 -0.008912 -0.201646 
476 -0.286757 0.155782 0.135380 0.086993 -0.111803 -0.047207 -0.022145 0.088795 0.149507 -0.257552 -0.358274 0.313942 -0.284575 -0.248085 -0.166547 0.394324 0.330215 0.095425 -0.282968 0.070154 
477 0.098074 0.319523 -0.180581 -0.217424 0.152601 0.201065 -0.311648 -0.140355 0.210709 -0.056956 -0.094153 0.206890 0.107537 -0.446544 0.056347 0.277938 -0.273647 -0.025257 0.331517 0.227466 
478 0.348468 -0.107469 -0.022447 -0.045840 -0.049729 0.189117 -0.174634 0.368437 0.158782 -0.414163 -0.278102 -0.011232 0.156666 -0.237216 -0.129975 0.006908 0.367656 -0.368144 0.115941 0.061841 
479 0.215865 -0.128940 -0.305113 0.123448 0.182054 -0.103961 -0.023563 0.160466 0.115378 0.259932 -0.386286 0.106329 0.065381 -0.317996 0.219985 0.576061 0.027495 -0.124524 0.103356 0.064864 
480 -0.251161 0.112542 -0.017472 -0.439853 -0.238223 -0.276489 -0.028920 -0.305790 0.120971 -0.008586 -0.113236 0.092967 -0.057905 -0.338649 -0.257184 -0.073672 -0.103967 0.458393 0.076637 -0.224388 
481 0.291044 0.240631 0.067999 0.019134 0.337871 0.240712 -0.055170 0.326720 -0.393785 -0.182758 -0.338591 0.179233 -0.410414 0.133292 -0.117120 0.082650 -0.116914 0.121061 0.013223 -0.004741 
482 0.323647 0.190449 0.316848 0.209692 -0.003925 0.244207 0.083700 0.467363 -0.286647 0.036556 -0.105811 0.326577 -0.051128 0.028575 0.226200 0.016528 0.297325 0.014292 0.255804 -0.138814 
483 0.071845 0.275371 0.038928 -0.389354 0.384753 0.303597 -0.037469 0.271154 0.280334 0.222936 0.213446 -0.198474 -0.113490 0.048300 0.299734 0.018682 -0.040194 -0.186894 0.283609 0.123058 
484 0.179939 -0.295368 0.119396 -0.269818 0.103181 0.326495 0.134934 -0.343539 0.025614 0.203505 -0.277921 0.017400 0.036245 0.237064 -0.126238 0.119979 0.399302 0.234936 0.253177 -0.231641 
485 -0.202297 0.182812 -0.052854 -0.358523 -0.197227 0.036482 -0.027204 -0.221773 -0.108823 -0.076356 -0.092007 -0.144065 0.348229 -0.386800 0.336395 0.275424 0.151198 0.147095 -0.338152 -0.196306 
486 -0.153162 0.000932 0.347583 -0.532849 0.015037 -0.240842 -0.200913 0.184966 0.245230 0.022381 -0.343614 -0.019515 0.271518 0.047018 0.059399 0.286463 0.030403 -0.193116 -0.042733 -0.241521 
487 -0.016473 -0.059616 0.297457 0.153341 0.351406 -0.060676 -0.095437 -0.171388 0.076036 0.018920 -0.333513 0.157646 -0.128628 -0.250538 -0.079038 0.418244 -0.299697 -0.372721 -0.295065 0.004082 
488 0.196351 -0.286173 -0.509873 0.243653 0.127734 -0.134201 -0.104240 0.404854 0.058470 0.220358 -0.224975 0.069480 -0.076942 -0.031986 0.003845 0.013802 0.334926 -0.218331 -0.101064 -0.257860 
489 0.216272 -0.276061 0.113901 -0.167618 0.202170 -0.369112 -0.057644 0.352034 0.301560 0.276721 0.105655 0.139924 -0.317045 -0.161700 -0.087971 0.015688 -0.336450 0.166653 -0.037374 0.237294 
490 -0.214305 0.150695 0.212362 -0.093418 0.138394 0.299436 -0.245750 0.325903 -0.169922 -0.434668 -0.292988 -0.039479 -0.312680 -0.033307 -0.086001 -0.009097 -0.243804 0.144444 0.271811 -0.190698 
491 -0.028991 0.057060 0.383576 0.170262 -0.258869 -0.003380 -0.203524 0.067016 -0.345495 -0.428199 -0.146111 -0.236744 0.025881 0.249277 0.028569 0.144126 0.401574 -0.106159 -0.262702 -0.028069 
492 -0.112756 -0.063107 -0.040874 -0.486263 -0.153315 0.153826 -0.339792 0.293317 0.161992 -0.218938 -0.152386 -0.132564 0.003968 -0.053422 0.207235 0.250953 0.325661 -0.144422 0.319434 0.209300 
493 0.237791 -0.065693 0.236366 0.027181 -0.234201 0.318343 0.196127 0.526085 -0.032079 0.380041 -0.086705 -0.131647 -0.068108 0.216462 -0.363099 -0.093719 0.140817 0.043601 -0.150709 0.065091 
494 -0.248141 0.026996 0.403247 -0.405504 -0.287390 0.177305 0.388459 0.243383 0.238890 -0.267440 0.182531 -0.064026 -0.103168 -0.138219 0.053041 0.135303 -0.037676 -0.069450 0.240079 0.075705 
495 0.009996 0.117737 0.205784 0.033729 0.463664 -0.239262 -0.066983 0.002671 -0.058656 0.144525 -0.489098 0.052097 0.194455 -0.070747 0.259381 0.255482 0.252129 0.270786 0.067722 0.287615 
496 -0.405786 0.118743 -0.105999 -0.170558 0.111369 0.223030 -0.076691 0.127613 -0.090574 0.252451 -0.433848 -0.147805 -0.393240 -0.076500 -0.002967 -0.005534 0.053384 0.414355 -0.182433 0.215043 
497 0.002702 -0.227110 0.059075 0.383221 -0.125208 -0.061872 0.229962 -0.334065 0.332248 0.227472 -0.213394 -0.022009 -0.006678 -0.196609 0.307694 0.216610 0.157500 -0.208535 -0.254624 -0.304144 
498 0.310031 -0.202137 -0.109098 0.212261 0.136746 0.013528 0.014183 0.230211 0.200290 0.110712 0.259254 0.249414 0.422054 0.115279 -0.218570 -0.018719 -0.257037 -0.257808 -0.287274 -0.312393 
499 0.270247 0.099500 -0.224368 -0.010893 0.388678 -0.250383 -0.040027 -0.299648 0.145841 0.177708 0.228796 0.043534 0.111548 -0.205055 0.365990 0.192649 -0.210038 0.426917 -0.023106 0.043597 
500 0.054374 -0.038029 0.183737 -0.411653 -0.055920 0.237276 0.102260 0.018698 0.272786 0.088809 -0.365622 0.002774 -0.432239 0.224218 0.078295 0.319447 0.018151 -0.074285 0.189937 0.344897 
501 0.283522 0.283865 -0.198902 0.214261 -0.051780 -0.449517 -0.166273 0.122624 0.376755 -0.115132 0.275777 -0.225415 0.282460 -0.035928 -0.102839 0.098384 -0.264928 0.219641 -0.042001 0.050488 
502 0.214925 -0.183881 -0.009982 0.168169 -0.288827 -0.201000 0.406314 0.149498 -0.242338 0.235570 0.103493 -0.142025 0.217897 0.003596 0.312476 0.088020 -0.082145 -0.199894 0.460026 0.155044 
503 0.211643 0.000538 -0.158753 -0.258628 -0.208248 0.133003 0.162395 0.000819 0.298783 0.139405 -0.339702 -0.204242 0.263152 -0.439495 0.007947 0.255505 -0.033708 -0.338811 -0.226076 -0.122794 
504 0.032541 0.080231 -0.221971 0.152338 -0.379696 -0.028268 -0.057220 -0.546348 -0.074484 0.067981 -0.322892 -0.072941 -0.231322 -0.141336 -0.278944 -0.137170 -0.237088 0.285637 -0.198755 0.078261 
505 0.129913 -0.025174 -0.216403 -0.297014 0.004028 -0.231855 -0.195650 -0.309612 0.186008 -0.314086 0.161172 0.023395 0.001559 0.346557 -0.314590 0.003963 0.056910 -0.304955 -0.304332 -0.303011 
506 -0.350029 0.221928 -0.168652 -0.210450 -0.139229 -0.163577 -0.212535 0.233252 0.163150 0.128795 -0.345220 -0.120865 0.002441 0.158427 0.379553 0.205201 0.335501 0.324737 0.053735 0.024667 
507 -0.270230 0.402485 0.471653 -0.298792 -0.161296 -0.183261 0.102042 -0.000195 0.308056 0.197617 0.108728 0.088146 -0.096516 -0.300225 -0.017052 -0.105060 0.197760 0.216107 -0.060083 -0.171733 
508 0.226908 0.043357 -0.035730 -0.003388 0.202421 -0.198640 -0.149599 0.174574 0.237275 -0.105597 -0.421796 -0.156073 -0.323707 -0.178469 -0.328408 0.430204 0.065185 -0.153385 0.128521 0.261681 
509 -0.360371 0.159542 0.185321 -0.349464 -0.068047 -0.260883 0.059984 0.399053 0.199010 0.023170 -0.018374 -0.159910 0.138014 0.013078 0.298745 0.426460 -0.038676 -0.043821 0.269284 -0.142697 
510 0.277953 0.622145 0.067160 -0.209200 0.276558 0.124614 0.129309 -0.274526 -0.125366 -0.050361 -0.203150 0.177764 0.199404 0.074600 -0.165246 0.062070 0.090249 0.216148 -0.041145 0.281315 
511 0.050348 0.063758 -0.074712 0.001023 0.169153 -0.265373 0.230311 -0.136234 0.038315 -0.289737 -0.527747 0.318792 -0.342558 -0.407098 0.010660 -0.122244 -0.073210 0.149617 0.012306 0.159965 
512 -0.292450 0.285893 0.255649 0.167667 -0.153266 0.084652 -0.178416 -0.173974 0.330983 0.074512 -0.169486 0.231389 0.211220 -0.066294 0.181722 -0.273294 0.160011 -0.180578 -0.184309 -0.447484 
