4693 48
</s> 0.008339 0.009207 -0.007980 -0.006829 0.002847 0.006294 0.001960 0.000440 -0.007507 0.004622 -0.009076 0.002603 -0.001565 -0.001994 -0.006908 -0.003921 0.005374 0.006303 0.006186 0.003328 0.003218 -0.007922 -0.008533 0.010353 0.007919 0.006438 -0.001258 0.008366 -0.001031 0.001531 -0.000311 -0.006215 0.002734 -0.002786 -0.007970 0.009905 0.009123 -0.002282 -0.000471 0.001061 -0.007579 -0.008348 0.009489 0.000131 -0.005380 -0.006338 -0.006409 0.003535 
of -0.319262 -1.085229 -0.596729 -0.890736 0.519792 -0.609250 1.333360 0.417058 0.518838 0.206536 0.198230 0.492272 0.496447 -0.611370 -0.638469 -0.655538 0.707005 -0.776938 -0.290145 -0.237957 -1.041574 0.250675 -0.570479 0.144363 -0.907115 -0.303539 -0.090157 -0.027628 -0.318218 0.739921 -0.566981 0.425564 0.161100 0.110190 0.757957 -0.263067 -0.679554 0.285653 -0.399770 -0.248868 -0.034925 -0.743614 -1.085919 -1.390612 0.104475 0.216523 0.733296 -0.394147 
the -0.056489 -0.918102 0.221186 -0.715072 0.016743 0.823753 0.771796 -0.525832 0.324116 0.219220 0.802595 -0.856908 -0.161290 -0.137276 0.480428 -0.518747 -1.011895 -0.508500 0.872375 -0.590704 0.119408 -0.061930 2.010653 0.740791 -1.628456 0.761494 0.257550 1.889198 0.078525 0.306733 -0.051589 -0.579736 -0.949701 -0.748114 0.631197 -0.604649 -0.366952 -0.242880 0.657401 -0.017827 0.573260 -1.435501 0.615290 -1.529876 -1.174999 0.651955 0.320864 1.093117 
in -0.591356 0.485397 0.372779 -0.047009 -0.802418 0.041348 1.141266 0.405932 0.539438 -0.252109 -0.088644 1.411370 -0.862713 -0.982470 0.279864 -2.733801 0.411368 -0.474251 0.607070 -0.734371 0.801680 0.328005 0.298786 0.292434 0.821653 0.429338 -0.442356 -0.747131 -0.180320 -0.519857 -0.998856 0.037703 -1.355576 1.315450 0.901499 -0.583711 -0.384307 0.317103 -0.812443 0.408591 -1.161577 0.531863 -0.289980 -0.115133 0.308278 1.208458 0.395503 1.123767 
and -0.552037 0.164741 0.831533 0.255577 -0.031571 0.143310 1.353865 1.188302 -0.341620 -0.643460 0.488513 -0.373126 0.210459 0.622682 -0.364705 -0.905880 0.499969 0.243177 0.827021 -0.138762 0.571186 -0.568843 -0.298206 -0.202449 -0.246960 1.033251 -0.024714 0.118842 -0.481031 1.050672 -0.298396 1.048405 0.059833 0.621465 1.603276 -0.689594 0.112259 0.938796 -0.641392 0.228659 1.160148 -0.737643 -1.179504 -0.463343 -0.105726 -0.398221 -0.309088 1.205887 
on 0.295558 0.684883 -0.574431 -2.765990 -0.037345 -0.142654 1.398080 1.162551 1.958479 0.383296 0.107288 -0.210860 -0.502833 0.949821 1.200059 0.060299 -1.300569 -2.128022 2.200153 -0.613983 1.368569 -0.925424 -0.404951 0.214935 -0.537992 1.598374 1.977537 -0.519700 -1.052537 0.539100 -0.356046 1.215223 -0.149507 0.693261 0.757852 -0.217444 -2.151919 2.841643 -0.311044 -1.236543 -0.514011 -1.390871 -0.016331 -0.330729 1.680121 0.839727 0.080522 -1.226791 
a 0.541914 -0.437907 1.086848 -0.688772 0.749795 0.995756 2.232354 -0.675165 -1.356780 -1.057313 0.514098 0.917206 -1.288085 -0.261293 0.334622 0.444306 -0.596536 0.071087 -1.108194 -1.316228 -0.229592 1.005978 -1.749354 -0.177155 -1.257307 0.094268 -0.443925 1.054445 1.156689 -1.422648 1.796817 -1.893340 -0.188291 0.557717 -0.261920 -1.454360 0.015751 -1.445722 1.903777 1.219922 2.252665 -0.133159 -0.496663 -0.327060 0.682568 1.135177 1.731398 0.264486 
by 1.227929 -0.394885 2.588829 -0.171604 1.195190 -0.270040 -0.426735 1.161768 0.526208 -2.250881 -1.756347 -0.472830 1.214765 -1.243573 1.168891 0.548314 -1.338213 -0.105550 -2.958910 -1.469777 1.658214 0.281405 0.260991 0.231690 2.184752 0.191595 -0.144114 -1.768365 -0.720851 2.355323 1.004785 -2.067950 -0.007187 2.742554 1.112728 0.477684 -1.781663 0.977541 -1.043368 -0.623787 -0.169619 -0.700685 -0.457388 2.414571 0.064880 2.113501 0.050578 -0.174758 
to 2.364674 -0.761896 0.565938 -1.153074 -0.221231 -0.262485 -2.963197 -0.024276 -1.459665 3.675759 3.253724 3.735394 0.756446 0.522340 0.668121 -1.599971 -2.127508 0.213075 -0.767499 1.394014 3.208081 1.503461 -1.005900 -1.522777 -0.755161 0.445643 -1.202003 1.059097 0.510127 0.927427 -1.425544 1.396877 -2.131358 0.669537 1.403320 2.686847 -1.324010 0.600894 -1.005526 0.286016 0.524988 -1.936903 -1.054519 0.745311 2.426961 -0.591836 1.496381 0.700892 
with 0.521436 -0.401436 0.259887 -0.004849 -1.864225 3.462823 -0.985494 0.601543 -2.371510 -0.436856 -1.584184 -0.927723 1.022544 -1.108555 0.583266 -1.739870 -1.477626 -1.409392 0.187001 0.157658 0.300106 2.106367 -0.368305 0.618618 1.272546 0.930977 1.968503 -2.060132 -2.025321 -1.458053 0.175929 0.260250 -0.721263 0.067766 0.073440 1.221657 -0.075483 2.046654 0.103285 -1.163008 1.712766 2.176679 -1.109297 1.938887 0.171940 -1.498340 3.611394 1.180127 
from 0.905020 -0.451119 -0.762490 -0.557613 1.239389 -0.829840 -0.161203 1.475492 -2.217638 -1.283192 0.421650 0.811191 -0.203589 -0.935401 -1.690237 -2.286663 -0.745042 0.397013 0.119602 -1.783393 1.670813 0.325557 0.054400 -0.404971 -0.376104 1.869941 0.248866 -3.017744 -1.563429 -1.801991 2.447711 1.243254 0.907813 0.614404 0.872170 2.207720 0.808156 1.007013 -2.240107 -1.290909 -0.917631 -0.289060 -0.033011 -0.796181 -0.323106 0.704667 -0.451205 -0.220283 
for -0.929817 -0.971451 0.877342 -1.728679 0.432878 0.926890 0.667606 1.785213 1.575335 0.908730 0.389231 -1.899072 1.312103 -2.987713 1.467871 1.085636 1.159027 -0.827183 -0.797303 -1.688955 0.547664 0.451953 -1.093104 -0.158437 -0.864644 -0.545163 -0.279866 -1.806502 2.869154 -0.913206 -0.090197 0.240471 0.799460 -0.437075 -1.227287 0.779311 -1.280879 -1.451380 1.185009 0.681139 2.696650 0.164559 0.357214 0.304704 1.903621 1.831239 2.743361 1.061006 
effect 2.268677 -0.559352 0.454839 -0.820307 0.728262 0.279092 -0.357205 0.439989 1.421455 -0.787212 -2.514813 -2.461721 -1.506995 -0.077194 0.310243 1.334254 -2.741205 0.232643 3.868806 1.876064 -0.800662 -1.048035 -1.156981 -0.870899 2.165972 1.429992 -1.229370 -0.436083 2.803770 0.761792 -4.154587 0.845865 -1.625344 0.190801 2.333096 -0.863692 2.273445 1.517810 -1.550287 -1.687476 1.145047 -0.637661 1.751714 1.448552 -0.295860 -2.135868 1.473744 0.964447 
cells 1.361832 -0.593606 -0.188199 2.033173 0.804049 -0.130716 -0.612045 2.644643 -1.461813 -0.397696 0.917504 0.574325 -4.922135 1.347550 -1.156112 1.885072 -1.873960 2.096700 -4.558406 3.212111 -0.504984 -0.630118 0.407459 0.966691 1.369485 1.735041 2.496011 0.515831 -1.299789 -1.285460 -0.157761 0.266044 0.978200 0.052817 -1.213800 -1.476857 -1.147598 1.136925 -1.213698 0.320651 -0.336618 2.267538 1.593195 -1.956363 -0.123592 1.695200 -0.458761 3.106486 
coli -2.106558 -0.091235 -3.120429 -0.653368 -4.285279 1.409864 -2.203748 2.659662 -1.703184 -2.416896 1.299723 1.868051 0.030825 -1.272077 0.889011 -0.298456 3.248244 4.345973 -0.096127 2.554131 -0.018593 -2.413485 -0.832764 0.714861 0.668330 1.228804 -0.843735 0.381493 2.553148 1.187274 2.516085 -0.704589 -1.966543 -1.022425 -2.947739 -2.276951 -1.589516 0.411282 3.165584 -4.731029 0.295960 -1.126843 1.573303 -0.627511 1.790439 0.135739 0.514497 -0.155696 
escherichia -0.621683 -0.687148 0.687577 3.347469 1.140488 0.351170 -0.893555 -0.410010 1.259697 -1.996354 1.535470 1.825712 1.671237 -3.260371 -1.774574 4.250988 1.091468 1.192912 -1.341671 1.688672 -0.399319 3.121192 -2.028102 -3.042705 0.221884 2.210046 3.099560 0.453923 -0.800678 -3.546374 -0.575139 0.444813 -3.822054 -0.623334 -0.983611 -3.096911 0.740672 0.526627 1.282922 -2.693843 -0.378004 -3.275335 0.984115 -1.676915 -3.069775 -3.169954 -1.143835 -1.325183 
human 0.331548 -0.049126 -0.159263 1.129823 -1.227250 0.097867 0.655587 0.516205 0.748013 -1.134805 1.708859 -1.528277 -0.479946 1.602050 1.350335 -1.077863 -0.167433 3.275006 -1.810986 1.572036 -0.228011 0.906173 -0.079064 0.193127 -0.698215 1.598047 1.340458 -1.209625 -0.214795 0.638405 -1.538306 2.829432 1.470824 -0.456602 0.973876 -2.887777 0.128792 -1.498037 0.132470 -0.178470 0.055313 1.537436 -0.630278 -0.295085 -0.581569 0.538417 0.893477 -2.167329 
effects 2.047057 0.228782 0.305521 0.321397 1.241776 -1.031237 0.379333 -0.981358 0.571260 0.051275 -2.576558 -2.057229 -1.894740 0.335548 0.011727 1.266430 -2.989270 0.891473 3.498828 1.708410 -1.014554 -0.373257 -0.903287 -0.512048 2.840156 0.787248 -2.334587 0.082318 2.298717 -0.909157 -4.665008 -0.247983 -1.973329 0.278130 2.864239 0.297893 1.479458 2.097438 -0.467389 -1.840589 2.113077 0.041127 0.042105 1.636672 0.452883 -1.299327 0.509641 -1.110212 
s 0.163790 1.826950 0.866827 -0.289150 0.615171 2.201180 1.746233 -0.326632 0.466064 0.327738 -0.138797 -0.758831 -0.899482 0.201336 -1.005865 -1.378109 -2.731110 0.777736 0.433594 -0.457173 -2.603227 1.442998 0.740866 0.618036 -0.161821 -1.831601 2.404305 -1.378795 1.353919 0.294258 2.788721 1.515072 2.285012 1.456663 0.404638 0.079818 1.549364 -0.395814 -0.160376 -1.276517 0.959149 -0.482479 1.605432 -2.742933 0.248684 -0.038027 -0.966375 1.043002 
rat 0.674949 -1.607098 -0.557267 1.032542 -0.857634 -1.744221 -0.667672 0.280198 -0.510759 -1.921350 1.126825 -1.207306 -2.316917 -0.210818 0.204375 1.191113 0.886432 1.306687 -0.589633 1.046811 0.933588 1.637843 0.163374 0.404073 -3.025554 0.111979 -1.546288 0.044170 -1.336562 0.641211 -2.294919 3.354073 0.015636 1.185927 2.198723 -1.904005 -1.502990 -0.098523 0.149503 -2.376362 -0.502338 -0.687833 0.382220 0.806618 -1.891464 -0.326685 -2.527002 -1.803876 
acid -3.903741 -3.518425 -2.901310 -0.617336 -0.246272 4.110065 -3.364784 -1.342020 -2.344399 -0.338857 -0.555605 0.382263 -0.590733 -1.626477 -1.957565 4.303364 1.232584 -0.685443 1.099986 0.889574 1.445750 0.931232 2.111968 0.239288 3.772388 0.877357 -0.537636 -0.608684 -1.049933 2.293626 0.336211 2.373343 1.253765 -0.172084 -0.378853 -0.603511 0.151692 2.595549 1.034709 2.899200 -3.242063 -2.946658 0.528013 -0.283490 -1.847387 0.909680 0.358720 0.005351 
cell 1.378100 -1.830939 -2.050021 0.204927 -0.778215 -0.238274 -0.651395 1.501265 -0.087224 0.228434 0.691657 0.422306 -2.318355 -0.056392 -1.211118 1.845447 -0.286088 1.045978 -3.595013 2.808271 -3.435564 0.037157 0.490966 -1.688843 -1.954831 3.381226 4.092489 1.584315 0.636579 -0.780366 0.088874 1.352220 0.808092 0.453923 -0.398028 0.599483 -1.891180 2.049558 -1.394691 1.625700 -0.012559 3.054380 2.411421 -2.423211 -0.293125 1.838884 1.198878 3.978801 
studies 0.499620 2.828610 -0.628853 1.059297 0.639451 0.513685 2.107646 -0.832689 -0.856943 -1.222339 -2.301586 -1.221703 -1.200589 -0.617828 1.059681 0.202931 0.255963 0.776180 0.249283 2.604957 -2.219982 -1.239086 -1.128429 0.160467 0.838676 -0.007998 -4.252124 -1.568531 3.427606 0.043127 -1.348573 -1.419478 0.125967 -3.390911 3.056374 0.664412 0.068154 0.804979 0.054317 1.290470 -2.171332 -1.887573 -0.808658 -1.416430 -1.454201 0.990762 0.856224 0.363529 
activity 0.549745 1.606616 1.170597 0.362556 -0.295348 1.782564 -2.502798 -0.020949 0.048420 -1.137033 0.011351 -0.844092 -1.780127 1.687699 0.724796 0.894828 -1.223013 4.056203 1.597196 1.887005 -2.579320 1.369542 -1.748542 1.724132 -1.294220 -0.348383 -0.302429 -0.768241 -1.823658 -2.378414 -0.234025 -1.111699 1.031126 1.027118 1.578378 -0.275901 3.241853 1.027860 1.082248 -1.131510 -1.196823 0.719783 -2.504971 -0.052768 0.919552 1.283677 -1.551209 0.175783 
blood 3.311826 -2.140459 -0.450277 5.160829 0.732649 0.838440 -0.103131 -0.030898 0.216205 -0.382502 -0.401893 1.499473 -1.138273 4.322498 3.474979 -3.966719 1.428461 -0.506617 0.609457 0.264325 -4.874229 0.070986 0.640885 -0.818498 1.023685 4.284149 -1.886149 -2.059065 -1.098316 1.686531 0.982205 1.437229 -1.815923 1.114731 -0.733598 -0.001960 -1.816790 0.383820 1.630795 -0.351604 1.353193 2.428306 0.233791 0.309868 -1.894740 2.829938 0.898411 -0.903651 
age -0.014427 2.420005 3.507023 0.309297 -4.111644 1.404856 -1.929976 -4.273552 0.363692 1.902330 0.974547 1.857544 -0.391037 -1.170818 0.377588 2.429105 2.202481 0.012564 0.889233 -0.010686 -2.788579 1.269470 -0.749337 0.270010 1.573846 1.419000 -2.197167 1.113897 -2.153965 2.478814 0.476893 0.361756 -0.369822 1.102611 1.535461 0.280447 -0.948942 -2.240000 1.903432 1.650173 -0.297436 1.625953 2.173515 -4.276376 2.953781 -0.980566 -2.274774 -0.620289 
an 0.847966 1.239365 1.346231 -1.238760 0.326504 0.010634 1.331240 0.949140 -2.794233 -1.513827 0.064593 2.027063 -1.223898 -0.822377 1.596842 0.335773 -1.233164 -0.130521 -1.272170 -1.997757 0.445950 -0.823010 -2.545931 2.073627 -1.709093 -0.849377 -0.115019 3.358458 1.723677 -1.123687 1.266073 -1.043177 -0.262754 1.254728 1.752540 -1.811297 2.104587 -2.338390 2.867381 2.476434 1.033297 -1.226393 -1.251214 0.400362 -0.392232 1.899790 0.838812 1.567559 
lymphocytes -1.145186 -0.695825 1.766046 3.061718 -0.479645 2.647945 -1.464317 1.883608 1.179638 2.061008 -0.173264 0.319562 -6.287460 0.315076 0.002105 1.913773 -1.560735 1.014327 -5.775839 -0.201704 -3.791501 -2.667134 -2.737868 3.629763 0.712443 2.675319 2.194950 -0.023002 -0.000462 -1.551308 0.454886 -0.010028 -2.592068 -3.053391 -0.497035 -0.418760 -2.002523 -1.196076 -1.329901 0.636308 -1.972057 0.084119 0.538325 -1.917330 2.779148 -3.089312 0.644826 -0.759874 
muscle -0.391775 3.726900 0.384615 2.519256 -2.639653 -5.253946 -3.848155 1.417488 -2.088089 -1.649338 1.270643 2.079546 -1.955133 -1.047050 -0.636929 1.093290 -3.635796 -0.421614 2.621362 -1.747254 -3.019660 0.373570 -0.500688 3.160643 -1.191733 1.331269 1.604911 -1.014412 0.765626 -1.601639 0.270833 0.827332 -1.963426 -1.687154 0.758859 -2.145870 -4.845242 -0.505932 -2.040881 -0.180416 3.848246 -1.020612 -2.008651 1.130889 -1.266802 -3.024330 -3.793235 0.702083 
growth 3.309505 -0.593706 -0.291055 0.010652 1.130411 -1.680895 -0.910725 2.167238 -0.247701 -0.870338 1.186492 0.422584 -0.119852 -1.534976 -1.571999 1.274113 -1.971587 -1.339793 0.839093 -1.587990 -1.882478 0.212521 -0.255882 0.177736 0.479802 3.341594 0.255342 0.379776 1.489555 1.684818 -2.604463 2.131084 -0.956817 -1.585253 -3.479865 1.284742 3.752433 -1.116314 2.486981 1.564167 -2.232017 0.403744 -3.752183 -0.574847 1.776432 2.193034 -3.265121 0.267054 
cat 2.837071 -1.998978 -1.489690 0.848386 -1.128765 0.720151 -2.843310 -2.424171 1.334682 -0.814233 -0.441582 0.755492 -1.464561 -0.698077 -2.450985 1.445051 1.801927 -0.422090 -2.264856 3.090073 1.524490 -0.617781 2.998728 2.459389 -2.055199 -1.391153 -2.957752 0.314670 -0.419821 0.613260 1.395102 3.792144 -3.510269 -1.132540 0.788489 -0.434769 0.203971 0.206931 2.090180 -0.941827 1.853861 -1.335181 -0.635387 0.105491 1.368542 1.530281 -3.073560 -1.882807 
changes -1.163269 2.300451 0.936467 -0.009915 1.675139 -0.506789 2.002276 1.216663 -0.374023 -1.228398 0.148269 -1.386561 -1.900587 1.758679 -1.264865 3.194552 1.013627 -1.881532 -0.569801 3.302834 -1.846366 2.625990 0.665442 0.448770 -1.897992 0.216842 -2.696301 -1.607504 -1.753933 0.852568 -1.358976 1.328112 -0.998940 -0.594224 0.562174 -1.573913 0.143671 1.588630 0.869032 1.174170 1.900578 -0.989336 0.177464 0.783537 1.690846 1.191988 -1.412021 -0.216440 
virus -0.440601 2.782633 0.142005 -2.590190 3.577997 4.202843 0.022304 -2.362081 -2.070454 0.112476 -0.304085 1.042819 -0.975913 -1.069993 -2.010855 2.829580 -0.789731 -1.078343 -5.959826 0.038021 -3.241744 0.862769 0.441562 -0.588245 0.829049 2.546500 -0.734299 -1.900375 2.798693 2.046817 2.365803 1.557590 0.723801 -1.288764 -2.823606 -4.264902 -0.777846 -0.513002 -1.729283 -0.282286 -1.798355 1.633538 2.135609 -2.906408 -0.733318 -1.761336 -2.548524 0.790698 
during 0.004971 -0.938386 1.968132 -1.491544 -0.277851 -0.456150 0.123518 2.190211 2.952193 0.239130 0.148806 -0.625723 -0.959126 -1.530458 -0.263702 -0.030195 -0.513739 -1.876779 0.220687 0.612239 1.411057 0.229304 2.161008 -1.578123 4.117501 0.300792 0.070038 1.242842 0.112334 0.622180 -0.581681 -0.443730 1.080331 2.028078 2.425053 -0.139566 0.757575 0.729671 -1.886243 -3.127309 -0.523914 -0.695841 0.909891 1.187540 1.327627 1.394097 -1.057879 1.361774 
transl 2.232256 0.637778 0.832835 2.410383 -1.010313 2.427111 2.713635 -1.708202 1.883854 2.642795 0.570492 -2.356113 1.126593 -1.595674 -2.219651 -3.896138 -4.403108 -2.362878 1.693993 0.079037 0.569456 -1.445697 1.465734 2.894188 1.595468 0.272483 -1.088384 0.315489 2.470073 0.059867 2.247888 3.243481 1.713344 3.179238 -1.544052 -0.951093 -2.083225 2.170122 1.676183 -0.265716 2.538157 -0.033290 0.809153 -1.341329 3.180182 2.064672 -3.201661 -2.131478 
author -2.214426 -0.712432 0.578605 3.240488 1.062765 2.026840 0.492808 0.204218 -1.480370 1.518172 -2.067888 -2.474918 -1.927297 -2.758333 -2.013450 -2.359645 2.257060 -1.237888 -0.996456 -0.667953 1.090056 0.268440 0.707945 1.180418 -2.428513 -1.387538 0.080075 1.948813 2.746287 1.790181 -0.436636 4.547656 -1.836087 1.343951 0.854356 2.216550 1.555431 0.573857 -0.631941 -0.184370 0.004742 1.484957 2.065601 -1.866046 -0.756052 -0.973282 0.816127 -3.057216 
study 1.809713 4.444450 -2.303615 1.269873 0.487754 0.873318 -0.011822 -0.410236 0.124908 -0.811495 0.831014 -2.247603 -1.276972 -2.901843 1.456536 -1.298018 1.894865 -0.670006 0.856487 3.036288 -2.008516 -0.443147 2.484646 -0.883814 2.760974 0.131088 -1.647784 -2.405715 1.608160 -0.359181 0.688870 -1.451991 -0.211254 -1.092926 2.648109 3.193902 -1.103840 -0.832691 -0.495941 0.879773 0.117812 -0.410933 -0.030256 -1.055842 -2.562133 -0.441550 1.501464 0.471506 
induced 1.368058 -0.351002 0.099989 0.771532 0.872919 -0.445789 -0.704176 2.619145 -0.283509 3.448295 -1.034286 1.469689 -2.808686 -1.800603 -0.061311 2.566645 -2.487086 0.578841 2.320834 0.607294 0.715656 -0.721594 0.522842 -1.088861 1.114990 -1.004690 1.342932 0.704716 -1.401410 2.297934 -1.695507 -0.876515 0.905847 1.421606 0.955599 -0.974873 1.443413 0.913037 -3.170306 -1.796245 0.477770 1.830631 -1.297281 -0.510065 0.395908 -1.545471 0.777537 -0.876659 
3 -0.945111 -0.699856 1.413345 0.019907 1.505776 0.590348 2.198086 -1.248836 -0.991883 0.072298 1.985566 -1.366666 0.732701 -2.307734 -0.376052 1.368833 -0.973730 -0.164121 -0.468281 0.773365 -0.742156 -2.402337 -1.144198 -0.835970 -0.642326 -0.098909 0.029510 -1.434587 -0.614434 0.162357 -0.491417 -0.256147 -0.304394 0.343812 1.972658 -2.223238 -1.281128 1.387396 0.260295 0.487042 -0.317384 0.637159 -0.156677 -0.706786 0.356512 -0.849337 -0.294572 -1.105753 
sodium -3.125832 -3.122851 1.467911 1.859092 -2.740719 -2.167097 -1.312900 -0.826763 0.635606 0.961246 -3.102821 0.063020 -1.658283 -2.197240 4.890953 2.363716 1.705666 0.412658 0.895816 -0.461452 -2.384683 0.884051 -0.053449 0.954262 1.702727 -0.852030 -1.101173 0.931036 -1.010048 -1.741772 -0.183326 2.226526 -1.905968 0.297227 -1.078110 -0.412313 -1.094174 1.448878 1.346368 0.902655 -0.777301 -2.753328 -1.742859 -0.181968 -0.522964 0.337024 -1.239726 0.217015 
synthesis 0.542227 -1.527430 -0.022540 0.726656 2.877338 0.173754 -1.902182 -0.265424 -1.949250 -0.211821 2.880963 0.538528 -2.863342 -0.910865 -2.286190 1.385911 1.889243 3.130962 1.888192 -0.417633 -1.958384 1.771738 0.469831 0.468860 -1.599608 3.264215 0.419879 -1.262643 0.757644 1.734628 -2.411466 -2.240189 1.117680 -2.133184 -0.870605 -1.829986 0.075969 0.807900 1.220818 -2.061836 -2.035444 -0.287922 -0.604663 1.675075 1.342111 1.707894 0.125960 -1.742237 
2 -0.764445 -1.001540 -0.175471 0.932438 3.132359 1.043636 -1.782200 -1.692268 -0.510331 -0.461752 1.407934 -1.043228 1.613936 -2.354790 1.210864 0.040586 -1.029310 -0.066151 -0.923626 1.037456 -1.127686 -3.271927 -0.403026 0.288415 0.629012 0.181631 0.172574 -0.326109 -0.835240 0.634099 -0.477036 0.264738 -0.493875 1.213155 1.396533 -1.154109 -1.485784 0.294820 0.347092 1.793121 0.837847 1.719102 2.186815 -0.896711 1.053652 -0.688268 0.834929 -1.659950 
i -1.140212 0.619794 0.554139 -1.834744 0.710951 -0.370386 0.395219 -1.265005 1.644929 0.912393 0.063448 1.026823 0.900415 0.260207 0.228151 -0.776433 -0.241159 0.017625 -0.980784 -0.831208 -0.440427 -1.469547 -0.028355 -0.532595 1.062754 2.165097 1.209386 0.179803 -0.319965 0.453081 0.975765 -0.911753 0.873317 -0.665415 1.080354 -1.042956 0.619086 -1.121484 -1.593672 -0.891376 0.415712 -0.487796 -1.445700 -1.073378 -1.218562 2.841896 1.553907 1.487833 
response 1.239348 -1.379485 1.364679 -2.997592 2.410408 0.895718 -1.835523 2.649565 -0.030865 0.923076 -1.599332 -2.559532 -0.943124 -1.231483 -1.609718 0.157127 0.725898 0.784774 2.350779 2.215904 -3.352413 -2.261355 -1.545154 0.834954 1.249915 0.294633 -1.735511 0.229223 -2.319847 0.348341 -0.591904 0.000941 -1.974620 -0.164606 0.108700 -0.683222 -0.533575 -0.508395 0.456434 -1.240461 0.001020 2.230002 -1.438725 1.071414 -2.125911 2.072340 -0.112418 -0.491158 
disease 0.770106 2.340987 -2.842971 2.324275 0.294385 1.780891 -0.308430 0.155218 -2.780362 2.199482 0.341288 -1.462224 -1.130602 -0.646850 0.303440 -2.899678 -0.669322 -2.812588 -1.781794 0.129705 -1.682251 -0.814312 -0.850548 2.307269 -2.093929 2.510519 -1.199481 2.575483 2.722563 -0.415317 -0.408268 0.681021 -2.261454 1.437355 -0.431838 1.382451 -3.023852 1.762120 -0.934400 -0.492761 -1.035951 2.009416 0.533239 1.124242 -2.815995 0.516265 -2.996454 -1.891528 
properties -1.551488 3.671393 -0.913826 -0.436746 0.292538 -0.861198 -3.507348 -1.887927 0.810240 0.462299 2.382162 -1.429774 -0.185033 1.847480 -0.333872 2.237706 -2.565079 3.809576 0.792650 0.562543 -0.512433 -0.548254 -2.477820 0.960036 -1.151565 0.512363 -2.824419 -3.515342 1.244127 -3.829948 -0.386518 -1.117969 -0.409338 0.499241 0.526907 1.465499 -0.773076 2.057848 0.884805 -1.256583 0.916272 0.204255 0.099006 -0.614064 0.370154 3.296432 -1.792922 -1.084505 
ii -1.662040 0.431441 0.016467 -1.211131 0.713398 -0.145439 -0.319762 -0.346412 0.152915 1.904834 -0.167930 1.255052 1.494691 0.478797 1.057365 -0.580803 0.555080 0.821975 -0.281117 -0.700971 -0.445246 -1.618993 0.244288 0.020601 1.011549 2.170544 1.444174 -0.148912 -1.155521 0.890015 0.739162 0.925398 0.210599 -2.111223 2.161596 0.049856 0.161295 -0.036138 -1.019471 0.057362 0.532935 -1.782799 -2.729137 0.996469 -1.920542 2.200234 0.864273 0.164547 
patients -2.989022 -0.434215 1.333361 2.130044 -0.930019 1.982337 2.018021 1.234043 0.068177 -0.932954 1.994169 -0.522182 -2.116613 0.533855 3.697308 -1.864972 -1.738050 0.429237 -1.111886 2.159604 -2.226974 0.042561 -2.097553 -2.438142 -0.912053 0.336683 -1.295907 3.554552 3.299614 -0.487392 0.387145 4.435197 -0.325279 -0.455169 -1.061258 -1.327657 -0.807579 -1.679527 -0.629812 0.401937 2.009724 1.584848 -0.310383 1.729696 -1.332900 0.439131 -2.440486 -3.780039 
vitro 0.204838 -0.721170 -0.034947 1.161845 0.745307 2.283275 -0.492556 0.851670 -0.410765 0.508140 1.586412 0.804206 -1.360179 -0.110004 0.082348 2.605349 -0.066293 1.182333 -1.034033 2.931780 -0.167134 -1.348986 2.289858 1.774688 -1.858438 2.758851 1.827229 -0.064706 -0.260713 1.658870 -2.046388 0.728018 0.875835 -2.429446 0.380786 -0.690332 -1.094876 -1.785291 -1.354008 -1.791333 0.070884 -0.828534 -1.782128 -0.415048 -0.640961 -0.238399 -0.255643 -0.483456 
plasma -1.802621 -3.946129 -0.065459 0.756995 0.761301 0.752609 -0.917856 1.652407 -1.445088 -0.771561 1.349163 -2.129752 -2.237233 2.185980 2.680109 -0.499065 -0.309878 -0.781348 2.306815 -0.828688 -2.731193 -0.673238 -0.384923 -0.842926 1.553379 2.815250 -0.978655 0.733342 -1.040288 -1.137772 -0.712869 1.846154 -0.556242 0.184021 0.695507 -0.721995 -2.308868 -1.127005 0.873546 -1.061204 0.795609 2.011631 -1.320562 1.368463 1.905853 1.772620 -0.055519 0.243931 
insulin -1.781876 -2.901825 0.764025 -1.865310 0.317639 1.093339 0.952705 0.203802 -2.547983 0.468054 1.380262 -0.065934 -2.392795 0.499980 1.516484 1.590133 0.208671 -1.130630 0.188835 1.131134 -1.972076 1.086156 0.029243 0.120999 1.375688 2.980531 0.266247 0.182738 0.345698 0.066280 -0.953374 4.861152 -2.994956 3.509767 -1.878252 2.518695 0.788575 -2.216519 1.770473 -1.497462 -2.746752 -1.525208 -1.639540 -0.983696 0.308889 -1.530956 -1.433489 -0.450548 
after -0.693788 -2.770338 0.382726 -0.772148 0.322015 0.223830 -0.149470 1.968773 2.634773 2.053889 -0.286693 -0.377479 -0.569604 -1.884259 -0.345472 -0.982193 -2.702710 -0.220562 0.736129 1.153693 1.881010 0.359062 0.002358 -0.986593 4.011575 -0.797229 0.273956 1.476820 0.524565 1.041608 1.714075 0.145733 0.974930 0.852220 1.396308 0.232312 1.567462 0.478928 -1.932653 -1.813094 -0.988659 0.798129 -1.651334 2.019974 0.451943 1.141273 -0.306898 -0.312177 
mice 0.583146 0.957688 -0.342280 -0.844255 0.277866 3.607275 -0.939650 1.396201 -1.916831 0.276817 0.820837 0.889917 -1.301773 0.790806 0.227743 0.280009 -1.005022 0.329535 -2.961455 3.274123 -0.005316 0.110367 -1.768212 -0.262631 -1.826479 2.725927 0.327447 0.775774 -2.289897 2.374845 -1.049749 2.106207 -1.207111 -0.157980 -1.583730 -3.174720 1.750063 -1.665873 -0.183702 -1.896914 0.184589 0.734516 0.915550 0.259740 -1.614923 -1.100940 -2.541411 -1.845479 
metabolism 0.717961 0.046085 -1.546667 2.418709 1.123277 -0.870260 1.111531 -1.400795 -1.281137 -0.119438 0.364846 -0.388084 -1.360191 -0.511629 0.459359 0.584069 1.740791 -0.115687 3.631984 1.112654 -1.824459 -0.760449 -0.464237 1.030793 -1.694036 2.118593 0.326481 -0.174366 -0.657814 2.081502 -0.957595 0.909965 0.357845 1.344953 0.113331 -0.727218 0.722006 -0.436085 -0.374583 -1.336992 -2.037831 -0.142022 1.053550 1.202444 2.847717 2.713506 -0.814062 -0.313858 
as 1.242290 0.857100 0.629569 -0.487930 1.898786 0.928472 -0.810299 1.849784 -1.295074 -0.264088 1.561379 -2.034773 -0.548931 -2.145394 1.520949 0.705466 2.093493 -1.875882 -0.523250 -0.576174 1.238073 0.246341 3.448293 -3.520719 -0.539641 -1.036497 0.439520 -1.528232 -0.740997 -0.022878 -0.049238 -1.486894 -0.969069 1.794595 0.876204 -0.733870 -0.964996 -1.555611 -1.968367 1.208316 1.075758 2.480584 -0.144453 -2.057437 1.258778 0.384310 1.129181 0.343217 
potassium -1.085207 -1.659705 3.136867 0.312566 -3.445436 -4.406431 -0.511192 -1.333832 0.589757 -1.077937 -1.622250 1.087261 -0.481314 -3.973393 3.333170 3.820447 -1.805701 1.379895 0.292093 0.316948 -3.707590 1.024943 1.922290 0.643947 0.542007 -0.149211 -1.529745 -0.902963 0.169084 0.264689 0.403458 1.500007 -1.030657 0.274752 -2.316528 -1.786414 -1.969922 0.551446 -1.380301 0.694850 1.600660 -0.583963 -0.437209 -0.170079 1.340616 -1.153649 -0.217068 -0.993975 
1 -1.357922 -0.719003 -0.793512 -0.131438 1.718258 1.701689 0.136162 -1.477097 -0.776610 0.451632 0.851148 -1.024292 1.709671 -2.419849 1.062847 0.053924 -1.662552 -0.202030 0.453456 0.926090 -0.063725 -3.760523 -0.831553 1.106183 0.251504 0.777633 -0.263018 -0.278304 -1.110448 0.860101 0.149097 0.020190 -0.690721 1.652838 1.152948 -1.333094 0.201559 1.133058 0.287178 1.754733 1.038422 0.196341 2.115189 0.224014 1.647171 -1.125341 0.146322 -1.324272 
hormone -1.302541 -5.504144 0.248876 -1.788228 -0.128077 2.319284 2.000345 -0.945419 -1.722483 -1.715307 -0.283841 -1.020558 -4.410836 -0.094105 0.424141 1.997490 -0.160507 -1.084914 -0.130830 0.841647 -1.250132 0.636493 -1.063828 0.273005 2.147621 4.419772 0.405742 1.877583 0.121912 -3.250820 -0.531506 2.631242 -1.290815 4.160899 -0.114469 2.559855 -0.218422 -2.461519 1.667933 -2.292447 -0.437125 0.561846 -2.857286 -1.543624 2.797544 -2.212803 -1.470099 0.763759 
rats -1.735830 -0.226146 0.173602 1.583962 -0.402453 1.093129 -1.214933 1.475753 -1.212910 0.054411 0.418028 0.131075 -1.142048 -0.234426 2.038277 0.164889 0.438361 0.234402 -0.487554 3.563614 0.381983 1.753536 -0.597493 -0.042097 -1.131631 1.227865 -2.349585 1.567779 -2.901428 1.752743 -1.857480 3.003149 -2.028952 1.100698 0.514493 -2.221417 -0.833383 -0.127213 0.725190 -1.706261 -0.499647 0.122541 0.649325 2.801688 -1.890631 -1.240960 -3.058180 -2.507974 
protein -0.948427 0.029725 0.093577 -1.710177 -1.630773 -0.757289 -0.869260 0.390621 -1.700497 -2.041053 2.934504 -0.036865 -0.125550 -2.749713 0.706756 2.453397 -1.053106 -0.081873 -1.205041 0.307552 -1.528662 0.566699 0.014483 0.931464 0.754297 0.418225 -1.921350 -0.170706 -0.152769 -0.282740 -1.182157 1.232574 0.414837 -0.106617 -0.732907 -0.815034 -3.070854 1.423738 -0.787185 0.666746 -3.933798 0.096830 0.329908 -2.195673 -1.786201 -0.652762 0.937130 0.736071 
membrane 0.809061 0.110944 1.256561 0.007623 -3.533642 -1.689310 -1.711588 1.017441 -0.134170 -1.864626 1.838209 2.066909 -0.285873 0.751427 0.684930 3.024507 -1.126042 0.670704 -0.776356 1.305981 -2.351899 0.223912 1.723509 0.262606 -1.765409 -0.550998 0.503353 -1.841324 0.337461 0.340586 0.343778 2.069670 -1.760840 -0.943414 -1.212620 -0.998818 0.710504 1.966473 -2.067955 3.052344 -0.019198 -0.763353 -0.428145 -2.698522 -0.503931 1.799677 1.401124 -0.494445 
heart 0.403649 1.240447 1.996903 -1.133281 -1.006935 -2.094265 1.398205 -2.738705 -3.671027 0.505242 1.666275 0.672033 -2.208193 -1.719746 0.043100 -0.524884 -1.043347 -2.517554 0.816490 -0.840533 -3.105959 0.476005 1.081926 -0.635939 -0.708340 -0.208168 -2.200878 -3.331281 -0.492650 -0.246657 3.028566 1.037156 0.143265 -1.894664 0.940971 0.447171 -0.289527 -0.624134 -0.137589 -1.051731 -0.175637 -1.492098 -0.549578 -0.505482 0.058655 0.476734 -1.577211 1.721355 
between 0.884156 -0.469183 -0.019731 0.062786 -1.253097 -0.239151 -4.056967 -0.698413 -0.098713 1.823165 -1.388515 0.154847 3.979769 1.665505 0.361566 -1.339596 -2.404681 2.493239 -1.322396 -0.804276 -0.794774 2.349195 0.434243 0.253487 2.812520 -0.654803 -0.275613 1.742694 -0.106157 -0.950450 -2.030074 2.824136 0.571864 -0.454771 2.312243 1.728294 -3.022295 2.454346 -1.871212 -1.125970 -1.169610 -0.117419 -0.698643 -0.782171 3.303351 1.118792 2.506864 0.914520 
glucose 0.021917 -3.006299 1.249015 2.926351 -1.867095 -1.148547 -0.900318 -1.716959 -1.016096 0.903077 0.780861 -0.133528 0.664786 -1.586836 1.891749 0.837515 -0.817074 -1.762578 0.073740 1.775169 -1.469086 -1.708999 -1.046833 -0.240434 1.885954 0.884029 1.087427 -0.961808 0.239338 1.821954 -1.653205 2.704517 -1.006841 1.536376 -1.085230 -0.541101 2.438728 0.084911 3.026516 -0.199984 -3.393966 -0.548239 -0.384860 -0.993905 0.788785 1.322031 -1.976697 1.005865 
inhibition 0.400059 0.780128 1.122238 -0.250596 1.655316 1.614959 -1.081859 0.777179 -0.329981 0.452595 -1.164563 0.446440 -2.555263 -0.335643 0.923120 3.432000 -0.270184 1.327798 1.185549 1.180753 2.470276 -2.992140 0.659852 -0.030234 -1.161383 0.453783 1.922801 -1.323449 0.499226 0.086264 -1.348948 0.084103 -0.171522 2.146346 0.255752 -1.430320 0.467205 0.855037 -0.131271 -1.932939 0.371999 0.763686 -0.453176 -0.093876 0.273900 0.138769 0.195703 0.383967 
role 2.589390 0.537301 2.565993 -0.405730 0.251289 1.853025 0.243147 0.294609 -0.028586 -0.718633 -0.109295 -1.315583 -1.271308 -0.741848 0.265383 1.488758 1.299180 0.761689 0.736785 1.594071 2.072656 -0.971381 -0.991666 -0.531907 -1.294808 0.656239 -0.081336 0.275154 -0.182278 -0.449189 -2.586156 1.282927 -0.798623 0.308171 -0.732174 -0.657140 -1.871109 -0.091022 -0.468276 -1.378131 0.792871 -2.872606 0.140346 1.771328 1.390336 2.521828 1.139336 0.226978 
normal -2.607630 -0.208706 -0.782860 1.497908 0.022603 0.309026 0.367037 1.604836 -0.654137 -0.115704 1.138644 -0.272116 -2.226159 1.545649 1.088658 -0.977977 -0.076655 -0.088663 -0.084735 0.684218 -0.525076 0.974190 -0.587916 0.917065 2.003698 2.357567 -2.216242 -0.818819 -2.256498 -0.911168 -0.365958 1.409292 -0.499493 -0.732975 -0.456793 -0.823591 -0.470911 -1.897393 -0.349151 -1.984293 -0.386713 0.449801 -0.178612 0.791478 0.513276 0.752439 1.140626 -1.803303 
5 0.282152 -0.528211 0.679646 0.268590 1.378695 0.430965 2.502014 -1.734098 -3.734026 0.012507 0.453310 -0.321007 -1.122233 -2.500764 -0.848314 -0.758879 -2.693461 1.749179 0.963986 0.798546 -1.374508 -2.488676 0.421946 0.652234 0.397374 -0.531024 0.737967 0.624411 -1.092463 -0.378950 -0.268880 0.597124 -1.442617 0.938162 1.239183 -2.360331 -2.393565 0.827461 0.568799 -0.008943 -0.550807 0.090804 0.188454 -0.111327 1.698771 -0.800579 -0.807653 -1.851836 
tissue -0.900852 -1.860475 -0.325814 2.191932 -0.739389 -0.734434 -0.404087 -1.330506 -1.174889 0.835857 0.017339 -2.863179 -0.769090 -0.009028 0.079756 0.979558 0.136484 -0.526905 -1.501898 -0.441248 -0.998673 1.116498 0.657941 1.233548 0.148381 3.564513 1.466437 0.038472 -0.979971 1.206459 -1.472356 -0.344900 0.128289 0.492787 1.625557 -0.837872 -1.295295 -1.289399 -0.509428 -0.761593 -1.051102 2.250469 0.115871 0.516595 -1.476895 0.687223 -1.592715 1.397578 
liver -2.107523 0.149248 0.143286 0.649229 0.120386 -0.412994 0.008075 -3.146998 -2.575486 1.598731 2.031732 0.192840 -2.342394 -1.699867 -1.645760 0.475167 -1.360165 -1.437522 1.142017 -0.310663 -0.896056 1.079954 0.418009 -0.359490 -0.212751 1.365871 -0.258405 -2.401174 -0.857789 -0.019881 0.253223 1.087041 0.436645 -0.996093 1.928754 -0.212032 -0.759996 -2.330945 1.543317 -0.500789 -2.460659 -0.999584 0.267744 0.650421 0.240330 1.637074 -1.114590 2.289134 
system 0.515500 1.270305 -0.929258 1.708488 0.176450 0.926878 -1.594929 1.593361 -0.040828 0.709919 -0.790701 -0.495913 -1.432231 -1.181252 1.025761 -0.846663 1.059153 1.338176 0.944414 -0.383968 -1.344872 -0.896076 -0.322593 -0.938137 -0.300143 -1.794434 1.849038 0.158195 -1.212883 -1.727500 -1.292150 -0.234429 0.007532 -0.673528 0.520855 -0.476319 -1.019116 -1.254393 0.308699 0.073871 -1.081289 -1.535861 -1.351840 -0.557917 0.691374 3.156910 -1.655517 0.175751 
transport 0.214638 -1.665621 -0.006702 4.708264 1.640101 -1.758678 -0.200390 1.746440 -2.161714 -1.814699 -0.818789 0.477798 -1.768716 -1.655228 1.146780 1.424961 1.536471 1.367612 -0.289282 0.259872 -1.501928 -0.653241 1.066233 1.059956 -3.183712 -0.923321 0.844464 -2.330180 0.575088 -0.197167 -0.628637 -0.143724 -1.644707 -1.845915 -0.367022 -1.374655 1.352686 0.478772 0.445493 0.743742 0.117383 -4.571684 0.546979 1.388177 -0.656102 3.688554 1.859904 0.763003 
serum -1.135012 -2.256433 -0.074938 -0.240628 0.665654 0.895225 -0.246273 0.305295 -1.376189 -0.588075 1.901497 -1.811269 -1.747900 1.279653 2.742985 0.623383 -1.161848 -1.187169 0.844728 -1.382039 -2.934018 -0.793218 -3.076192 -0.828942 1.217078 3.604991 -1.131847 -0.789434 -0.819482 0.679198 -0.875706 1.457489 -0.229289 -0.735287 -1.188118 -0.205056 -1.408443 -2.701982 -1.096979 -1.202889 -0.078022 2.217650 -1.879685 -0.638783 0.752735 -0.882884 0.113185 0.703278 
analysis 1.094838 2.500788 -1.460444 0.043064 1.050312 0.381390 -0.687503 -0.770775 0.303851 -0.008096 0.422744 -1.100136 -0.808290 -0.323310 0.628410 1.051016 1.485067 -1.119667 0.255146 1.341910 -0.479971 -0.331930 1.716386 -1.525122 1.414506 -0.534881 -1.169031 -0.732463 1.206823 -1.317775 0.501042 -1.638004 -1.458192 0.257510 1.130370 1.264169 -0.023289 -0.004463 -0.792889 0.060036 1.202912 -0.665123 0.594399 -1.796517 0.016079 1.078907 1.928776 -0.378787 
stimulation 0.500245 -0.331330 0.185385 -0.783827 1.050046 0.528871 -1.964615 2.235041 0.959400 -0.047318 -1.354010 -0.791390 -4.785841 0.233798 0.416441 1.958365 -0.513478 2.985962 2.106000 2.330124 1.289609 -1.842887 0.641930 1.311792 -1.643359 -0.020517 -0.056553 0.008619 -1.248345 0.215204 -1.059325 0.631285 -0.209838 1.504642 0.556307 0.157643 1.212223 -0.323719 0.374376 -1.125337 0.275650 1.548886 -1.952976 -1.958601 -1.165249 0.422930 -0.939142 -0.828830 
its -1.104149 -1.724679 0.257061 -1.341965 0.731591 -1.022126 -0.383709 -0.981427 -2.234006 2.010465 0.475445 0.866460 2.329629 -0.300611 0.454194 0.254121 -0.969743 1.381618 -0.335890 -0.541526 -1.596709 0.838589 0.516736 0.759016 0.081869 0.236790 -0.953308 1.362567 0.181471 -1.128544 -0.458261 0.050438 -0.523521 -0.568589 1.202641 0.392563 -0.801277 -1.119351 0.320029 -0.033866 -0.326137 1.371775 -1.670755 -1.533163 0.581131 0.783555 -0.169424 1.493571 
isolated 0.579392 -0.637968 -1.377225 -0.131605 -1.595482 -2.342692 0.021811 -0.321379 -0.775749 -0.337653 0.725365 -0.447819 -2.346016 -0.263679 -0.059377 -0.230873 -1.472454 -0.137947 0.305220 -0.013269 0.939709 0.349296 -0.473104 0.882877 -0.886471 0.732392 -0.682413 -2.583132 0.243387 0.146157 0.153755 1.344730 -1.699504 -0.102953 0.513100 0.569515 -2.365929 -0.270047 -0.229707 -0.834048 0.181479 -1.872970 -0.160344 -0.873096 -2.237492 -0.762097 -0.554694 -0.411542 
characterization -0.498524 2.675831 -2.254970 -0.294928 1.289288 0.026493 -1.921169 -1.923832 -0.218138 -0.390055 2.866581 -2.112555 -1.032407 0.181601 -1.243139 2.243790 -0.934221 3.029227 -0.464902 -0.731862 0.864246 0.120576 -1.896899 -0.256963 0.405219 1.438952 -1.648702 -2.504396 1.607424 -2.371209 0.521910 -1.215560 -0.734024 0.490793 -1.096439 1.529622 -0.612850 0.234485 -1.180746 -1.482240 -0.715525 -1.977212 -1.330333 -0.235446 -0.359218 2.205040 -0.492955 -0.498497 
calcium -0.930069 -1.210095 2.653618 -0.241273 -2.084307 -3.796472 -1.259154 -1.155964 -2.136083 -1.280350 -0.630824 0.114069 -1.546547 -1.367367 2.313201 2.609656 -0.491490 2.059505 0.610573 0.502901 -2.043956 0.613300 2.123801 0.429256 -0.426039 0.235688 -1.097960 0.176022 -0.894652 0.195085 -0.611966 0.678022 -1.733791 0.544932 -0.509476 -1.125093 -3.174596 1.231968 -1.425652 0.407598 -0.176148 -1.139558 -1.563328 -1.062549 -0.017873 -0.767574 0.150790 -1.044485 
skin -0.189599 0.153134 0.888287 0.117043 -0.453075 0.105824 -0.249614 -0.147509 1.633442 0.995046 1.193356 0.222516 -1.795905 -0.021118 -0.003747 0.639916 -0.458806 0.717067 -1.270424 -0.335669 -0.435593 0.870077 -0.437164 2.071598 1.625569 2.516061 -0.029521 -1.144408 -1.576795 0.462085 2.411604 0.446639 -0.537863 -2.838160 -0.080126 -0.549277 0.503371 -1.771475 -1.531088 0.225575 0.116345 0.934597 -0.342985 -1.794106 1.112004 -2.371250 -0.018238 1.475762 
influence 1.739527 1.108962 0.839022 -1.072152 1.375253 -0.469757 0.698881 -0.762649 2.243167 -0.557878 -1.756430 -2.843110 -1.288686 0.664277 -0.427316 0.841365 -1.789312 -0.103402 2.932498 1.525137 -0.898530 -0.000323 -0.513419 -0.204429 1.928613 1.710430 -2.465270 0.915135 1.893097 0.898656 -4.326125 1.210353 -1.513044 0.991332 1.856143 -0.709334 2.081504 1.110044 -0.826456 -1.093676 1.138297 -0.708028 1.894350 0.382367 0.032239 -0.878970 1.527129 1.135980 
responses 1.994556 1.195314 1.253328 -2.216861 2.428961 0.608856 -1.805188 2.614905 -0.235409 1.164574 -2.240069 -1.789087 -2.186583 0.898633 -2.201339 0.080606 -0.914259 2.202965 2.088845 2.857365 -2.156226 -1.980918 -0.601267 2.149704 0.369605 0.935910 -2.040392 0.018306 -1.611587 -0.281701 -1.094235 -0.529987 -2.861943 0.528583 0.319314 0.655438 -0.760635 -0.173301 1.664353 -0.933882 1.070883 1.395253 -1.964459 -0.089120 -2.456579 2.362021 -1.137020 -1.781512 
mouse 0.897370 -0.316671 -0.126314 1.217678 0.343562 0.767156 -0.806222 1.003318 0.214138 -1.212832 1.079811 -0.213718 -1.510297 0.310974 -1.800346 0.533885 -0.113469 1.351978 -2.360332 2.006375 0.546679 0.636310 0.560069 0.051015 -1.892691 1.809366 0.747089 -1.221574 -0.756019 1.711010 -0.201560 1.624246 0.700607 0.402929 0.501407 -2.234030 -0.608159 -0.793800 -1.027688 -1.429136 -0.559564 1.100334 0.523391 -0.198451 -0.209845 -0.393834 -0.408306 -1.361557 
renal -2.259651 -0.824956 2.494457 0.705007 -0.044005 0.968715 0.672892 -0.679961 0.164919 1.715547 -1.685216 1.348329 -4.252306 -2.398082 2.542536 0.171006 -0.707601 -1.580609 0.898054 -1.308823 -1.594359 0.372860 0.990762 -1.292923 -1.055601 -0.672768 0.231513 1.297999 -1.507529 -0.094483 0.663834 2.497021 -0.338867 -2.128067 1.299405 0.480484 -0.913181 -0.309868 0.204855 0.584664 -0.104852 -1.126681 -2.177930 1.319884 -0.277490 1.524194 -0.329954 0.932283 
k -0.859435 1.731184 1.660136 -0.100671 -2.476754 -2.971886 -0.600435 -0.687301 0.391895 -0.626944 -0.729054 2.381978 2.760839 -2.372022 0.427800 1.216026 -0.305961 3.619013 -0.672092 1.378736 -0.165347 0.819065 1.016098 -0.506385 0.282183 0.438951 -0.532458 -1.236120 -0.202044 0.238193 0.345881 2.076454 -1.368465 -0.339180 -1.547078 -2.559893 0.137286 -0.736335 0.048156 -0.008600 1.115949 -2.751585 0.841803 -0.547799 0.853754 0.317551 -0.489394 -2.548024 
factors 0.032183 1.304676 -0.662332 -0.132479 -1.092696 0.981792 0.288403 0.719115 -0.683825 0.885573 0.054171 0.588280 0.942931 0.968709 0.514052 -0.792311 1.933784 -0.590499 -0.705674 0.837134 -1.863312 0.496720 -3.167531 0.903243 -0.315097 -0.120048 -1.343042 3.533814 0.899659 0.369089 -1.333532 1.546886 -1.265030 1.768044 -0.881725 0.721092 0.873313 0.762845 2.051647 -0.144723 0.252354 -2.246991 -0.091429 -2.497821 -1.547367 0.900943 -0.756843 0.462750 
renin -2.001341 -3.428147 1.600938 0.845441 0.094604 1.705027 0.227711 0.896908 0.953277 0.654331 -0.125787 1.277611 -3.117234 -1.433625 4.639170 0.636528 2.082786 1.441464 0.578715 -1.509046 -4.186123 1.099367 2.117294 -0.308948 1.023775 -0.292929 -0.077923 0.897282 -2.501713 -1.418438 -2.334557 4.968606 -2.673164 -0.504685 0.919257 1.045294 -0.337599 -0.824890 0.857478 1.486586 1.704645 -2.826391 -2.469270 0.647728 -0.354777 0.254728 0.021536 0.867940 
action 3.947086 0.401968 0.780321 -0.491512 1.350546 -2.088668 -0.503246 -0.536966 -0.203496 -1.252668 -0.510984 -1.000120 -0.798272 -0.473264 0.599177 2.175766 -2.696061 1.263565 3.055286 2.002354 -0.370393 -2.594815 -1.113514 0.819207 0.375984 0.514344 -1.084358 -1.723496 2.137446 -0.690735 -2.710273 -1.522003 -1.831067 0.412596 1.183382 -0.119341 0.716899 0.464421 -0.556130 -0.817574 1.872046 -1.065227 -1.005770 -1.000996 -0.576877 -0.376097 0.188891 -0.012501 
b 0.117874 1.556875 0.212719 0.626304 0.890114 2.069296 -1.326539 0.691002 0.202182 0.373606 0.337340 1.516594 1.666888 -0.516889 -0.115462 -0.771710 -2.349105 2.122608 -1.240772 0.165936 -1.302169 -2.113518 0.372707 -0.324214 0.050893 0.426922 1.452097 -2.212350 0.219444 -0.259457 -0.859549 1.207291 -0.565275 -0.708034 -0.531143 -0.958768 -0.083911 -2.495720 -0.329061 0.288363 -0.566130 0.110346 0.557426 -2.023360 1.325766 1.321123 1.577527 -3.253110 
lung 0.279497 -0.070110 1.522103 1.121942 -0.538369 -0.537269 -0.088325 -0.146247 -0.087382 1.727911 0.654910 -0.583662 -2.538183 0.067062 -0.030497 0.797212 0.694848 -2.044222 -1.565778 -1.439374 -0.690099 -0.160274 -0.281148 1.331142 -0.392196 2.143681 -0.721890 -0.163204 -0.323590 2.669713 1.747320 1.571655 0.173322 -0.543310 0.219965 0.003316 -0.931754 -0.269124 0.458904 0.828564 -0.135612 1.158104 -0.557057 -1.284754 -1.323528 -0.097043 -1.158898 2.869850 
brain -0.033225 -1.230412 1.998299 1.987685 0.462336 -0.859501 -0.872081 -1.386696 -0.417681 0.302333 1.129910 -0.052419 -2.620802 -0.351671 -1.033856 0.161019 -1.065338 -0.679719 0.776475 1.369343 0.735386 0.436192 1.134207 0.164678 0.485020 -0.041911 0.928541 -0.533236 -2.096611 0.461129 -0.400047 0.034528 -0.710257 -0.255405 3.508683 -1.475972 -0.248592 -1.593087 3.088762 -0.388545 -0.492602 0.222086 0.103210 -0.589608 1.137136 0.296852 -1.558235 1.653344 
some -0.159222 1.471562 -0.884328 -0.021340 -0.816103 -0.203588 0.217984 -2.652645 -0.850411 -0.172333 1.775455 1.362408 1.017472 0.909463 -0.681300 0.408205 -0.414861 0.293396 1.006547 -0.659642 -0.969872 -1.982968 -0.164597 1.295014 1.278601 1.152255 -0.135729 -0.811759 -0.476485 0.356671 -0.425676 0.394387 0.061577 0.449367 2.424394 0.035879 1.458793 1.229692 0.309656 -0.467895 2.773063 -0.142887 -0.358131 -1.069362 -0.497904 -0.062696 0.159903 -0.310880 
pig 3.127832 -3.768771 -0.804130 -0.821903 -3.402949 2.048270 -0.191928 -1.929206 0.363299 -0.533132 0.186317 -2.522388 0.263214 -1.748709 1.915253 2.267728 -1.873225 2.250383 1.638118 0.204499 1.235748 2.738648 -0.836998 4.798059 -3.730688 -0.476086 0.156119 -3.635555 -1.335502 -1.056294 1.651499 1.336901 -0.675465 -0.695474 0.389532 -1.931124 0.426868 -1.264459 -2.127370 0.148808 -1.546336 -0.241157 0.082614 -1.272400 -2.195394 0.215135 -2.887302 -3.943672 
rabbit 0.842797 -1.672113 0.159964 0.530341 -0.631288 -1.310776 0.272001 0.017030 -0.504702 -1.210739 0.145288 -1.305197 -2.575182 0.470155 0.853260 0.288127 -0.819481 1.808247 -1.241349 1.631653 0.799582 -0.318399 -0.811044 1.391308 -1.829014 -0.018706 -0.175294 -1.731974 -0.779723 -0.409270 -0.903033 2.102171 -0.566934 -1.685916 0.332183 -1.609448 -2.403298 -0.446799 -1.295643 -1.500169 0.163650 -0.864889 -0.927743 0.303948 -2.562770 1.488028 -1.698205 -1.853287 
4 0.354354 -0.589709 -0.849571 0.773258 2.674182 -0.052982 -0.736904 -2.342236 -2.138211 0.105777 1.640202 -0.765439 0.626914 -2.499385 1.436710 -1.331903 -1.540913 1.254406 0.964835 0.862916 -0.604518 -3.108939 -0.640400 0.823630 0.271729 -0.750407 -0.445946 -0.769662 -0.610982 0.959415 0.483330 -0.414719 -0.769110 0.878249 0.493074 -1.544543 -1.538724 1.175024 1.022413 2.266155 0.681665 0.252327 1.894078 -1.511750 1.830615 -1.160832 -0.685350 -0.242112 
lymphocyte 0.769252 -1.065557 1.196172 1.119061 -0.534796 3.000886 -0.237654 0.543611 0.552464 1.978581 -1.846125 1.705292 -2.552581 -0.584395 -0.065586 1.259200 0.021645 0.932155 -4.728065 -0.987684 -3.446589 -1.418519 -0.533503 1.792305 0.487850 3.951034 2.102037 0.601795 -0.742007 1.278156 -1.104113 1.203043 -1.494825 -1.792219 -0.492386 0.314477 -2.625627 -0.417796 -2.231989 2.071969 -1.843994 1.423127 -1.047998 -1.868933 2.003907 -0.795562 2.018920 1.281518 
risk 2.644845 2.436143 1.056128 1.602501 0.102260 -1.388929 -0.556448 -1.425635 -2.017660 2.275313 2.761632 -2.319461 -0.903353 -2.381464 2.807047 -2.488216 1.732816 -1.279356 0.529471 -2.833549 -3.035299 1.177528 -2.152727 -1.409454 0.420076 1.249287 0.049369 3.339873 1.004105 0.047695 1.114731 2.277769 -1.073779 -0.183826 -2.320302 0.392308 1.023504 -1.969391 1.129039 -0.815371 2.462399 2.461290 -0.071774 -1.336135 0.452233 0.128439 -1.220278 -0.233475 
experimental 0.112455 1.931616 -0.634675 -1.266228 1.136330 0.871744 1.472429 -0.145552 -0.365324 1.538139 -0.058415 1.353527 -0.658787 -1.702995 2.022493 -0.310623 1.544771 -0.937110 0.311344 0.787169 -0.268497 0.641940 0.320977 -0.978102 0.910938 0.038286 0.522967 0.291962 -0.685108 0.714720 0.402871 0.428133 -0.653792 -2.065506 0.699244 -0.257174 0.330947 -0.583642 -0.654945 -1.290357 0.637909 0.440645 -0.126694 0.737779 -1.567036 1.362288 -1.418976 0.007379 
myocardial -1.950902 2.266948 1.928886 2.042525 -0.827369 -1.897272 1.842615 -0.917817 -2.227242 -0.584586 -0.069953 1.106336 -2.485023 -2.019012 0.052683 -0.178823 0.392181 -3.754381 2.386217 0.323951 -1.900827 1.610867 3.040671 0.811749 1.310034 0.097234 -0.718838 0.578126 1.493866 -0.213766 0.413643 -1.174402 -1.023226 -0.688010 0.887300 -0.536574 1.025952 0.637641 0.829614 -0.809098 1.614024 0.454706 -2.500595 -0.434589 -0.614058 -0.800433 0.078075 -0.638107 
treatment -0.275345 -0.633508 -0.141472 0.813553 1.789130 1.394443 -0.741123 -0.644947 0.655233 0.417162 0.323453 0.058723 -2.076789 -1.870309 1.673991 -1.571263 -0.285425 -0.453412 1.670498 0.888744 -0.207166 -0.480827 -1.451617 -0.437861 0.586346 0.425257 -0.472072 2.012929 2.285598 1.350883 1.209466 1.367035 -1.027111 -0.168680 -1.122764 0.748285 0.656705 0.576270 0.778503 0.614154 0.850271 1.185563 -1.659413 1.368317 0.266881 -0.920934 -1.622087 -0.795311 
at 0.725148 -0.713829 -1.975796 -0.403587 -0.802969 -0.810401 -1.043500 2.039948 0.725335 -1.115868 0.665675 -1.954906 0.743872 -0.214293 0.582688 -0.822176 0.227709 -1.394427 -0.030846 -1.585443 -0.214463 1.089867 0.358083 -0.765239 1.117114 -0.916460 -1.664389 0.838939 -1.961050 0.099627 0.043556 0.007040 -0.455771 0.814036 -0.161825 -0.616824 1.644787 1.935329 -1.112694 -1.557487 1.848884 -0.523979 -0.056040 -1.376802 1.331558 -1.581986 1.755825 -1.017977 
isolation 0.734080 0.529524 -3.911954 -0.238722 -0.091070 -0.814937 -1.858767 -2.070799 -0.821884 -0.670566 3.283410 -1.945660 -0.806054 -0.946753 -1.867107 1.088153 0.103880 1.493144 -2.032423 -1.994246 -0.412167 -0.680538 -1.802856 0.413297 1.270528 0.429637 0.189062 -1.631099 -0.227025 -0.528152 0.000294 0.015973 -1.671245 0.140851 -1.672297 0.155483 1.179149 -1.100326 -1.036877 0.066808 0.706698 -0.342597 -0.674187 -0.254060 -0.406166 2.678520 0.552872 0.357627 
function 0.545558 1.151438 0.680808 0.612398 0.563349 1.457836 0.356913 -0.493233 0.186256 -0.686247 0.035077 -1.042710 -0.519797 -0.704285 1.171983 1.330544 0.746627 -0.138670 0.400465 2.124063 -0.769932 1.781472 0.512960 1.058404 -1.694446 0.352994 -0.148903 1.843523 -0.110785 -1.530158 -1.128795 -0.232661 -1.408971 1.461299 1.667427 0.192323 -1.834942 0.238558 0.192657 0.956212 -0.879970 1.597759 -0.425875 0.234834 0.361482 0.788277 -0.437965 0.160110 
dna -2.135691 2.050046 0.130105 0.193685 -0.556336 1.825446 -1.386416 1.486130 0.287562 -0.523559 2.813569 2.297275 -1.197662 -2.734439 -0.767339 3.227684 0.537402 2.015038 -2.405343 -0.978658 -1.824332 -0.183663 0.844242 2.216891 1.415525 1.282055 0.058989 0.446233 -0.171680 -0.366768 -0.554096 0.116001 1.107534 -1.713532 -0.491019 -2.985661 0.329758 0.982398 -0.221659 -0.810554 -2.771780 0.038106 0.221122 -1.023643 -0.404875 -2.032362 0.423861 0.189845 
cortex 1.650362 -1.377525 -1.009533 0.380894 0.152840 0.833605 -2.672788 -1.685588 1.417582 0.709337 0.057396 -0.840861 -1.758783 -1.392904 -2.109574 -0.552161 0.498950 1.798754 0.270425 1.460645 -1.156892 0.245856 2.607188 0.744181 -1.008096 -0.994439 0.694086 0.407147 -2.774503 -0.262290 1.643320 1.284773 -2.216577 -0.790854 2.028954 -1.031082 -1.634246 0.291985 2.083683 -0.911660 0.875606 0.498451 0.164864 -0.811842 -0.815808 1.141740 -3.680174 0.477290 
dependent -0.213901 0.396377 1.542866 -1.431912 -1.047473 -0.239931 0.255996 2.605201 -0.742819 -0.414364 0.577497 -0.586184 -1.208686 -1.367991 -0.968961 1.446704 -1.480183 0.890959 0.333630 -0.916943 -1.503212 0.768345 0.293277 -1.938825 -0.598743 0.993913 -0.209804 0.248385 -1.641403 -0.534407 -2.816407 -0.760399 -0.237800 0.728884 -0.145111 -2.648996 -0.481407 0.134945 -1.570311 -0.885815 0.198536 0.006611 0.388886 -0.182620 1.340617 1.092214 1.864910 -1.231182 
release 0.579760 -1.039203 1.169893 -1.071480 1.803640 -0.410020 -1.639686 0.085154 -1.027332 -1.200037 -1.027863 -2.393572 -4.555716 -0.231710 1.899300 1.536217 -3.267026 1.953777 0.501205 -0.002858 -0.400671 -0.008249 -1.261637 0.533111 -2.858419 -0.374650 -0.552896 -1.812939 0.550936 0.343669 -2.825734 -0.564316 -1.775244 1.020301 -0.551498 -0.659827 -1.537749 -0.518719 2.311562 -2.215846 -0.084897 -1.205947 -1.847871 1.575334 -0.732677 0.642650 -2.749057 -1.604666 
new 0.619952 0.092339 -0.010966 -1.291167 1.114901 1.062616 -0.667973 -0.248499 0.126519 -0.265162 1.937253 -1.320951 1.307429 -2.389515 0.872189 -1.021440 -0.458284 -0.121975 -0.265824 -0.917242 0.060472 -1.179111 0.035176 -0.443419 0.283734 -0.315866 0.841370 -1.117023 0.205979 -1.490517 0.811264 -1.452369 0.672783 -0.459007 0.410895 0.859713 0.443050 -1.462554 -0.637542 1.351841 2.117361 1.275822 -1.377899 -1.346442 -0.260283 1.288489 -0.417244 -1.036728 
red -1.017850 -0.457731 2.593509 3.110291 -0.716674 0.004176 -1.944014 1.199223 0.016762 -0.227050 1.924363 1.331182 0.072814 1.818491 -0.105162 1.851381 -1.692298 -4.892271 -0.958704 0.061356 -1.865039 -3.997698 -0.107681 1.273746 0.810746 -0.238973 0.338557 -3.203181 1.038525 -1.177344 0.919719 1.022980 -2.934778 -0.680894 2.410523 -1.564329 1.949026 -1.218448 1.039489 0.197938 -0.299799 0.599454 -2.568419 -1.092260 0.765674 1.350338 1.064635 -1.284050 
beta 0.107083 -0.543998 -1.616479 1.353006 1.726922 1.049039 -0.919883 -1.314373 0.838602 -1.039215 0.270975 0.165099 -0.365424 -0.495267 1.221901 1.547580 -2.038314 3.917408 1.024219 -0.168717 -1.877693 -1.375709 0.066914 0.491320 -0.333222 -0.101717 1.213199 -1.943658 0.362423 -0.737719 -0.997580 0.279284 0.060397 1.659698 -0.159142 -0.607710 -0.773082 -0.405747 1.952052 0.488809 0.743115 -0.882462 -2.018101 0.340025 1.748496 0.535499 -1.012061 -0.081898 
amino -0.672649 -3.107869 -1.170280 0.454768 3.011201 -2.277030 -0.813846 -2.933853 -1.140944 -2.454081 2.602074 -1.904807 1.650387 -1.004175 3.839108 0.849046 0.163383 0.151557 3.313567 0.077707 -0.324118 1.616303 -1.456298 1.317255 1.307266 -1.466682 1.043365 -0.783492 2.507430 1.840488 1.475897 0.419613 -2.663131 -0.801362 -0.416000 -2.717064 -0.804771 0.803962 -0.034918 -0.753099 -1.555448 -0.972601 -0.292004 -0.206340 0.489701 0.746185 -0.672405 2.814896 
alpha -0.318386 -1.400148 -2.015689 1.103966 2.616313 1.070667 0.107785 -2.011657 -0.455715 -0.439652 0.448554 -0.916745 -0.531958 -0.784457 1.381451 0.982617 -1.982166 2.891894 1.148146 -0.857525 -1.481103 -1.535279 -0.264787 0.704407 -0.195746 1.269185 0.400142 -2.083479 -0.132938 -0.449128 0.398476 0.489272 -0.231915 1.368888 0.201617 0.319402 -0.754892 -0.738937 1.903524 0.248780 -0.398567 -0.412520 -1.526528 0.277717 1.753282 -0.449624 -0.955542 -0.797035 
related 0.321912 0.548404 0.733247 -1.194477 0.213256 -0.101954 -0.262386 0.596254 -0.180980 0.416282 0.724277 -1.183335 1.417843 -0.464211 -1.338172 0.724778 0.695543 -1.275611 1.345543 -1.313861 -1.273011 0.255836 0.859978 0.506698 0.223890 1.207554 -0.141914 0.761229 -2.965327 -0.045664 -0.986288 0.169292 -0.976572 2.627594 2.008956 -1.902039 0.433419 -0.629873 -0.224365 0.567190 0.281789 0.893161 0.820726 -1.505659 0.769439 0.827383 0.149220 -1.839924 
12 -0.864883 1.382280 0.301558 1.037445 0.454667 1.090755 -0.789312 1.564559 -0.683357 0.653331 0.353571 0.910426 1.857456 -3.781534 -1.084712 -0.476978 -1.071108 1.915273 -0.159442 -0.165200 0.914856 -1.884202 -1.398045 0.699639 -0.642754 -0.589368 2.714583 0.496941 -2.015577 -1.148798 1.868599 -1.697731 -1.915697 -0.710002 -1.627093 -3.019164 0.629204 0.659190 0.637605 -0.494662 1.847158 -0.691551 1.273846 -1.671918 2.574641 -1.379857 -1.021811 -1.270333 
pulmonary -0.599200 1.203551 2.008178 0.038016 -0.855102 0.178571 -0.026965 -0.208859 -0.691622 1.851734 0.052392 1.528466 -2.211299 0.257916 1.847434 -0.502705 -0.342118 -2.577464 0.113296 -0.173930 -0.891188 0.648803 0.279429 0.858900 0.461101 0.098532 0.340825 0.155398 0.350773 1.408417 1.095816 2.535393 -1.474672 -1.675254 0.592173 0.895874 -1.042760 -0.765151 -0.267730 0.138208 2.396318 0.893787 -1.385521 -0.458515 -1.804220 0.135081 -0.739336 -0.107086 
d 0.639279 -1.179854 -0.287882 1.243014 1.918786 1.184458 0.096301 -1.633359 -1.304676 -0.894703 -0.178487 0.314735 1.504869 -1.333439 -0.137807 1.044495 -1.487098 1.370702 -0.226290 0.873888 -1.390684 -1.258390 0.078950 -1.805526 -1.252559 1.338413 0.500476 -1.902671 0.606843 -0.202401 -0.464915 -0.483677 -0.564424 1.614063 0.199179 -1.197263 0.128518 0.321973 1.420951 0.377952 0.384708 -0.870988 0.124016 -1.120805 1.791919 -0.680203 -0.138340 -0.368787 
acute -0.526795 0.771499 0.544891 -0.007324 0.451063 1.650111 1.337453 -0.430700 -0.460263 1.239973 -1.458078 -0.662915 -2.128637 -2.115660 1.666810 -1.188042 -0.453390 -2.211492 -0.028165 2.094297 -0.717380 0.463933 1.719371 -0.435843 0.145770 0.263909 0.693644 1.025409 0.670987 2.058654 0.012704 1.341126 0.336727 -0.706999 -1.123488 0.128996 -0.275834 0.948916 -0.434276 -1.082116 1.116429 1.373086 -1.265494 1.038299 -0.848750 0.129839 -1.028738 -1.054642 
structure 2.754750 0.629361 -2.757632 -0.583738 -0.087243 0.649242 -2.751094 -2.279276 -0.533633 -0.666587 2.527809 -0.016173 -0.288828 0.316460 -0.805633 1.964246 0.737684 0.923122 1.600050 -1.071977 -0.092912 -0.512467 0.524450 -0.837744 -0.733070 0.553967 -0.240982 -0.975046 -1.191115 -1.438293 -0.202079 0.630040 -0.508139 -2.065415 1.287857 -1.222808 -2.259537 0.357027 -0.326103 1.393929 1.347823 1.286038 1.404647 -1.115572 1.647218 3.232060 1.064141 -0.276498 
antibody 0.567033 -1.023439 0.443015 -2.093981 0.223586 2.763911 -1.598224 0.311728 -0.105970 -0.059404 0.509724 3.092332 -1.109388 0.181972 2.200928 1.961570 -0.243442 0.436348 -5.362758 0.459853 -2.170221 -1.747431 -0.515202 0.044204 -0.044423 2.730177 -1.205366 0.205706 0.723108 0.666004 -0.277833 0.921401 -1.729182 -0.771347 -0.485636 0.022137 -1.244483 -1.735944 -1.073777 0.502691 -1.055343 0.507857 -1.214155 -2.809133 -2.023123 -0.629901 1.528510 0.810912 
hypertension -2.122922 0.276057 2.411942 0.644201 1.265775 2.618241 -0.414527 0.614368 -0.835752 2.630343 -0.667474 -0.405752 -2.098810 -1.934611 3.935364 0.197571 1.198229 -0.162300 0.336152 0.771403 -2.506262 1.092786 -0.445043 1.028394 0.205484 -0.444683 -0.780288 3.105392 -1.352121 -1.024950 -0.228427 2.160152 -1.928121 -0.757616 -0.851692 -0.351815 -1.715612 0.166646 1.352093 1.536953 1.654006 -1.017514 -1.600300 2.921923 0.169785 0.878949 -2.389143 0.474826 
formation 1.025704 0.628580 -0.260930 0.484870 2.287182 0.267667 -1.363472 0.171391 -0.631076 -0.017694 -0.517240 -0.275419 -1.834305 0.257177 -0.507737 0.846863 -0.886252 0.835186 -0.005412 1.730972 -0.733401 -0.801602 -0.109348 -0.037159 -1.902707 0.971374 0.466699 -1.639659 0.650722 0.784804 -1.305472 -0.877969 -0.074442 -0.332922 -0.245569 -1.368149 0.478587 -0.221671 0.628595 -0.977922 -0.938403 0.087264 0.170281 0.082315 -0.044566 1.998658 -0.108705 -0.619282 
control 1.200314 0.680418 0.485073 -0.012567 0.496168 0.915986 1.065141 1.399396 -0.140705 0.677649 0.313498 0.062845 -1.156169 -1.008308 -0.186032 0.744751 1.354591 0.811732 0.795133 1.413753 0.994931 -0.910727 0.371115 -0.439884 -0.200007 -0.315279 0.890559 1.044979 -0.188524 -1.901827 -2.120985 0.619410 -0.374707 0.430224 0.354718 -0.292172 0.946269 0.229411 1.267817 -1.481130 -0.225383 -1.569109 0.131569 -0.634994 0.164709 1.903223 0.618041 1.552716 
guinea 2.076921 -2.398073 -0.447365 -0.429323 -0.255214 -0.932623 -1.178831 -1.535013 -0.884732 -1.691739 -1.940638 0.204274 -1.564579 -0.318274 0.211338 0.362043 -3.021946 -0.274597 1.139879 2.405737 3.170842 -0.608875 -2.503412 -0.842610 0.219135 1.514450 -1.737562 -1.555128 -0.941490 0.647278 -1.671623 0.593729 -0.338593 -4.704892 -0.020892 -1.923732 -4.431176 -2.295259 -0.291876 -2.653657 1.944174 -0.497247 -0.890443 -1.708992 0.193940 -0.224495 -0.338560 -0.510490 
cardiac -0.169294 -0.072109 1.838200 -1.725725 -1.568265 -1.953902 1.955862 -0.774920 -2.219311 0.335549 -0.222990 0.617797 -1.812247 -1.142997 0.264747 0.020611 -0.385782 -1.619287 -0.229475 0.581535 -0.251584 -0.576427 1.567189 1.273414 0.186653 0.703880 -2.040621 -0.758060 -0.201550 0.091533 1.614351 0.759427 -0.945826 -0.982147 0.274519 -0.640770 -0.694341 -0.061895 -0.629603 -0.126527 1.024773 0.142815 -1.024784 -0.331495 0.431104 -0.168180 -0.395662 0.141700 
infection -0.421714 2.726457 -2.396567 -0.829723 1.999484 2.254364 -1.947865 0.146042 -0.556161 2.441388 -0.354058 1.929437 -0.172078 -3.180303 0.618753 0.330341 0.057762 -1.869258 -0.338709 2.097787 -1.774382 -1.358652 -1.756013 -0.235057 0.864665 1.879876 -1.334501 0.928824 0.782652 2.722937 1.438469 -0.513476 -0.994467 -2.090147 -1.174336 -0.239124 0.959216 1.254741 -1.090400 0.835368 -1.749278 0.976106 0.157622 -0.710619 -1.620493 -0.359095 -2.899341 0.891469 
man -0.665865 -0.449660 0.647106 0.624327 0.686392 1.099391 0.594253 0.188364 -1.244148 0.671556 1.168805 -0.411698 -0.301418 0.756049 1.690348 -0.446518 0.538936 0.048217 -0.278437 2.405993 -0.358186 1.006536 -0.003176 0.822033 -0.030359 0.543418 -0.582496 1.483522 -2.020240 1.450262 -1.017562 3.159795 -1.160960 -0.038574 -0.030058 -0.175425 0.339582 -1.337391 0.910104 -0.453823 0.902975 -0.837975 -1.132433 1.603989 -0.416191 0.729958 -1.151833 -0.040368 
antigen -0.629017 -0.559163 0.636895 -0.921392 0.470371 2.787439 -1.529356 0.844046 -1.985335 1.300142 -0.386819 -0.050143 -1.128941 0.185727 1.338696 1.043224 -0.509033 1.122300 -4.167879 -0.688866 -1.720815 -0.815280 -0.423682 -0.269009 -0.860080 1.111577 -0.699429 -1.743876 0.064232 0.332492 0.645105 0.477873 -0.763393 -0.688442 -1.261311 -0.655649 -2.438180 -1.495710 -1.564031 0.943077 -1.026527 0.780050 -0.297126 -2.108768 -0.755028 0.030479 1.731158 -0.746075 
acids -2.073216 -3.336731 -3.445664 0.730670 0.082239 3.140940 -3.091463 -2.723350 -2.697944 -1.267637 1.120414 -0.914457 -1.516778 -0.247464 -0.566772 3.966216 1.177247 -1.412254 2.846444 1.163007 0.832798 1.111834 -0.335469 1.382150 2.162777 1.260058 -2.026623 -0.068859 -0.403704 2.762699 1.101637 2.970890 1.354304 0.733750 -1.313436 0.214719 -0.063449 0.780101 1.125951 4.206885 -2.276509 -1.702318 1.208049 -1.299888 -1.433351 1.739483 0.977744 0.704874 
distribution 0.654600 1.074787 -0.005522 1.032802 1.146311 -1.000545 -0.864684 -0.662916 0.754571 -0.930380 1.674251 -1.192668 -0.098393 1.181394 0.071704 0.575817 0.221329 0.488410 1.988045 0.540208 -0.307530 -1.085189 0.378691 1.194998 1.492478 0.689381 -0.046650 -1.163875 -0.966097 0.439431 -0.208981 0.710895 -0.413683 -0.232147 0.983740 -0.353837 -0.091142 0.487674 -0.462225 0.045276 0.216794 -0.938228 0.485718 0.093911 0.203421 2.146001 0.777307 1.026036 
or -1.125265 -0.593576 1.699512 0.001707 0.931795 0.512708 -0.603505 2.535154 -1.028164 -0.559634 0.379225 0.022969 -0.848245 -1.432914 1.644871 -1.053356 -1.589472 -0.283983 0.988320 0.180404 0.391336 -0.292038 -1.244898 -0.533201 0.583325 0.230839 -0.319491 0.173963 -0.002244 0.613925 1.094877 -1.010775 -0.176204 0.805909 -0.048328 -1.177221 0.673938 0.723424 -0.211718 0.214966 0.903755 0.190916 -0.817690 1.391412 -0.001523 -1.650777 0.228246 0.097735 
two -2.479520 0.200883 0.089308 1.142814 -0.171991 1.327501 0.440757 0.140728 0.133196 -0.695207 0.864481 -0.034268 0.553609 -1.408852 -0.386123 -1.504493 -0.147570 0.448160 -1.169365 -2.223893 -0.970821 -0.236396 -0.157735 -0.922565 0.079513 -0.364004 1.399938 0.045641 -1.002702 -2.157141 1.924018 0.830305 -0.095230 -0.730412 0.432203 -1.159420 0.542628 -0.749001 -0.382198 -0.432157 1.301010 -1.421874 0.548005 -0.475420 -0.108943 -0.427236 0.997399 0.075119 
specific -0.403695 -1.259669 0.995778 -0.525601 0.684406 0.936527 -1.099157 1.472365 -0.484089 -0.195310 1.138224 0.300670 -0.529157 -0.325619 0.323234 -0.371101 -0.214732 1.642732 -1.414214 -0.719513 -0.374835 -1.239741 -0.706823 -1.952306 -0.211906 1.045651 0.637478 -0.340050 -0.757989 -1.157068 -0.626604 -0.322293 -0.786631 -0.042478 0.470370 -1.474303 -0.540124 -1.155584 -1.319330 -0.153519 -0.005235 -0.644277 -1.381159 -0.908534 -0.920937 0.293238 0.994766 -0.031831 
purification 0.083885 -0.014426 -3.562582 -0.067546 0.092959 -0.640605 -1.688619 -3.320603 -1.764933 -1.085891 2.866051 -1.142081 -1.078424 -0.758642 -1.689774 2.447098 -0.551471 2.903372 -1.276911 -2.326629 -1.937047 -2.385519 -1.441059 1.141919 1.163275 1.321923 -0.118711 -3.636074 -1.020081 -1.353095 -1.078470 0.297474 -1.373342 0.843454 -0.577456 0.113603 0.574445 0.044619 -0.488779 -1.455054 0.593200 -0.402092 -1.113714 0.155062 -0.249013 2.723606 -0.775563 -0.218896 
evidence 1.179102 1.399207 0.390261 2.436262 -0.511410 1.290997 -1.282459 1.480808 -1.342723 -1.200873 0.422058 -1.356107 -2.474813 -1.031868 0.926121 -1.940244 2.466413 1.151814 -1.677271 0.250175 -0.625341 -0.241247 1.034623 -1.708422 -0.220706 -0.716866 -0.852289 0.942782 -0.411364 -1.852421 -2.022160 -2.990595 0.326302 0.166034 -0.121786 -1.161069 -1.012726 0.006332 -0.827755 1.351307 -0.984175 -2.852229 -2.872875 -2.946406 -0.390863 0.402059 -0.913195 0.469814 
comparison -0.917805 1.648135 -0.596957 -0.609399 0.541038 0.494653 -0.145630 0.015595 1.377245 -0.855408 1.177706 -0.681261 -0.986922 0.749143 0.578832 -0.841624 0.993734 0.075716 0.631286 1.269378 -0.026314 -1.835964 0.174500 -1.016133 1.112629 0.818888 -0.157471 -0.950596 0.604593 -0.236449 1.073015 1.039572 -1.216063 -0.021361 -1.144746 1.273639 -0.847604 0.486210 -1.590373 1.311832 1.009716 -0.079762 -0.521519 -0.990807 -0.098569 1.568705 -1.231977 -1.372485 
cancer 1.469041 0.916495 0.112920 0.851263 -0.429045 2.040976 -1.154363 0.240919 0.193890 1.270574 1.228451 -2.671273 0.616244 -1.351788 0.444883 -1.506336 2.111882 -0.493436 -0.239385 -0.766211 -1.093380 2.330462 0.156755 0.978896 0.945951 0.904989 -0.668383 2.193318 2.750725 1.868159 0.841687 2.409631 0.343685 0.458378 -1.978735 0.459252 0.436417 -2.456157 0.378080 -0.328156 1.343608 1.645262 -0.636344 -0.971992 0.611015 -0.435335 -0.023011 -1.515149 
cyclic 0.073327 -0.184233 3.258978 0.390734 -0.806350 0.487325 3.023623 -1.094668 -2.729793 -0.174821 1.942990 -0.774020 -3.182136 -2.246476 -1.430286 2.645295 -2.697853 1.865486 1.875708 0.587730 -2.486825 -1.463071 1.501176 -0.069833 0.463941 1.776652 -0.892085 0.147656 -0.267599 -1.294123 -2.887872 1.890985 0.216697 0.958527 0.558486 -0.649313 -3.062577 0.632091 0.348587 -0.913296 -1.555917 0.844550 -1.248558 -1.640337 -0.051913 -1.330517 0.180837 -3.695858 
binding 1.260148 -2.367098 1.855105 -1.536323 0.749133 -0.223526 -3.025316 0.686354 -3.722205 -0.756275 1.434176 -2.249500 -0.927631 -0.380728 -0.368713 1.858626 -0.041163 1.914213 1.318018 -2.021559 -1.173058 -0.109939 -0.371653 -0.040083 0.055417 0.689288 -0.151195 -0.895759 -1.542414 -1.405213 -0.495324 -0.378503 -1.072209 0.434115 0.706243 -1.408922 -0.694383 -0.837958 -0.823928 0.927463 -1.087777 0.284961 -1.370283 -1.271884 -0.693619 0.756363 2.579611 -0.814811 
c 0.928323 -0.276744 -0.051930 0.097997 3.056238 1.077511 -1.174769 -0.844960 -1.649475 -0.939857 1.125251 -0.430713 1.829058 -0.818705 -0.257119 0.684249 -3.343359 -0.232224 -1.403823 -1.089898 -2.405862 -0.979857 -0.453853 -1.409858 -0.454790 1.510369 -0.476066 -1.931863 -0.338116 0.422426 0.682121 -0.581268 -0.029074 1.647501 0.237691 -1.384927 1.028906 0.382198 -0.030169 0.075246 -1.273291 0.935073 1.454715 -1.521820 0.078678 -0.354810 0.766745 -1.219824 
adenosine -0.105027 -0.961868 2.557369 0.237425 -0.940143 -0.115647 1.622684 -1.314284 -3.564766 -0.787293 1.211707 -0.541946 -2.393148 -2.554251 -0.946949 2.682491 -2.473799 2.077178 2.071979 -0.159278 -2.874877 -1.949398 2.361644 0.021353 -0.124909 0.385223 -0.223425 0.238350 -1.086784 -0.943199 -1.697909 1.293800 -0.385951 1.206257 1.311124 -1.177062 -3.114802 1.802795 0.552329 -0.092035 -1.209494 -0.899853 -0.607013 -0.719044 -0.296363 -0.444979 -0.164161 -2.395580 
angiotensin -1.297874 -0.274797 -0.247549 0.895386 2.398477 3.496354 -0.048411 -1.019784 0.202864 2.707196 -1.073362 0.482800 -3.281786 0.190605 3.774515 2.749282 0.601244 3.054343 0.658718 2.389019 -3.158599 -1.360229 0.376019 1.678023 0.197345 -1.032647 -2.128298 1.184514 -1.666818 -0.526543 -2.146485 2.234557 -3.163272 0.818527 0.647463 1.533247 -2.462992 1.619118 1.200139 0.481319 0.933292 -2.702169 -1.267327 -0.047538 -1.242994 0.565448 -1.410053 1.055570 
enzyme -1.047246 -1.183162 -1.313425 -0.796373 -0.691433 0.953207 -0.885032 0.098267 -1.588642 0.175204 1.049504 1.237925 0.329536 -1.557174 0.487241 1.326359 0.175708 0.991723 -1.322652 -0.960420 -2.058799 -1.214327 0.449025 -1.648119 -0.666667 0.539335 -0.573342 -2.138726 -1.328870 -0.281343 -1.905472 0.740929 -0.467504 0.639670 0.387383 0.389342 -0.439914 0.160542 1.321968 0.460164 -0.689872 -1.114568 -1.389947 0.426317 -0.638107 1.326719 -1.501415 0.903225 
coronary -0.126499 1.733739 0.345300 0.236221 -1.478466 -1.769956 0.655350 -1.207897 -1.025445 0.552552 0.330213 -0.748373 -2.650438 -0.690516 2.721886 -1.648429 -0.735658 -2.294196 0.560568 -0.296975 -1.812522 1.968624 0.264292 0.791568 1.149189 -1.638734 -0.040897 0.968979 1.199149 0.481571 1.384555 2.549983 -1.669907 -1.014724 -0.842014 0.983676 -1.062514 -0.662837 0.410328 -0.655494 2.588259 0.660823 -1.644668 -1.641734 -2.430691 0.050142 -2.586775 -0.280718 
factor 1.264436 -0.320731 -0.712786 -1.319358 -1.794738 1.582709 -0.983300 1.680679 -0.056424 -1.211753 -0.268804 -0.008419 -0.501219 -0.508124 0.181845 0.458118 0.937684 1.312194 -1.490368 0.926463 -0.297311 -0.039776 -1.980388 -0.804025 -0.085368 2.038617 -0.590013 0.299345 0.940321 -0.145980 -1.701193 -0.614754 -0.533884 1.164920 -1.673484 0.826347 -1.097519 -1.322483 0.284975 0.403996 -0.499088 -0.093151 -1.091069 -3.494801 -0.278629 -1.078332 -0.325261 -0.431270 
regulation 0.339259 0.399308 0.201404 0.770485 -0.796216 0.490183 0.277340 0.009004 0.323472 -0.042631 0.840720 -0.575018 -2.445345 -0.903625 -0.411412 2.230585 0.772840 1.030618 2.155522 0.756632 1.100729 -1.504221 0.534428 -0.657959 -0.043909 0.788041 1.025858 0.437675 -0.736919 -1.237841 -3.180301 0.976173 -0.100616 1.102623 0.496980 -0.410372 0.102134 -0.004293 1.234256 -1.681551 -0.651863 -2.521392 0.088510 -0.501661 0.739579 1.698622 0.291879 1.633338 
mechanism 2.648314 -0.407245 0.342554 -1.163187 0.589149 0.381254 -0.410792 -0.541330 -0.645041 -0.704259 -1.180202 0.545005 -1.083720 -0.278459 2.176698 0.688963 1.531928 0.822462 -0.184959 -0.093062 0.286356 -2.529976 0.230919 0.160902 -1.250657 0.621255 1.008803 -0.299290 0.553904 -0.901552 -2.117154 -0.259922 -2.168010 0.947201 -0.605615 -0.925245 -1.486711 0.357782 0.560161 -0.856462 0.550268 -2.081215 0.166754 -0.904234 0.046078 1.304201 -1.328957 -0.190669 
secretion 0.595785 -1.655382 -0.258494 0.379330 1.576872 0.828404 -0.415978 1.069762 -0.755196 -0.270726 0.948719 -1.189131 -4.086608 -1.120765 2.517514 0.718604 0.029132 0.912486 1.883916 0.874777 -0.278010 1.170081 -0.712193 1.454764 -0.013672 0.522188 -0.903981 0.831236 1.816291 0.445527 -2.424972 0.465541 -0.262772 0.820464 -1.190243 1.157830 -0.323801 -1.148654 1.468685 -1.626950 -1.218543 -0.000844 -2.582622 0.823486 -0.050463 0.427728 -1.735316 1.452420 
method 0.964245 -1.310590 -0.663610 0.291055 0.881696 0.490236 -1.370898 0.553908 0.023461 -1.880379 1.832527 -2.363805 -1.470072 -0.877470 2.233260 -1.056646 2.752134 0.439429 -1.351022 -1.490715 0.277789 -1.023488 0.326624 -0.678931 0.427176 -1.931965 -1.016148 0.386574 2.380935 -0.860607 1.112001 -0.816615 -0.580935 0.249921 -1.375348 -1.286224 -0.623965 0.267471 -0.871836 2.090839 1.317056 -0.010700 -2.790810 -1.679367 -0.158526 2.222195 0.639717 -0.546977 
interaction -0.665121 1.271413 1.429065 -0.290753 2.552366 0.816727 -2.069184 1.067006 -0.099740 -1.497428 1.412243 -0.530074 -1.253765 1.666847 -0.171388 1.733059 -0.295332 1.371084 3.838362 0.727173 -0.182196 -3.019263 -0.210601 -1.011213 -0.640231 0.436591 -0.067937 -0.268164 -0.197462 0.018329 -0.248073 0.329385 -1.616466 -0.880797 1.575144 -1.359732 -0.962165 0.648951 -1.421537 1.336118 0.551452 -0.111022 -0.910276 0.060287 1.062214 2.004534 -1.358540 -2.904339 
l 0.401909 -1.636417 -0.713068 2.515953 0.593039 -0.828897 -1.253577 -0.758212 -0.554469 -0.669967 0.249749 -0.247459 0.875533 -0.985265 -1.214831 -0.583972 -0.926457 0.865584 -0.187366 1.214093 -0.163216 -2.329950 -0.018372 0.300410 -0.225882 0.224574 0.337404 -1.725064 0.804574 0.991836 -0.082021 0.288676 -1.262817 2.197797 -0.118698 -1.611408 0.230173 0.420168 2.454910 -0.946705 -1.206153 -1.314685 -0.748445 -0.554723 0.851717 -0.219111 -1.593311 -1.050945 
electron 1.507387 2.159018 -3.465440 2.391412 -0.018850 -1.680107 -1.777353 -1.044349 -1.066656 -0.378914 -0.030239 2.035862 -0.783828 -1.012976 2.998287 2.644466 0.864638 -1.202281 -3.053479 -1.856800 1.320658 0.782068 1.138633 0.511635 0.044973 -2.930344 0.633252 -1.218506 2.675790 -0.226599 2.171365 -0.721259 -1.122593 -1.587858 2.473327 -1.805061 0.385714 -0.490856 -1.362415 -0.810804 0.171933 1.288477 -0.848867 -0.715361 -0.841812 2.036958 0.937506 -0.564360 
development 1.404899 1.651412 -0.300605 -0.651972 -0.407218 0.526779 -0.703200 -1.067862 0.717261 0.320440 -0.055025 -0.513903 -2.277880 -0.204396 -0.989537 -0.119315 1.455891 0.121689 0.847560 1.090911 -0.723494 0.461660 -0.091429 0.174426 -0.669831 1.334406 -0.892749 0.579122 -1.095798 1.440178 -1.464068 1.353753 -0.462087 -1.280212 -1.382795 -0.582054 0.164606 0.088326 -0.180898 -0.533917 0.199283 0.904175 -0.339580 -0.509879 0.409223 1.155554 -1.092371 0.578509 
production 0.981376 0.429140 -1.168918 0.408458 2.091582 -0.564578 -0.791562 0.354430 -0.243075 -0.276476 0.670659 -0.777452 -1.690425 -0.552530 0.866928 0.936541 -0.584153 0.541719 0.594017 0.344844 0.271892 -1.160687 -1.313429 -1.008212 -0.354850 1.433740 1.152626 -1.653847 0.872304 1.326041 -2.217689 -0.480330 -0.178759 -0.025290 -0.978061 -1.320731 1.391913 -0.804443 -0.825366 -1.370061 -1.193446 0.236788 -1.239381 0.044317 0.090226 0.566366 1.147409 -0.560220 
relationship -0.627940 -0.057313 2.408619 -1.759266 1.886157 2.022613 -0.492469 2.824555 -1.235107 -1.471076 0.415681 -2.225406 0.260198 1.686588 -1.408841 -0.166591 2.673645 0.264585 2.628783 0.582966 -0.111517 -1.991596 -0.512190 0.542087 0.656850 0.997925 -0.839618 0.975479 -1.321962 -0.448191 0.844639 2.891798 -2.634336 0.766728 0.263139 -1.793192 -0.760380 1.388698 -0.246597 1.369168 0.089887 -0.991031 0.144611 -0.142927 -0.687598 1.536418 -0.089208 -1.335409 
t -0.490378 0.499637 1.917862 1.433015 0.138414 3.043836 -1.639570 1.575985 0.552132 0.242622 0.492962 1.346494 0.047898 -0.096690 -0.491015 0.114086 -1.652891 1.056252 -2.332033 -0.296428 -2.521077 -2.261048 0.201020 -0.468857 -0.503724 2.638403 0.626570 0.053982 0.987899 -0.448901 -0.847259 0.183995 -0.593131 -0.379653 0.167895 -0.953067 -1.220667 -1.964616 -0.344750 -0.405099 -0.900341 0.649689 -1.452911 -2.082272 0.660989 -0.423173 1.964466 -2.112313 
relation -0.835055 0.131541 2.846394 -1.869139 0.894186 0.824306 -0.708596 3.137332 -1.443357 -0.558105 0.148694 -3.377733 0.634130 0.573384 -1.868024 0.626611 3.279714 -0.616656 1.794168 0.739663 -0.493590 -1.575521 0.261659 1.066699 0.616198 0.970528 -0.696672 0.111950 -2.715859 -0.252545 1.180048 2.635445 -1.613438 1.099247 1.090131 -2.296430 -0.563146 -0.235769 0.588887 -0.527505 1.033648 -0.110156 0.551091 0.136416 -1.906910 1.706314 -0.569645 0.218458 
mutants -0.082865 1.391954 -1.823274 0.919926 -0.817875 -1.072531 -2.110336 1.016982 -1.929659 -2.147926 1.234998 1.917139 0.668696 -2.663174 -1.787797 2.589579 0.249771 2.978505 -0.640777 0.358975 -0.576177 -1.593405 -2.566351 -0.264515 0.604973 2.141570 0.844007 1.025200 0.960804 -2.082604 0.384150 -0.811117 -3.163781 0.521191 -2.481878 -3.006029 3.043584 0.459077 1.584481 0.285601 0.360904 -1.878202 1.553108 -1.199331 0.067117 1.297002 -0.846223 -1.781581 
nerve 0.633254 -1.428696 1.602451 -0.029311 -1.435478 -2.469327 -0.390424 -0.597864 1.983949 -0.351761 -1.970962 -0.404221 -2.123652 -0.082240 -0.552880 0.586727 -1.041864 0.350746 -0.729809 -0.027171 -1.067006 0.103230 2.775403 1.299258 -0.788369 0.518176 0.100059 -0.329044 -0.158788 -0.423925 1.747193 0.335741 -2.786813 -0.797153 1.731694 0.675378 -1.050915 -0.347910 1.165712 -0.703241 2.864583 -1.137925 -1.496931 -0.981814 -0.412473 0.017670 -0.439096 -1.478441 
chronic -1.267128 0.211981 1.703125 0.232495 0.279431 2.160855 1.697312 0.121649 -0.264759 1.582265 -0.528177 0.065943 -1.481270 -1.336385 2.219640 -1.276541 -1.136274 -1.478746 -0.493945 1.339909 -2.001354 0.505445 0.856288 -1.120111 -0.207564 0.696991 0.248126 1.143514 -0.118950 1.323731 0.089358 1.745241 -0.002255 -0.925585 0.498431 0.187948 -0.855712 0.131732 -1.139759 -0.563633 0.311523 0.653140 -1.259806 0.977359 -1.775030 -0.464808 -0.895959 -0.405174 
type 0.148207 2.910563 -1.700943 -1.215641 1.355179 2.727530 -0.407774 -0.233255 -0.729527 0.283293 1.038614 -1.192908 0.890219 0.222144 -0.795107 0.617879 -1.075319 0.322004 -1.673304 1.110566 -2.029684 -1.744498 -1.012164 -0.960326 -0.632021 0.680006 -0.416590 -1.471006 0.342303 0.632692 0.623478 -0.543499 -1.272737 0.476327 -1.058228 -0.406937 0.358211 1.586914 -1.486168 -0.413988 0.214068 0.508135 0.655398 -1.106848 0.587629 -0.475666 -0.120574 -1.146296 
6 0.168284 -0.805593 0.060748 0.673786 0.747801 2.029150 -1.193665 -0.256050 -1.374571 1.407598 -0.335127 1.151674 0.864429 -2.398332 0.839094 -2.131849 -1.163075 0.537694 1.113827 0.792396 -0.698720 -2.737329 -0.093289 -1.762950 -1.018588 1.432727 -0.481435 -1.670273 -1.548866 0.275130 0.449798 0.022684 -0.775329 2.137372 0.485164 -0.751537 1.069131 -0.573121 2.207333 -1.161654 0.176469 -0.380507 1.001470 -0.150619 1.726280 -0.668211 -1.646913 -1.325075 
their -0.776677 -1.350643 -0.235742 -1.440107 0.299061 -0.148338 -1.365517 -0.912536 -0.837805 0.718221 0.866081 1.105234 1.759342 0.493951 -0.063720 -0.542146 -0.568617 2.067220 -0.177410 0.200059 -1.353989 1.578271 1.304146 1.771096 0.287103 -0.090448 -0.836094 0.995775 -1.370104 -0.050045 0.340631 1.381341 -0.914252 -0.089954 1.584707 -0.288815 -1.347662 -0.577607 1.181123 -0.097268 -0.181243 1.428588 -0.675197 -0.995404 0.026354 0.018267 -0.156406 0.235088 
clinical -0.532998 1.875626 -1.126012 -0.348800 1.462772 1.757419 0.540263 -2.164393 0.172213 1.933077 0.264868 -0.068815 0.360158 0.247166 2.101972 -1.155021 0.128070 -1.246777 -1.259261 -0.145155 -1.434847 0.563564 -0.018207 1.157414 0.921502 -0.748492 -0.726461 2.435619 2.137347 0.330565 0.230776 2.168486 -1.818703 -0.945608 -0.489432 2.040112 -0.319787 0.646164 0.154521 0.390332 2.396935 1.041312 -0.692525 -0.531908 0.128745 0.950013 -0.760124 -1.401980 
proteins -1.131259 -0.342267 -1.850327 -0.646510 -0.474292 -0.401018 -1.293228 -0.549479 -1.286079 -1.163622 2.486915 -0.725778 0.189849 0.318992 -0.032603 1.852027 -0.014811 0.680251 -0.098073 0.083653 -1.324668 0.653818 -0.601473 0.860746 0.793061 0.109328 -0.914526 -0.750697 -0.073809 0.233513 0.166249 1.266407 -0.204509 -0.570961 -0.832187 -0.878977 -0.097921 0.999701 -1.015537 1.481950 -2.531880 0.141894 0.576399 -1.564335 -0.960763 1.429201 0.989970 0.186679 
uptake 1.607668 -1.684985 -0.137876 1.750877 1.494920 -2.971421 -1.133024 0.025412 -1.059479 -0.408092 -0.563639 -0.291907 -1.631810 -0.967062 1.369440 1.541779 -0.642927 0.564116 1.882320 1.206161 0.219568 -0.982168 1.409925 -0.373457 -1.627472 -0.556766 -0.220152 -2.532878 0.206002 1.789936 -1.796866 0.834987 -0.379041 1.336348 -0.286468 -1.492947 0.544967 0.377413 -0.239491 -0.901485 -0.291031 -0.071731 -0.433704 -0.621821 -0.002083 0.896410 0.998744 -0.296880 
immune 0.429633 -0.117744 0.607264 -1.688431 0.511845 3.030537 -0.703224 -1.246716 0.601784 1.867012 -1.237636 3.579237 -0.126361 -0.163540 0.751386 1.630064 -0.377498 -0.026492 -2.942574 0.176713 -1.771241 -0.263347 -0.988449 0.024164 -1.038594 3.412030 -0.471025 0.816532 0.347659 0.970353 -2.620329 1.305367 -2.321695 -1.523358 0.092128 0.358462 -0.599514 -1.854269 -0.550494 -0.686185 -1.271991 -0.783031 -1.102536 -1.614740 -1.142059 0.289784 0.699646 -0.233081 
different -0.689818 0.272236 0.102624 -0.480058 0.355624 -0.526704 -1.510090 -0.031486 0.851217 -0.341755 1.147432 -0.732497 0.172197 1.366384 -0.827264 -1.609254 -0.761954 -0.467960 0.685778 -0.611795 -0.556911 -0.274050 1.201180 -0.286007 0.803984 1.712858 0.834179 1.283944 -1.734319 0.933375 0.860948 1.396676 0.186658 -1.405265 1.347582 -1.564602 1.525678 0.251153 0.416028 0.297347 0.775184 -0.381229 0.002102 -0.955338 -0.079088 0.240362 0.487549 -0.240369 
phosphate -0.882792 -1.459943 1.228180 1.262433 -0.931182 -0.336812 -1.122584 -1.983175 -4.020032 -0.052025 0.194080 0.586268 0.359048 -2.342489 1.249802 0.275091 -0.985875 0.553329 1.270950 0.502575 -1.786900 -1.318847 -0.549316 -2.040981 -1.569809 0.910964 0.183789 -1.861022 -1.027313 -1.124328 -0.048442 -0.124628 -1.228299 1.348271 0.314274 -1.673408 0.500952 -0.277005 1.568514 -0.799154 -0.649232 -1.496765 0.883794 -0.003132 1.838970 0.647704 -1.859503 -0.622667 
temperature 0.248588 -0.542959 -0.030381 -1.173203 -2.002520 -1.833177 -0.562996 -1.730992 1.547335 -0.806879 -0.474594 1.223573 0.028016 0.207475 1.136664 1.550972 0.695835 -0.178572 0.025326 -0.437695 -1.028212 0.151024 -0.025083 -0.394232 1.577608 2.468264 -0.369713 0.940898 0.888434 0.833643 0.143020 0.186613 -0.084515 0.993869 -0.596417 -0.112585 0.939634 0.975098 1.032210 -0.591368 1.054444 -0.558229 -0.174075 -2.260041 0.544515 -0.523144 0.178124 -0.774827 
frog 0.653617 -0.155550 0.132907 -0.725391 -2.940342 -2.756738 -0.759972 0.125951 -1.310149 -1.485703 0.166238 -0.896410 -0.905767 -0.725311 -0.037098 1.626345 -0.172564 0.905544 -0.826398 1.417952 1.097039 -0.100691 1.618418 1.976529 -1.752491 0.382731 -1.595167 0.087385 0.186622 0.790733 0.393439 1.706157 -1.334666 -0.787582 -1.581381 -2.697596 -0.605208 2.718264 -1.302922 -0.270700 3.854608 -1.240859 0.368931 -0.115755 -0.905813 -0.091936 -0.340800 -2.796712 
high -1.769517 -0.303355 0.346609 -1.102999 -1.002317 -0.988711 -0.519703 1.787082 -1.479498 -0.559076 1.649631 -1.012251 0.375552 -0.454385 3.506496 -0.578881 0.292152 -1.533367 -0.094268 -1.777009 -1.595583 0.677875 -0.765694 -0.912821 1.620542 1.220241 -1.491310 1.297160 -0.203465 0.820596 0.749203 -0.056688 -0.294148 0.045613 -1.574365 -0.491139 1.072140 0.480411 -0.950623 0.330128 0.747184 -0.382829 -1.310263 -0.627019 0.668098 -0.789565 0.827656 -0.516286 
dehydrogenase 0.811760 -1.780009 -1.185594 2.255357 -1.376753 0.306997 -0.793301 -0.707857 -3.834415 -1.011269 1.198523 -0.961571 0.941216 -1.822941 0.637520 -0.668788 -1.422248 0.480000 -0.896931 0.524164 -2.661173 -1.452474 -0.140239 -1.483169 -1.819999 1.839125 -1.371175 -4.301682 -1.459069 -1.418995 -0.394653 0.359176 -0.172243 0.730987 -0.269319 -0.596618 0.050186 -1.069777 1.444041 -1.045148 -0.611088 -0.676746 1.604004 0.022683 1.594470 1.586421 -2.088902 0.221035 
vivo -0.132853 -1.004634 -0.422287 0.326789 0.412079 0.538348 0.340133 0.010276 -0.298460 -0.146828 0.212153 0.677733 -0.409983 -0.033174 1.285330 1.441187 1.528618 0.549400 -1.153514 1.749054 0.054423 -0.436556 0.258427 1.800804 0.082681 1.259324 0.779240 0.592668 -0.191966 0.575568 -1.258596 0.342146 0.509467 -1.141953 0.455705 -1.523848 -1.313568 -0.726411 0.004159 -1.654969 -1.187779 -0.083560 -0.981851 0.622093 0.470009 1.615468 -0.971992 -0.247232 
resistance 1.095732 1.093612 0.264299 -1.570678 0.156109 -1.413256 -1.345490 1.807465 -0.512189 2.443023 -1.841433 -0.021426 1.895641 -0.959818 -0.941804 -0.314096 -0.031232 0.098153 1.305628 0.497995 -1.271878 -0.536834 -2.084346 0.087092 1.230677 1.773631 -0.556061 0.709994 -0.763983 0.459052 0.921209 -0.256616 -2.526522 -0.862773 -2.157737 -0.408174 1.298033 -0.057588 0.527204 0.069881 0.292120 -0.225278 1.197930 -2.159299 -2.381943 1.442544 -0.634331 -0.635847 
induction 0.732022 0.786602 -0.004804 0.522569 1.010515 1.470783 -1.143067 0.314774 0.246790 0.984230 0.038494 1.121011 -1.687845 -1.617907 -0.289538 1.762911 0.169055 1.541341 -0.244650 1.249137 0.017432 -0.968204 -0.221384 -0.858002 -0.421322 0.867404 0.779729 0.273467 -0.552356 0.450375 -1.979694 -0.073792 -0.204463 0.247943 -0.386833 -1.447516 0.618521 -0.349770 -0.361453 -0.929790 -1.686058 -0.140686 0.292794 -0.202587 0.240798 0.526314 -0.732777 0.408087 
pressure -1.837493 -1.258602 1.982838 1.017685 -0.288590 -1.189898 0.471080 1.564440 0.744572 1.684924 0.185815 -0.833921 -1.955020 1.864374 2.693274 0.346806 -1.291851 -2.692986 0.060821 2.148466 -2.073186 0.252074 1.267738 1.067937 2.098264 -1.658629 1.239986 1.574352 -0.312767 0.128748 -2.156294 2.646822 -2.641687 -0.660801 1.852555 0.768536 0.719965 0.640929 1.523197 0.175644 0.692661 -0.061494 -1.857327 -1.077566 -0.840130 1.720351 -1.157193 -0.147154 
levels -0.124824 0.061921 1.012898 1.177556 0.637996 0.153293 0.510080 0.439174 -0.847951 0.133151 0.783372 -0.571126 -1.618085 0.341271 1.004333 0.149150 -1.784705 -0.764498 2.121836 1.800337 -0.852502 0.962952 -1.275540 0.165949 1.133031 1.104070 -0.917426 0.601503 -1.237889 0.655205 -1.008513 1.769879 0.464414 0.745535 -0.199468 0.177289 1.446188 -0.341922 0.029302 0.257928 -0.844503 0.565705 -0.743923 0.624929 1.385169 0.988834 0.039045 -1.397642 
pigs 0.796978 -1.064960 -1.684124 -1.135539 -1.284442 3.264516 -0.729613 0.219112 -1.474898 0.919001 -0.424923 -0.036087 1.562457 -2.300553 2.395397 0.119831 -1.377138 0.953654 1.737394 1.932665 1.273242 1.671319 -3.485106 3.681165 -0.030683 0.723625 0.926397 0.489980 -1.137367 0.780919 2.690529 1.610690 -1.399810 -1.803106 -1.815083 -2.101871 1.985059 -1.820561 -2.550117 0.616138 -2.300226 -0.028145 1.632477 0.403665 -2.269055 -0.332688 -3.072002 -3.518779 
fatty -0.407088 -1.159443 -0.282337 0.955522 2.345461 -3.023706 0.380000 -1.953425 -0.804721 -1.831786 3.675585 -1.194727 0.240122 -0.698569 4.636675 -0.317542 -0.313079 0.222339 2.197023 0.904161 -1.663386 2.410524 -0.446605 2.307941 0.904207 0.301528 1.353224 0.344602 1.920728 2.458264 0.078796 1.135890 -1.115398 0.824758 -0.226212 -2.314447 0.112995 -0.443919 -0.158808 -1.277006 -2.724601 0.213663 -0.486168 -0.244683 1.128133 -0.133220 -1.153645 4.009712 
concentration -0.552178 -0.910387 1.184661 0.832151 0.410205 -1.602692 -1.213844 0.292865 -0.435155 -0.428715 0.547563 -1.569527 -1.845139 1.248865 2.259602 1.205006 0.511578 -0.011975 3.085970 0.174891 -1.914974 0.038859 -0.134414 0.068664 0.111825 1.238770 -1.369495 -0.330989 -0.922086 0.548383 -0.941115 0.919722 0.143323 0.040538 -0.245557 -0.030599 0.009420 1.302267 -0.924834 0.389341 -0.268591 -0.448232 -1.080749 -0.441545 1.087794 1.750206 1.251443 -0.153465 
evaluation 1.470999 1.485414 -1.022605 -0.019961 0.837031 1.699346 -0.761487 -0.956700 0.307509 1.073810 1.039339 -1.797842 -0.626673 -1.371616 1.807321 -1.196384 2.140157 -1.415924 1.501483 -0.147566 -0.245970 -1.316597 -0.342100 -1.105526 1.748012 -0.115884 -1.005901 0.923829 0.997846 0.044099 -0.189827 -0.205944 -0.342909 -0.672848 -0.231741 1.302727 -0.398212 0.079038 -0.605465 0.628780 0.838076 -0.381770 -0.928950 -0.853402 -0.048501 1.474533 0.066465 -0.092343 
leukemia -1.365651 0.872655 0.033163 -1.293617 2.227464 2.907318 -0.496793 1.051813 -0.618955 1.077652 -0.261533 0.714831 -2.000358 -0.878674 -0.161010 0.266249 -1.767170 -1.602158 -2.960109 -0.004053 -1.858735 -0.379433 -0.381647 -0.671798 -0.015694 2.131533 0.173451 0.756771 1.801177 1.363352 0.047577 0.199930 -0.245479 -1.419835 -0.264027 -0.784292 0.297768 0.477274 -2.348781 -0.148533 -1.340940 1.618409 -1.752353 -0.100755 0.523276 -0.702772 -0.458338 -0.114807 
following 0.374997 -0.995423 1.238148 -1.515360 0.492507 -0.297518 0.378410 1.197888 1.713473 1.581528 -0.716647 -0.304470 -0.764971 -1.652199 -0.105899 -0.706642 -1.360547 -1.919451 0.490753 0.886365 1.751930 1.345850 0.893991 -0.465958 1.623954 -0.517490 0.333267 1.023741 -0.563861 1.866490 0.657273 0.369317 0.164618 1.218772 1.340349 -0.082410 0.599782 0.854308 -1.669708 -1.197337 0.486665 0.888621 -0.587986 0.581106 0.163710 0.322709 -0.793151 0.372368 
model 1.567065 1.524075 0.142321 0.499823 -1.230260 0.523169 -0.701811 0.256555 0.539805 -0.187814 0.680363 -0.988041 -1.148925 -1.286213 0.838979 0.217827 3.957205 -1.159382 -0.717001 0.108991 -0.514543 -0.402286 1.743001 -0.889241 -0.774241 -0.339518 0.320274 -0.086209 0.724816 -1.365190 -1.004225 -1.496707 -0.638341 -0.608696 0.311895 0.058909 -0.834991 0.093725 -0.274611 1.525255 -0.138151 -0.409562 -1.863355 -2.660076 0.180298 2.610601 -0.918991 -1.006278 
kidney -1.530400 -1.076206 -0.554146 0.540159 0.179388 0.490498 -1.364877 -1.554283 -0.592433 -0.191220 0.543579 0.732450 -2.807928 -1.045501 -0.511321 -0.145190 -0.855914 -1.249629 0.976035 -0.275637 1.179239 0.751570 0.057241 -0.871227 -0.943940 0.097088 -0.931382 -0.898533 -1.759365 0.202304 0.664598 0.994977 0.856172 -2.016936 1.453725 -0.931888 -2.136385 -1.363073 0.603050 -0.677988 -0.838213 -0.565774 -1.599707 0.631211 -0.208366 1.303136 -1.243800 1.850883 
biosynthesis 1.148829 -0.850979 0.109623 1.854425 1.452188 0.122563 -0.334811 -0.383711 -0.773385 -0.513565 0.755330 -0.389801 -0.541750 -1.510937 0.025454 0.856184 0.564441 1.793420 2.495155 0.208846 0.288809 0.294973 -0.564408 0.808921 -1.124158 1.262216 0.491394 -1.675498 -0.244578 0.826054 -1.941614 -0.605501 0.362012 -0.685101 -0.744608 -1.177360 0.235233 -0.341114 1.112636 -1.691080 -2.519746 -1.896006 -0.965035 0.275677 1.445691 1.399845 -0.935149 -0.155453 
flow -0.378188 -1.156161 1.925389 2.266374 -0.658128 -1.908243 0.121328 -0.752651 0.649325 1.054981 0.185998 -2.262362 -1.232654 1.708882 1.915247 0.485641 0.423856 -2.535629 -0.439008 2.118770 -0.987980 -0.096028 1.785858 1.360839 0.554269 -1.693794 1.260093 -0.423772 -0.271011 1.335557 -0.643190 2.552876 -1.671270 -0.971741 1.018024 0.821548 -0.439689 0.309483 1.059866 -0.068933 0.417572 0.498140 -1.444058 -2.019064 -0.943084 3.247196 -0.170781 -0.609151 
membranes -0.920528 0.273596 -0.086994 1.060400 -2.331006 -0.490385 -1.837954 0.696352 -1.478995 -2.022358 1.436309 0.644765 -2.122535 1.869364 0.492133 2.943015 0.112409 1.148429 -0.532228 0.690964 -1.531194 0.078199 0.242003 0.374952 -2.234474 -0.189346 -0.323127 -1.703597 -0.127900 -0.248624 0.413854 1.076728 -0.608311 -0.232836 0.695143 -1.144600 0.229801 1.196864 -0.764858 2.437826 -0.430881 -0.857854 -0.716814 -1.024901 -0.760695 2.975760 0.982039 -0.419711 
associated -1.393037 0.491714 0.682930 -0.087038 -0.505420 1.175186 -0.066201 2.248463 1.166702 0.141495 1.171289 1.274055 -0.621851 -1.396505 0.386252 -0.738166 -1.021787 -0.690529 0.262590 0.100961 -1.400443 0.409975 -0.310764 -2.601903 -0.671265 0.872135 -0.335387 0.964302 0.183790 -0.501243 1.431648 -0.639092 -0.778006 -0.323528 0.720980 -1.126656 0.070388 -0.657230 -2.445143 1.278911 -0.460781 1.729418 1.152879 -0.208695 0.490392 1.029512 -1.977096 -0.474567 
n -0.884591 -0.344205 -1.385285 0.878065 2.692214 0.812644 -0.445856 -1.908258 -0.559623 -1.190403 1.516165 0.549682 0.746145 -2.132613 0.654923 1.245658 -1.050361 0.738175 0.578524 0.106199 -0.222244 -1.142978 0.689943 -0.591226 0.384278 -0.154142 0.873519 -1.806893 0.109212 0.300917 0.390244 -0.228038 -0.229838 1.485555 0.114583 -1.619244 -0.016438 1.016563 0.936821 1.227207 0.051668 0.025549 0.828088 0.246413 2.170144 -0.066135 -0.255342 -0.189652 
cerebral -0.411747 -0.985664 0.949999 1.032022 0.788916 -0.721886 -0.519003 -1.138273 0.202304 0.302662 -1.381301 -0.132362 -2.505274 0.132429 -0.566835 -0.710521 -2.233887 -0.962460 1.036371 1.026086 0.285274 0.264743 1.425722 0.863909 -0.028668 -1.430777 -0.288598 0.121447 -1.769283 0.548410 0.749477 1.747234 -1.854357 -0.452265 3.039377 -0.455023 -0.257222 -0.253494 2.400837 -0.195333 0.341906 -0.745873 0.395605 -0.879728 -0.519306 0.616105 -1.346951 0.518609 
reaction 0.482565 0.274011 1.212420 -0.800972 2.539345 1.708857 -0.976659 -0.317198 -0.401366 0.177838 -0.114411 0.373221 -0.200501 -0.979792 0.344866 1.403822 -0.222612 1.030838 0.021848 0.798055 -0.716956 -1.075290 -0.714575 -0.747195 -1.203190 -0.207699 -0.945435 -0.170900 -0.614849 -0.093842 -0.318245 -0.371775 -0.501952 -0.538880 0.625651 -1.329319 -1.344150 0.340071 -1.314094 1.440874 -0.658671 0.665378 -0.165614 -0.144562 -0.319534 1.532653 -1.070802 -0.522129 
smooth -0.003189 -1.183354 1.783173 -1.927354 -2.886109 -2.247676 0.618228 -0.822421 -1.806184 0.043347 -0.224381 0.233575 -1.931385 0.286258 0.742621 0.586066 -1.324598 -1.052968 -0.021804 2.134739 -0.110104 -0.706318 1.606966 2.429471 -1.065039 1.163460 -3.329174 -2.663706 -0.337587 0.548569 0.342059 1.786309 -1.915897 -2.739294 0.246356 -2.254940 -1.053623 -0.004732 -2.063250 -1.173533 2.157313 -1.436555 -1.789138 0.700208 -1.686408 1.133206 0.398976 -1.023285 
use 1.105319 -0.213941 0.572852 0.386353 1.544691 1.487712 -0.340277 -0.393858 -1.308733 -0.092865 0.291130 -1.244586 -0.547346 -0.891469 1.996198 0.411970 1.513636 -0.998764 0.584472 -0.195947 0.312074 -1.477222 -1.314514 -0.809906 -0.214623 -1.647026 0.250982 0.456159 1.312472 -0.228395 0.454834 0.978486 -0.835819 0.071333 -0.910574 0.138798 0.498956 0.125428 0.561407 1.333032 1.633347 -0.092558 -1.063685 0.048232 0.419907 1.315352 1.108230 -0.404085 
genetic 0.804622 1.653962 -0.353079 0.151240 -0.024040 1.236466 -0.145619 -0.058975 -0.303914 0.191812 1.200523 1.669795 2.498481 -0.523543 -0.661474 -0.138195 2.490764 0.737247 -2.242808 -1.379038 -1.735172 -0.623086 -0.622579 0.569994 -0.232728 0.213834 1.291574 0.727133 1.801180 -1.423030 -0.196026 0.272811 -2.465984 -0.649056 -0.120946 0.325951 0.837765 -0.520551 2.006284 0.153130 -0.257245 -1.381098 -0.043463 -1.872836 0.507295 2.044435 0.183579 -0.010168 
neurons 1.262432 -1.095965 -1.677361 0.359862 0.226666 0.430597 -1.686700 -0.794084 1.302662 -0.314754 -1.186117 -0.060210 -2.601851 -0.758106 -1.959798 0.622515 1.098162 1.987962 -1.083242 1.570260 -0.120071 0.162194 2.750418 1.708576 -1.224731 -1.284227 -0.048929 1.368616 -1.643900 -0.252166 1.320216 0.929708 -2.661687 -1.241267 0.960938 -0.848083 -0.044469 0.879130 1.760441 -0.389589 3.032653 -0.278850 -0.456914 -1.183861 -0.231650 0.579853 -1.605211 0.310958 
kinetics -0.353417 -0.412369 0.823580 0.009316 -0.216064 0.051427 -1.185945 -0.564553 0.522303 -1.274387 -0.003980 0.032420 -0.641768 0.212260 0.729685 1.806704 -0.432254 0.952838 0.420678 -0.038083 -0.526266 -2.071764 0.270855 -0.291311 -0.451171 0.586560 0.100867 -0.657319 0.398994 0.146033 -0.036639 -0.569322 0.227845 0.434136 0.576231 -1.189037 -0.784842 1.253048 -0.457255 -0.350758 0.611250 -1.093821 0.065472 -0.419156 0.276615 1.363891 1.144541 -0.083677 
group -0.312308 1.003935 -0.803244 0.538509 0.318262 1.957608 -0.610715 1.138299 -0.489207 -0.186318 1.734310 -1.081956 1.991260 1.009269 0.802436 0.194989 -0.523205 -0.418931 -2.912632 1.548217 -1.254154 -3.975483 -1.440670 -0.066978 0.738914 -0.854062 1.561007 -2.208710 -0.008154 -0.792458 -0.084767 0.858248 -3.115948 -0.529771 0.198951 -0.723507 0.545380 0.373098 -1.169022 0.989276 0.862543 0.100879 1.154249 -1.765490 0.224525 1.168077 0.612711 -0.504537 
into 1.247449 -2.193202 0.394685 1.590541 1.048434 -2.176361 -1.716153 0.843733 0.370371 -0.635917 0.028969 -1.247047 -0.658086 -0.842205 -1.396445 -1.819753 -1.755050 -0.194611 0.788020 0.426812 1.562881 -0.212514 0.956057 -0.374898 -0.411601 -0.100209 0.421655 -2.368386 -1.251669 1.307441 1.038988 0.337823 0.467343 1.280684 0.815379 -0.606528 -0.993589 2.001529 -1.141382 -1.080550 -2.009503 -0.072169 0.326504 -0.364987 1.101728 1.384857 0.366736 -0.099448 
infected -1.319625 1.208541 -1.110371 0.408905 -0.386380 1.143868 -1.944345 1.581572 0.097328 0.623893 1.477114 3.304777 0.422923 -2.636260 -0.446671 -0.923664 -3.513537 -1.252677 -3.026663 1.654902 0.103673 -0.931200 -1.501831 -0.788365 0.367703 2.143883 -0.703064 -1.646223 0.872052 1.520776 2.140385 -0.379176 0.055024 -1.510300 0.473290 -2.504128 1.273030 -1.510968 -1.817549 -0.606332 -1.991574 1.240335 0.223396 -0.449813 0.059652 0.203520 -1.873194 -0.279951 
culture -0.050442 0.659002 0.011258 -0.091772 0.427729 1.812424 -0.702409 0.408173 -0.533468 -0.698545 2.099511 -0.018563 -1.458628 0.328210 -0.840072 1.614988 0.283206 -0.704082 -2.379696 0.234127 -0.131854 -0.128087 1.602490 0.164549 -2.418416 1.754567 -0.042975 -1.910715 2.700679 2.037764 -0.099487 0.889599 0.998211 -1.330429 -0.237225 -0.617237 -0.543593 -1.862789 -0.198573 -1.019917 -0.744195 0.794315 -2.836151 -0.112776 0.029247 1.271926 -0.868698 -1.205936 
characteristics 0.117146 2.141240 -1.171797 -1.004975 -0.403715 0.487785 -0.406429 0.150580 1.253211 -0.680943 0.420377 -0.959709 -0.687350 0.786853 -0.813095 0.827587 0.868681 -0.216239 -0.220060 0.464062 0.681619 -0.070640 -0.695984 -0.214512 0.514079 0.417497 -1.255234 0.047989 0.765589 -1.151954 -0.484779 -0.226634 -0.458687 0.128488 0.463292 0.561248 0.507220 0.629449 -0.733588 -0.225706 1.449178 -0.443509 0.320237 -1.217758 0.609552 1.353353 0.542734 -0.204727 
syndrome 0.752406 0.976582 -0.570050 2.435948 -0.334459 2.480013 1.265899 0.470880 -0.006070 1.229867 0.208352 -0.208701 -0.503052 -2.344721 -0.716879 -2.151318 0.827610 -1.945086 -0.859018 0.518745 0.282293 -0.082008 -0.076880 0.619281 -0.742928 0.642236 -0.522253 1.251348 1.514060 -0.717597 -0.013984 1.827484 -0.894981 0.069776 -1.096267 0.396066 -1.306588 0.161788 0.275356 -0.549981 -0.155015 1.060790 0.648495 0.593579 -0.007754 1.002976 -2.155466 -1.789475 
dog -0.164394 -0.783211 0.295631 0.984530 -0.553889 -1.108294 1.240705 -0.215329 0.651882 -0.476951 -0.316358 -1.370630 -2.393835 -0.439504 1.331251 0.023794 0.101547 -0.411974 0.392392 1.625678 -0.068843 1.746035 1.070006 1.415409 -0.842317 -1.175532 -0.425570 0.267176 -0.347674 0.044107 -0.122171 2.843866 -0.568582 -0.356376 0.493618 -0.151275 -1.932986 0.215268 0.283918 -1.664989 0.731088 -0.563606 -0.559309 1.183422 -2.009992 1.184302 -1.568475 -0.212809 
swine 0.948045 1.980127 -1.780008 -0.180164 0.681045 2.794394 0.649087 -1.957173 -1.486438 1.602761 0.265313 0.153534 0.427168 -0.169134 0.436044 -0.615788 -1.069757 -1.637281 -1.671340 1.289080 0.565544 -0.161654 -2.411115 1.401931 -0.693796 -0.025331 0.104420 -0.377273 -0.818826 1.522666 0.729648 1.080167 -0.212120 -1.755454 -0.407554 -1.619523 1.080679 -0.163854 -1.954430 0.123177 -0.712025 -0.527055 1.237298 -0.765997 -0.844263 0.530109 -2.248486 -0.791931 
ribonucleic -0.478671 -0.171628 -1.191463 -1.981766 2.882497 -0.644205 -1.325702 -0.654186 -1.890346 -2.227240 4.160411 0.960297 0.397785 -2.339416 0.959274 0.834443 0.773590 1.108343 -1.099594 -0.166933 -1.094784 1.923104 -0.536550 1.140345 1.191253 0.058031 1.539973 0.312472 1.733120 1.452591 0.216938 -0.210667 -1.944968 -1.198232 -0.240991 -3.779850 1.354980 1.125276 -0.653628 -3.288976 -3.084758 -0.390705 0.080966 1.599375 0.709959 -0.722825 -0.961991 3.575758 
therapy 0.652652 -0.394479 0.716734 1.169590 0.685683 1.663957 0.272678 0.218276 -0.556081 1.272886 -0.641914 -1.434667 -1.589107 -1.971426 1.699978 -1.275501 0.006239 -0.959946 0.713528 0.788462 -1.167029 0.935927 -0.764080 -0.870267 0.576631 -0.056488 -0.303373 2.461133 1.972959 1.350749 -0.288460 1.311536 -0.129045 0.577680 -2.024993 0.846674 1.748275 1.155728 0.725875 1.044421 0.990952 0.961725 -1.956983 -0.312679 0.288039 -0.742477 -0.398573 -1.544408 
potential 0.811043 -0.773707 0.747997 -1.270116 -1.700344 -1.354566 -1.928326 0.596687 0.422187 -0.917097 -0.175528 0.657780 -0.607586 0.495284 0.077483 1.720632 1.050406 -0.529781 -0.463075 -0.180457 -1.009331 -0.460939 2.000435 0.546799 -0.916169 1.127580 -0.436847 1.112659 0.182374 -0.522978 0.759860 0.329272 -2.553352 -0.222605 -0.386956 -0.564786 -0.755900 0.833294 -0.367290 0.755814 2.011639 -0.365630 0.090800 -1.549305 1.089252 1.085629 0.016796 -1.571053 
tissues -0.855292 0.263046 -0.950250 1.510148 0.104013 -0.325135 -0.212124 -1.010933 -1.308577 0.714480 0.881827 -0.402442 -1.494675 -0.062738 -0.086890 0.564428 -0.908382 -0.570053 -0.949654 0.014557 0.024892 0.174473 -1.503649 2.500901 0.601657 0.793749 -0.216068 -1.102356 -2.439174 0.051612 0.022996 0.455502 -0.039940 -0.734135 1.202038 -1.493893 -0.547268 -0.946040 -0.323763 0.188259 -0.869629 0.651115 1.209305 0.510373 0.180303 0.592314 -0.834746 0.773165 
noradrenaline -0.113476 -2.839852 1.212849 -0.234028 0.865473 -1.565956 -0.720149 -1.610138 -0.169514 0.047142 -0.354270 -0.844993 -2.627692 -0.740664 1.847407 1.308093 -2.844496 1.281581 2.279881 0.327147 -0.623891 -1.409764 1.910038 1.230661 1.517392 -0.631810 -0.038919 0.025122 -1.719908 -0.046593 -0.703434 2.100051 -1.551310 1.595353 1.170413 0.293295 -1.478158 -0.192594 1.619379 -1.325252 0.246409 -0.351268 -1.590317 -1.301099 -0.134297 -0.952700 -2.405746 -2.087475 
erythrocytes -1.420428 -0.511260 0.416329 3.023426 0.377103 1.111007 -1.275206 0.236446 -0.001512 0.716557 0.977129 1.198422 -1.269821 2.042832 1.138378 1.139228 -1.242511 -0.549851 -1.488719 -0.738860 -2.577352 -1.635102 -1.108189 1.199355 0.261494 1.451360 0.199529 -1.379129 -0.404303 -1.038041 1.469328 0.044171 -1.429744 -1.164502 0.348530 -1.039827 0.559841 -0.609558 -0.347646 0.885694 -0.967907 -0.031573 -0.784733 -1.258676 0.290717 0.695164 -0.550965 1.421733 
antigens -0.740461 1.276091 0.258711 0.421957 1.013957 2.898190 -2.412492 0.726687 -1.286602 1.017819 0.532923 -0.116301 -0.616363 1.322216 -0.466020 0.799612 -0.690259 0.749515 -2.698031 0.806725 -1.784449 -1.831544 -2.130173 0.364739 -0.053253 2.061055 0.236986 -1.161463 -0.372546 0.187671 0.413417 0.028543 -0.994276 -0.925736 -0.548792 -1.081632 -0.240199 -0.621502 -1.378766 1.720729 -0.671114 1.436146 0.106679 -2.131330 -0.081129 1.198530 1.648716 -0.489524 
peripheral -0.285397 0.686439 1.080756 1.375668 -0.557416 0.256844 0.120881 1.366818 1.169054 0.993125 0.333429 -0.117214 -2.182335 1.727672 1.056772 -0.158694 -2.032621 -1.355726 -0.098519 0.814880 0.518360 -1.309791 0.426934 0.815243 0.194573 -0.109093 0.838649 -1.003160 -0.679012 0.390516 -1.382387 1.640478 -0.553212 -1.541642 1.426355 0.391565 0.444838 -1.202606 -0.980030 -0.460603 0.301762 -0.034767 -2.100557 -2.056872 -0.750226 0.943522 0.156694 -1.022188 
children -0.616433 0.838131 0.087184 1.333009 -0.091890 2.513966 0.696779 0.373516 -0.758408 0.287727 0.806179 -0.594259 -0.980116 -0.789085 1.778620 -1.130693 0.119829 -2.067757 -0.112246 1.705404 -0.610477 0.507033 -1.064982 -0.867812 0.732037 0.316978 -0.533477 3.003513 0.537240 0.536426 1.076631 2.500585 -0.124224 0.696296 -1.280112 -0.368421 0.790782 -1.093695 0.373208 -0.260181 1.498983 1.118636 -0.104074 0.506077 0.371611 0.037508 -2.392477 -1.743162 
